<?xml version="1.0"?>
<opencv_storage>
<opencv_ml_svm>
  <format>3</format>
  <svmType>C_SVC</svmType>
  <kernel>
    <type>LINEAR</type></kernel>
  <C>1.</C>
  <term_criteria><epsilon>1.1920928955078125e-07</epsilon>
    <iterations>1000</iterations></term_criteria>
  <var_count>4725</var_count>
  <class_count>2</class_count>
  <class_labels type_id="opencv-matrix">
    <rows>2</rows>
    <cols>1</cols>
    <dt>i</dt>
    <data>
      0 1</data></class_labels>
  <sv_total>1</sv_total>
  <support_vectors>
    <_>
      1.01113495e-04 1.40809556e-04 8.97812133e-05 9.82073107e-05
      8.71786397e-05 6.74742259e-05 3.55882512e-05 7.35179419e-05
      6.28475900e-05 5.17537592e-05 5.93063742e-05 -1.03857956e-05
      -1.50283113e-05 -1.79638737e-05 -4.51472151e-05 -9.08056318e-05
      -1.07709719e-04 -1.03174338e-04 -1.20312412e-04 -1.09388573e-04
      -1.02308339e-04 -4.92910076e-05 -1.39010390e-05 -9.80606637e-06
      5.37342794e-06 4.83619488e-06 1.00444322e-05 8.80161042e-06
      8.50257675e-06 4.93087282e-06 6.26765495e-06 2.37833901e-05
      2.54541574e-05 7.24378333e-06 1.45383137e-05 4.12320514e-05
      5.48161224e-05 6.30759969e-05 7.83096766e-05 9.75911244e-05
      1.44554957e-04 1.82276272e-04 1.89746526e-04 2.28713339e-04
      2.77820684e-04 3.54372576e-04 2.85188784e-04 1.40222401e-04
      2.95405880e-05 5.45193507e-05 4.68097678e-05 2.58095242e-05
      1.40599195e-05 3.70773778e-05 3.86502579e-05 3.74908450e-05
      3.41834420e-05 1.22021465e-05 5.26566907e-07 5.53437644e-07
      1.20273239e-06 1.86510681e-06 2.36625169e-06 2.92839195e-06
      3.99167720e-06 4.42744977e-06 4.52797622e-06 4.46899776e-06
      4.44488069e-06 4.44488069e-06 4.47568391e-06 2.91096103e-06
      6.22333391e-06 9.05074103e-06 3.94704375e-06 0. 7.56724106e-08 0.
      5.15554852e-08 0. 3.05053675e-07 1.22021470e-06 5.85912903e-06
      2.74973172e-06 3.92195352e-06 3.84928126e-06 3.35605523e-06
      5.09495567e-06 6.25506846e-06 6.37475478e-06 5.52934307e-06
      5.20149479e-06 5.15505371e-06 4.08633277e-05 4.31011467e-05
      3.09839452e-05 8.62999332e-06 3.78184950e-06 5.22710388e-06
      8.27251351e-05 6.59015277e-05 4.68485132e-06 4.33003925e-06
      4.92119761e-06 4.40964914e-06 5.03940282e-06 5.98058250e-06
      5.57547537e-06 6.20320270e-06 7.60331568e-06 9.25157656e-06
      1.08341137e-05 1.25431307e-05 1.41973414e-05 1.42951558e-05
      1.35729570e-05 1.33898138e-05 1.32845880e-05 1.28824331e-05
      1.81792620e-05 3.76288808e-05 3.36113881e-05 -7.65569130e-05
      -6.52971867e-05 -1.44648788e-04 -2.17447596e-04 -5.56868581e-05
      6.79693621e-05 1.49418760e-04 1.48129649e-04 1.26731495e-04
      2.97030147e-06 -2.96612552e-06 -8.55935752e-07 7.66578250e-06
      5.57562635e-05 6.00400672e-05 5.45382900e-05 1.21818077e-04
      1.52519409e-04 7.89710102e-05 2.51028723e-05 3.30255825e-05
      8.26458199e-06 -4.22109952e-05 -6.33712334e-05 -2.68308650e-05
      -8.33330796e-06 1.91631966e-06 -4.29331021e-06 -7.36179427e-05
      -1.28536994e-04 -1.37987692e-04 -8.61206354e-05 -4.99800481e-05
      -5.50921177e-05 -2.27724850e-05 -1.54189111e-05 1.73236167e-05
      2.40329227e-05 1.42598092e-05 8.07125980e-06 8.02981594e-06
      9.40666268e-06 7.48414868e-06 2.65539002e-05 3.74618212e-05
      2.65929393e-05 3.26856680e-05 5.68157448e-05 4.45802834e-05
      7.73939319e-05 1.26933955e-04 1.65585836e-04 2.07924269e-04
      2.06212426e-04 2.10613987e-04 1.93959917e-04 2.23483206e-04
      2.34931460e-04 2.14870044e-04 1.10893801e-04 1.64693010e-05
      1.11765903e-05 3.26731169e-05 2.99391559e-05 1.64502089e-05
      7.32482306e-07 3.66037784e-05 3.93779883e-05 2.78661282e-05
      1.10160563e-05 3.50811706e-06 1.22016331e-07 3.65550409e-06
      1.01182750e-05 2.18323999e-06 2.54491215e-06 3.95246389e-06
      4.52797622e-06 4.48642868e-06 4.44488069e-06 4.44488069e-06
      4.65930589e-06 4.41001885e-06 4.13471071e-06 5.04805439e-06
      7.42890097e-06 1.02381973e-05 4.81954839e-06 6.89863882e-08 0.
      3.48618094e-08 1.33913915e-07 3.33873480e-08 5.22927159e-08
      8.69333576e-07 3.26833310e-06 3.41645728e-06 3.59057594e-06
      4.77401773e-06 6.28993030e-06 6.01740840e-06 5.50290906e-06
      5.02384682e-06 4.95997483e-06 4.32661045e-06 2.51363690e-05
      4.26101797e-05 3.74244009e-05 1.61519602e-05 4.13558519e-06
      4.44099396e-06 4.15900877e-06 8.92782009e-06 8.84568508e-05
      5.99563609e-05 6.48895139e-06 7.04288641e-06 7.87261706e-06
      7.50472918e-06 7.38741710e-06 9.52123173e-06 9.79714787e-06
      1.12853149e-05 1.25618317e-05 1.31767447e-05 1.39100612e-05
      1.35659739e-05 1.25706674e-05 1.16697720e-05 1.08159684e-05
      9.83963582e-06 1.14238501e-05 1.64435842e-05 3.53400210e-05
      3.87661239e-05 -9.62268314e-06 4.41944358e-05 -1.61873340e-05
      -1.22246594e-04 7.46062142e-05 7.00924647e-05 4.01286452e-05
      -1.51333825e-05 6.29963542e-05 -1.43036468e-05 -9.24816561e-07
      -5.99990187e-07 9.51075776e-07 5.35227082e-05 4.56194866e-05
      3.66789573e-05 7.29769745e-05 4.71954954e-05 2.25255953e-05
      3.30036273e-05 1.26305349e-05 -2.38771872e-06 -1.41114670e-05
      -5.14576168e-05 -2.37831300e-05 -4.24900354e-05 -1.07663007e-04
      -1.07427921e-04 -1.04180188e-04 -9.54489878e-05 -6.73567556e-05
      -6.72003007e-05 -7.88592024e-06 2.06829850e-06 3.09038160e-06
      1.38308487e-05 2.41226116e-05 2.61273763e-05 4.03691774e-05
      2.53666985e-05 1.02548447e-05 2.76401879e-05 4.19919270e-05
      1.98398793e-05 2.66409843e-05 7.09275409e-05 1.11682857e-04
      9.47884982e-05 1.21694240e-04 1.65790625e-04 1.54697758e-04
      9.98633404e-05 1.86037112e-04 2.32561055e-04 1.73338325e-04
      1.53461893e-04 1.41271536e-04 9.72454582e-05 5.61283523e-05
      2.07122048e-05 3.57737772e-05 1.18169210e-05 2.92816708e-06
      7.03159867e-06 4.32353318e-06 3.09656542e-07 3.87477339e-05
      3.94153831e-05 2.22206236e-05 0. 7.66120320e-06 7.03363958e-06
      1.25848637e-05 2.27220953e-05 2.05684682e-06 3.43388820e-06
      4.61410127e-06 4.41001885e-06 4.48642868e-06 4.48642868e-06
      4.44488069e-06 4.44488069e-06 3.38159566e-06 4.57097030e-06
      8.44901297e-06 1.04867468e-05 1.05946965e-05 5.23018798e-06 0.
      1.42074398e-07 6.67746960e-08 0. 5.22927159e-08 8.14901227e-07
      1.88106333e-06 3.08574477e-06 5.07826189e-06 6.67845234e-06
      6.05227024e-06 5.59619002e-06 5.23014069e-06 4.78854236e-06
      4.47913771e-06 4.25688722e-06 1.26648401e-05 4.08246633e-05
      4.10697940e-05 2.74402573e-05 4.23491838e-06 4.07988546e-06
      4.22087351e-06 4.72746433e-06 6.00266230e-06 1.43659818e-05
      9.18713777e-05 5.31790756e-05 7.63825210e-06 7.92630362e-06
      8.22003676e-06 1.02450504e-05 1.07119131e-05 1.16955443e-05
      1.30763738e-05 1.45778358e-05 1.46668172e-05 1.43673933e-05
      1.37672305e-05 1.31041797e-05 1.21449848e-05 1.11583349e-05
      1.01281166e-05 1.22170131e-05 1.84724649e-05 3.60737649e-05
      2.92923833e-05 -2.92705590e-05 -1.12586131e-05 -1.20756536e-04
      -2.14940956e-04 -4.83315453e-05 3.29700451e-05 -9.43473133e-05
      -9.91277848e-05 6.34223325e-05 5.18617635e-05 -6.80826815e-06
      2.49797131e-06 3.02235065e-07 4.20018769e-05 3.63971012e-05
      2.83317895e-05 2.22237177e-05 6.62381171e-06 -9.90849458e-06
      -1.76551112e-05 -6.61670265e-06 -1.23535247e-05 2.98931559e-06
      -2.59075659e-06 -2.20913280e-05 -6.75814154e-05 -7.08963707e-05
      -1.03692000e-04 -5.23827184e-05 -4.36817099e-05 -2.16743247e-05
      -3.93391656e-06 -6.10498532e-08 1.49410084e-06 1.76398862e-06
      1.21903404e-05 2.44791172e-05 2.80905097e-05 5.67653951e-05
      7.80672417e-05 7.92326755e-05 7.40502364e-05 7.54306748e-05
      6.78185606e-05 9.32286785e-05 8.45009708e-05 9.96588205e-05
      9.56368822e-05 9.80241020e-05 1.07973086e-04 1.04975901e-04
      1.23996375e-04 1.68993545e-04 1.39118216e-04 8.03743314e-05
      8.21973881e-05 5.10403115e-05 2.50645789e-05 3.09156458e-05
      4.15882569e-05 2.00936156e-05 7.34103423e-07 1.00002501e-06
      3.69982274e-07 5.28104351e-07 1.04765638e-06 3.95587886e-05
      3.89982160e-05 1.84912933e-05 4.57580484e-07 2.99257445e-05
      2.80431286e-05 3.07363189e-05 3.08931449e-05 7.97409393e-06
      4.91915489e-06 4.42744977e-06 4.46899776e-06 4.44488069e-06
      4.44488069e-06 4.48642868e-06 3.51029780e-06 1.98712314e-06
      3.31188608e-06 8.68349616e-06 1.04459359e-05 1.05880108e-05
      6.06598314e-06 1.92155426e-07 1.66936740e-08 1.74309047e-08
      1.83622220e-07 3.65311763e-07 1.88669844e-06 4.77691992e-06
      6.22241851e-06 6.32246201e-06 5.52934307e-06 5.05870867e-06
      4.72317015e-06 4.40941403e-06 4.29870215e-06 4.42839109e-06
      3.27196017e-06 3.18354541e-05 4.16639450e-05 3.56995442e-05
      1.17058735e-05 3.92170068e-06 4.71446765e-06 4.50333391e-06
      4.99566295e-06 4.62264734e-06 5.44892282e-06 2.14603715e-05
      9.53531999e-05 4.36971932e-05 7.70575843e-06 9.28730606e-06
      1.08819313e-05 1.24226790e-05 1.32289670e-05 1.41837627e-05
      1.43930902e-05 1.43708530e-05 1.51844288e-05 1.46333050e-05
      1.47482551e-05 1.36461085e-05 1.29168166e-05 1.12368616e-05
      1.46510738e-05 2.54094266e-05 4.33813548e-05 3.36541416e-05
      3.81760583e-05 3.38785903e-05 -3.75940253e-05 -1.55107991e-04
      -8.22365619e-05 -3.43171087e-05 -8.46623007e-05 -8.41785877e-05
      1.31352635e-05 -6.66701308e-05 -1.51586737e-05 -3.06139850e-06
      -1.98473845e-06 2.39806759e-05 1.76752728e-05 8.80964126e-06
      -6.90262198e-07 -2.57355623e-07 -1.64186815e-06 -1.16176318e-06
      -2.74103695e-06 -4.31201386e-07 -1.22358813e-06 -8.13780105e-07
      -1.91577237e-05 -1.54631762e-05 -1.08542035e-05 5.20783078e-06
      -4.21344203e-06 -1.01891455e-05 -7.16604177e-07 1.95302323e-06
      2.01788635e-06 6.59175157e-07 2.87161601e-08 4.31254603e-06
      2.23268421e-06 -1.15837429e-05 2.50408448e-05 7.57138550e-05
      1.33590162e-04 1.22331403e-04 1.51418222e-04 1.55256246e-04
      1.28941683e-04 1.35383554e-04 1.04273626e-04 1.05107836e-04
      2.94133733e-05 4.72704196e-05 7.22844998e-05 1.01581762e-04
      8.21389913e-05 4.70070336e-05 2.72287380e-05 2.32257735e-05
      8.83422763e-06 2.38020925e-06 8.37868720e-06 6.11196083e-06
      4.29120018e-06 2.42014863e-07 2.26166861e-07 7.65568700e-07
      3.78380349e-07 7.26911310e-07 3.93587761e-05 3.91110116e-05
      1.58003877e-05 2.07696402e-07 3.87984583e-05 3.88943408e-05
      4.04108323e-05 3.83182305e-05 1.17821255e-05 4.46157446e-06
      4.71507246e-06 4.46157446e-06 4.45751539e-06 4.48642868e-06
      3.66048994e-06 2.12657051e-06 4.88065325e-07 2.49286973e-06
      7.82173720e-06 1.00879624e-05 1.03787970e-05 6.68436178e-06
      6.40648352e-07 1.58030844e-07 5.22927159e-08 6.77331002e-07
      3.30876264e-06 5.75104696e-06 6.03483932e-06 5.56420491e-06
      5.06018296e-06 4.48496348e-06 4.41088832e-06 4.24019345e-06
      4.10738130e-06 3.18922912e-06 2.97604151e-06 1.81763608e-05
      4.06789877e-05 4.06888321e-05 2.18733821e-05 4.02391288e-06
      4.24019345e-06 4.52272752e-06 5.49103333e-06 5.44931936e-06
      5.42151110e-06 5.33939101e-06 6.71114685e-06 2.81734829e-05
      1.00532430e-04 3.87407745e-05 1.14770128e-05 1.24142598e-05
      1.40196407e-05 1.49863145e-05 1.46548164e-05 1.43353191e-05
      1.44197020e-05 1.43673933e-05 1.44020123e-05 1.43102179e-05
      1.26570321e-05 1.13823198e-05 1.08372788e-05 1.64051107e-05
      3.14278514e-05 5.57480307e-05 4.19878525e-05 2.26991851e-05
      -9.75554713e-07 7.88992620e-05 4.59381008e-05 -9.22899744e-06
      -5.90530726e-05 -1.99880291e-04 -4.93809093e-05 1.23812148e-04
      6.05209570e-05 -8.40862504e-06 -4.83329495e-06 9.31503473e-06
      8.97456266e-06 9.33231058e-06 9.76840329e-06 9.05433808e-06
      6.51094251e-06 2.13364387e-06 5.54000508e-07 -1.49298432e-06
      -6.56561951e-07 3.62145727e-07 6.78560014e-07 -8.27315016e-09
      -2.98341405e-07 -1.37093491e-06 -5.12932445e-07 1.61632431e-06
      6.30064278e-07 3.78412642e-06 1.63792890e-06 6.82875978e-08
      -1.03349191e-06 -3.98579277e-06 -3.82323269e-05 -1.02355465e-04
      -1.19701399e-04 -1.13152630e-04 -7.32302506e-05 -1.96618348e-05
      9.02103930e-05 1.95631874e-04 1.57902381e-04 1.63766643e-04
      1.63068529e-04 1.11284688e-04 6.20674618e-05 2.48417055e-05
      8.70620861e-05 9.21263563e-05 7.41528493e-05 4.14747010e-05
      1.74291272e-05 1.22312531e-05 1.11726795e-05 6.90476008e-06
      3.46607226e-06 6.22994548e-06 4.18956915e-06 3.06989318e-06
      9.57622092e-07 1.15068224e-06 1.54043448e-07 7.03222952e-07
      1.94424638e-06 2.96003418e-05 3.90163877e-05 1.32871828e-05
      1.66936740e-08 3.89466331e-05 4.03062440e-05 4.13811103e-05
      2.33582086e-05 5.81762242e-06 4.44488069e-06 4.63079505e-06
      4.47826824e-06 4.47826824e-06 3.95607822e-06 2.40472764e-06
      7.21353103e-07 6.97236189e-08 9.14052293e-07 3.28227861e-06
      5.31812248e-06 8.86711859e-06 7.22932236e-06 1.28798274e-06
      4.58889701e-07 2.02809520e-06 4.65806033e-06 5.41469899e-06
      6.00870590e-06 5.09357051e-06 4.56776661e-06 4.22349967e-06
      4.59680268e-06 4.24247719e-06 3.03824891e-06 2.48964125e-06
      2.60421325e-06 8.30991303e-06 3.56001183e-05 4.25427279e-05
      3.45642147e-05 6.98796021e-06 4.25688722e-06 4.29870215e-06
      4.24019345e-06 5.03787169e-06 2.63861875e-06 3.50170853e-06
      5.55736733e-06 6.70370355e-06 9.23571133e-06 3.75418276e-05
      1.02250182e-04 3.40154402e-05 1.50150099e-05 1.43887792e-05
      1.44197020e-05 1.44197020e-05 1.42733925e-05 1.54912887e-05
      1.43427269e-05 1.31974311e-05 1.15888060e-05 1.05594263e-05
      9.56674467e-06 8.72453438e-06 1.27882358e-05 3.06733455e-05
      5.37004125e-05 4.99382877e-05 -6.22491134e-05 -1.12942129e-04
      2.62604426e-05 9.13682652e-06 7.86476230e-05 4.29516986e-05
      -1.11008885e-04 -5.20767389e-05 -6.66108463e-05 -5.78502768e-05
      -1.58765451e-05 5.68651387e-07 -6.45677630e-07 1.09945449e-06
      9.12480289e-07 9.60385387e-06 1.06508487e-05 8.72789587e-06
      9.18313799e-06 5.70729753e-06 6.14828559e-06 1.86119678e-06
      -1.00860220e-07 -1.00738407e-06 1.76147807e-07 4.55520592e-07
      1.33785613e-06 -3.87069321e-07 1.54094209e-06 2.66131042e-06
      2.19928575e-06 1.70897886e-06 4.12918553e-07 -5.11750204e-06
      -4.87750694e-05 -1.29180509e-04 -1.68458428e-04 -1.15385439e-04
      -6.63849642e-05 -4.98493646e-05 1.85663030e-05 1.57239745e-04
      1.72348067e-04 1.96537148e-04 1.27016479e-04 9.96308590e-05
      4.12811241e-05 2.58104010e-05 3.83653896e-05 5.17180160e-05
      8.21937865e-05 5.24173265e-05 1.97188056e-05 1.53768451e-05
      1.46705634e-05 7.50864001e-06 3.78748928e-06 4.34333788e-06
      2.35079096e-06 3.58479360e-06 2.24973473e-06 4.33705367e-07
      6.25207463e-07 6.67979180e-07 3.42953911e-07 3.19583705e-07
      1.65541169e-05 3.93505179e-05 8.81988035e-06 6.97236189e-08
      3.99576275e-05 4.13905764e-05 3.39297621e-05 1.01886080e-05
      4.41001885e-06 4.63079505e-06 4.47679349e-06 4.56136377e-06
      4.18194259e-06 2.55754685e-06 1.07592007e-06 0. 0. 8.71545254e-08
      0. 1.65375275e-06 5.44276554e-06 5.56148507e-06 3.11760914e-06
      3.59135174e-06 4.60655610e-06 5.30536863e-06 5.07613959e-06
      4.57211763e-06 4.25688722e-06 4.46170679e-06 4.07473090e-06
      2.97294855e-06 2.17017782e-06 2.58973137e-06 2.73776254e-06
      3.36630137e-06 2.44731891e-05 4.16517905e-05 4.06296167e-05
      1.54937916e-05 4.28127123e-06 4.64630102e-06 3.78990489e-06
      2.92597474e-06 3.51675385e-06 4.79728760e-06 6.23636834e-06
      8.34501770e-06 9.56959866e-06 1.19757924e-05 1.24253011e-05
      5.00290553e-05 1.05234350e-04 2.52305308e-05 1.48105810e-05
      1.43801253e-05 1.44400037e-05 1.51608256e-05 1.33004432e-05
      1.26979421e-05 1.25425395e-05 1.21205003e-05 1.11921509e-05
      9.01368003e-06 6.54652104e-06 9.37471214e-06 2.51385009e-05
      5.14630592e-05 6.54226606e-05 -4.97908950e-05 -1.71162304e-04
      9.04418903e-06 -3.97209005e-05 8.34296006e-05 7.55276051e-05
      -7.25796099e-06 -5.91626740e-05 -7.74264663e-06 3.17082481e-07
      -1.53414621e-05 -2.87272633e-06 5.45207604e-06 -7.12922201e-07
      -2.14420979e-05 -1.56613423e-05 -5.80072128e-06 1.48482995e-05
      2.60906036e-05 1.67535636e-05 1.17796399e-05 6.13041266e-06
      6.26332849e-07 1.87725254e-06 3.65946761e-07 -3.11613036e-07
      -4.91821528e-10 1.31602320e-07 3.72921295e-06 3.98033853e-06
      1.19084450e-06 4.23580303e-07 -4.08574815e-05 -6.79969962e-05
      -1.40368022e-04 -1.40786156e-04 -8.79965082e-05 -3.79076482e-05
      -5.86725728e-05 -2.93592875e-05 4.47382554e-05 2.10136772e-04
      1.75213674e-04 4.71743697e-05 3.49884613e-05 1.00374586e-04
      8.40653956e-05 3.99303608e-05 4.71594285e-05 3.37299025e-05
      8.33781596e-05 7.71751802e-05 3.20093131e-05 2.18580099e-05
      7.61627143e-06 2.80477411e-06 3.78035452e-06 3.82559347e-06
      2.42816168e-06 3.66564836e-06 1.41540511e-06 4.18442482e-07
      3.15618138e-07 9.42145704e-08 7.10143411e-07 3.95835428e-07
      8.24193194e-06 2.20411657e-05 4.61701211e-06 3.38169821e-06
      4.14377791e-05 4.29557440e-05 1.79849067e-05 4.63079505e-06
      5.10278551e-06 4.59438661e-06 4.46157446e-06 4.32212710e-06
      2.84792350e-06 1.11557790e-06 0. 9.38405478e-08 4.15478318e-08 0.
      1.00526563e-07 7.59732188e-07 2.91692049e-06 3.97901886e-06
      3.75570403e-06 4.45378782e-06 4.79724531e-06 4.57359238e-06
      4.25688722e-06 4.32661045e-06 4.16129251e-06 2.85461829e-06
      2.00397812e-06 2.27033979e-06 2.82498922e-06 3.24314033e-06
      3.20518552e-06 1.44185451e-05 3.79031080e-05 4.28651547e-05
      2.92023906e-05 4.42684495e-06 3.10730729e-06 1.73482920e-06
      1.73726744e-06 2.87450007e-06 4.73250157e-06 5.56834721e-06
      7.74023829e-06 9.29448106e-06 1.17030550e-05 1.33413414e-05
      1.50837968e-05 1.47716746e-05 5.80314882e-05 1.05637533e-04
      1.80177849e-05 1.47605360e-05 1.35130149e-05 1.28817401e-05
      1.27748399e-05 1.25489105e-05 1.27560670e-05 1.15137791e-05
      1.05307545e-05 9.34318905e-06 8.21647063e-06 6.88965292e-06
      1.64130979e-05 4.03839913e-05 4.15113027e-05 -8.20514178e-05
      2.43964587e-06 9.91275083e-05 -3.23076129e-05 6.26547699e-05
      9.70603724e-05 3.03233155e-05 4.10721441e-06 4.12572881e-05
      -1.90086066e-05 -2.22010276e-05 -3.32532954e-06 1.29553246e-06
      5.66964663e-05 -4.42226883e-05 -8.33816521e-05 -4.04313578e-05
      4.50726366e-05 7.93867293e-05 4.85629207e-05 3.50085065e-05
      1.89886705e-05 1.46306284e-05 4.78995025e-06 1.84238172e-06
      9.10020117e-06 2.41026305e-06 6.19843604e-06 1.75837067e-06
      1.13129079e-06 -1.48402435e-07 -1.38557270e-05 -8.73038007e-05
      -1.10239285e-04 -1.05656727e-04 -6.55523836e-05 -1.69639461e-05
      2.58816090e-05 2.59383123e-05 3.82339422e-05 1.34315080e-04
      1.79030569e-04 2.73779788e-05 -5.58756392e-06 7.66561207e-05
      1.20890123e-04 4.37884373e-05 4.15622198e-05 3.85369422e-05
      4.60715273e-05 1.03510443e-04 9.46077998e-05 5.39984057e-06
      -7.48810635e-07 -3.75832678e-06 -2.30476871e-06 -9.93281105e-07
      -6.91296282e-06 -5.45612102e-06 -3.26336112e-06 -1.36617439e-06
      -2.17163142e-06 -6.80382163e-06 -9.28693510e-07 -1.23197447e-06
      -6.29133183e-06 -4.25145299e-06 -3.39903750e-06 -1.64694552e-06
      3.98543443e-06 3.73816329e-05 3.66609020e-05 8.74573107e-06
      3.42348727e-07 -6.91140826e-07 1.30451542e-06 2.07868970e-06
      -1.37256313e-08 -7.51235291e-07 -4.16795228e-06 -2.00601835e-06
      -6.49893491e-06 -2.64731489e-06 -1.18485821e-06 -8.41033795e-07
      -6.34922287e-07 -3.34858299e-07 1.07782375e-06 1.78950995e-06
      -1.71332943e-07 1.33227138e-06 1.14626459e-06 -4.63123584e-08
      -4.76696869e-07 -1.19974800e-07 1.21827509e-06 -2.26924399e-07
      -3.25275869e-06 -6.86490637e-07 -9.45069758e-07 5.95356823e-07
      2.79655978e-05 3.98141965e-05 3.85207786e-05 -1.88179925e-07
      1.05609868e-08 -9.64960122e-07 -6.15041063e-06 1.13534998e-06
      9.24114943e-07 -1.21747064e-06 -2.93708382e-07 5.55982888e-06
      6.87153806e-06 9.90848366e-06 8.55247708e-06 1.03199445e-05
      1.04395367e-05 1.02802096e-05 6.63434694e-05 1.01491773e-04
      6.10231655e-06 1.34121647e-05 7.57569433e-06 1.34767170e-05
      8.63435707e-06 8.48848867e-06 6.16224179e-06 4.35691209e-06
      7.39086545e-06 1.77670381e-06 1.78405685e-06 -1.20603511e-06
      2.69798857e-05 3.07364062e-05 5.21527872e-05 5.97358412e-05
      6.80446537e-05 -9.06709392e-05 1.21896956e-04 1.40094795e-04
      5.07142067e-05 3.07051814e-05 4.81638526e-05 -6.12596486e-05
      -2.48315591e-05 -5.52364554e-06 -2.04334984e-08 4.01692523e-04
      3.08493880e-04 1.49275467e-04 1.02709149e-04 1.64182653e-04
      1.26616942e-04 7.26791986e-05 8.42982263e-05 6.57324708e-05
      1.83920329e-05 8.31964462e-06 1.19439464e-05 8.75417390e-06
      1.12316120e-05 6.39571545e-06 1.30699491e-05 1.01437615e-06
      -2.50065114e-06 -5.50471741e-05 -7.52322303e-05 -7.11225657e-05
      -8.11534119e-06 4.63736869e-05 8.36615363e-05 1.26366955e-04
      4.13265880e-05 1.94582408e-05 8.48250238e-06 4.99522976e-05
      2.62165922e-05 -3.58096895e-06 2.12979285e-05 1.44040110e-04
      9.44361163e-05 3.16434271e-05 3.33660100e-05 7.46197838e-05
      9.76231095e-05 5.78599174e-05 6.89697754e-06 -3.88145145e-06
      -5.79107154e-06 -3.29030490e-06 -5.79812604e-06 -4.01685338e-06
      -8.22380571e-06 -1.18848257e-05 -1.44316346e-05 -1.44446749e-05
      -1.34253578e-05 -6.40528515e-06 -6.11750193e-06 8.34223954e-07
      -4.20874073e-07 -5.30152602e-06 -2.87961711e-06 1.25945496e-06
      3.76931857e-05 3.46468260e-05 9.96874132e-06 5.79128823e-07
      -1.55185546e-06 2.71405696e-07 -2.76027163e-06 -1.34895402e-06
      -5.63033109e-06 -4.06003301e-06 -6.39330756e-06 -5.64347283e-06
      1.20764776e-06 -6.35160814e-06 -4.51340429e-06 -5.35287927e-06
      -7.01071428e-07 -3.41315013e-06 -3.43704801e-06 3.04250443e-06
      6.29487545e-07 -4.87472425e-06 3.59579019e-07 -1.87698988e-05
      -3.58331563e-05 -2.95557547e-05 -3.02213029e-05 -8.61698300e-06
      1.95080020e-06 2.25892609e-06 5.59921409e-06 3.01203727e-05
      3.19115497e-05 1.87058085e-05 1.56542762e-06 -2.72668285e-06
      -6.46951150e-07 -2.75228354e-06 -9.31742034e-06 -8.59932334e-06
      -7.18229967e-06 -4.06891422e-06 -5.28041619e-06 2.54465044e-06
      1.01252008e-05 1.28144684e-05 3.96891119e-06 -3.20745517e-06
      -1.63267141e-05 -1.91786239e-05 3.75255877e-05 6.10597199e-05
      -2.94175152e-06 8.46412422e-06 4.44609395e-06 6.12123904e-06
      1.32090317e-05 9.80171808e-06 8.99716633e-06 6.68216899e-06
      1.62231390e-05 9.44777094e-06 2.57835040e-06 3.35070399e-06
      1.96580495e-05 3.57344616e-05 1.01908219e-04 1.13013099e-04
      5.12519655e-05 5.99648411e-05 1.23200734e-04 -1.20416422e-04
      -3.37527272e-05 2.22975010e-04 6.88516811e-05 -2.50026787e-05
      -4.41716475e-06 -6.23703045e-07 2.48731725e-04 1.54106063e-04
      6.44980537e-05 8.22223883e-05 1.64933212e-04 2.05871387e-04
      1.78381189e-04 1.91691724e-04 1.46919614e-04 6.41039296e-05
      3.17770573e-05 2.50303056e-05 1.69764589e-05 1.02522981e-05
      1.22276178e-05 6.69821520e-06 2.65976882e-06 -1.43958650e-05
      7.75401645e-07 9.35696371e-05 8.30032222e-05 1.58880837e-04
      2.27378856e-04 2.15230772e-04 1.04993080e-04 1.69868727e-05
      -2.30410748e-07 1.13366996e-05 7.31270266e-05 4.72441570e-05
      2.73331061e-05 2.59980461e-05 1.41906727e-04 1.25571096e-04
      1.91574454e-05 2.48001852e-05 4.75728593e-05 6.63230967e-05
      4.10214234e-05 8.88483009e-06 2.27477722e-05 2.60228935e-05
      2.16147928e-05 2.21774953e-05 -3.58164448e-06 -1.00594170e-05
      -2.30759670e-05 -4.46046870e-05 -5.51494741e-05 -4.38117822e-05
      -2.46722375e-05 -2.19175927e-05 -1.04604114e-05 -2.50575880e-07
      6.04997740e-06 1.53706351e-05 1.65876045e-05 3.05977446e-05
      5.05998250e-05 1.32132627e-05 5.28022565e-06 9.64971832e-07
      -3.98192924e-06 1.17344480e-05 1.82495096e-05 2.51196852e-05
      2.74887880e-05 1.73604476e-05 -4.41477414e-06 -2.35388634e-05
      -4.01571961e-05 -4.53664907e-05 -2.50314461e-05 -1.14662271e-05
      -2.40165809e-06 -1.28989041e-05 -1.76085814e-05 -5.96444409e-07
      1.87190544e-05 1.71783322e-05 -1.67945291e-05 -4.83122603e-05
      -4.00764147e-05 -3.86622887e-05 -8.76013928e-06 1.94762015e-06
      1.50626363e-06 3.94379003e-06 3.01804121e-05 2.66409697e-05
      6.40981261e-06 -4.64512550e-06 -2.00358445e-05 -3.88431836e-05
      -4.36174305e-05 -3.82201688e-05 -5.05046410e-05 -3.16021651e-05
      -1.55897196e-05 -1.41613700e-05 9.29426005e-06 3.25994260e-05
      3.46129818e-05 2.09880927e-05 -2.21801620e-05 -2.98067916e-05
      -5.09326201e-05 -7.51550979e-05 1.40639077e-05 3.66241838e-05
      -2.38485372e-05 -9.35636035e-06 -3.68235214e-06 -4.44391026e-06
      -1.16841311e-05 -2.86915292e-05 -4.34837712e-05 -2.56883886e-05
      -2.55896794e-05 -2.49553304e-05 -1.51299282e-05 -3.08603580e-06
      5.59852488e-05 8.52690719e-05 -1.53525762e-05 -1.69544237e-05
      1.08794862e-04 1.14935447e-05 -1.31567824e-04 -9.60325051e-05
      -3.15106627e-05 -1.14939961e-04 -4.20611941e-05 3.41819828e-06
      -3.58464149e-06 5.90046766e-05 1.76862541e-05 6.70087538e-05
      -5.95804295e-06 1.52717075e-05 1.36193616e-04 2.57842796e-04
      2.72565783e-04 2.18508416e-04 1.10995214e-04 3.95170355e-05
      3.14500248e-05 3.49013644e-05 1.83779557e-05 9.13445456e-06
      1.30031949e-05 7.12617930e-06 1.65187448e-05 -2.33472183e-05
      2.96109502e-05 1.19555130e-04 1.96050823e-04 1.85761135e-04
      2.05630626e-04 1.50475375e-04 3.77066535e-05 1.27053977e-06
      2.11511233e-05 1.08050612e-04 -2.21135065e-06 2.59088447e-05
      1.65868041e-05 5.60239423e-05 5.48099233e-05 2.94056135e-05
      2.90853168e-05 1.47781714e-06 7.11714893e-06 4.97332294e-05
      3.65277883e-05 4.55150948e-05 7.47674931e-05 6.25555767e-05
      4.18793825e-05 3.09656866e-06 1.30466469e-06 2.57893930e-06
      -5.33752172e-05 -6.76764248e-05 -6.74310795e-05 -8.72226810e-05
      -6.01098473e-05 -4.61402087e-05 1.24455573e-05 2.26035700e-05
      1.22771789e-05 -9.70664132e-06 2.06907353e-05 2.15793648e-06
      -1.51352988e-05 -1.29610526e-05 -1.33468611e-05 -2.25744570e-05
      -8.47365209e-06 2.92141121e-05 6.54557953e-05 7.42460470e-05
      6.10110183e-05 1.05201707e-05 -2.28023764e-05 -3.74362717e-05
      -6.27640038e-05 -3.00420907e-05 -2.48149609e-05 -1.41370238e-05
      1.26805471e-05 -1.37369807e-05 1.65535057e-05 6.96203861e-05
      5.15005959e-05 2.34971158e-05 -1.10847841e-05 -3.18536695e-05
      -2.65197505e-05 -2.98790237e-05 -1.03170159e-05 -2.61326077e-05
      -4.14224587e-06 9.50729664e-05 6.01383144e-05 3.72826617e-05
      -1.96507372e-07 7.57726912e-06 -2.15764103e-05 -6.91101814e-05
      -2.92137302e-05 6.16797251e-06 1.30451463e-05 2.35566349e-05
      1.02014437e-05 8.56690313e-05 2.55007726e-05 -2.16501157e-05
      3.55532138e-05 -1.71691809e-05 -1.35280388e-05 -2.78107582e-05
      -4.79191731e-05 -6.57423952e-05 -1.67343078e-05 -4.88867158e-07
      -6.26138399e-06 3.16938567e-05 -1.76675421e-05 5.24654388e-05
      2.62994272e-05 -5.66418930e-05 -9.87996536e-05 -1.01812489e-04
      7.49419905e-06 4.13109774e-05 4.25918552e-06 -7.61700358e-05
      -1.57378599e-04 -8.27043114e-05 4.36368500e-05 1.23363367e-04
      4.36113296e-05 -2.10993094e-05 -5.71815035e-05 -1.51322223e-04
      -8.73790195e-05 -5.55941042e-05 -9.41416693e-06 7.35108961e-06
      1.62105280e-04 5.02715702e-05 -9.86918258e-06 -8.78305364e-05
      -1.02767648e-04 5.05952630e-05 2.06112309e-04 3.03270092e-04
      2.21873124e-04 1.06274252e-04 4.20564647e-05 3.01707805e-05
      3.06553338e-05 2.06262921e-05 1.68193019e-05 5.29829549e-06
      8.02105478e-06 -1.09749380e-05 -5.03817864e-05 6.70788359e-05
      1.67963779e-04 1.79844865e-04 1.62217199e-04 1.77136375e-04
      1.79170194e-04 9.95167138e-05 6.54055157e-06 2.18293972e-05
      1.97379850e-05 -1.72212094e-05 5.72193749e-05 2.08002130e-05
      2.41237358e-05 1.66809805e-05 9.38330413e-05 7.06910359e-05
      4.21339018e-06 -3.44093169e-05 1.62817214e-05 8.09884004e-05
      1.62477245e-05 -9.76970932e-06 -1.20564318e-05 -1.45655531e-05
      -8.85339105e-05 -6.73780451e-05 2.51313468e-05 2.00783248e-07
      -6.83494363e-05 -6.40487269e-05 -8.92966927e-05 -4.34288086e-05
      -4.93485459e-05 -5.43908391e-06 -4.80454692e-05 -7.91590355e-05
      -6.84305924e-05 -1.32703485e-06 -4.57698989e-05 -1.68544248e-05
      -2.12055311e-05 -1.49218858e-05 1.54529971e-05 1.33457370e-05
      -6.15490062e-05 3.69617082e-05 4.10876128e-05 1.55931939e-05
      6.86795102e-06 -9.39575621e-05 -8.38492633e-05 -9.88594184e-05
      -6.99800512e-05 -1.00183624e-05 4.43095778e-05 4.34065296e-05
      -6.03582375e-05 -4.25979633e-05 6.61897211e-05 5.95635356e-05
      2.66700081e-05 -3.35929235e-06 -3.69247318e-05 -9.06600835e-05
      -6.04390480e-05 -5.26444928e-05 1.74830056e-05 4.65935627e-05
      7.08073203e-05 -1.97607824e-05 -3.10293508e-05 -9.25933637e-05
      -8.72005403e-05 9.46007185e-06 -2.87550465e-05 5.48369499e-05
      1.32749818e-04 1.20419347e-04 1.37553274e-04 6.14616511e-05
      8.85445115e-05 2.77209965e-05 -5.75691156e-05 -4.50633852e-05
      -2.61757177e-05 -1.64014800e-05 -7.82025236e-05 -4.55831541e-05
      -3.13697201e-05 -2.23918978e-05 7.84100557e-05 6.43546300e-05
      -6.64291292e-05 3.15984471e-05 3.29123468e-05 -2.45111296e-05
      -2.15604432e-05 -8.92762764e-05 -1.86352827e-05 1.72790344e-04
      7.78895410e-05 -3.22525993e-05 -2.12955172e-04 -3.29063303e-04
      -5.62827445e-05 1.72545933e-05 1.12289621e-04 1.01424324e-04
      3.31712472e-05 5.22670007e-06 -3.79743251e-05 -1.96962701e-05
      -5.93460027e-05 -2.59383728e-06 6.72920532e-06 1.95321089e-04
      1.01199832e-04 3.20612958e-06 -1.13918570e-04 -1.09693581e-04
      -8.38766282e-05 -1.25632678e-05 2.43573581e-04 2.69663084e-04
      1.02572776e-04 3.61306593e-05 2.55105660e-05 2.47831867e-05
      2.77755080e-05 2.05213037e-05 2.31025733e-05 1.64264857e-05
      -4.76569658e-05 -9.98930918e-05 3.11951408e-05 1.29745778e-04
      8.81247979e-05 7.66810481e-05 1.24551589e-04 1.77193549e-04
      6.90565212e-05 -1.06615071e-05 2.36477499e-05 4.08751293e-05
      -3.19388564e-05 -2.55586037e-05 2.93084340e-05 2.33945029e-05
      6.09462040e-05 1.83186246e-04 1.60093070e-04 2.64761657e-05
      -1.04238723e-04 4.32517591e-05 1.65797406e-04 6.04130150e-07
      -5.31333026e-05 2.43097184e-05 -3.63306499e-05 -1.60243668e-04
      -7.20895187e-05 8.47999181e-05 2.32372827e-06 -6.98524036e-06
      -8.71826978e-06 1.35508844e-05 3.82133403e-05 -1.22363645e-05
      -2.84903290e-05 -1.57045688e-05 -5.41308073e-05 1.33660433e-05
      1.08750508e-04 8.24559902e-05 6.57283017e-05 6.82517275e-05
      1.66869344e-04 1.55802685e-04 8.92408134e-05 3.24743523e-05
      1.83251279e-04 1.16987314e-04 4.92718355e-05 1.14016446e-04
      1.41789322e-04 5.88112925e-05 -7.79119582e-05 -1.03649363e-04
      -4.81166499e-05 -1.32388941e-05 -5.06798415e-06 -8.15727108e-05
      -1.71842421e-05 1.41155295e-04 8.01943024e-05 -2.01975581e-06
      3.91923168e-05 -1.21695066e-05 -2.23321713e-05 1.00763020e-04
      4.45113328e-05 -5.49055903e-06 5.98358092e-05 2.90632106e-05
      3.75953023e-05 3.44491968e-06 -1.11543683e-04 -1.39457276e-04
      8.48213167e-05 1.63823406e-05 -1.06363193e-04 4.25445342e-06
      6.15775498e-05 -2.49176683e-05 -1.33171066e-04 6.16097623e-06
      2.82155725e-06 -3.91679023e-05 -7.83041032e-05 -2.06406767e-05
      5.41205191e-06 -4.55891095e-05 -5.26098593e-05 -1.52061320e-05
      -5.09190468e-05 -2.08388592e-05 -1.12213111e-05 -1.12969152e-04
      9.31816703e-06 -2.59769276e-05 -4.62323405e-05 2.07902231e-05
      8.00512280e-05 4.61634882e-05 1.71730644e-04 1.10895417e-04
      -3.19867686e-05 -1.19010823e-04 -1.57048009e-04 -8.77304556e-05
      -2.51740312e-05 9.47571898e-05 1.08896886e-04 -1.66615189e-06
      -5.42132329e-05 -1.01188751e-04 -1.14422066e-04 -5.46695082e-05
      -1.18636910e-06 4.65414996e-06 2.33772997e-04 2.36705528e-04
      1.12033202e-04 -7.06549690e-05 -1.43031502e-04 -1.73827691e-04
      -2.04411874e-04 -1.79128310e-05 2.30015008e-04 1.57586212e-04
      4.67519058e-05 3.56354321e-05 2.17729666e-05 2.37796521e-05
      2.48487686e-05 2.77415020e-05 2.50273461e-05 -3.05575595e-05
      -1.70354877e-04 3.52097777e-05 7.16506765e-05 -1.88728100e-05
      -4.41900283e-06 5.72962599e-05 1.33365465e-04 1.23835096e-04
      -1.06019991e-06 5.84335385e-06 1.72758173e-05 -4.13578673e-05
      -1.63122004e-05 7.38795052e-06 1.75884543e-05 6.30379363e-05
      1.01037294e-04 1.41621524e-04 1.34260117e-04 1.33382637e-04
      1.77151102e-04 2.05120727e-04 1.29001317e-04 4.64035111e-05
      1.31438268e-04 4.13044581e-05 -1.28279707e-05 1.00877907e-04
      1.85784302e-04 6.78375181e-06 8.76509239e-06 6.78372744e-05
      1.11347086e-04 1.19450422e-04 4.75289344e-05 7.46237347e-05
      8.81532033e-05 1.71083830e-05 -2.39448605e-06 1.65732257e-04
      1.72899323e-04 9.18282268e-08 4.20821416e-05 4.23285455e-05
      -1.51849208e-05 -1.43084244e-05 5.78397921e-05 1.13909970e-04
      -1.06882844e-05 -1.17482514e-05 -3.84072928e-06 6.18143531e-05
      1.06684209e-04 2.69396896e-05 1.85447843e-05 6.62816237e-05
      -2.98395662e-05 -1.53797868e-04 -6.86547355e-05 -2.12377818e-05
      1.01714977e-06 -1.55428406e-05 -9.24787601e-05 -5.01398245e-05
      -2.10564649e-05 -8.42206009e-06 1.24405022e-04 6.68305220e-05
      -9.10842664e-06 2.63565344e-05 -1.37430807e-05 -7.05363254e-06
      1.02968406e-05 -2.66721036e-05 -2.45725987e-05 5.19375644e-05
      6.05461935e-07 -6.30005743e-05 -9.46101572e-05 -4.20342003e-05
      -8.14900413e-05 -2.49915120e-05 9.15587661e-05 2.27611490e-05
      -3.04007081e-05 5.47025084e-05 2.36116921e-05 1.02275471e-05
      -4.76752539e-05 -5.05960134e-06 4.49057261e-05 1.84302553e-05
      4.81451461e-05 1.15237628e-04 4.31831941e-05 2.33820219e-06
      -2.51433703e-05 2.06272834e-05 8.64703325e-05 5.87031864e-05
      -3.18548482e-05 2.44943803e-05 9.44918866e-05 1.64265730e-04
      -2.88981173e-05 -1.29307417e-04 -4.58139002e-05 -1.51968497e-05
      5.55594888e-05 1.04482533e-04 -8.34990860e-05 -2.13233012e-04
      -5.80306005e-05 -1.53477973e-04 -7.25881837e-05 -3.18218099e-07
      3.11182339e-06 2.60938075e-04 2.73595040e-04 2.49702920e-04
      7.42948323e-05 -1.07957116e-04 -1.58954776e-04 -1.44118894e-04
      -1.08974236e-04 8.93333199e-05 2.31708691e-04 6.41398510e-05
      2.07546927e-05 2.47489897e-05 1.65954370e-05 2.14788215e-05
      2.68906479e-05 2.47667685e-05 -5.27153643e-05 -1.48003484e-04
      -2.25208441e-06 5.89103256e-05 8.17728233e-06 -7.80761402e-05
      -8.14416344e-05 2.66540656e-06 1.06677944e-04 1.61727512e-05
      2.61657297e-05 8.49334174e-05 -1.18052840e-05 -4.43517529e-05
      -3.53060204e-05 5.12823317e-05 1.26840561e-04 1.10380293e-04
      1.43829602e-04 9.91062698e-05 1.31187771e-05 4.59176736e-05
      8.57247214e-05 1.95475135e-04 7.41712793e-05 -3.98018201e-05
      -4.97700130e-05 -3.88087428e-05 6.03430490e-05 9.91642009e-05
      5.19742425e-05 -3.29846152e-05 4.37219605e-05 2.91400793e-05
      3.05682079e-05 7.97678013e-08 -7.14690032e-05 3.45084009e-05
      -2.71912631e-06 1.38350993e-06 -3.51529306e-05 6.50736365e-06
      2.00420400e-05 6.38659330e-05 7.22422701e-05 3.09596726e-05
      2.92337900e-05 4.40034200e-05 7.88170291e-05 8.42969621e-06
      1.32812056e-04 1.13755377e-04 5.81924178e-06 -2.76687333e-05
      2.69340999e-05 8.53756428e-05 1.52862136e-04 2.08159759e-06
      -1.37822237e-04 -6.62097154e-05 -4.53762405e-05 -1.50010761e-04
      -4.11690125e-05 1.84707460e-05 1.43514944e-05 -1.60410909e-05
      -1.99209971e-05 -1.78612554e-05 4.84588281e-06 2.81882039e-05
      -1.72997588e-05 6.23284286e-05 8.32223086e-05 4.16010662e-05
      5.01395989e-05 3.77973015e-06 8.68247753e-06 1.34585007e-05
      6.43163512e-05 6.48655623e-05 8.13455626e-05 -7.74683867e-05
      -6.52660528e-05 1.11814908e-04 8.25846582e-05 9.72448324e-05
      4.19696698e-05 3.14786598e-06 3.05211433e-05 -3.19238316e-05
      -1.14141592e-04 -1.12938978e-04 -6.50156144e-05 -1.35428104e-06
      2.17425950e-05 -9.21989158e-06 6.95993876e-05 -6.93004858e-06
      3.28210081e-05 6.30962459e-05 -5.26169458e-07 -6.57593337e-05
      1.74230354e-05 4.34574431e-05 6.03686167e-05 4.37646122e-05
      -8.59098654e-05 -1.44339021e-04 4.72822740e-06 5.28738092e-05
      1.23354272e-04 -1.06459855e-04 -2.52416969e-04 -1.94168184e-04
      -3.00106167e-05 -5.44680879e-05 -7.39714960e-06 9.50825506e-06
      2.74360675e-04 2.76478910e-04 2.84003734e-04 2.34869120e-04
      4.19986027e-05 -1.09489964e-04 -1.42134770e-04 -1.79802228e-04
      9.53376730e-05 3.43001040e-04 2.01058836e-04 1.05644860e-04
      1.69260693e-05 6.31290777e-06 1.99376900e-05 2.75498587e-05
      3.42777639e-05 -3.58629113e-05 -1.23747188e-04 -5.43820388e-05
      3.96340474e-05 3.43230181e-06 -1.25329811e-04 -1.74129673e-04
      -7.76129236e-05 7.27350634e-05 4.12235058e-05 8.13956212e-05
      8.39494460e-05 -7.79959810e-05 -1.10761168e-04 -8.03450093e-05
      -2.78899115e-05 5.45504809e-05 3.08790914e-05 8.90818119e-05
      -1.89592829e-05 -4.04391030e-05 6.62626262e-05 3.17345366e-05
      6.51829032e-05 -3.54285257e-05 -7.09909946e-05 -2.88984538e-05
      -2.45167212e-05 -3.10957221e-05 -1.44368869e-05 -2.17396955e-05
      -5.61432935e-05 -7.88563557e-06 1.03018365e-05 2.28079734e-05
      -4.30237742e-06 2.84273610e-05 1.07548978e-04 8.85678237e-05
      -2.49211807e-05 -4.75699271e-05 8.98806866e-06 -2.66367388e-05
      6.38234360e-06 5.16283544e-05 3.54332187e-05 5.95425627e-05
      -6.50570928e-06 -6.55373424e-06 -3.50066330e-05 3.36031153e-05
      3.70780581e-05 -2.65615145e-05 -8.08962432e-06 1.11617173e-05
      2.33336186e-06 4.51985761e-05 2.62573235e-06 -1.64918056e-05
      8.79262245e-08 -4.92579820e-05 -1.46696344e-04 2.33201104e-06
      8.69739088e-05 3.65871274e-05 -2.46023192e-05 -5.35606669e-05
      -4.49144682e-05 -8.60681030e-05 -2.02824340e-05 -4.72280808e-05
      2.19562571e-05 1.03675666e-04 4.19279195e-06 5.91377830e-05
      7.23305493e-05 -2.86165068e-05 -3.65815504e-05 1.45203649e-05
      5.50294899e-05 -4.24123791e-05 -5.88929252e-05 -4.09468594e-05
      5.09443053e-05 5.57683525e-05 8.66138871e-05 -9.60325051e-05
      -6.40799844e-05 -1.10219944e-05 -6.99027369e-05 -6.46313420e-05
      -5.36284824e-05 4.27324921e-05 3.14719764e-05 3.42347666e-05
      5.43461283e-05 7.84284057e-05 1.03044964e-04 1.89958810e-05
      -2.91662013e-06 1.57695831e-06 2.12784144e-05 -7.66867888e-05
      -8.30818099e-05 -1.13691121e-05 -5.04867385e-05 -1.52599139e-04
      -1.94312175e-04 8.89498915e-05 1.30262211e-04 1.23884412e-04
      -5.45538751e-05 -8.74058460e-05 -4.65822050e-05 -1.96159763e-05
      -8.04818592e-06 -1.40154452e-05 3.34876427e-06 2.79629690e-04
      2.75788945e-04 1.99933522e-04 1.60127966e-04 6.61781451e-05
      -4.35769070e-05 -9.30947936e-05 -1.52289198e-04 1.62030847e-04
      4.13573522e-04 4.23587742e-04 2.10735961e-04 3.78396362e-05
      2.67822306e-05 3.32954696e-05 5.06952274e-05 4.79412847e-05
      -3.63700019e-05 -1.11063528e-04 -2.37213444e-05 2.73683254e-05
      -7.90979466e-05 -1.57386006e-04 -1.80561095e-04 -1.11882182e-04
      3.66681052e-05 2.67843570e-05 8.99331062e-05 1.02656697e-04
      -6.23449741e-05 -1.94060121e-04 -1.77402297e-04 -1.20310804e-04
      3.53436990e-05 7.51238331e-05 6.85645427e-05 -7.84982840e-05
      -8.35532919e-05 1.16172676e-04 2.88231713e-05 -6.19528646e-06
      5.63955073e-05 1.19301840e-04 1.24668411e-04 -3.78536934e-05
      -9.96343351e-06 2.72999841e-05 2.65712642e-05 8.54288587e-08
      -4.80703347e-05 -3.00629963e-05 -5.53424834e-05 -4.38851566e-05
      3.68725196e-05 1.41618599e-04 7.46961450e-05 1.98731823e-06
      2.08987531e-05 -2.14853371e-05 9.44212661e-06 -7.91452694e-05
      -7.66140729e-05 -2.45903120e-05 3.65789019e-05 -1.12076459e-05
      -8.48067066e-05 -1.17346113e-04 -1.54217167e-04 -1.81724885e-04
      -1.61530945e-04 -8.35065111e-06 -4.19657044e-05 -5.10625032e-05
      -6.88486762e-06 -2.00391842e-05 3.84216983e-05 9.45228967e-05
      -9.64773335e-06 -4.17739175e-05 -2.48310948e-06 2.05392771e-05
      2.45662468e-05 7.39171992e-06 -3.56174387e-05 -2.81706343e-05
      -2.21033206e-05 -3.83163424e-05 -5.76696548e-05 -1.90328719e-05
      -6.09218296e-05 -7.70613915e-05 -2.90041789e-05 -2.66034913e-05
      -2.86019294e-05 -4.53941029e-05 -1.75075620e-05 1.18584567e-05
      -1.56233000e-05 -5.33653983e-05 -8.34495295e-05 4.85931050e-05
      1.28153581e-04 1.07223292e-04 2.13133753e-05 -5.21757756e-05
      -6.92328322e-05 -1.48393738e-04 -5.87875329e-05 -6.42826444e-06
      -3.06715301e-05 2.02197953e-05 7.37373775e-05 4.30080072e-05
      8.84703986e-05 7.25603750e-05 2.57421179e-05 -3.20415857e-05
      -4.74403123e-06 -4.00230128e-05 -8.32360092e-05 -1.17715994e-04
      -2.62342073e-04 -2.01427974e-04 -1.36758477e-04 -2.42654933e-04
      -7.90431659e-05 1.11400870e-04 1.43817801e-04 -1.51097581e-07
      8.53430611e-05 1.06768266e-05 -1.00508732e-04 -7.90237464e-05
      -1.64207158e-05 4.39263476e-06 2.33661645e-04 1.58991286e-04
      1.84594115e-04 1.01151338e-04 -1.10172608e-04 -1.83321376e-04
      -1.47613348e-04 -8.23279624e-05 1.88289283e-04 2.99330481e-04
      1.99450107e-04 8.65721086e-05 4.36138216e-05 3.89847992e-05
      3.77511133e-05 4.85300952e-05 4.99286325e-05 -3.92661423e-05
      -1.00790508e-04 3.45335175e-05 6.01243191e-05 -8.03441289e-05
      -1.53420566e-04 -1.70650630e-04 -1.44512407e-04 -1.74449306e-05
      3.01068485e-05 3.92372531e-05 1.38756310e-04 -1.80385086e-06
      -1.81556985e-04 -1.67552193e-04 -1.65021178e-04 -5.99927880e-05
      6.65813277e-05 9.53784911e-05 -2.80475774e-06 -3.71971764e-05
      4.29817665e-05 -3.63380277e-05 -2.51581259e-05 4.11968504e-05
      5.08693338e-05 5.13497835e-05 -2.22725630e-05 -2.57851461e-05
      -2.70877608e-05 -4.14239512e-05 2.60619599e-05 -4.72288411e-05
      -8.33335434e-05 -6.21282525e-05 -2.72359121e-05 -2.47527096e-05
      1.97074642e-05 -5.35604231e-05 -3.46460620e-05 -4.59226940e-05
      -6.36621480e-05 -4.73661203e-06 -2.91572160e-05 -1.18874901e-04
      -8.72124365e-05 -1.28378879e-05 6.80310563e-07 3.87758409e-05
      -2.91672732e-05 -4.41153170e-05 -9.01178864e-05 -7.42131888e-05
      5.32287049e-06 -7.62092459e-05 -1.17853226e-04 -6.86591447e-05
      -6.17353944e-05 -2.70539713e-05 1.84930414e-05 -8.88590585e-05
      -2.29906782e-05 -1.13484439e-05 -6.23656379e-05 8.69854921e-06
      -2.47014268e-05 -7.08540538e-05 -4.51696469e-05 -2.02433730e-05
      -3.52816714e-05 -5.82014291e-05 -6.60611840e-05 -4.35163493e-05
      1.13339484e-05 -1.27248395e-05 -5.71880155e-05 -6.23939850e-05
      -4.52218119e-05 -1.74963043e-05 -5.38355343e-05 -1.54199970e-05
      -4.25092549e-05 -1.09252593e-04 -5.75060803e-05 -5.26772819e-05
      1.05053201e-04 6.30918366e-05 -5.70008087e-05 1.09302409e-05
      -7.11441608e-05 -5.70899865e-05 -1.56180558e-05 -6.46318003e-05
      -9.65876752e-05 1.92296120e-05 -5.02630337e-06 4.69864972e-05
      1.89648654e-05 -3.61141501e-05 3.35371442e-05 -4.97607580e-05
      -8.10096753e-05 -2.74632985e-05 -6.37462945e-05 -1.46463441e-04
      -1.71222855e-04 -2.49764242e-04 -2.28722376e-04 -6.40731378e-05
      7.16189898e-05 6.58325080e-05 4.12083818e-06 -5.07391924e-05
      -9.27339279e-05 -1.62773344e-04 -8.03269140e-05 -4.12979671e-06
      5.19838022e-06 -1.38469004e-05 -6.71713788e-05 1.08725260e-04
      -1.05169931e-06 -2.97910155e-04 -2.98474799e-04 -1.29329084e-04
      -1.17065201e-05 1.52986977e-04 1.63023462e-04 5.90195632e-05
      5.87788709e-05 4.73576802e-05 4.47266539e-05 3.96561009e-05
      3.92494076e-05 3.01007494e-05 -5.17376684e-05 -8.50683864e-05
      2.07609537e-05 8.59797292e-05 -7.92436331e-05 -1.69616877e-04
      -1.87569050e-04 -1.30210858e-04 7.29781323e-06 -1.53080532e-06
      2.27382188e-05 1.59039380e-04 1.38631422e-05 -7.18074225e-05
      3.63578965e-06 -7.36913498e-05 -1.54763242e-04 -5.13721761e-06
      8.44880997e-05 6.75275296e-05 1.29490290e-04 3.12371849e-05
      -2.53688522e-05 -2.99806834e-05 -3.84735904e-05 -1.15122284e-05
      1.94498352e-05 7.28494228e-07 -8.91309173e-06 -8.36854233e-05
      -4.10233151e-05 -3.15286070e-06 -6.11696087e-05 -6.57842174e-05
      -1.18991775e-04 -1.25008635e-04 -9.31904069e-05 -7.16030117e-05
      -8.83484972e-05 -5.35109975e-05 -5.61981069e-05 -6.96518036e-05
      3.86089050e-05 -4.16792791e-05 -9.96911258e-05 -6.16406833e-05
      -3.26072332e-05 -8.06758180e-06 5.42122762e-05 2.29901070e-06
      8.03895673e-05 -5.47409945e-05 -7.38107992e-05 -1.26363793e-05
      -3.37957645e-05 -4.94687883e-05 -6.48595233e-05 -6.62875900e-05
      1.05254139e-05 -7.86667897e-06 -1.33003836e-04 -4.90798666e-05
      -2.81690172e-05 -5.32914819e-05 -4.66537895e-05 -3.59761834e-05
      -2.39235687e-05 1.35426399e-05 -6.84805798e-07 -1.44104097e-05
      -6.48502682e-05 -8.77080747e-05 -1.19480201e-05 -4.24366153e-05
      -7.72128333e-05 -9.86628220e-05 -2.33243773e-05 3.59888168e-06
      -3.84108425e-05 -5.83032779e-05 1.83532320e-05 -3.83347651e-05
      -8.61576045e-05 -1.15879066e-05 2.01239745e-05 4.19259095e-06
      5.79851876e-05 -1.74757351e-05 -1.03068611e-04 1.55732857e-06
      9.40922655e-06 1.94611839e-05 -4.19874341e-05 -6.05982750e-05
      -2.62175836e-05 -9.53770837e-07 3.66160639e-05 -3.47828500e-05
      -6.54945688e-05 -7.64457582e-06 2.72356665e-05 -3.17390513e-05
      -3.90604437e-05 -7.96451932e-05 -1.10371744e-04 -1.57012997e-04
      -2.09016318e-04 -1.79807932e-04 -1.02350437e-04 1.82442309e-05
      5.94499616e-05 -2.48983779e-05 2.84631515e-05 -1.90781793e-05
      -7.35275462e-05 -7.31287364e-05 -3.98848033e-06 -4.72009106e-06
      -2.36911903e-04 -1.85556419e-04 -2.16474102e-04 -2.93257355e-04
      -4.04315273e-04 -2.19359717e-04 1.35305800e-05 1.09610402e-04
      1.25535938e-04 1.04698600e-04 8.29693163e-05 6.71557427e-05
      4.32913839e-05 3.98166449e-05 3.67363791e-05 4.20614379e-05
      3.86884858e-05 -1.34676047e-05 -1.05688734e-04 -3.61580351e-05
      1.35178954e-04 -5.39261273e-05 -1.61148317e-04 -9.96281306e-05
      -1.52163911e-05 3.90650348e-05 1.17501929e-06 -1.15488247e-05
      5.77362844e-05 2.67772248e-05 1.05762672e-04 2.97921419e-04
      1.84806719e-04 8.18989793e-06 -5.14316234e-05 1.79902727e-05
      4.08499691e-05 9.36292781e-05 6.19348502e-05 2.50562025e-05
      -2.68968797e-05 -2.39907749e-05 5.82202483e-05 7.37560113e-05
      3.35608547e-06 -5.44030263e-05 -1.61308039e-04 -7.50057734e-05
      4.70682971e-05 -4.04578986e-06 -8.23507071e-05 -1.55884278e-04
      -1.26372717e-04 -3.36009252e-05 -1.79281433e-05 -4.15659561e-05
      -1.58461535e-05 -3.48138565e-05 -7.70266270e-05 -2.17657021e-06
      -3.74749579e-05 -4.54922592e-05 -8.57800696e-05 -1.24550497e-04
      -3.17511185e-05 -1.44101678e-05 -9.10326798e-06 -6.17964906e-05
      -8.47048796e-05 7.87555928e-06 -5.52945967e-05 -1.18331001e-04
      -5.90513337e-05 -1.70620217e-06 4.84679640e-06 2.98916730e-05
      -2.94386809e-05 -3.28130653e-07 4.03619852e-05 -9.85095994e-06
      -4.46093218e-05 -2.58620239e-05 -7.35025969e-06 -2.28943463e-05
      -1.85391364e-05 -2.08943784e-05 4.78335278e-06 6.08462142e-05
      1.34499523e-05 -7.22812110e-05 -1.16133735e-04 -4.62541211e-05
      -2.30697187e-05 3.78248296e-05 -6.63321498e-06 -3.18105303e-05
      8.65636321e-05 1.19709199e-04 3.83102815e-06 3.44796026e-05
      5.66089366e-05 5.61422439e-06 6.27581039e-06 4.12086883e-05
      4.06028048e-05 3.94208364e-05 5.67734469e-06 3.78129807e-05
      1.69630963e-04 8.28389893e-05 5.86599381e-05 7.33312572e-06
      1.81569139e-05 5.84681293e-05 3.96962350e-05 -1.28300564e-06
      -4.98682421e-05 3.87571026e-06 1.55194211e-04 7.23286284e-05
      2.77333074e-05 -8.26137330e-05 -1.72198561e-04 -9.00616578e-05
      -2.09260557e-04 -1.12543261e-04 9.12688629e-05 1.08488384e-04
      -5.73437283e-05 -6.98478325e-05 -5.30707257e-05 -6.91331879e-05
      -9.05351844e-05 -7.79126731e-06 6.89245917e-06 -6.51040231e-04
      -4.49448649e-04 -3.71369242e-04 -2.36222797e-04 -2.33036815e-04
      -4.45413607e-05 1.64033831e-04 1.67754421e-04 7.29661551e-05
      5.11661783e-05 5.69046242e-05 3.87314067e-05 4.06152867e-05
      3.57829376e-05 4.35514703e-05 3.99174569e-05 3.87185937e-05
      -4.62117277e-05 -1.46490871e-04 -3.85602616e-05 1.51766319e-04
      2.19695685e-05 -5.01032991e-05 -3.47785754e-05 1.86587422e-05
      6.75442498e-05 2.38250004e-06 -2.54303473e-06 -1.15084358e-05
      -6.53625466e-05 -2.37870117e-05 3.09228344e-05 2.94575409e-04
      1.35310591e-04 -2.39024166e-06 5.11046201e-05 3.04566856e-05
      -3.31918022e-06 -1.14038085e-06 3.38697173e-05 -9.22603249e-06
      8.69089035e-06 5.92852484e-05 7.87470999e-05 -7.24624697e-05
      -4.40455892e-07 5.71316377e-06 3.54622316e-05 2.95976624e-05
      1.08974527e-05 -6.09029667e-05 -2.05412834e-05 -1.38123709e-04
      -1.38584743e-04 -9.52906430e-06 -5.73827310e-05 3.87901537e-06
      5.95562306e-05 -2.73266369e-06 -2.73714522e-05 -7.10437307e-05
      -6.04052912e-05 -3.88827830e-05 -6.08137307e-05 -5.17485023e-05
      8.71280790e-05 3.64547850e-05 2.85283368e-05 3.92519814e-06
      1.86411089e-05 -5.23349227e-05 -9.61519254e-06 2.00859540e-05
      2.97175593e-05 -7.09144151e-05 -8.17235268e-05 -4.97036708e-05
      4.78484544e-05 1.55153131e-04 5.30196739e-05 3.30377588e-05
      -8.20998048e-06 -2.93424055e-05 -3.33171229e-05 1.10395586e-05
      -4.89205486e-05 -6.81414022e-05 2.59563731e-05 1.08490196e-04
      -3.01287528e-05 -1.45839702e-04 2.62208341e-05 1.58891253e-05
      1.70723126e-06 -1.45260165e-05 -5.48938733e-05 6.09959570e-05
      1.13671187e-04 -3.99697019e-05 6.15296522e-05 1.51743734e-04
      3.04491732e-05 -4.61241216e-05 -4.79642540e-06 9.47474200e-06
      1.59331703e-05 -1.14530754e-04 -6.22075822e-05 -3.07689443e-05
      1.05318531e-05 -4.73648979e-05 -8.96811543e-05 -4.21059376e-05
      -3.90622790e-06 -6.69179644e-05 -1.16791700e-04 -8.09888661e-05
      -4.18845557e-05 2.55461811e-04 2.61586451e-04 1.06991232e-04
      -6.93202019e-05 -2.62885034e-04 -3.08982620e-04 -2.11094710e-04
      -5.82706925e-05 2.21487862e-05 6.12455478e-05 -1.43601603e-04
      -1.16298092e-04 -3.14380195e-05 9.13417989e-06 -6.30545183e-05
      1.74459069e-06 -1.50300275e-06 -4.98965441e-04 -3.21128377e-04
      -9.94971051e-05 -9.34057607e-05 -9.86599043e-05 6.48487985e-05
      1.39343465e-04 6.60507721e-05 4.16886323e-05 4.23223719e-05
      4.79388946e-05 3.93192640e-05 3.71049646e-05 4.23740894e-05
      4.13747730e-05 4.24630525e-05 4.11365618e-05 -1.23465070e-05
      -1.22449943e-04 -4.80073541e-05 1.88890990e-04 8.91341624e-05
      1.37555071e-05 2.18436762e-05 5.48365424e-05 6.10971911e-05
      2.57875799e-05 2.00740687e-05 4.89271406e-05 -7.72212479e-06
      -6.26259061e-05 -7.12993497e-05 6.78733559e-05 9.43704581e-05
      2.20304119e-05 1.35075301e-04 1.42243734e-04 1.45052632e-04
      1.17031639e-04 9.57739485e-06 3.77942924e-05 -1.82976582e-05
      -6.00692465e-06 2.37252534e-05 -5.67306306e-05 2.76887858e-05
      7.61335759e-05 9.23961343e-05 3.56369819e-05 -1.21480389e-05
      -3.10141513e-05 -9.20262391e-06 -3.43256725e-05 -4.27615887e-05
      -2.06735567e-05 2.89785039e-05 1.00105870e-04 2.58763976e-05
      1.83121447e-05 3.33600074e-05 -1.87375481e-05 3.55339253e-05
      1.17584765e-04 9.03520686e-06 -7.00660848e-06 -4.37334384e-05
      -2.82752444e-05 9.56364893e-05 1.02305530e-04 1.90077717e-05
      8.53673464e-06 2.58438959e-05 6.19780258e-05 5.82487301e-05
      -3.88163971e-05 -5.14766689e-05 1.09546363e-05 -3.66444146e-05
      -2.62283138e-05 2.59929329e-05 5.10306018e-05 -1.81010619e-05
      8.08736422e-06 -8.86850739e-06 6.88239306e-05 4.86907556e-05
      -4.16396724e-05 -2.81565008e-05 1.32165616e-04 1.77304712e-04
      5.74349251e-05 3.02702283e-05 7.44311649e-07 -1.62781344e-05
      5.10684804e-05 7.01016734e-06 -1.39181420e-05 1.56016649e-05
      -9.72739417e-06 -8.24859580e-06 5.27901866e-05 -8.99929219e-05
      -1.11490925e-04 -3.19610513e-06 5.91295939e-05 7.29475942e-05
      1.96997389e-05 -7.53784552e-05 -1.12829701e-04 -3.00396550e-05
      -1.58240127e-05 -5.22145310e-05 -1.41188739e-05 -5.42551752e-05
      -2.51827059e-05 -2.29826001e-05 -4.37062990e-05 -3.06366892e-05
      1.99156675e-05 1.41131546e-04 9.67781816e-05 -6.64577819e-05
      -1.16087802e-04 -1.72808417e-04 -2.14692482e-04 -1.25613937e-04
      8.96422080e-06 5.65148839e-05 -7.36147995e-05 -8.19935085e-05
      2.29675770e-05 1.05513245e-05 -6.67975401e-05 -3.03947422e-06
      5.03534011e-06 -2.60114175e-04 -8.74031248e-05 3.83899642e-05
      5.01460590e-06 -4.47791763e-06 7.42611810e-05 3.95693132e-05
      3.43739739e-05 3.82992039e-05 4.58677532e-05 4.35625843e-05
      4.00362915e-05 3.82216313e-05 3.90742971e-05 4.00528625e-05
      4.13065536e-05 3.95542520e-05 2.98623727e-05 -2.81063349e-05
      6.00813246e-06 1.49202897e-04 1.00683930e-04 1.94443273e-05
      4.42300116e-05 9.22999025e-05 5.83752953e-05 2.74840149e-05
      3.45830922e-05 7.32038534e-05 1.92376519e-05 -7.89627211e-06
      -6.34307653e-05 1.24218641e-04 2.06821016e-04 1.72413085e-04
      2.04513752e-04 6.08275368e-05 1.06086576e-04 2.05333665e-04
      4.12787595e-05 -4.41556913e-05 -9.77654599e-06 3.63899089e-05
      4.85054952e-05 -9.36321885e-06 -1.29472421e-04 -1.19121527e-04
      3.48889334e-05 1.32723435e-05 3.28166789e-05 -5.24689369e-07
      1.52620778e-04 8.05454329e-05 -2.20814763e-05 -2.35454845e-05
      3.88913322e-05 1.07579115e-04 2.43406862e-06 -2.64294813e-05
      -1.44042988e-05 -3.56041164e-05 -3.36994090e-05 -2.13255262e-05
      1.27865360e-05 -3.86998399e-05 -7.37040755e-05 -1.22881393e-04
      -9.30534952e-05 -8.18423287e-05 -7.75036751e-05 -6.72700553e-05
      7.00716600e-06 4.76158020e-05 8.44383103e-05 4.04129059e-05
      8.69279393e-05 4.68097096e-06 -4.25653379e-05 -4.71358762e-05
      1.34283018e-05 2.72827638e-05 2.79633059e-05 4.75925008e-05
      4.44960351e-05 1.32623551e-04 1.31863435e-05 -4.77814683e-05
      4.79076043e-05 9.05751367e-05 6.43508611e-05 2.40226636e-05
      1.19998185e-05 1.37306342e-04 1.74450266e-04 2.53896200e-04
      1.89664861e-04 -1.57110514e-06 2.89368472e-05 9.48784000e-05
      4.56783273e-05 1.13412443e-05 1.39979049e-04 1.82854739e-04
      2.13887804e-04 1.15195835e-04 5.70872471e-05 5.06275683e-05
      1.53719502e-05 7.59917384e-05 -2.86428731e-05 1.44989957e-04
      1.61825708e-04 1.01250371e-04 1.35999318e-04 1.73954235e-04
      -4.36208647e-05 -8.33289669e-05 -9.06286459e-06 2.10539765e-05
      8.20787682e-05 1.45794358e-04 6.31964213e-05 5.84929512e-05
      -1.11985850e-04 -1.22711557e-04 -6.07587062e-05 1.12871850e-04
      9.23224798e-05 2.32100992e-05 6.27820409e-05 6.20354695e-05
      7.80346527e-05 -3.85001185e-05 -4.84329348e-06 5.09263919e-06
      -6.10328752e-05 1.03902690e-04 2.79296393e-04 1.16874638e-04
      1.31731667e-05 -9.46242744e-06 4.75092165e-05 3.44871769e-05
      3.90558307e-05 4.04922830e-05 4.15106042e-05 4.17987794e-05
      4.00236313e-05 4.13410198e-05 4.10717512e-05 4.04768834e-05
      3.96807554e-05 4.16635667e-05 3.38815989e-05 3.43552128e-05
      6.37304402e-05 1.38352130e-04 1.00623802e-04 1.19750555e-04
      1.47146086e-04 6.57914497e-05 1.99079877e-05 3.26906120e-05
      1.01921905e-04 5.67202187e-05 1.80925190e-06 -4.49820909e-05
      1.24493396e-04 2.95014470e-04 2.58629880e-04 1.10097215e-04
      -1.64546087e-04 -1.30927714e-04 3.64807420e-05 3.28438432e-06
      -5.60766603e-05 -3.44841355e-05 1.28782531e-05 4.13445705e-05
      3.21851985e-05 -1.66202954e-04 -1.94372828e-04 -4.20280448e-05
      -3.19112005e-05 -4.66063721e-05 -7.90402191e-05 -6.07051152e-05
      -8.53868096e-06 -9.44540152e-05 -8.03671210e-05 -2.17134238e-05
      -7.47689410e-05 -1.54872600e-04 -1.52392633e-04 -3.53813471e-06
      -7.66187713e-06 -5.91964490e-05 -1.55412999e-05 8.80873813e-06
      1.52608663e-05 3.27966336e-05 1.87221231e-05 4.62451180e-06
      2.61306777e-05 1.83669108e-05 -3.20697472e-05 -9.32047915e-05
      3.24492703e-07 -4.80951130e-05 -1.08146836e-04 3.40271508e-05
      -1.81765554e-05 -4.35096772e-05 -2.92782152e-05 -2.17317447e-05
      -3.07403279e-05 2.83778954e-05 -6.22084044e-05 -1.15872477e-04
      -9.18015030e-06 -2.15014134e-05 -2.62818303e-05 1.12595317e-05
      6.98405393e-06 1.30108319e-05 -3.96352443e-05 -3.93104783e-05
      2.93591911e-05 1.05691237e-04 1.63294288e-04 7.86459495e-05
      6.28447140e-07 2.54617116e-05 3.29047689e-05 2.73035857e-05
      6.00171152e-05 1.66912403e-04 2.10559461e-04 2.15746128e-04
      9.83134378e-05 4.21726545e-05 3.94682866e-05 2.43266295e-05
      1.20437535e-05 2.78634507e-05 5.38574532e-05 5.39842513e-05
      6.36494078e-05 9.03764958e-05 1.00144738e-04 -7.29092335e-06
      -5.47594827e-05 1.37654097e-05 3.84709638e-05 2.87446619e-05
      6.63497049e-05 1.42183664e-04 7.39903553e-05 -1.21595884e-04
      -1.77915543e-04 -1.15285948e-04 1.02924401e-04 7.74518485e-05
      3.96568139e-05 7.91833954e-05 -6.47955530e-05 -5.67340285e-05
      -4.61008676e-05 -4.04701808e-07 7.72767453e-06 3.84345767e-05
      1.00872698e-04 1.75925568e-04 6.86835047e-05 -2.91766719e-05
      3.60436279e-05 4.23796882e-05 3.79404119e-05 4.07824118e-05
      4.22417579e-05 4.13068483e-05 4.02504775e-05 4.09664317e-05
      4.00357712e-05 3.98563934e-05 4.18856689e-05 3.92071015e-05
      3.79081102e-05 4.19761600e-05 3.85767562e-05 3.97050244e-05
      6.39077334e-05 6.42004452e-05 7.08373555e-05 5.37946289e-05
      7.24605779e-05 6.49310095e-05 7.36995498e-05 7.90858103e-05
      4.39414398e-05 -2.90390290e-05 -5.65880555e-07 2.04966869e-04
      2.60386558e-04 1.98201073e-04 4.86255922e-05 -1.81976298e-04
      -9.91696506e-05 7.11536359e-06 -8.64723406e-05 -5.48739736e-05
      -5.15886277e-05 -1.87240967e-05 -2.55135928e-05 -2.95990994e-05
      -2.86552659e-05 -1.09686029e-04 -3.31505034e-05 -3.85196072e-05
      -6.90248198e-05 -1.08910841e-04 -5.72195204e-05 -2.83710888e-05
      -7.42446309e-06 -4.25964026e-05 -7.93397703e-05 -6.21324798e-05
      -8.20823261e-05 -1.04172643e-04 -1.11261012e-04 -6.52618473e-05
      -2.61457735e-05 -6.75486535e-06 -2.57891370e-05 -1.31428635e-06
      9.46173168e-06 -7.95639608e-07 1.72508044e-05 6.34193711e-05
      5.03311239e-05 -2.10245889e-05 -1.76313461e-05 -1.77401816e-05
      -5.11167709e-05 -3.44708169e-05 -7.19567061e-06 2.40539265e-07
      -5.70538396e-06 -6.57835653e-06 -4.41774573e-05 -6.12501972e-05
      -2.03687541e-05 -3.52891075e-05 -2.23997195e-05 2.62586900e-06
      -1.70310195e-05 -6.81309893e-06 3.40220504e-05 3.96528121e-05
      3.80138335e-05 3.25333785e-05 3.32656382e-05 2.77070103e-05
      2.00374416e-05 2.04902244e-05 3.14957360e-05 3.45659391e-05
      3.54565709e-05 3.99941055e-05 4.33090536e-05 2.50248486e-05
      2.53493999e-05 6.70298687e-05 8.76974809e-05 5.63639587e-05
      3.97736039e-05 4.11766705e-05 2.93262074e-05 3.29746363e-05
      3.06188667e-05 3.76786520e-05 4.10533939e-05 4.23413221e-05
      5.07349250e-06 8.80339212e-06 -2.12352404e-07 -1.69066340e-07
      2.05871420e-05 3.34509750e-05 4.48992469e-05 6.25892790e-05
      7.29404928e-05 3.78530094e-05 -9.59650788e-05 -8.39834101e-05
      -9.26535577e-05 9.23690677e-05 6.84149782e-05 5.90721247e-05
      2.23611223e-05 -1.56679176e-04 -1.14714814e-04 -3.07068840e-05
      -2.73353362e-06 1.31781189e-06 5.08639532e-05 1.35471309e-05
      3.44573564e-05 1.99618135e-05 3.87820110e-05 4.22711601e-05
      3.84541854e-05 4.25566468e-05 4.00372919e-05 4.12845948e-05
      3.96706746e-05 4.03711383e-05 4.02498263e-05 4.11445217e-05
      4.09706518e-05 4.10700559e-05 3.96759242e-05 3.93685514e-05
      4.10722678e-05 4.07853222e-05 3.92961992e-05 4.10807625e-05
      2.13873936e-05 2.12533596e-05 8.03957155e-05 7.77642272e-05
      7.14538110e-05 7.21874530e-05 7.90574413e-05 4.37400558e-05
      -3.88948501e-06 4.65164703e-05 1.22281170e-04 1.09881650e-04
      4.00578247e-05 3.69012596e-05 2.28464364e-06 1.97211048e-05
      5.53972641e-05 1.07869473e-05 -2.48694550e-06 -1.07151200e-05
      -4.81690631e-06 -5.26163467e-06 -1.19987808e-05 2.72983675e-06
      -1.55773105e-05 -2.37183594e-05 -5.96538257e-06 -1.72651580e-05
      -1.67713515e-05 -4.02911655e-06 -4.91733681e-06 1.36832909e-07
      -7.02721627e-06 7.63184687e-07 -6.18741888e-06 -6.71756607e-06
      -4.08995402e-06 -1.10326537e-05 -1.53491073e-05 -7.90026388e-06
      -6.09062863e-06 -3.72611044e-06 1.40526117e-06 5.08866549e-07
      1.74390925e-06 3.70481794e-05 3.76711505e-05 3.95107527e-05
      3.30697003e-05 3.62169958e-05 3.48819922e-05 -4.41248267e-06
      -2.98175314e-06 -1.40959105e-06 3.07547907e-06 5.82259190e-07
      2.29651209e-06 2.94071720e-06 2.64698883e-06 -1.43346455e-07
      -4.05017636e-06 1.19029346e-06 2.35588413e-06 1.76495223e-06
      3.73167609e-06 4.03109989e-05 4.24325372e-05 4.45516525e-05
      4.05857900e-05 4.26504994e-05 3.99861892e-05 4.51984088e-05
      3.90184941e-05 3.94539311e-05 4.38302595e-05 3.97736876e-05
      3.78609184e-05 4.02672813e-05 2.62105514e-05 1.94212662e-05
      2.75478815e-05 2.66472998e-05 2.95748105e-05 3.64072584e-05
      4.04337916e-05 8.42005193e-06 8.60182354e-06 1.22827814e-05
      1.96937817e-05 2.01666880e-05 1.91476429e-05 3.78766390e-06
      3.15565512e-06 3.52610027e-06 2.67672817e-06 4.06338768e-06
      6.58482395e-06 3.06499460e-05 5.03813753e-05 6.02487598e-05
      -3.91837557e-06 5.82105349e-06 -1.77881942e-04 -1.59363321e-04
      5.22927185e-05 3.71051829e-05 4.00554927e-06 2.97727602e-05
      -1.08622999e-05 -5.93267250e-05 -2.90717817e-05 5.97952248e-06
      1.47852802e-06 5.31072328e-05 5.08242738e-05 4.77745671e-05
      4.83695512e-05 3.75864729e-05 4.00603931e-05 3.83023507e-05
      3.49942748e-05 4.10790672e-05 4.03403974e-05 3.97881849e-05
      4.10535758e-05 3.83792831e-05 4.04544262e-05 4.00383578e-05
      4.10395151e-05 4.08840897e-05 3.88190019e-05 3.93488626e-05
      3.99596975e-05 3.70081798e-05 3.63934741e-05 3.23589375e-05
      9.34477248e-06 2.06407767e-05 7.58543538e-05 8.38896085e-05
      6.72543829e-05 9.18030128e-05 3.70089365e-05 2.81667180e-05
      3.61838320e-05 1.27030056e-04 1.26754545e-04 9.76703159e-05
      4.42511810e-05 4.91915780e-05 8.15466483e-05 8.30011631e-05
      6.04978923e-05 8.09585799e-06 7.42814336e-06 1.68327722e-06
      -3.09920551e-07 1.23384314e-06 -1.96208407e-06 -1.92170683e-06
      -4.73515399e-07 -2.54615111e-06 -5.06586002e-06 3.20372692e-06
      -5.36544519e-07 -3.23898007e-06 -1.97560371e-06 -1.42353610e-06
      -3.36096309e-06 -6.33235777e-06 -4.22206449e-06 -5.11096800e-07
      -2.92001300e-06 -1.20472396e-06 -1.24508585e-06 -4.78511879e-08
      6.84373163e-06 6.56224938e-06 -2.30849514e-06 -1.82938561e-06
      3.38564569e-05 3.69128284e-05 3.73447656e-05 3.58622237e-05
      3.52868046e-05 3.67882858e-05 2.14318152e-05 -1.52796929e-06
      9.42492989e-07 3.65017144e-07 -1.74940305e-06 -1.37226357e-06
      4.40808253e-06 2.43371369e-06 3.15601733e-06 5.51741870e-08
      7.50377058e-06 8.65807851e-06 4.40149643e-06 1.10908104e-06
      4.08322740e-05 4.04118218e-05 3.68756082e-05 4.19252538e-05
      4.41310185e-05 4.16365365e-05 4.16270705e-05 4.02289152e-05
      2.09833197e-05 1.62103024e-05 1.88931554e-05 2.57290558e-05
      2.74141239e-05 9.81209269e-06 2.35904554e-06 4.95579343e-07
      5.37638107e-06 8.71873726e-06 1.41838973e-05 1.47156225e-05
      5.13528857e-06 4.98107329e-06 3.60538547e-06 5.71487772e-06
      1.88151512e-06 2.26998645e-06 3.01587488e-06 4.43932731e-06
      6.92158437e-07 -1.01244882e-06 -7.52489484e-07 7.71886732e-07
      1.54136342e-05 4.36651499e-05 5.10410282e-05 3.45990484e-05
      4.84308912e-05 8.53191614e-06 -7.56694717e-05 5.14954299e-05
      9.21744577e-05 2.67883024e-05 -1.41784449e-06 -1.03472463e-04
      -1.43498110e-04 -3.51677299e-05 -2.62443382e-06 5.66868891e-07
      4.30873333e-05 4.87807338e-05 4.62861135e-05 4.48871288e-05
      4.62941280e-05 3.89219895e-05 4.25965554e-05 3.91457979e-05
      3.19375831e-05 2.22213457e-05 2.01656585e-05 1.58911771e-05
      2.26941611e-05 3.22401720e-05 4.00098943e-05 3.84404520e-05
      3.29001487e-05 2.79349570e-05 2.46652453e-05 2.07278426e-05
      1.63696532e-05 1.18534326e-05 7.13545978e-06 4.78775064e-06
      3.27580019e-05 9.83367427e-05 5.99383129e-05 4.66743913e-05
      1.12508395e-04 3.68512920e-05 2.21336068e-05 2.59314584e-05
      4.44184698e-05 1.35115202e-04 1.79493931e-04 9.82801939e-05
      5.16826331e-05 6.01022293e-05 7.15600108e-05 6.23749147e-05
      3.97772092e-05 4.47369966e-05 -2.16996636e-06 4.69566749e-06
      4.11620340e-06 2.79281176e-06 -1.44724902e-06 -2.39306769e-06
      6.45208775e-06 -1.42769352e-06 -2.71681506e-06 -2.61278024e-06
      -1.33156925e-06 1.88316278e-06 -4.07836887e-06 2.26275233e-06
      -2.66162004e-07 -3.81276976e-07 -1.63123343e-06 -2.39867268e-06
      -5.15895692e-07 2.67072255e-06 -1.16214949e-06 -2.64583173e-06
      -3.49050333e-06 -3.72753220e-07 6.63960122e-08 3.56757737e-05
      3.95608149e-05 4.00375357e-05 3.71649185e-05 3.60723825e-05
      3.67019929e-05 2.75552102e-05 1.47300682e-06 -1.97147619e-06
      9.26974906e-07 3.89350407e-06 1.32542607e-06 3.92137690e-06
      4.30288037e-06 3.06960396e-06 3.56454575e-06 2.63826223e-06
      2.23025700e-06 2.19599474e-06 3.41638582e-07 4.38889438e-05
      4.63641700e-05 2.59742192e-05 1.31582601e-05 2.19694066e-05
      2.16979515e-05 2.36540036e-05 2.69384818e-05 4.83752774e-06
      -8.26454766e-07 1.41628789e-07 -1.00095656e-06 2.93092421e-06
      -4.27768541e-08 -2.44964411e-07 3.76526145e-06 -6.55474651e-07
      1.01625869e-06 2.32513713e-07 4.76422542e-07 2.55932673e-06
      1.41635962e-06 3.75418585e-06 1.25308486e-06 -1.23953576e-08
      -1.16115120e-06 -3.79680017e-07 3.25374515e-07 -2.08385558e-07
      -8.78150615e-07 -4.09866459e-07 -9.37191260e-07 3.97203985e-06
      3.09218631e-05 5.30305042e-05 6.74264811e-05 1.42646953e-04
      1.26208470e-04 8.75528058e-05 7.34238056e-05 9.36976139e-05
      -4.04416496e-05 3.13685559e-05 -2.48249962e-05 -4.38996867e-05
      -2.78970765e-05 5.47339050e-06 2.84169914e-06 3.67649263e-05
      3.49335460e-05 4.47789316e-05 4.96968169e-05 3.30467228e-05
      2.11847928e-05 2.19090089e-05 9.41896724e-06 2.42854685e-06
      3.07707637e-06 2.98559917e-06 9.83489736e-06 8.71606244e-06
      1.28322508e-05 2.69038628e-05 1.58341700e-05 9.11016105e-06
      8.20093828e-06 4.23380652e-06 2.25193185e-06 4.82075666e-06
      7.36991865e-07 -1.48536185e-06 3.46205752e-07 2.30974329e-05
      8.78058054e-05 8.66627306e-05 4.60429255e-05 8.62105226e-05
      3.36177654e-05 5.27392694e-05 2.73380065e-05 4.81388597e-05
      1.41063487e-04 2.43388145e-04 1.60269774e-04 4.51438282e-05
      2.23619554e-05 2.60126508e-05 4.80528506e-05 7.34087807e-05
      7.43928831e-05 6.16070247e-05 4.01292673e-05 2.37931886e-06
      -7.60042610e-07 3.31491776e-07 -1.32402897e-06 -2.92770028e-06
      -4.49042636e-06 4.91723085e-06 5.72199042e-06 -1.48975278e-06
      -6.85825171e-06 -3.88288890e-06 -2.49165532e-06 -5.88634157e-06
      8.95914184e-07 -2.29433203e-06 4.40641179e-06 3.53174960e-06
      -1.03323407e-06 -2.63148263e-06 -1.03204820e-06 -5.19282821e-07
      -2.13818041e-07 3.04868104e-06 3.40971783e-05 3.67911562e-05
      3.67105968e-05 3.52958668e-05 3.46398701e-05 4.02342157e-05
      2.54815641e-05 7.97837970e-07 5.89695856e-06 2.37696349e-06
      8.17361240e-07 3.85036310e-06 3.44898154e-07 6.22354082e-06
      3.25573569e-06 5.00715259e-06 3.64951347e-06 3.33987555e-06
      8.52571429e-06 3.77586935e-06 4.06340660e-05 3.32316959e-05
      1.54472236e-05 7.02662510e-06 1.21866151e-06 -1.75316288e-07
      -1.47304536e-06 2.58003115e-06 7.50056870e-07 7.87605302e-07
      1.66465088e-06 -1.48005870e-06 2.94978719e-07 2.43812991e-07
      -1.14746899e-06 2.60460979e-06 -5.52817482e-07 2.35859318e-07
      -8.22291724e-07 1.54209147e-07 -5.09659834e-08 1.06336540e-06
      1.97241388e-06 -2.09915743e-06 2.53635631e-06 1.81264284e-07
      2.10246321e-06 4.68893944e-07 2.41368014e-07 -5.60044064e-08
      -6.80513210e-07 2.16918215e-06 2.71688214e-06 2.46030031e-05
      3.09926327e-05 2.95675545e-05 9.32639960e-05 6.16129764e-05
      -2.61374989e-05 8.92103344e-05 -7.95877327e-07 -1.16328622e-04
      3.01920481e-05 2.16461558e-05 -5.57362910e-05 -1.60927848e-05
      -1.35548567e-06 1.00525767e-06 1.60452018e-05 2.32645652e-05
      2.20850525e-05 2.03778018e-05 1.06169473e-05 3.63535514e-06
      1.95352800e-06 1.38161749e-05 2.62656540e-05 4.16401926e-05
      1.20461509e-05 3.79056364e-05 3.30447219e-05 1.20087479e-05
      5.09097554e-05 3.58508987e-05 2.09111276e-05 3.01309751e-06
      -2.54899930e-07 -2.78455491e-06 -1.33032256e-06 -2.48125218e-07
      1.16405931e-06 -1.77453012e-06 4.50555945e-06 1.53845340e-05
      9.84917424e-05 6.33789678e-05 6.76165801e-05 6.47316556e-05
      1.89487182e-05 1.29727250e-05 5.19905370e-05 1.13609480e-04
      1.96822148e-04 2.26456134e-04 9.65230865e-05 7.20807948e-05
      3.44257824e-05 3.19405262e-05 5.05781936e-05 6.44507745e-05
      7.25373029e-05 5.60660810e-05 8.42627014e-06 -3.18227944e-06
      -3.96336372e-06 3.89123159e-07 3.34056313e-06 -1.71598651e-06
      1.78099108e-05 3.26845657e-05 6.87147440e-06 -1.63218726e-06
      7.24619758e-06 -3.06196353e-06 -3.94313901e-07 3.19698302e-06
      -3.85516432e-06 -3.71048282e-06 5.66396182e-07 -1.51265920e-06
      -1.98637781e-06 8.73084048e-07 -1.96405335e-06 -1.14599106e-06
      -3.08719655e-06 3.50538176e-05 4.08952546e-05 3.42100029e-05
      2.43183567e-05 1.89460516e-05 3.58255165e-05 1.61263688e-05
      -5.22363734e-07 6.11240978e-08 9.87347221e-07 6.19909656e-07
      3.21157631e-06 4.41481416e-06 2.23864936e-06 6.23932237e-06
      3.60495278e-06 5.14813746e-06 1.67437361e-06 2.83089639e-06
      5.60879153e-06 4.31382905e-05 2.61140231e-05 2.93478024e-06
      1.64355333e-06 -1.75873015e-06 2.29415423e-06 1.03838215e-06
      -2.70551396e-07 2.27837222e-06 1.60584818e-07 -1.67832945e-06
      -6.29692579e-07 9.97129348e-08 -1.64885378e-07 -1.52075941e-07
      -1.28358033e-06 3.98694146e-06 3.91311431e-07 -4.46204837e-07
      -7.61790773e-08 -3.40892456e-07 -5.26199358e-07 3.67305097e-06
      -6.30969453e-07 1.45585443e-06 4.51682899e-06 -2.43092614e-07
      -7.06228533e-08 -1.08694030e-06 -1.24737383e-07 -7.62218576e-07
      4.86673514e-07 7.49577566e-06 2.92866134e-05 2.82314031e-05
      -3.93265691e-05 -7.90698541e-05 7.81289127e-05 3.12860320e-05
      3.80469428e-05 6.87430793e-06 -1.72465487e-04 2.62557387e-05
      1.16331175e-04 2.66474708e-05 -2.30940204e-05 -3.46935144e-06
      2.09325208e-06 2.30124988e-05 8.05952095e-06 1.29737236e-05
      1.18616845e-05 2.54154838e-05 4.86261997e-05 1.66796981e-05
      1.02886215e-05 3.50905357e-05 -1.87568858e-05 1.15726716e-05
      2.56794556e-05 2.42155238e-05 1.88183803e-05 3.63219260e-05
      2.01508537e-05 1.94062086e-05 3.13545388e-05 -7.39594725e-06
      -9.63963521e-06 -7.34210687e-07 2.95140381e-07 -9.77799914e-07
      -1.63736630e-07 2.23992674e-06 1.05618055e-05 8.02239265e-06
      8.56546558e-06 7.24047732e-06 3.10966279e-05 4.14288952e-05
      2.19338981e-05 4.22416451e-06 6.01320207e-05 9.75088551e-05
      1.25960665e-04 1.84689256e-04 1.39139796e-04 8.16126339e-05
      5.00397837e-05 3.26207264e-05 3.01216132e-05 4.94311898e-05
      4.36749178e-05 4.28735038e-05 6.20062056e-05 5.77174615e-05
      3.05269168e-05 -2.09331051e-06 1.23253294e-05 4.40921940e-05
      4.64262739e-05 1.45954082e-05 -1.10726194e-06 8.46293574e-07
      1.79223036e-06 1.09841858e-06 -1.63230641e-06 3.80150118e-06
      -6.76058960e-07 -1.02814511e-06 -4.61848776e-06 1.41400130e-06
      -4.35883430e-06 -2.18342166e-06 -1.37483642e-06 1.46722346e-06
      1.98136786e-05 2.34268555e-05 2.91044817e-05 5.69298152e-07
      4.72255306e-06 2.64558767e-05 4.53740654e-07 3.73645048e-06
      6.67247286e-06 2.66475467e-06 5.19486093e-06 5.66818471e-07
      2.82211340e-06 3.15678244e-06 3.98986367e-06 1.71461761e-06
      2.59043327e-06 2.87803482e-06 2.15383579e-06 1.43234474e-05
      3.95897332e-05 3.09043862e-05 6.52014614e-06 4.40070471e-06
      7.99623308e-07 -4.91993262e-07 -9.55129167e-07 1.33635652e-07
      -1.41973578e-06 -1.93917026e-06 3.83838233e-06 -7.18864612e-07
      -6.10604729e-07 1.19591641e-06 -1.23778432e-06 1.03067271e-06
      -1.50328140e-06 -6.23267169e-07 2.56924272e-06 -6.15681188e-07
      -4.33436149e-08 -1.32555488e-06 1.33116123e-06 -1.25710881e-06
      -6.76960326e-07 -6.63365483e-07 -4.62482541e-09 1.45307479e-06
      -1.14558695e-07 -6.01622446e-07 1.30082356e-06 1.74607692e-06
      1.35042301e-05 3.12881821e-05 4.54078145e-05 2.26033098e-05
      4.78967704e-05 1.38553747e-04 3.56665150e-05 1.12173338e-05
      5.58300999e-05 3.81343707e-05 2.57794691e-05 9.17791622e-05
      1.92765219e-05 -2.26963439e-05 1.63303071e-06 -1.57291447e-06
      2.48947999e-05 2.87468974e-05 3.05402355e-05 2.20704533e-05
      6.10196366e-05 5.64704533e-05 6.50691727e-05 1.43066291e-05
      -5.26163531e-05 -4.87678190e-05 -1.98605812e-06 9.30720398e-06
      -2.49002660e-05 -7.14140187e-05 8.54076279e-06 1.00318784e-05
      3.67234134e-05 5.32605372e-05 6.82666359e-05 7.15552451e-05
      -1.09174734e-05 -7.87979661e-06 -2.70210762e-06 4.59827874e-07
      1.20902840e-07 1.30551950e-06 8.96750123e-08 6.01745342e-07
      6.59736884e-07 2.93958146e-06 1.99626302e-05 1.70458788e-05
      4.56005400e-05 7.52619962e-05 1.52587279e-04 1.25919687e-04
      1.51141343e-04 1.78758171e-04 2.38448527e-04 1.65370773e-04
      8.66883129e-05 7.10589593e-05 4.75481902e-05 3.06596557e-05
      5.14351341e-05 7.33767811e-05 7.76790039e-05 4.03876911e-05
      1.25307861e-06 3.14214012e-05 6.66730775e-05 3.37031888e-05
      3.33613366e-06 3.66800919e-06 1.86005195e-06 3.90067441e-07
      5.67584948e-07 8.51377422e-07 8.01296380e-07 3.00486136e-07 0. 0.
      5.00810238e-08 0. 4.60750869e-07 0. 1.71158646e-07 6.10107350e-07
      2.61050513e-06 6.54644055e-06 1.74296713e-06 4.85032569e-06
      1.26438854e-05 3.91901085e-06 3.94266590e-06 4.09519271e-06
      4.01278385e-06 4.24771952e-06 3.92720449e-06 4.16531066e-06
      3.94266590e-06 4.23225811e-06 3.94266590e-06 3.94266590e-06
      3.89628167e-06 3.61588832e-06 8.44201259e-06 3.51083108e-05
      4.01621801e-05 4.96234088e-06 1.52526837e-07 0. 1.67988262e-07 0.
      1.67988262e-07 0. 0. 0. 0. 0. 0. 0. 0. 0. 0. 0. 0. 0. 0. 0. 0. 0.
      8.78156783e-08 4.59637235e-08 4.59637235e-08 1.59412451e-07
      1.59465870e-07 4.34302024e-07 9.91657271e-06 2.64184782e-05
      4.96786997e-05 5.01664035e-05 -2.30838486e-05 -6.08798728e-05
      9.54041388e-05 -3.38881728e-05 1.33282811e-05 3.20672261e-05
      1.48563791e-04 1.89547936e-04 9.70146502e-05 3.18117927e-05
      -1.20875693e-05 4.08573669e-07 5.46976798e-06 3.74700430e-05
      6.83938415e-05 4.58379400e-05 9.03992259e-05 4.09328823e-05
      1.21284020e-05 -3.02061380e-05 -4.25019607e-05 -3.96343712e-05
      -5.21254842e-05 -1.00070625e-04 -7.91013808e-05 -3.94403723e-05
      -3.00485244e-05 -7.17428629e-05 -6.17952683e-05 3.83612423e-05
      3.75039490e-05 4.76787500e-05 5.64716756e-05 -1.59308202e-05
      -6.17079713e-05 -9.98505766e-06 1.45888168e-06 4.05682925e-07
      4.93913205e-07 2.62981501e-07 1.11611155e-06 8.51377422e-07
      3.04550872e-06 1.36013950e-05 2.34907056e-05 3.90804926e-05
      7.69731560e-05 1.43135432e-04 1.56696944e-04 1.65571575e-04
      1.98852882e-04 3.41907173e-04 3.86053784e-04 2.30461257e-04
      1.46778635e-04 1.25836479e-04 4.08236119e-05 3.23380846e-05
      5.59925138e-05 7.32778717e-05 7.03563201e-05 8.01333154e-05
      1.11407513e-04 9.56678778e-05 3.33605749e-05 5.74726437e-06
      4.78840661e-07 1.81929715e-06 7.80497146e-07 5.67584948e-07
      2.67098784e-07 0. 0. 3.33873480e-08 1.66936740e-08 0. 0. 0.
      2.38106153e-07 0. 2.69029016e-07 1.06900472e-06 2.68920712e-06
      2.73883984e-06 5.76078583e-06 1.17018617e-05 9.76245065e-06
      5.88501325e-06 3.91174308e-06 3.94266590e-06 4.01278385e-06
      3.92720449e-06 4.09519271e-06 3.89628167e-06 3.94266590e-06
      3.94266590e-06 3.94057861e-06 3.81271207e-06 2.67482824e-06
      2.55824830e-06 2.57628126e-05 3.86862339e-05 1.22021470e-06
      1.52526837e-07 1.54614348e-08 1.54614348e-08 0. 0. 0. 0. 0. 0. 0.
      0. 0. 0. 0. 0. 0. 0. 0. 0. 0. 0. 0. 6.86939359e-07 2.22942688e-07
      8.78156783e-08 2.84040709e-07 0. 4.22912905e-07 9.20173898e-06
      3.19013416e-05 5.38388122e-05 5.96078025e-05 -7.89650221e-05
      -4.19103053e-05 1.35746144e-04 7.23545891e-05 -2.98655578e-07
      -4.13549351e-05 1.26263130e-05 1.92422274e-04 2.50450539e-04
      8.92599273e-05 -2.82974861e-06 3.08766585e-06 -3.54524423e-06
      1.95417033e-05 -1.19316819e-05 6.17233354e-06 -6.56606426e-05
      -9.96883100e-05 -6.99190714e-05 -6.12526055e-05 -3.94036033e-05
      -6.73059403e-05 -5.51264202e-05 -5.44654940e-05 -2.79559772e-05
      -1.67148119e-05 -5.12009274e-06 -2.36254109e-05 -4.49885047e-05
      -6.21124173e-06 3.01833315e-05 3.19859755e-05 3.36137200e-05
      5.50421555e-06 -1.12947950e-04 -5.22907976e-05 -1.85518445e-06
      1.58058910e-07 6.17157639e-07 8.60609987e-07 6.63559490e-07
      4.80077517e-07 2.02879718e-07 2.22295239e-06 1.39618051e-05
      1.77018592e-05 2.97837560e-05 1.21760721e-04 1.28116764e-04
      9.79634424e-05 1.68057581e-04 3.00741784e-04 3.12020944e-04
      2.04520882e-04 2.77818617e-04 3.12073127e-04 1.47817816e-04
      3.65771411e-05 3.05186077e-05 3.08537710e-05 3.16028891e-05
      8.21324793e-05 1.33670386e-04 1.43625890e-04 1.11507259e-04
      5.66130293e-05 1.16167384e-05 7.44815281e-07 4.25824425e-07 0. 0.
      0. 0. 0. 0. 0. 1.66936740e-08 1.16502193e-07 1.52526837e-07
      3.32962287e-07 1.23591019e-06 1.85537226e-06 7.20156822e-06
      1.23599048e-05 1.49357129e-05 2.09813115e-05 1.44271044e-05
      4.86648969e-06 3.94266590e-06 4.31783747e-06 4.01278385e-06
      3.91174308e-06 3.94266590e-06 4.09519271e-06 3.94266590e-06
      3.67982170e-06 3.13867145e-06 2.44290686e-06 1.68529641e-06
      1.02045476e-06 2.39818110e-05 3.90644163e-05 1.28122538e-05
      3.09228696e-08 0. 3.05053675e-07 0. 1.54614348e-08 0. 0. 0. 0. 0.
      0. 0. 0. 0. 0. 0. 0. 0. 0. 0. 0. 0. 0. 8.78156783e-08
      3.18931740e-07 5.84672591e-07 3.62811249e-07 1.37440077e-06
      4.66408756e-06 2.87894127e-05 5.82639514e-05 8.02134018e-05
      6.97132054e-05 2.45146148e-05 3.79882258e-05 -3.19998981e-05
      -1.16834119e-04 -7.50564577e-05 -2.47543830e-05 3.84052109e-05
      2.45146861e-04 1.33024107e-04 -2.47282674e-06 1.12909426e-07
      -4.85721466e-06</_></support_vectors>
  <uncompressed_sv_total>224</uncompressed_sv_total>
  <uncompressed_support_vectors>
    <_>
      0. 0. 0. 0. 0. 0. 0. 0. 0. 0. 0. 0. 0. 0. 0. 0. 0. 0. 0. 0. 0. 0.
      0. 0. 0. 0. 0. 0. 0. 0. 0. 0. 0. 0. 0. 0. 0. 0. 0. 0. 0. 0. 0. 0.
      0. 0. 0. 0. 0. 0. 0. 0. 0. 0. 0. 0. 0. 0. 0. 0. 0. 0. 0. 0. 0. 0.
      0. 0. 0. 0. 0. 0. 0. 0. 0. 0. 0. 0. 0. 0. 0. 0. 0. 0. 0. 0. 0. 0.
      0. 0. 0. 0. 0. 0. 0. 0. 0. 0. 0. 0. 0. 0. 0. 0. 0. 0. 0. 0. 0. 0.
      0. 0. 0. 0. 0. 0. 0. 0. 0. 0. 0. 0. 0. 0. 0. 0. 0. 0. 0. 0. 0. 0.
      0. 0. 0. 0. 0. 0. 0. 0. 0. 0. 0. 0. 0. 0. 0. 0. 0. 0. 0. 0. 0. 0.
      0. 0. 0. 0. 0. 0. 0. 0. 0. 0. 0. 0. 0. 0. 0. 0. 0. 0. 0. 0. 0. 0.
      0. 0. 0. 0. 0. 0. 0. 0. 0. 0. 0. 0. 0. 0. 0. 0. 0. 0. 0. 0. 0. 0.
      0. 0. 0. 0. 0. 0. 0. 0. 0. 0. 0. 0. 0. 0. 0. 0. 0. 0. 0. 0. 0. 0.
      0. 0. 0. 0. 0. 0. 0. 0. 0. 0. 0. 0. 0. 0. 0. 0. 0. 0. 0. 0. 0. 0.
      0. 0. 0. 0. 0. 0. 0. 0. 0. 0. 0. 0. 0. 0. 0. 0. 0. 0. 0. 0. 0. 0.
      0. 0. 0. 0. 0. 0. 0. 0. 0. 0. 0. 0. 0. 0. 0. 0. 0. 0. 0. 0. 0. 0.
      0. 0. 0. 0. 0. 0. 0. 0. 0. 0. 0. 0. 0. 0. 0. 0. 0. 0. 0. 0. 0. 0.
      0. 0. 0. 0. 0. 0. 0. 0. 0. 0. 0. 0. 0. 0. 0. 0. 0. 0. 0. 0. 0. 0.
      0. 0. 0. 0. 0. 0. 0. 0. 0. 0. 0. 0. 0. 0. 0. 0. 0. 0. 0. 0. 0. 0.
      0. 0. 0. 0. 0. 0. 0. 0. 0. 0. 0. 0. 0. 0. 0. 0. 0. 0. 0. 0. 0. 0.
      0. 0. 0. 0. 0. 0. 0. 0. 0. 0. 0. 0. 0. 0. 0. 0. 0. 0. 0. 0. 0. 0.
      0. 0. 0. 0. 0. 0. 0. 0. 0. 0. 0. 0. 0. 0. 0. 0. 0. 0. 0. 0. 0. 0.
      0. 0. 0. 0. 0. 0. 0. 0. 0. 0. 0. 0. 0. 0. 0. 0. 0. 0. 0. 0. 0. 0.
      0. 0. 0. 0. 0. 0. 0. 0. 0. 0. 0. 0. 0. 0. 0. 0. 0. 0. 0. 0. 0. 0.
      0. 0. 0. 0. 0. 0. 0. 0. 0. 0. 0. 0. 0. 0. 0. 0. 0. 0. 0. 0. 0. 0.
      0. 0. 0. 0. 0. 0. 0. 0. 0. 0. 0. 0. 0. 0. 0. 0. 0. 0. 0. 0. 0. 0.
      0. 0. 0. 0. 0. 0. 0. 0. 0. 0. 0. 0. 0. 0. 0. 0. 0. 0. 0. 0. 0. 0.
      0. 0. 0. 0. 0. 0. 0. 0. 0. 0. 0. 0. 0. 0. 0. 0. 0. 0. 0. 0. 0. 0.
      0. 0. 0. 0. 0. 0. 0. 0. 0. 0. 0. 0. 0. 0. 0. 0. 0. 0. 0. 0. 0. 0.
      0. 0. 0. 0. 0. 0. 0. 0. 0. 0. 0. 0. 0. 0. 0. 0. 0. 0. 0. 0. 0. 0.
      0. 0. 0. 0. 0. 0. 0. 0. 0. 0. 0. 0. 0. 0. 0. 0. 0. 0. 0. 0. 0. 0.
      0. 0. 0. 0. 0. 0. 0. 0. 0. 0. 0. 0. 0. 0. 0. 0. 0. 0. 0. 0. 0. 0.
      0. 0. 0. 0. 0. 0. 0. 0. 0. 0. 0. 0. 0. 0. 0. 0. 0. 0. 0. 0. 0. 0.
      0. 0. 0. 0. 0. 0. 0. 0. 0. 0. 0. 0. 0. 0. 0. 0. 0. 0. 0. 0. 0. 0.
      0. 0. 0. 0. 0. 0. 0. 0. 0. 0. 0. 0. 0. 0. 0. 0. 0. 0. 0. 0. 0. 0.
      0. 0. 0. 0. 0. 0. 0. 0. 0. 0. 0. 0. 0. 0. 0. 0. 0. 0. 0. 0. 0. 0.
      0. 0. 0. 0. 0. 0. 0. 0. 0. 0. 0. 0. 0. 0. 0. 0. 0. 0. 0. 0. 0. 0.
      0. 0. 0. 0. 0. 0. 0. 0. 0. 0. 0. 0. 0. 0. 0. 0. 0. 0. 0. 0. 0. 0.
      0. 0. 0. 0. 0. 0. 0. 0. 0. 0. 0. 0. 0. 0. 0. 0. 0. 0. 0. 0. 0. 0.
      0. 0. 0. 0. 0. 0. 0. 0. 0. 0. 0. 0. 0. 0. 0. 0. 0. 0. 0. 0. 0. 0.
      0. 0. 0. 0. 0. 0. 0. 0. 0. 0. 0. 0. 0. 0. 0. 0. 0. 0. 0. 0. 0. 0.
      0. 0. 0. 0. 0. 0. 0. 0. 0. 0. 0. 0. 0. 0. 0. 0. 0. 0. 0. 0. 0. 0.
      0. 0. 0. 0. 0. 0. 0. 0. 0. 0. 0. 0. 0. 0. 0. 0. 0. 0. 0. 0. 0. 0.
      0. 0. 0. 0. 0. 0. 0. 0. 0. 0. 0. 0. 0. 0. 0. 0. 0. 0. 0. 0. 0. 0.
      0. 0. 0. 0. 0. 0. 0. 0. 0. 0. 0. 0. 0. 0. 0. 0. 0. 0. 0. 0. 0. 0.
      0. 0. 0. 0. 0. 0. 0. 0. 0. 0. 0. 0. 0. 0. 0. 0. 0. 0. 0. 0. 0. 0.
      0. 0. 0. 0. 0. 0. 0. 0. 0. 0. 0. 0. 0. 0. 0. 0. 0. 0. 0. 0. 0. 0.
      0. 0. 0. 0. 0. 0. 0. 0. 0. 0. 0. 0. 0. 0. 0. 0. 0. 0. 0. 0. 0. 0.
      0. 0. 0. 0. 0. 0. 0. 0. 0. 0. 0. 0. 0. 0. 0. 0. 0. 0. 0. 0. 0. 0.
      0. 0. 0. 0. 0. 0. 0. 0. 0. 0. 0. 0. 0. 0. 0. 0. 0. 0. 0. 0. 0. 0.
      0. 0. 0. 0. 0. 0. 0. 0. 0. 0. 0. 0. 0. 0. 0. 0. 0. 0. 0. 0. 0. 0.
      0. 0. 0. 0. 0. 0. 0. 0. 0. 0. 0. 0. 0. 0. 0. 0. 0. 0. 0. 0. 0. 0.
      0. 0. 0. 0. 0. 4. 0. 0. 2. 0. 0. 0. 0. 0. 0. 0. 0. 0. 0. 0. 0. 0.
      0. 0. 0. 0. 2. 0. 0. 1. 1. 1. 0. 0. 2. 0. 1. 0. 0. 1. 0. 0. 1. 0.
      0. 0. 1. 0. 3. 0. 1. 0. 0. 2. 0. 0. 0. 0. 0. 2. 0. 0. 0. 2. 0. 0.
      0. 0. 0. 2. 0. 0. 0. 1. 0. 2. 0. 1. 1. 0. 2. 0. 0. 4. 0. 0. 0. 0.
      1. 0. 0. 0. 0. 1. 0. 2. 0. 0. 0. 0. 1. 1. 0. 1. 0. 0. 0. 1. 0. 0.
      3. 0. 0. 0. 1. 0. 0. 0. 1. 0. 0. 0. 0. 0. 3. 0. 0. 4. 0. 1. 1. 0.
      2. 0. 0. 1. 0. 2. 0. 0. 0. 1. 0. 0. 0. 0. 0. 0. 0. 0. 0. 0. 0. 0.
      0. 0. 0. 0. 0. 0. 0. 0. 0. 1. 0. 0. 0. 1. 2. 0. 0. 0. 3. 2. 1. 0.
      2. 0. 0. 3. 1. 0. 2. 0. 0. 0. 2. 0. 1. 0. 0. 1. 0. 0. 0. 1. 1. 0.
      0. 4. 0. 0. 4. 0. 1. 0. 0. 3. 0. 3. 0. 4. 2. 0. 0. 0. 1. 0. 0. 3.
      2. 1. 0. 1. 0. 0. 0. 1. 0. 0. 1. 0. 5. 0. 1. 0. 0. 4. 0. 0. 3. 0.
      0. 2. 0. 0. 3. 1. 1. 0. 1. 1. 0. 2. 0. 1. 2. 3. 2. 0. 1. 1. 0. 1.
      0. 0. 0. 29. 0. 2. 0. 1. 0. 0. 3. 2. 0. 2. 1. 0. 0. 0. 0. 0. 0. 0.
      0. 0. 0. 0. 0. 0. 0. 0. 0. 0. 1. 0. 0. 2. 2. 0. 0. 0. 2. 0. 2. 1.
      0. 0. 1. 0. 4. 0. 2. 0. 4. 0. 1. 1. 0. 0. 3. 0. 0. 0. 3. 0. 0. 1.
      0. 0. 4. 1. 0. 0. 0. 0. 0. 0. 0. 5. 0. 0. 0. 0. 0. 0. 2. 2. 0. 0.
      2. 0. 0. 0. 0. 0. 1. 0. 0. 0. 1. 0. 1. 0. 0. 0. 0. 2. 0. 4. 0. 0.
      1. 0. 0. 0. 3. 0. 0. 4. 0. 0. 0. 1. 0. 0. 0. 2. 1. 0. 0. 0. 15. 1.
      7. 0. 2. 0. 2. 34. 234. 111. 0. 3. 0. 0. 1. 0. 0. 0. 2. 0. 2. 0.
      0. 0. 0. 0. 0. 0. 0. 0. 0. 0. 0. 0. 0. 0. 0. 0. 1. 1. 0. 0. 0. 1.
      4. 0. 2. 0. 0. 5. 4. 0. 0. 0. 0. 0. 2. 0. 2. 0. 0. 3. 0. 0. 2. 1.
      1. 2. 0. 0. 2. 0. 0. 0. 0. 0. 1. 0. 3. 3. 0. 0. 0. 0. 0. 2. 0. 2.
      3. 0. 0. 1. 2. 1. 0. 0. 0. 0. 2. 0. 9. 1. 2. 0. 0. 3. 1. 2. 3. 3.
      0. 0. 55. 0. 5. 0. 1. 0. 3. 0. 0. 2. 0. 96. 113. 3. 0. 2. 0. 6. 0.
      3. 0. 1. 16. 199. 191. 171. 8. 0. 2. 0. 37. 238. 137. 1. 0. 1. 1.
      1. 0. 0. 5. 1. 0. 2. 0. 0. 0. 0. 0. 0. 0. 0. 0. 0. 0. 0. 0. 0. 0.
      0. 0. 3. 1. 0. 0. 2. 0. 0. 2. 3. 0. 0. 2. 0. 0. 2. 1. 3. 1. 0. 0.
      0. 1. 0. 0. 2. 0. 0. 0. 0. 3. 0. 0. 2. 0. 0. 1. 1. 2. 0. 1. 0. 0.
      38. 1. 10. 2. 1. 0. 4. 0. 85. 101. 0. 2. 2. 87. 26. 0. 0. 4. 0.
      12. 193. 112. 14. 22. 39. 0. 15. 1. 0. 1. 0. 42. 146. 1. 0. 55.
      99. 98. 27. 0. 0. 0. 2. 51. 212. 62. 17. 28. 93. 199. 40. 0. 2. 0.
      2. 52. 211. 130. 1. 0. 1. 0. 0. 128. 145. 5. 3. 0. 0. 2. 0. 5. 0.
      0. 0. 0. 0. 0. 0. 0. 0. 0. 0. 0. 0. 0. 0. 0. 0. 0. 0. 0. 0. 0. 0.
      0. 2. 0. 0. 4. 31. 0. 1. 0. 0. 5. 1. 0. 75. 93. 109. 59. 83. 0. 1.
      0. 0. 0. 0. 12. 181. 174. 193. 178. 113. 0. 2. 2. 0. 0. 1. 1. 65.
      102. 134. 255. 222. 117. 0. 0. 0. 0. 3. 53. 227. 175. 209. 179.
      255. 207. 16. 0. 1. 0. 3. 49. 215. 244. 229. 255. 228. 124. 2. 0.
      0. 0. 1. 0. 0. 50. 255. 255. 222. 28. 1. 2. 0. 0. 0. 17. 0. 109.
      233. 255. 255. 134. 0. 0. 0. 0. 0. 32. 51. 0. 1. 0. 0. 1. 100.
      121. 0. 0. 3. 0. 2. 0. 0. 0. 0. 4. 0. 0. 0. 0. 0. 0. 0. 0. 0. 0.
      0. 0. 0. 0. 0. 0. 0. 0. 0. 0. 2. 0. 0. 5. 27. 232. 110. 3. 0. 2.
      0. 0. 2. 55. 228. 255. 249. 255. 112. 0. 0. 0. 1. 2. 0. 56. 220.
      254. 254. 255. 120. 2. 0. 1. 1. 0. 0. 47. 218. 255. 252. 255. 132.
      0. 0. 0. 4. 0. 4. 37. 217. 255. 252. 254. 167. 0. 0. 2. 0. 0. 2.
      39. 207. 255. 253. 253. 137. 0. 2. 1. 3. 0. 0. 2. 1. 116. 255.
      255. 133. 0. 0. 5. 0. 0. 0. 0. 0. 114. 253. 255. 144. 0. 3. 1. 0.
      0. 0. 3. 0. 0. 2. 2. 0. 78. 79. 2. 0. 3. 0. 0. 0. 0. 48. 0. 0. 1.
      0. 0. 0. 0. 0. 0. 0. 0. 0. 0. 0. 0. 0. 0. 0. 0. 0. 2. 0. 0. 2. 0.
      0. 1. 47. 241. 120. 0. 2. 0. 0. 1. 0. 46. 213. 255. 252. 255. 129.
      1. 2. 0. 0. 2. 0. 41. 83. 159. 255. 255. 129. 0. 1. 0. 1. 0. 0.
      39. 208. 254. 255. 254. 133. 1. 0. 0. 0. 0. 1. 32. 197. 255. 255.
      255. 141. 3. 0. 0. 1. 0. 2. 20. 199. 255. 255. 254. 145. 0. 1. 0.
      2. 0. 1. 0. 3. 104. 255. 254. 153. 1. 0. 0. 0. 1. 0. 0. 1. 104.
      254. 255. 151. 0. 0. 0. 1. 0. 0. 0. 2. 0. 0. 0. 116. 243. 48. 0.
      0. 0. 2. 1. 26. 173. 20. 0. 1. 0. 0. 0. 0. 0. 0. 0. 0. 0. 0. 0. 0.
      0. 0. 0. 0. 0. 0. 0. 0. 0. 0. 0. 0. 86. 255. 255. 127. 0. 2. 0. 2.
      0. 0. 40. 207. 254. 255. 255. 136. 0. 0. 0. 0. 3. 0. 13. 200. 255.
      254. 255. 144. 0. 0. 3. 0. 0. 1. 24. 200. 252. 255. 255. 140. 0.
      1. 1. 0. 2. 0. 23. 191. 255. 255. 255. 149. 0. 1. 0. 1. 1. 1. 15.
      182. 254. 255. 254. 151. 0. 4. 0. 1. 1. 2. 0. 6. 201. 255. 252.
      161. 1. 0. 2. 0. 0. 0. 1. 87. 254. 255. 255. 168. 1. 0. 0. 3. 0.
      2. 1. 0. 0. 0. 153. 211. 0. 2. 1. 1. 0. 0. 2. 1. 1. 1. 0. 0. 0. 0.
      0. 0. 0. 0. 0. 0. 0. 0. 0. 0. 0. 0. 0. 0. 0. 0. 0. 0. 0. 0. 0. 1.
      123. 253. 255. 145. 1. 0. 0. 1. 0. 2. 25. 189. 255. 255. 254. 144.
      0. 0. 0. 0. 0. 0. 25. 224. 255. 254. 255. 150. 0. 0. 3. 2. 0. 1.
      19. 185. 254. 255. 255. 87. 0. 0. 3. 0. 3. 1. 8. 215. 254. 253.
      255. 161. 1. 0. 2. 0. 2. 0. 88. 251. 251. 255. 254. 95. 0. 0. 0.
      0. 1. 0. 3. 208. 255. 255. 254. 165. 0. 1. 0. 0. 3. 0. 81. 252.
      255. 253. 255. 97. 2. 0. 0. 1. 0. 0. 2. 0. 5. 165. 208. 16. 0. 0.
      1. 0. 3. 0. 0. 0. 0. 4. 0. 0. 0. 0. 0. 0. 0. 0. 0. 0. 0. 0. 0. 0.
      0. 0. 0. 0. 0. 0. 0. 0. 0. 0. 4. 173. 255. 214. 55. 0. 2. 0. 1. 0.
      0. 36. 204. 255. 255. 254. 190. 20. 4. 1. 0. 3. 2. 156. 252. 255.
      255. 224. 65. 2. 0. 0. 0. 5. 0. 30. 192. 255. 249. 95. 0. 0. 0. 1.
      0. 0. 0. 55. 255. 255. 254. 224. 58. 0. 3. 0. 3. 2. 0. 99. 255.
      254. 255. 97. 0. 0. 2. 4. 0. 0. 1. 149. 255. 252. 174. 224. 73. 2.
      0. 0. 1. 0. 0. 89. 248. 255. 255. 106. 0. 1. 0. 1. 0. 1. 0. 0. 0.
      1. 151. 235. 34. 0. 2. 0. 1. 0. 0. 0. 1. 2. 0. 0. 0. 0. 0. 0. 0.
      0. 0. 0. 0. 0. 0. 0. 0. 0. 0. 0. 0. 0. 0. 0. 0. 0. 0. 15. 182.
      173. 18. 0. 0. 2. 0. 0. 0. 81. 243. 254. 255. 253. 146. 1. 0. 0.
      0. 0. 18. 206. 255. 255. 251. 174. 17. 0. 0. 1. 0. 0. 0. 81. 240.
      255. 255. 255. 104. 1. 0. 0. 1. 1. 2. 2. 104. 253. 255. 185. 23.
      3. 2. 1. 2. 0. 0. 72. 231. 255. 215. 57. 0. 0. 2. 0. 0. 0. 40.
      199. 255. 254. 255. 73. 8. 0. 0. 0. 1. 0. 0. 76. 229. 255. 214.
      56. 0. 2. 0. 0. 0. 0. 2. 0. 0. 0. 0. 172. 205. 14. 0. 0. 0. 0. 2.
      1. 3. 0. 0. 0. 0. 0. 0. 0. 0. 0. 0. 0. 0. 0. 0. 0. 0. 0. 0. 0. 0.
      0. 0. 0. 0. 0. 0. 0. 142. 130. 0. 0. 4. 0. 0. 0. 0. 119. 255. 255.
      252. 255. 105. 0. 0. 4. 0. 0. 3. 0. 183. 254. 253. 140. 0. 2. 0.
      0. 0. 1. 3. 116. 255. 255. 250. 255. 101. 1. 0. 6. 0. 0. 1. 0.
      151. 253. 255. 135. 0. 0. 0. 0. 0. 1. 2. 119. 255. 255. 207. 14.
      2. 0. 0. 0. 0. 1. 0. 136. 255. 252. 255. 145. 0. 0. 0. 2. 5. 0. 2.
      106. 241. 236. 212. 16. 0. 1. 0. 3. 0. 0. 14. 0. 1. 0. 1. 21. 217.
      167. 0. 1. 2. 0. 2. 0. 0. 0. 4. 3. 0. 0. 0. 0. 0. 0. 0. 0. 0. 0.
      0. 0. 0. 0. 0. 0. 0. 0. 0. 0. 0. 0. 0. 0. 0. 164. 68. 0. 2. 0. 0.
      2. 3. 47. 174. 166. 158. 238. 138. 3. 2. 0. 0. 1. 0. 37. 200. 213.
      250. 246. 70. 2. 0. 3. 3. 0. 0. 157. 194. 155. 255. 224. 63. 2. 0.
      0. 0. 2. 1. 7. 175. 211. 255. 235. 112. 0. 2. 0. 2. 0. 0. 161.
      190. 153. 152. 226. 118. 0. 0. 0. 0. 0. 2. 8. 157. 210. 255. 231.
      93. 1. 4. 0. 0. 0. 0. 25. 171. 42. 41. 212. 126. 3. 0. 2. 3. 0.
      118. 195. 11. 3. 0. 0. 25. 223. 159. 0. 1. 0. 0. 4. 0. 0. 3. 0. 0.
      0. 0. 0. 0. 0. 0. 0. 0. 0. 0. 0. 0. 0. 0. 0. 0. 0. 0. 0. 0. 0. 0.
      0. 0. 0. 38. 0. 0. 0. 0. 5. 0. 0. 1. 0. 4. 0. 62. 101. 0. 0. 0. 1.
      0. 5. 136. 112. 0. 26. 31. 2. 1. 3. 0. 0. 0. 2. 76. 3. 0. 93. 15.
      2. 0. 1. 4. 0. 0. 0. 0. 20. 1. 22. 47. 203. 43. 1. 1. 0. 5. 0. 76.
      0. 1. 1. 40. 207. 106. 2. 3. 0. 1. 1. 0. 20. 2. 24. 21. 5. 0. 0.
      1. 0. 0. 2. 1. 0. 0. 0. 32. 100. 0. 1. 0. 0. 19. 201. 156. 2. 0.
      4. 0. 1. 112. 166. 5. 0. 0. 0. 0. 2. 0. 1. 2. 1. 0. 0. 0. 0. 0. 0.
      0. 0. 0. 0. 0. 0. 0. 0. 0. 0. 0. 0. 0. 0. 0. 0. 0. 0. 0. 0. 2. 0.
      2. 0. 0. 4. 0. 0. 4. 0. 0. 4. 0. 0. 2. 0. 1. 0. 0. 1. 0. 0. 1. 2.
      0. 0. 2. 0. 3. 0. 0. 0. 0. 3. 0. 1. 0. 0. 1. 0. 1. 2. 0. 1. 1. 0.
      2. 0. 5. 1. 2. 0. 4. 0. 0. 0. 2. 0. 1. 0. 20. 8. 0. 0. 0. 2. 0. 0.
      2. 0. 0. 1. 0. 0. 2. 0. 2. 0. 0. 0. 1. 0. 3. 0. 0. 1. 0. 0. 0. 2.
      13. 59. 0. 0. 0. 0. 2. 0. 1. 0. 3. 0. 0. 0. 0. 0. 0. 0. 0. 0. 0.
      0. 0. 0. 0. 0. 0. 0. 0. 0. 0. 0. 0. 0. 0. 0. 0. 0. 0. 0. 0. 0. 0.
      0. 0. 0. 0. 0. 0. 0. 0. 0. 0. 0. 0. 0. 0. 0. 0. 0. 0. 0. 0. 0. 0.
      0. 0. 0. 0. 0. 0. 0. 0. 0. 0. 0. 0. 0. 0. 0. 0. 0. 0. 0. 0. 0. 0.
      0. 0. 0. 0. 0. 0. 0. 0. 0. 0. 0. 0. 0. 0. 0. 0. 0. 0. 0. 0. 0. 0.
      0. 0. 0. 0. 0. 0. 0. 0. 0. 0. 0. 0. 0. 0. 0. 0. 0. 0. 0. 0. 0. 0.
      0. 0. 0. 0. 0. 0. 0. 0. 0. 0. 0. 0. 0. 0. 0. 0. 0. 0. 0. 0. 0. 0.
      0. 0. 0. 0. 0. 0. 0. 0. 0. 0. 0. 0. 0. 0. 0. 0. 0. 0. 0. 0. 0. 0.
      0. 0. 0. 0. 0. 0. 0. 0. 0. 0. 0. 0. 0. 0. 0. 0. 0. 0. 0. 0. 0. 0.
      0. 0. 0. 0. 0. 0. 0. 0. 0. 0. 0. 0. 0. 0. 0. 0. 0. 0. 0. 0. 0. 0.
      0. 0. 0. 0. 0. 0. 0. 0. 0. 0. 0. 0. 0. 0. 0. 0. 0. 0. 0. 0. 0. 0.
      0. 0. 0. 0. 0. 0. 0. 0. 0. 0. 0. 0. 0. 0. 0. 0. 0. 0. 0. 0. 0. 0.
      0. 0. 0. 0. 0. 0. 0. 0. 0. 0. 0. 0. 0. 0. 0. 0. 0. 0. 0. 0. 0. 0.
      0. 0. 0. 0. 0. 0. 0. 0. 0. 0. 0. 0. 0. 0. 0. 0. 0. 0. 0. 0. 0. 0.
      0. 0. 0. 0. 0. 0. 0. 0. 0. 0. 0. 0. 0. 0. 0. 0. 0. 0. 0. 0. 0. 0.
      0. 0. 0. 0. 0. 0. 0. 0. 0. 0. 0. 0. 0. 0. 0. 0. 0. 0. 0. 0. 0. 0.
      0. 0. 0. 0. 0. 0. 0. 0. 0. 0. 0. 0. 0. 0. 0. 0. 0. 0. 0. 0. 0. 0.
      0. 0. 0. 0. 0. 0. 0. 0. 0. 0. 0. 0. 0. 0. 0. 0. 0. 0. 0. 0. 0. 0.
      0. 0. 0. 0. 0. 0. 0. 0. 0. 0. 0. 0. 0. 0. 0. 0. 0. 0. 0. 0. 0. 0.
      0. 0. 0. 0. 0. 0. 0. 0. 0. 0. 0. 0. 0. 0. 0. 0. 0. 0. 0. 0. 0. 0.
      0. 0. 0. 0. 0. 0. 0. 0. 0. 0. 0. 0. 0. 0. 0. 0. 0. 0. 0. 0. 0. 0.
      0. 0. 0. 0. 0. 0. 0. 0. 0. 0. 0. 0. 0. 0. 0. 0. 0. 0. 0. 0. 0. 0.
      0. 0. 0. 0. 0. 0. 0. 0. 0. 0. 0. 0. 0. 0. 0. 0. 0. 0. 0. 0. 0. 0.
      0. 0. 0. 0. 0. 0. 0. 0. 0. 0. 0. 0. 0. 0. 0. 0. 0. 0. 0. 0. 0. 0.
      0. 0. 0. 0. 0. 0. 0. 0. 0. 0. 0. 0. 0. 0. 0. 0. 0. 0. 0. 0. 0. 0.
      0. 0. 0. 0. 0. 0. 0. 0. 0. 0. 0. 0. 0. 0. 0. 0. 0. 0. 0. 0. 0. 0.
      0. 0. 0. 0. 0. 0. 0. 0. 0. 0. 0. 0. 0. 0. 0. 0. 0. 0. 0. 0. 0. 0.
      0. 0. 0. 0. 0. 0. 0. 0. 0. 0. 0. 0. 0. 0. 0. 0. 0. 0. 0. 0. 0. 0.
      0. 0. 0. 0. 0. 0. 0. 0. 0. 0. 0. 0. 0. 0. 0. 0. 0. 0. 0. 0. 0. 0.
      0. 0. 0. 0. 0. 0. 0. 0. 0. 0. 0. 0. 0. 0. 0. 0. 0. 0. 0. 0. 0. 0.
      0. 0. 0. 0. 0. 0. 0. 0. 0. 0. 0. 0. 0. 0. 0. 0. 0. 0. 0. 0. 0. 0.
      0. 0. 0. 0. 0. 0. 0. 0. 0. 0. 0. 0. 0. 0. 0. 0. 0. 0. 0. 0. 0. 0.
      0. 0. 0. 0. 0. 0. 0. 0. 0. 0. 0. 0. 0. 0. 0. 0. 0. 0. 0. 0. 0. 0.
      0. 0. 0. 0. 0. 0. 0. 0. 0. 0. 0. 0. 0. 0. 0. 0. 0. 0. 0. 0. 0. 0.
      0. 0. 0. 0. 0. 0. 0. 0. 0. 0. 0. 0. 0. 0. 0. 0. 0. 0. 0. 0. 0. 0.
      0. 0. 0. 0. 0. 0. 0. 0. 0. 0. 0. 0. 0. 0. 0. 0. 0. 0. 0. 0. 0. 0.
      0. 0. 0. 0. 0. 0. 0. 0. 0. 0. 0. 0. 0. 0. 0. 0. 0. 0. 0. 0. 0. 0.
      0. 0. 0. 0. 0. 0. 0. 0. 0. 0. 0. 0. 0. 0. 0. 0. 0. 0. 0. 0. 0. 0.
      0. 0. 0. 0. 0. 0. 0. 0. 0. 0. 0. 0. 0. 0. 0. 0. 0. 0. 0. 0. 0. 0.
      0. 0. 0. 0. 0. 0. 0. 0. 0. 0. 0. 0. 0. 0. 0. 0. 0. 0. 0. 0. 0. 0.
      0. 0. 0. 0. 0. 0. 0. 0. 0. 0. 0. 0. 0. 0. 0. 0. 0. 0. 0. 0. 0. 0.
      0. 0. 0. 0. 0. 0. 0. 0. 0. 0. 0. 0. 0. 0. 0. 0. 0. 0. 0. 0. 0. 0.
      0. 0. 0. 0. 0. 0. 0. 0. 0. 0. 0. 0. 0. 0. 0. 0. 0. 0. 0. 0. 0. 0.
      0. 0. 0. 0. 0. 0. 0. 0. 0. 0. 0. 0. 0. 0. 0. 0. 0. 0. 0. 0. 0. 0.
      0. 0. 0. 0. 0. 0. 0. 0. 0. 0. 0. 0. 0. 0. 0. 0. 0. 0. 0. 0. 0. 0.
      0. 0. 0. 0. 0. 0. 0. 0. 0. 0. 0. 0. 0. 0. 0. 0. 0. 0. 0. 0. 0. 0.
      0. 0. 0. 0. 0. 0. 0. 0. 0. 0. 0. 0. 0. 0. 0. 0. 0. 0. 0. 0. 0. 0.
      0. 0. 0. 0. 0. 0. 0. 0. 0. 0. 0. 0. 0. 0. 0. 0. 0. 0. 0. 0. 0. 0.
      0. 0. 0. 0. 0. 0. 0. 0. 0. 0. 0. 0. 0. 0. 0. 0. 0. 0. 0. 0. 0. 0.
      0. 0. 0. 0. 0. 0. 0. 0. 0. 0. 0. 0. 0. 0. 0. 0. 0. 0. 0. 0. 0. 0.
      0. 0. 0. 0. 0. 0. 0. 0. 0. 0. 0. 0. 0. 0. 0. 0. 0. 0. 0. 0. 0. 0.
      0. 0. 0. 0. 0. 0. 0. 0. 0. 0. 0. 0. 0. 0. 0. 0. 0. 0. 0. 0. 0. 0.
      0. 0. 0. 0. 0. 0. 0. 0. 0. 0. 0. 0. 0. 0. 0. 0. 0. 0. 0. 0. 0. 0.
      0. 0. 0. 0. 0. 0. 0. 0. 0. 0. 0. 0. 0. 0. 0. 0. 0. 0. 0. 0. 0. 0.
      0. 0. 0. 0. 0. 0. 0. 0. 0. 0. 0. 0. 0. 0. 0. 0. 0. 0. 0. 0. 0. 0.
      0. 0. 0. 0. 0. 0. 0. 0. 0. 0. 0. 0. 0. 0. 0. 0. 0. 0. 0. 0. 0. 0.
      0. 0. 0. 0. 0. 0. 0. 0. 0. 0. 0. 0. 0. 0. 0. 0. 0. 0. 0. 0. 0. 0.
      0. 0. 0. 0. 0. 0. 0. 0. 0. 0. 0. 0. 0. 0. 0. 0. 0. 0. 0. 0. 0. 0.
      0. 0. 0. 0. 0. 0. 0. 0. 0. 0. 0. 0. 0. 0. 0. 0. 0. 0. 0. 0. 0. 0.
      0. 0. 0. 0. 0. 0. 0. 0. 0. 0. 0. 0. 0. 0. 0. 0. 0. 0. 0. 0. 0. 0.
      0. 0. 0. 0. 0. 0. 0. 0. 0. 0. 0. 0. 0. 0. 0. 0. 0. 0. 0. 0. 0. 0.
      0. 0. 0. 0. 0. 0. 0. 0. 0. 0. 0. 0. 0. 0. 0. 0. 0. 0. 0. 0. 0. 0.
      0. 0. 0. 0. 0. 0. 0. 0. 0. 0. 0. 0. 0. 0. 0. 0. 0. 0. 0. 0. 0. 0.
      0. 0. 0. 0. 0. 0. 0. 0. 0. 0. 0. 0. 0. 0. 0. 0. 0. 0. 0. 0. 0. 0.
      0. 0. 0. 0. 0. 0. 0. 0. 0. 0. 0. 0. 0. 0. 0. 0. 0. 0. 0. 0. 0. 0.
      0. 0. 0. 0. 0. 0. 0. 0. 0. 0. 0. 0. 0. 0. 0. 0. 0. 0. 0. 0. 0. 0.
      0. 0. 0. 0. 0. 0. 0. 0. 0. 0. 0. 0. 0. 0. 0. 0. 0. 0. 0. 0. 0. 0.
      0. 0. 0. 0. 0. 0. 0. 0. 0. 0. 0. 0. 0. 0. 0. 0. 0. 0. 0. 0. 0. 0.
      0. 0.</_>
    <_>
      0. 0. 0. 0. 0. 0. 0. 0. 0. 0. 0. 0. 0. 0. 0. 0. 0. 0. 0. 0. 0. 0.
      0. 0. 0. 0. 0. 0. 0. 0. 0. 0. 0. 0. 0. 0. 0. 0. 0. 0. 0. 0. 0. 0.
      0. 0. 0. 0. 0. 0. 0. 0. 0. 0. 0. 0. 0. 0. 0. 0. 0. 0. 0. 0. 0. 0.
      0. 0. 0. 0. 0. 0. 0. 0. 0. 0. 0. 0. 0. 0. 0. 0. 0. 0. 0. 0. 0. 0.
      0. 0. 0. 0. 0. 0. 0. 0. 0. 0. 0. 0. 0. 0. 0. 0. 0. 0. 0. 0. 0. 0.
      0. 0. 0. 0. 0. 0. 0. 0. 0. 0. 0. 0. 0. 0. 0. 0. 0. 0. 0. 0. 0. 0.
      0. 0. 0. 0. 0. 0. 0. 0. 0. 0. 0. 0. 0. 0. 0. 0. 0. 0. 0. 0. 0. 0.
      0. 0. 0. 0. 0. 0. 0. 0. 0. 0. 0. 0. 0. 0. 0. 0. 0. 0. 0. 0. 0. 0.
      0. 0. 0. 0. 0. 0. 0. 0. 0. 0. 0. 0. 0. 0. 0. 0. 0. 0. 0. 0. 0. 0.
      0. 0. 0. 0. 0. 0. 0. 0. 0. 0. 0. 0. 0. 0. 0. 0. 0. 0. 0. 0. 0. 0.
      0. 0. 0. 0. 0. 0. 0. 0. 0. 0. 0. 0. 0. 0. 0. 0. 0. 0. 0. 0. 0. 0.
      0. 0. 0. 0. 0. 0. 0. 0. 0. 0. 0. 0. 0. 0. 0. 0. 0. 0. 0. 0. 0. 0.
      0. 0. 0. 0. 0. 0. 0. 0. 0. 0. 0. 0. 0. 0. 0. 0. 0. 0. 0. 0. 0. 0.
      0. 0. 0. 0. 0. 0. 0. 0. 0. 0. 0. 0. 0. 0. 0. 0. 0. 0. 0. 0. 0. 0.
      0. 0. 0. 0. 0. 0. 0. 0. 0. 0. 0. 0. 0. 0. 0. 0. 0. 0. 0. 0. 0. 0.
      0. 0. 0. 0. 0. 0. 0. 0. 0. 0. 0. 0. 0. 0. 0. 0. 0. 0. 0. 0. 0. 0.
      0. 0. 0. 0. 0. 0. 0. 0. 0. 0. 0. 0. 0. 0. 0. 0. 0. 0. 0. 0. 0. 0.
      0. 0. 0. 0. 0. 0. 0. 0. 0. 0. 0. 0. 0. 0. 0. 0. 0. 0. 0. 0. 0. 0.
      0. 0. 0. 0. 0. 0. 0. 0. 0. 0. 0. 0. 0. 0. 0. 0. 0. 0. 0. 0. 0. 0.
      0. 0. 0. 0. 0. 0. 0. 0. 0. 0. 0. 0. 0. 0. 0. 0. 0. 0. 0. 0. 0. 0.
      0. 0. 0. 0. 0. 0. 0. 0. 0. 0. 0. 0. 0. 0. 0. 0. 0. 0. 0. 0. 0. 0.
      0. 0. 0. 0. 0. 0. 0. 0. 0. 0. 0. 0. 0. 0. 0. 0. 0. 0. 0. 0. 0. 0.
      0. 0. 0. 0. 0. 0. 0. 0. 0. 0. 0. 0. 0. 0. 0. 0. 0. 0. 0. 0. 0. 0.
      0. 0. 0. 0. 0. 0. 0. 0. 0. 0. 0. 0. 0. 0. 0. 0. 0. 0. 0. 0. 0. 0.
      0. 0. 0. 0. 0. 0. 0. 0. 0. 0. 0. 0. 0. 0. 0. 0. 0. 0. 0. 0. 0. 0.
      0. 0. 0. 0. 0. 0. 0. 0. 0. 0. 0. 0. 0. 0. 0. 0. 0. 0. 0. 0. 0. 0.
      0. 0. 0. 0. 0. 0. 0. 0. 0. 0. 0. 0. 0. 0. 0. 0. 0. 0. 0. 0. 0. 0.
      0. 0. 0. 0. 0. 0. 0. 0. 0. 0. 0. 0. 0. 0. 0. 0. 0. 0. 0. 0. 0. 0.
      0. 0. 0. 0. 0. 0. 0. 0. 0. 0. 0. 0. 0. 0. 0. 0. 0. 0. 0. 0. 0. 0.
      0. 0. 0. 0. 0. 0. 0. 0. 0. 0. 0. 0. 0. 0. 0. 0. 0. 0. 0. 0. 0. 0.
      0. 0. 0. 0. 0. 0. 0. 0. 0. 0. 0. 0. 0. 0. 0. 0. 0. 0. 0. 0. 0. 0.
      0. 0. 0. 0. 0. 0. 0. 0. 0. 0. 0. 0. 0. 0. 0. 0. 0. 0. 0. 0. 0. 0.
      0. 0. 0. 0. 0. 0. 0. 0. 0. 0. 0. 0. 0. 0. 0. 0. 0. 0. 0. 0. 0. 0.
      0. 0. 0. 0. 0. 0. 0. 0. 0. 0. 0. 0. 0. 0. 0. 0. 0. 0. 0. 0. 0. 0.
      0. 0. 0. 0. 0. 0. 0. 0. 0. 0. 0. 0. 0. 0. 0. 0. 0. 0. 0. 0. 0. 0.
      0. 0. 0. 0. 0. 0. 0. 0. 0. 0. 0. 0. 0. 0. 0. 0. 0. 0. 0. 0. 0. 0.
      0. 0. 0. 0. 0. 0. 0. 0. 0. 0. 0. 0. 0. 0. 0. 0. 0. 0. 0. 0. 0. 0.
      0. 0. 0. 0. 0. 0. 0. 0. 0. 0. 0. 0. 0. 0. 0. 0. 0. 0. 0. 0. 0. 0.
      0. 0. 0. 0. 0. 0. 0. 0. 0. 0. 0. 0. 0. 0. 0. 0. 0. 0. 0. 0. 0. 0.
      0. 0. 0. 0. 0. 0. 0. 0. 0. 0. 0. 0. 0. 0. 0. 0. 0. 0. 0. 0. 0. 0.
      0. 0. 0. 0. 0. 0. 0. 0. 0. 0. 0. 0. 0. 0. 0. 0. 0. 0. 0. 0. 0. 0.
      0. 0. 0. 0. 0. 0. 0. 0. 0. 0. 0. 0. 0. 0. 0. 0. 0. 0. 0. 0. 0. 0.
      0. 0. 0. 0. 0. 0. 0. 0. 0. 0. 0. 0. 0. 0. 0. 0. 0. 0. 0. 0. 0. 0.
      0. 0. 0. 0. 0. 0. 0. 0. 0. 0. 0. 0. 0. 0. 0. 0. 0. 0. 0. 0. 0. 0.
      0. 0. 0. 0. 0. 0. 0. 0. 0. 0. 0. 0. 0. 0. 0. 0. 0. 0. 0. 0. 0. 0.
      0. 0. 0. 0. 0. 0. 0. 0. 0. 0. 0. 0. 0. 0. 0. 0. 0. 0. 0. 0. 0. 0.
      0. 0. 0. 0. 0. 0. 0. 0. 0. 0. 0. 0. 0. 0. 0. 0. 0. 0. 0. 0. 0. 0.
      0. 0. 0. 0. 0. 0. 0. 0. 0. 0. 0. 0. 0. 0. 0. 0. 0. 0. 0. 0. 0. 0.
      0. 0. 0. 0. 0. 0. 0. 0. 0. 0. 0. 0. 0. 0. 0. 0. 0. 0. 0. 0. 0. 0.
      0. 0. 7. 0. 0. 1. 0. 2. 0. 0. 0. 0. 0. 0. 0. 0. 0. 0. 0. 0. 0. 0.
      0. 0. 0. 0. 0. 0. 0. 0. 0. 0. 0. 0. 1. 1. 0. 0. 2. 1. 0. 2. 1. 0.
      0. 1. 0. 0. 0. 0. 0. 0. 0. 0. 2. 1. 0. 0. 0. 1. 0. 0. 0. 2. 0. 1.
      0. 0. 0. 0. 2. 1. 0. 0. 0. 0. 1. 0. 0. 0. 1. 0. 0. 4. 0. 0. 1. 0.
      0. 1. 0. 2. 0. 0. 2. 0. 0. 0. 1. 0. 0. 0. 0. 0. 0. 0. 1. 0. 3. 0.
      0. 0. 1. 0. 0. 0. 0. 0. 0. 1. 2. 0. 0. 0. 2. 0. 1. 0. 0. 2. 0. 0.
      3. 0. 0. 0. 0. 255. 141. 27. 1. 0. 0. 0. 2. 0. 0. 0. 0. 0. 0. 0.
      0. 0. 0. 0. 0. 0. 0. 0. 0. 0. 0. 0. 0. 0. 0. 0. 0. 0. 2. 2. 0. 2.
      0. 1. 0. 0. 0. 1. 0. 1. 1. 0. 1. 0. 1. 1. 0. 0. 0. 2. 1. 2. 0. 0.
      1. 0. 0. 1. 0. 0. 0. 1. 1. 0. 0. 4. 0. 0. 0. 0. 3. 2. 0. 0. 0. 0.
      2. 0. 1. 0. 0. 1. 0. 0. 0. 1. 0. 1. 3. 0. 0. 0. 0. 1. 1. 1. 1. 0.
      0. 0. 0. 0. 1. 1. 0. 0. 0. 0. 0. 1. 0. 0. 1. 0. 0. 0. 0. 2. 0. 4.
      0. 2. 0. 2. 2. 0. 2. 2. 0. 1. 13. 129. 244. 149. 11. 0. 1. 0. 0.
      0. 0. 0. 0. 0. 0. 0. 0. 0. 0. 0. 0. 0. 0. 0. 0. 0. 0. 0. 0. 0. 0.
      0. 2. 0. 0. 0. 0. 2. 2. 0. 0. 0. 2. 1. 0. 2. 0. 0. 0. 0. 1. 1. 0.
