<?xml version="1.0"?>
<opencv_storage>
<opencv_ml_svm>
  <format>3</format>
  <svmType>C_SVC</svmType>
  <kernel>
    <type>LINEAR</type></kernel>
  <C>1.</C>
  <term_criteria><epsilon>1.1920928955078125e-07</epsilon>
    <iterations>1000</iterations></term_criteria>
  <var_count>4725</var_count>
  <class_count>2</class_count>
  <class_labels type_id="opencv-matrix">
    <rows>2</rows>
    <cols>1</cols>
    <dt>i</dt>
    <data>
      0 1</data></class_labels>
  <sv_total>1</sv_total>
  <support_vectors>
    <_>
      1.32876949e-05 5.52315896e-06 1.43653770e-05 1.34825868e-05
      1.75198093e-05 1.87736423e-05 -2.99585099e-06 -3.96795213e-06
      -9.98792302e-07 1.08591366e-05 1.88823033e-05 1.08568283e-05
      8.64554204e-06 6.39460177e-06 9.45388183e-06 6.56926159e-06
      3.91907065e-07 -9.92524110e-06 -6.64115396e-06 -4.15620843e-06
      -1.08840368e-05 -1.16968649e-05 -6.97841460e-06 3.01747946e-07
      7.17570401e-07 1.47628569e-07 2.56833118e-07 2.49963847e-07
      -3.68531772e-07 -4.03715148e-07 2.56416541e-07 -2.80606770e-07
      1.12421247e-07 2.12141060e-07 8.02322461e-07 9.28729060e-06
      1.99103724e-05 2.59902154e-05 3.10185533e-05 3.90234054e-05
      4.61078562e-05 4.73374312e-05 3.33995340e-05 2.64576574e-05
      3.15158759e-05 4.28961357e-05 5.43279857e-05 6.22326406e-05
      6.25254179e-05 6.85544292e-05 6.46193366e-05 3.11481890e-05
      6.39795871e-06 3.48122057e-07 9.31565936e-08 1.46592241e-08
      1.10566425e-07 1.97613783e-08 1.31346141e-07 6.78759591e-07
      1.98070666e-06 3.08043354e-06 3.76164326e-06 4.95930590e-06
      6.95655763e-06 7.85071188e-06 8.24675226e-06 8.60164437e-06
      9.34170657e-06 1.02112072e-05 1.10261963e-05 9.05335764e-06
      6.99440488e-06 5.15595957e-06 5.75013473e-06 8.78818719e-06
      1.15477251e-05 1.30253693e-05 1.35691371e-05 1.37909410e-05
      1.34607790e-05 1.03347256e-05 8.78550054e-06 9.56904205e-06
      1.03376442e-05 8.92584376e-06 7.02035277e-06 7.60072635e-06
      8.13938095e-06 7.70957104e-06 6.77757498e-06 5.96103382e-06
      5.13106806e-06 4.66621032e-06 4.61131367e-06 5.25161977e-06
      7.27385850e-06 8.05049694e-06 7.55240535e-06 4.78718976e-05
      3.81199607e-05 4.94042615e-06 4.74180342e-06 5.01913200e-06
      4.77843378e-06 4.85533064e-06 5.18462139e-06 4.35277298e-06
      4.21881487e-06 5.33976527e-06 6.88757245e-06 8.34091134e-06
      1.02307795e-05 1.35286227e-05 1.58925486e-05 1.56884998e-05
      1.29387818e-05 1.20156246e-05 1.19144115e-05 1.19440483e-05
      1.18623984e-05 1.25123852e-05 1.19114202e-05 1.11171357e-05
      5.92827382e-06 4.49753024e-05 7.20086973e-05 4.08576598e-05
      3.01581622e-05 2.35681673e-05 6.61204012e-06 8.43609632e-06
      2.95098630e-06 1.06484026e-06 1.67845224e-06 1.07468736e-06
      -1.97356189e-06 -1.74965298e-05 -2.48072301e-05 -1.64689500e-05
      -1.85537410e-05 -1.47732817e-05 -1.54528843e-05 -2.83371755e-05
      -3.47921159e-05 -4.58428622e-06 1.83790671e-05 2.08304300e-05
      2.02603678e-05 2.06210370e-05 5.23550352e-06 -1.47890933e-05
      -1.04444252e-05 3.76175905e-07 -3.01098999e-06 -4.19220260e-06
      -6.54230348e-07 1.09861799e-06 2.97996962e-06 1.58704279e-06
      9.46665750e-07 2.94859859e-07 -5.52170889e-07 7.25248753e-07
      -3.76569318e-07 1.36102287e-07 -1.68958493e-07 1.55303240e-07
      4.79244591e-06 1.30437575e-05 1.21578132e-05 2.27794171e-05
      3.72037794e-05 5.29765712e-05 5.31126025e-05 4.16990842e-05
      3.08407652e-05 2.27540113e-05 3.79370686e-05 4.43256322e-05
      6.10425486e-05 6.27968257e-05 6.34086900e-05 6.98602162e-05
      5.80490450e-05 1.49565731e-05 3.16719115e-06 0. 8.95243559e-08
      6.41766690e-07 2.01966813e-07 5.42805729e-08 3.17714921e-08
      2.00564671e-07 1.80096754e-06 2.16678154e-06 2.84398175e-06
      4.19053549e-06 6.28567977e-06 7.49210767e-06 7.64222750e-06
      7.91888760e-06 8.24707968e-06 8.57670511e-06 9.26431403e-06
      7.94373136e-06 5.91516300e-06 5.60015496e-06 9.11206735e-06
      1.22867641e-05 1.34249567e-05 1.36730259e-05 1.41002329e-05
      1.25567249e-05 9.31260183e-06 6.26735164e-06 6.90602292e-06
      9.05326851e-06 1.07090063e-05 1.02887716e-05 1.07527540e-05
      1.10695091e-05 9.48893558e-06 7.63737535e-06 5.94666380e-06
      5.08804624e-06 4.80057997e-06 4.64791174e-06 6.12726035e-06
      7.35421963e-06 7.61028514e-06 6.35254173e-06 4.86654153e-06
      4.42349892e-06 6.96521647e-06 5.02357907e-05 3.45570370e-05
      5.16679393e-06 5.13177929e-06 5.41984264e-06 4.58721752e-06
      3.81424661e-06 5.07918276e-06 6.00189787e-06 7.65948334e-06
      9.28072132e-06 1.34170568e-05 1.58680577e-05 1.49586849e-05
      1.25610686e-05 1.16968004e-05 1.14742461e-05 1.14700597e-05
      1.13536016e-05 1.15306711e-05 1.15762969e-05 1.08428576e-05
      1.02194808e-05 1.04826249e-05 3.45375429e-06 3.70267771e-05
      6.92362955e-05 2.77017516e-05 2.64984374e-05 2.05975357e-05
      4.85719720e-05 2.27296914e-05 1.38530709e-06 1.14642580e-06
      2.87817358e-07 1.46713916e-07 -3.13603891e-07 -1.41245182e-05
      -3.13008677e-05 -3.24571629e-05 -3.49060501e-05 -2.64513037e-05
      -3.19139108e-05 -2.55765663e-05 -3.04197783e-05 -2.40986174e-05
      7.76677007e-06 -1.48673803e-06 -1.40934035e-05 -1.03198172e-05
      -4.30029877e-06 -5.10825703e-06 -1.98214502e-06 -4.29914917e-06
      -5.66508504e-07 4.09066752e-06 4.01603575e-06 2.92193681e-06
      2.12699752e-06 1.92714378e-06 2.00360319e-06 1.33044989e-06
      1.04538231e-06 1.89032690e-07 -2.61520057e-07 4.38863481e-07
      -1.53207402e-08 1.04383826e-05 2.62110425e-05 2.10381040e-05
      3.62877181e-05 4.93374610e-05 5.72885729e-05 4.51315245e-05
      4.18217351e-05 2.78942371e-05 3.17077429e-05 3.18595085e-05
      5.38986569e-05 6.32458177e-05 6.43414314e-05 6.49052599e-05
      6.51417940e-05 4.19826392e-05 8.62144680e-06 1.82604424e-07
      3.83919996e-07 7.53656821e-07 2.89554869e-08 1.93707947e-07
      3.33644323e-07 8.70164882e-08 8.90756837e-08 1.03147545e-06
      1.66317636e-06 1.77954928e-06 3.38094719e-06 5.73370698e-06
      7.37120308e-06 7.27987799e-06 7.44887302e-06 7.64561264e-06
      7.94607240e-06 8.30636327e-06 7.23200537e-06 6.66640699e-06
      7.98895871e-06 1.07727392e-05 1.23535974e-05 1.36238486e-05
      1.40482780e-05 1.18285789e-05 8.46920648e-06 5.62195555e-06
      5.34292258e-06 6.16013949e-06 8.16407737e-06 9.96464314e-06
      1.19657416e-05 1.32795103e-05 1.26441910e-05 1.09827624e-05
      9.31395425e-06 7.49335732e-06 6.06530830e-06 4.99440239e-06
      6.77133630e-06 7.82284405e-06 7.03317892e-06 5.59200134e-06
      3.99679266e-06 4.40951226e-06 4.55564759e-06 4.80884910e-06
      5.55808310e-06 9.81707035e-06 5.15886059e-05 3.02560638e-05
      4.51428423e-06 3.70087719e-06 3.50047821e-06 5.52382789e-06
      6.99067004e-06 8.91828677e-06 1.33234753e-05 1.60466898e-05
      1.44557134e-05 1.24595535e-05 1.20294717e-05 1.19078986e-05
      1.19060896e-05 1.15133716e-05 1.15186222e-05 1.12211974e-05
      1.04306318e-05 9.69225584e-06 9.56659460e-06 9.40735026e-06
      8.34344428e-06 7.54049915e-06 2.35802872e-05 7.01680619e-05
      3.73323601e-05 2.58790333e-05 2.79326687e-05 5.21636321e-05
      2.20019065e-05 -1.09429664e-06 5.75039394e-07 4.71797421e-07
      3.48617220e-07 -4.90297850e-07 -3.01807233e-07 -3.14246863e-05
      -3.58257894e-05 -3.75270065e-05 -3.85585954e-05 -3.68768924e-05
      -3.77509423e-05 -3.49285037e-05 -2.63173988e-05 9.28215513e-07
      -1.21970661e-05 -1.67754588e-05 -1.50556352e-05 4.14563419e-06
      -1.12422583e-06 7.30871591e-07 1.48493825e-06 4.89896183e-06
      4.87073657e-06 3.18112893e-06 2.25769554e-06 1.32918490e-06
      1.89332968e-06 2.00291083e-06 2.06519053e-06 3.82178814e-06
      1.38001406e-06 1.38431471e-06 5.46378897e-06 2.45209976e-05
      3.04837358e-05 1.94944714e-05 2.40618756e-05 3.32800082e-05
      5.24634961e-05 4.57420974e-05 2.51301572e-05 1.06403531e-05
      2.24284886e-05 5.79948537e-05 6.26653054e-05 6.31852017e-05
      6.36640179e-05 6.09850031e-05 4.40510303e-05 3.26629997e-05
      7.26928420e-07 6.99568147e-07 1.98683296e-07 1.09631934e-07
      3.61943577e-08 2.51846018e-07 4.47621780e-08 2.52191541e-07
      2.70909908e-08 8.09588300e-07 7.20014498e-07 6.81878987e-07
      2.93561197e-06 5.60027911e-06 7.36494349e-06 7.27763245e-06
      7.34117521e-06 7.30628426e-06 7.32604576e-06 8.00798352e-06
      9.04639091e-06 1.00762345e-05 9.59080808e-06 1.03914372e-05
      1.15273851e-05 1.22674473e-05 9.58238070e-06 6.83083454e-06
      5.34317678e-06 5.11606140e-06 5.04804211e-06 5.63049252e-06
      7.98700785e-06 1.11099989e-05 1.31007546e-05 1.26430050e-05
      1.16981582e-05 1.10307828e-05 1.01815767e-05 9.27858309e-06
      8.31521174e-06 9.88043121e-06 9.46362343e-06 7.12759129e-06
      4.64237155e-06 3.74543697e-06 3.97386611e-06 4.33667401e-06
      4.66621032e-06 4.75750585e-06 5.07804498e-06 4.82177438e-06
      4.80634480e-06 1.27268040e-05 5.19252681e-05 2.32384009e-05
      4.05566470e-06 5.74150181e-06 8.82349741e-06 1.28647880e-05
      1.47352121e-05 1.35608971e-05 1.22562615e-05 1.21635630e-05
      1.22175179e-05 1.21276553e-05 1.20940003e-05 1.20150571e-05
      1.19869173e-05 1.10359742e-05 1.00839598e-05 9.98670475e-06
      9.58569126e-06 9.12817268e-06 6.67877066e-06 4.05782203e-06
      8.26547694e-06 1.53261772e-05 5.85568632e-05 4.31000190e-05
      2.70010096e-05 1.89072689e-05 3.24950561e-05 2.43402410e-05
      -1.21103184e-07 2.95308382e-08 -1.82950174e-07 7.04601666e-09
      -6.64022366e-08 1.44589096e-08 -1.26631036e-07 -7.01512863e-06
      -1.76907979e-05 -3.15308826e-05 -2.17322740e-05 -1.19211854e-05
      -1.86769387e-06 3.52676722e-07 -2.39897560e-07 5.33800062e-07
      6.56013768e-08 3.07323648e-06 5.13220812e-07 -1.44275577e-06
      2.44657963e-06 6.09775952e-06 6.02985665e-06 4.46390595e-06
      2.58615546e-06 1.57506565e-06 3.98118891e-06 2.92115760e-06
      6.54021960e-06 1.25504303e-05 1.37036686e-05 9.44867770e-06
      2.24120195e-05 3.02400804e-05 4.09374661e-05 4.27613159e-05
      3.04055011e-05 3.07114460e-05 3.03653524e-05 3.33446224e-05
      2.56097846e-05 1.80146890e-05 4.55252848e-05 6.26203910e-05
      6.29839706e-05 6.35606630e-05 6.29715651e-05 5.51826815e-05
      2.57945867e-05 5.52010988e-07 2.11605482e-07 3.92101668e-07
      9.86584723e-07 1.00385887e-06 1.15396358e-06 7.15748172e-07
      9.48961798e-08 7.50154356e-07 5.06409314e-08 3.37777919e-07
      3.43825150e-07 1.66187064e-07 2.49273239e-06 5.06106790e-06
      7.45597526e-06 7.32458329e-06 7.26874168e-06 7.32458329e-06
      8.12529561e-06 1.11068530e-05 1.27594840e-05 1.20658851e-05
      1.01948199e-05 9.98944415e-06 9.56519671e-06 6.70520058e-06
      3.62914489e-06 3.25479141e-06 3.76322578e-06 4.24577138e-06
      4.80892595e-06 5.92425886e-06 9.12495034e-06 1.23408154e-05
      1.26278755e-05 1.18456446e-05 1.10477768e-05 1.01303176e-05
      9.73807892e-06 1.05131221e-05 1.28663969e-05 1.28139782e-05
      9.96192830e-06 7.12157180e-06 5.32921740e-06 4.97208521e-06
      4.08064670e-06 4.42037935e-06 4.66767278e-06 4.81805364e-06
      5.12433462e-06 5.02647799e-06 3.93012488e-06 3.06479569e-06
      3.33728144e-06 1.46329348e-05 5.45073999e-05 2.40184290e-05
      1.19636888e-05 1.30843910e-05 1.23454402e-05 1.24347353e-05
      1.22915872e-05 1.23109612e-05 1.22573229e-05 1.21418389e-05
      1.21395733e-05 1.21963731e-05 1.10889296e-05 1.00821280e-05
      1.00396373e-05 9.95851497e-06 9.40309837e-06 7.37655773e-06
      4.91911942e-06 3.87219598e-06 3.29232671e-06 2.55655050e-06
      3.87663431e-06 5.22996634e-05 2.51587044e-05 2.46322288e-05
      2.79247179e-05 3.68575566e-05 3.07478622e-05 2.28244630e-06
      1.20062225e-07 1.01413853e-07 1.63742627e-07 -2.81022409e-07
      -3.86396465e-07 -1.19191075e-08 -4.22569642e-08 2.65896869e-08
      9.17161600e-08 -4.00104796e-07 2.03451805e-07 -4.60271167e-07
      -9.88765123e-08 -4.39080623e-07 1.06095604e-06 1.41301848e-06
      1.79662936e-06 2.60863249e-06 3.63599361e-06 5.40451219e-06
      5.13942587e-06 3.25327392e-06 1.61375522e-06 1.70872295e-06
      6.61650938e-06 8.45446993e-06 -3.07422238e-06 -1.62823699e-06
      2.21017453e-05 2.24444866e-05 6.28856651e-05 8.39990753e-05
      6.06268259e-05 5.63907888e-05 5.75132181e-05 4.77099129e-05
      3.65531523e-05 2.22968320e-05 2.28395238e-05 3.95696952e-05
      5.80432352e-05 6.29970091e-05 6.37169142e-05 6.29617643e-05
      6.21193540e-05 4.51746746e-05 3.63520985e-06 5.69641941e-07
      5.58203283e-07 1.17041289e-07 2.02289939e-07 9.68539737e-08
      6.17683099e-07 9.23128141e-07 1.12506291e-06 1.20328912e-06
      3.47017448e-07 4.07058593e-07 1.82988646e-08 9.32858981e-08
      2.32814932e-06 4.84348675e-06 7.48360799e-06 7.30999636e-06
      7.31361388e-06 8.80702009e-06 1.20351269e-05 1.45924587e-05
      1.52227522e-05 1.28091906e-05 1.00984989e-05 7.49858327e-06
      4.46241302e-06 1.22815891e-06 1.33253002e-06 1.78741482e-06
      2.32409138e-06 2.97621705e-06 4.10098937e-06 6.28018051e-06
      1.00901516e-05 1.16999327e-05 1.20674367e-05 1.11124345e-05
      1.00277193e-05 9.72455564e-06 1.12951220e-05 1.30844928e-05
      1.26904679e-05 1.00396464e-05 8.75160458e-06 8.29634973e-06
      7.98148994e-06 7.29998601e-06 6.69708152e-06 5.90604122e-06
      5.18000616e-06 4.69887937e-06 4.67968312e-06 4.35242509e-06
      2.44063722e-06 2.23858592e-06 3.00979900e-06 3.53757491e-06
      8.54695008e-06 2.60639699e-05 6.08231021e-05 2.23734551e-05
      1.24884709e-05 1.21747707e-05 1.22573229e-05 1.23844084e-05
      1.19648166e-05 1.28076363e-05 1.21415760e-05 1.10299934e-05
      1.00878297e-05 9.73167698e-06 1.00138395e-05 9.58135388e-06
      7.78911726e-06 5.50449522e-06 4.83733629e-06 4.11045221e-06
      3.83013821e-06 6.33300715e-07 -2.57394749e-05 3.69912755e-06
      5.28693963e-05 3.66056520e-05 2.47176049e-05 2.24277555e-05
      2.23564566e-05 7.01511863e-06 2.93365360e-07 9.12275695e-08
      2.40270083e-07 4.51799345e-08 -3.75171467e-08 2.57207748e-08
      1.67046210e-07 -2.59711328e-07 -1.05083998e-07 -5.33255559e-07
      2.02458466e-07 -4.00601436e-07 1.37099732e-07 -7.16374515e-08
      -1.21133539e-07 -8.45646895e-08 1.70791111e-07 1.13159615e-06
      4.33239302e-06 6.44840520e-06 7.32686112e-06 4.87975421e-06
      2.22351673e-06 1.85245835e-06 1.31782754e-05 4.85242117e-06
      -1.71758329e-05 -1.31544457e-05 -1.61158987e-05 -1.76855701e-05
      -1.50966571e-06 4.20214383e-05 6.16388570e-05 6.38705751e-05
      5.25518553e-05 4.86902863e-05 3.08772505e-05 8.71871453e-06
      3.79888661e-05 6.56162811e-05 6.27229820e-05 6.20718129e-05
      6.38880883e-05 6.53171228e-05 5.51038611e-05 1.89456568e-05
      2.00608815e-06 3.89632476e-07 2.49472151e-07 4.98756208e-07
      2.56739099e-07 1.23364501e-07 1.81611748e-09 2.68394672e-07
      7.23887172e-09 2.72492457e-07 1.01922456e-06 1.77951222e-06
      1.43240311e-06 6.91544415e-07 1.74777779e-06 4.40830809e-06
      7.12773090e-06 7.41828671e-06 9.41107919e-06 1.29011460e-05
      1.53072051e-05 1.62628075e-05 1.59041192e-05 1.29646323e-05
      8.22047514e-06 2.91151150e-06 2.63997777e-07 2.18266848e-07
      2.76659307e-07 7.86329394e-07 1.16592139e-06 2.26899306e-06
      4.55456893e-06 6.92602998e-06 8.73766658e-06 1.02235172e-05
      1.05779573e-05 1.01627611e-05 9.66583957e-06 1.22377232e-05
      1.36550752e-05 1.20385794e-05 9.36032393e-06 8.25973348e-06
      8.07936067e-06 8.46316379e-06 8.62572870e-06 9.13270378e-06
      9.21204173e-06 8.42525969e-06 7.36203356e-06 6.43049088e-06
      4.21063714e-06 2.36066785e-06 2.09656014e-06 2.96631106e-06
      3.91256708e-06 8.26444648e-06 1.07357782e-05 1.11476174e-05
      1.19024971e-05 3.33585958e-05 6.47439010e-05 2.18549449e-05
      1.56526021e-05 1.44250353e-05 1.38320165e-05 1.33724334e-05
      1.14480708e-05 1.02535651e-05 1.00566331e-05 1.02648137e-05
      9.86584837e-06 8.41668952e-06 6.40912867e-06 5.82441407e-06
      5.16704176e-06 4.28447856e-06 3.82431836e-06 2.85444526e-06
      1.92806533e-06 -2.47480989e-06 4.00045110e-06 4.21548320e-05
      2.66227744e-05 2.47001717e-05 2.03367290e-05 1.35972796e-05
      1.26803216e-05 -2.80231518e-07 8.45562411e-08 8.94783739e-07
      -3.31211623e-07 1.45197603e-07 -1.73941612e-06 -2.06162454e-07
      -4.48450024e-08 -8.52013784e-08 3.50794437e-07 -2.26033393e-07
      -5.24134869e-08 -2.72062692e-07 4.13222068e-07 -1.02327149e-07
      -1.12629607e-07 6.56581207e-08 2.07944959e-06 5.39415350e-06
      6.60744627e-06 4.65885932e-06 2.65605286e-06 3.00383090e-06
      1.67728122e-05 1.25877641e-05 -2.15257733e-05 -3.01059699e-05
      -3.15603647e-05 -1.97619229e-05 -8.92046319e-06 1.53640431e-05
      5.22904484e-05 4.53887114e-05 1.60727741e-05 2.46700711e-05
      3.15441175e-05 4.25229555e-05 5.25207288e-05 6.94476548e-05
      6.52266026e-05 6.40067155e-05 6.44477986e-05 5.91899698e-05
      1.05800173e-05 2.22233984e-06 2.86429014e-07 3.50773291e-07
      2.14187551e-07 2.28296912e-07 1.29152653e-07 4.52529804e-07
      3.31828204e-07 5.20010524e-08 2.55438465e-07 4.89032857e-07
      1.46592241e-08 2.25154025e-07 1.95668818e-07 4.47890841e-07
      2.64665505e-06 5.80190908e-06 7.89034857e-06 1.04386918e-05
      1.39082249e-05 1.60256059e-05 1.64718222e-05 1.63411332e-05
      1.58259736e-05 1.04048950e-05 3.92715765e-06 8.90910172e-08
      8.59562874e-08 1.11363772e-08 3.71212550e-09 1.11956453e-07
      7.30688441e-07 2.89100512e-06 4.85644205e-06 5.66965673e-06
      7.33012666e-06 8.33302875e-06 8.59447846e-06 8.51967889e-06
      1.20472605e-05 1.32666710e-05 1.18096414e-05 8.77040020e-06
      7.52779715e-06 8.05493164e-06 8.23999017e-06 8.55253347e-06
      9.06872174e-06 9.28302597e-06 9.59074259e-06 9.75093826e-06
      9.74602426e-06 7.30974307e-06 5.07732329e-06 3.68990527e-06
      3.18527100e-06 4.86153795e-06 6.91756304e-06 9.34527816e-06
      8.14019950e-06 1.03866023e-05 1.49613161e-05 1.93709748e-05
      2.18302030e-05 4.74347107e-05 7.48380844e-05 2.56956318e-05
      2.14954907e-05 1.80263178e-05 1.45340991e-05 1.24345597e-05
      1.06454372e-05 1.01956930e-05 8.81225424e-06 7.38456447e-06
      6.94733535e-06 6.31939020e-06 5.65787877e-06 4.91515766e-06
      4.54239853e-06 1.99516148e-06 1.52111033e-06 1.50462199e-06
      -1.08995637e-05 7.49370474e-06 4.11043256e-05 2.47452117e-05
      2.47067092e-05 1.84366072e-05 2.85296173e-05 -4.49089498e-07
      5.97393850e-08 2.07134487e-08 2.53197818e-09 -4.57140732e-06
      -9.44303247e-06 -1.56873393e-05 6.48233299e-06 4.45282240e-07
      4.35354153e-08 -2.31915024e-07 1.18470339e-07 2.07292771e-07
      1.92765270e-08 1.77420930e-07 0. 1.30608086e-07 2.39243900e-06
      4.91039600e-06 5.75731838e-06 2.80624772e-06 5.93842856e-07
      3.01367186e-06 1.47313958e-05 1.30540811e-05 3.00680227e-07
      -7.40564928e-06 -1.07921323e-05 7.95129654e-06 1.93264896e-05
      2.44172552e-05 3.29322138e-05 3.95586285e-05 1.49366806e-05
      1.78992224e-07 3.17515005e-05 7.61377960e-05 6.82721438e-05
      6.58049903e-05 6.43223611e-05 6.41991646e-05 5.96301434e-05
      3.09489042e-05 1.11184672e-05 1.41600935e-06 4.91008620e-07
      -3.02021483e-08 -1.67660801e-07 -9.89753289e-07 -1.27463494e-07
      -4.31541451e-07 -1.06333388e-07 -2.64052005e-07 -6.90124637e-07
      -2.47922117e-07 -2.89128707e-07 -1.54772735e-07 -6.29911085e-07
      -4.21050800e-07 1.37794621e-06 4.23897291e-06 1.07199858e-05
      1.48643712e-05 1.76400445e-05 1.77562379e-05 1.64174071e-05
      1.52167549e-05 1.17078589e-05 5.67819689e-06 1.34601521e-06
      -2.92154510e-07 -7.65554375e-07 -9.96610538e-07 -2.42241356e-07
      1.64221646e-07 1.81886537e-06 3.35573031e-06 3.38909126e-06
      4.43661020e-06 5.66239805e-06 6.23838196e-06 7.55615520e-06
      1.04716728e-05 1.15994526e-05 9.07350750e-06 7.37863547e-06
      6.65651987e-06 7.15633723e-06 8.24151630e-06 7.30270540e-06
      8.43506677e-06 8.61060562e-06 9.42565748e-06 9.64477476e-06
      8.99049883e-06 7.61406000e-06 6.03765238e-06 5.79192056e-06
      5.97988765e-06 7.40327005e-06 8.95736866e-06 7.63849766e-06
      6.06505228e-06 6.57739429e-06 9.25946279e-06 1.34415695e-05
      1.74378529e-05 2.03056352e-05 2.33571736e-05 2.50896137e-05
      5.59872242e-05 7.39186362e-05 2.10811322e-05 1.98113667e-05
      1.92774041e-05 1.64687826e-05 1.32319074e-05 1.05622721e-05
      9.47767876e-06 7.46850174e-06 6.87778947e-06 5.79941752e-06
      5.03793854e-06 4.02629166e-06 1.94338304e-06 1.13611793e-06
      9.21356218e-07 -4.57987710e-08 -4.29482634e-06 -4.77797266e-06
      5.46853662e-05 3.72911127e-05 2.44606763e-05 2.75036637e-05
      2.79842970e-05 4.79029040e-06 -3.26985344e-07 7.39150039e-08
      -5.23545850e-07 -2.70153714e-06 -5.10773134e-06 -4.96840494e-06
      8.27411895e-06 1.06133566e-05 -5.14878700e-08 -1.76903555e-07
      -1.58815212e-07 4.99053030e-08 3.72064974e-08 1.67839147e-07
      -1.83016500e-08 2.04141452e-06 3.90125160e-06 5.12927772e-06
      3.36216090e-06 1.11566055e-06 8.50142641e-08 4.47708771e-06
      2.55880204e-05 8.91361105e-06 2.18204041e-05 2.23022689e-05
      2.17401648e-05 2.80103050e-05 1.39479798e-05 2.68840358e-06
      1.41887551e-06 1.67978960e-05 1.63522509e-05 -1.44080116e-06
      2.42401038e-05 1.02738253e-04 8.09622506e-05 6.55232361e-05
      6.13824159e-05 3.29301110e-05 2.94757519e-05 7.35306276e-06
      2.30862270e-06 1.84557962e-06 1.43005923e-06 6.86580279e-07
      6.93524782e-07 -7.40421271e-08 -3.06918537e-07 -3.25828495e-07
      -2.52388361e-07 2.27205224e-08 -2.69984241e-07 4.40528027e-07
      -8.45180921e-07 -6.30504758e-07 -5.78111951e-07 1.44819830e-06
      7.70236056e-06 1.37713587e-05 1.60522559e-05 1.64982066e-05
      1.62601227e-05 1.47345072e-05 1.17647869e-05 8.07666856e-06
      5.65513210e-06 2.31579270e-06 -4.93485402e-07 -5.44318084e-07
      -4.50327548e-07 9.56361532e-07 9.32415617e-07 2.12798932e-06
      3.05614367e-06 3.51176823e-06 4.23706979e-06 3.96351652e-06
      6.42247733e-06 9.55186988e-06 9.18447768e-06 7.13162535e-06
      4.48977971e-06 5.12619590e-06 5.44339991e-06 5.71007558e-06
      7.15068745e-06 7.20309708e-06 8.45000795e-06 8.16416377e-06
      9.44814565e-06 9.19962986e-06 7.82407915e-06 6.06400636e-06
      5.44775912e-06 6.20482206e-06 9.34432501e-06 1.13061251e-05
      9.13276472e-06 7.35658068e-06 7.83646010e-06 9.42457609e-06
      9.41515464e-06 1.28407837e-05 1.57690374e-05 1.91899508e-05
      2.16958870e-05 2.39514393e-05 2.67377454e-05 2.37281420e-05
      5.87640570e-05 7.16346476e-05 2.48808501e-05 2.35915759e-05
      2.28308181e-05 1.98258913e-05 1.66570608e-05 1.49466468e-05
      1.08462573e-05 8.84178735e-06 5.11605913e-06 2.18785681e-06
      2.05091283e-06 1.44921376e-06 3.60293484e-08 -4.68587416e-07
      -5.74790192e-07 -5.60046601e-06 -7.02300952e-07 4.61898489e-05
      3.03939578e-05 2.37789973e-05 2.02099509e-05 2.03102736e-05
      1.43985799e-05 -1.15400019e-06 -5.55121574e-07 2.22989023e-08
      1.01699397e-05 1.71255415e-05 3.10453015e-06 -1.79680119e-05
      -1.72561647e-06 -1.11140139e-06 -9.97809252e-07 -8.52544915e-08
      6.89837734e-08 1.72174538e-07 -3.44262840e-10 1.62338870e-06
      2.93814742e-06 4.04656748e-06 2.62911612e-06 7.87558008e-07
      7.12189490e-08 1.61060564e-06 2.07329413e-05 2.29363923e-05
      1.42462677e-05 2.67774376e-05 4.29565880e-05 3.67839821e-05
      4.19475282e-06 1.67193593e-06 1.98374346e-06 5.39257371e-06
      3.06463771e-05 1.74853994e-05 -1.80231302e-06 2.42636052e-05
      9.88634711e-05 7.64801807e-05 6.35812976e-05 2.96954076e-05
      5.56109626e-06 8.91192394e-06 2.57885904e-06 3.45680633e-06
      1.44101170e-06 1.52404903e-06 1.98328485e-06 1.85056967e-06
      1.31821878e-06 1.02076876e-06 -2.65650840e-07 -6.16445490e-08
      -9.43575571e-07 -8.56818815e-07 -1.16087142e-06 -2.02779475e-07
      1.39024462e-06 5.99931536e-06 1.09578032e-05 1.47928749e-05
      1.64048306e-05 1.66751761e-05 1.26562545e-05 9.22489289e-06
      6.33792024e-06 7.13060899e-06 5.34871060e-06 3.45437911e-06
      1.28477961e-06 4.24615223e-07 7.00941371e-07 1.20076982e-06
      2.87896478e-06 2.05629362e-06 3.52591564e-06 3.93925257e-06
      4.52710037e-06 6.87757438e-06 8.37696280e-06 6.81463916e-06
      4.52187078e-06 1.91515869e-06 2.38626217e-06 3.79503854e-06
      4.54375504e-06 5.35469189e-06 6.50489619e-06 7.02590205e-06
      8.08481036e-06 8.21627782e-06 8.78612718e-06 7.24757547e-06
      5.98860879e-06 4.77623144e-06 6.81750907e-06 1.05449917e-05
      1.14004497e-05 9.42626320e-06 8.40010671e-06 9.19055310e-06
      1.16686360e-05 1.09959938e-05 1.22581641e-05 1.47971004e-05
      1.62527340e-05 1.78900464e-05 2.02883184e-05 2.15387736e-05
      2.31266622e-05 2.38256380e-05 2.43757149e-05 2.40012741e-05
      6.25428293e-05 6.39478822e-05 2.12473569e-05 2.24020459e-05
      1.93926062e-05 1.63726818e-05 1.43321004e-05 1.01964160e-05
      5.70062048e-06 2.86487671e-06 3.42987028e-06 5.74142064e-07
      -8.16991097e-09 3.91741651e-07 -9.63480375e-07 -1.79416634e-06
      -2.52631507e-05 -9.87794283e-06 4.61739182e-05 2.37436743e-05
      2.40455793e-05 2.74163467e-05 1.32611303e-05 -1.97719310e-05
      -2.27726514e-06 -6.52899757e-07 2.98129208e-07 2.64593200e-05
      1.78869541e-05 5.12299675e-06 -3.01092086e-06 -7.54687790e-07
      -1.70355591e-07 2.34160620e-06 -1.97286724e-07 3.28428683e-07
      -9.39936697e-08 1.37072698e-06 2.25157646e-06 3.39152507e-06
      2.13491421e-06 6.54385701e-07 3.64637600e-07 4.58995373e-07
      1.08568374e-05 1.36633334e-05 1.37968591e-05 2.18746318e-05
      4.27911582e-05 4.50811058e-05 4.40649565e-05 2.25644635e-05
      1.77031652e-07 8.51834216e-07 9.25338372e-06 3.52214629e-05
      -2.57917827e-06 5.29687895e-06 4.47499951e-05 6.15347963e-05
      6.61469094e-05 6.43232852e-05 2.42969309e-05 4.39158566e-06
      7.70515817e-06 3.83626775e-06 4.37434301e-06 8.26560267e-07
      7.54139577e-08 -1.77706863e-06 -6.99115503e-07 -6.74830233e-07
      5.85091527e-07 9.98422820e-07 1.25399970e-06 4.38060255e-07
      2.23685390e-07 3.07416872e-06 6.55238773e-06 1.04232331e-05
      9.82181518e-06 1.28714419e-05 1.53292185e-05 1.15481835e-05
      7.93153231e-06 6.42254690e-06 6.63653827e-06 6.42351506e-06
      5.66570770e-06 2.52182872e-06 2.32324012e-07 1.75917421e-07
      2.78026255e-06 3.39494136e-06 4.04006687e-06 3.21468588e-06
      4.32336674e-06 2.74099943e-06 6.19838784e-06 8.03895000e-06
      7.10933955e-06 3.14488148e-06 2.35507443e-07 1.08453776e-06
      1.54802376e-06 1.22774577e-06 3.30659623e-06 2.50992662e-06
      3.12615384e-06 5.06044398e-06 6.73613386e-06 7.92667015e-06
      7.44584986e-06 5.93198365e-06 5.14170461e-06 7.31983118e-06
      1.00942407e-05 1.01851920e-05 7.11978146e-06 5.80848700e-06
      6.12531358e-06 9.25062614e-06 1.25177730e-05 1.29140954e-05
      1.50215465e-05 1.52902030e-05 1.28874717e-05 1.83561460e-05
      1.79225408e-05 1.89244874e-05 2.06176919e-05 2.12880732e-05
      2.04068583e-05 2.24778687e-05 2.17510951e-05 2.12311170e-05
      6.46034678e-05 5.18566303e-05 1.04662622e-05 1.87382975e-05
      1.58452476e-05 1.33142021e-05 7.88695797e-06 4.98877262e-06
      2.99218823e-06 -1.01266062e-06 7.81957283e-07 2.69682285e-08
      -4.79381697e-06 -2.16221633e-05 -2.98439081e-05 -3.32592863e-05
      1.98921334e-05 6.11437499e-05 3.67879438e-05 2.40789268e-05
      1.79636463e-05 9.73159240e-06 2.64897462e-05 -6.93422271e-06
      1.70924395e-07 -7.94495577e-07 -4.65651766e-07 7.61602507e-07
      1.18737773e-06 8.09883318e-07 -2.20550555e-06 -8.37911386e-07
      -2.69386942e-06 8.80460391e-07 -8.07640816e-08 6.26577673e-07
      1.82658675e-06 2.35626635e-06 1.73757849e-06 3.03100080e-07
      3.50825900e-07 -4.21510435e-08 -2.54270816e-07 2.53648659e-06
      -1.32733912e-05 1.33296780e-05 4.44732468e-05 4.13939852e-05
      4.00419085e-05 4.25284306e-05 3.73403418e-05 1.09576740e-05
      -2.44749344e-07 6.80777657e-06 6.97596261e-06 -6.92213371e-06
      4.48476385e-06 3.87823056e-05 5.27304037e-05 6.79280856e-05
      6.89409499e-05 1.99079386e-05 -3.48281492e-06 4.99775615e-06
      1.04222354e-05 1.54114241e-06 4.50982770e-06 1.19450833e-05
      4.17922183e-06 5.45413695e-06 -3.57334102e-06 -7.96193763e-06
      5.18821116e-06 1.09376724e-05 1.28411311e-05 1.85176814e-05
      1.62268370e-05 2.27337150e-05 2.63947004e-05 2.09918635e-05
      1.81517426e-05 7.89018304e-06 2.22115955e-06 1.86643479e-06
      5.60963963e-06 1.62075885e-05 8.79404706e-06 -3.97907741e-07
      -2.02899218e-06 9.69333632e-06 1.51211598e-05 1.21341309e-05
      1.03719258e-05 1.15928958e-06 5.38216182e-06 -1.62557571e-05
      3.57806289e-06 2.45033789e-06 4.28887097e-06 9.20791990e-06
      8.42220197e-06 -3.53378232e-06 2.56457497e-07 1.51603240e-06
      -3.11187887e-06 -2.46485740e-07 -7.45237776e-06 -1.77254205e-05
      -5.49504102e-06 5.54900566e-07 1.18025355e-05 9.07035519e-06
      1.63615550e-05 4.58107115e-06 9.17657417e-06 1.06486077e-05
      -4.46834474e-06 -8.42896952e-06 3.19977721e-06 -4.75651314e-06
      1.49323409e-06 9.84317558e-06 2.42171936e-05 1.54859154e-05
      1.89554066e-05 8.18247099e-06 1.58636758e-05 2.53504695e-05
      1.40146458e-05 9.56668555e-06 5.57146586e-06 8.28477641e-06
      -4.41818520e-06 1.62742799e-05 2.33543524e-05 2.07677367e-05
      6.42747254e-05 3.95896604e-05 8.24600556e-06 1.70461462e-05
      2.26709799e-05 1.35488563e-05 -1.09298589e-05 3.25652377e-06
      3.15687998e-06 1.34758211e-05 2.63855054e-05 -2.42010969e-06
      -5.94236699e-05 -1.07585118e-04 -5.81206914e-05 4.43376921e-05
      6.37529010e-05 3.77685064e-05 2.41983362e-05 3.22438791e-05
      2.09804421e-05 5.27481643e-06 -1.63326422e-05 -1.39349288e-06
      3.85670056e-08 -5.29673457e-07 -4.35604449e-07 -4.93790310e-07
      4.15692455e-07 6.40823657e-07 7.39946643e-07 -5.15197144e-06
      -9.89272939e-06 3.51427343e-06 1.00134969e-06 1.70560975e-06
      8.94679431e-07 3.36581735e-07 -7.36033741e-08 -2.81581745e-08
      -1.15452913e-07 -1.82840367e-07 -8.55450435e-06 -5.18562265e-05
      -1.18565740e-05 4.73039690e-05 3.76456373e-05 3.12405355e-05
      4.04562379e-05 4.11406145e-05 1.02769845e-05 -1.12870430e-06
      7.31652199e-06 1.28417969e-05 -6.74518196e-06 -8.48507352e-06
      2.10115013e-05 4.87511024e-05 6.67341083e-05 3.69004993e-05
      -9.74077375e-06 -1.01008554e-05 -9.10626750e-06 8.41260862e-06
      1.29077116e-05 6.91400055e-06 6.21312029e-06 1.80694406e-06
      7.70241604e-06 -2.44190142e-06 -1.68319420e-05 -1.15277744e-05
      -5.28911505e-06 1.55689168e-06 2.47841194e-06 2.01056664e-05
      2.48545675e-05 9.95832215e-06 -1.50137419e-06 -6.39677046e-06
      1.86129921e-06 9.58852797e-06 4.01783700e-06 -1.94771619e-05
      -1.08954555e-05 -9.76396495e-06 -1.76082667e-05 -2.72123161e-05
      -4.57553779e-06 -3.98330030e-06 -4.19744765e-06 -4.97811607e-06
      -1.11718009e-06 -6.37592984e-06 -3.01656346e-05 -2.57381562e-05
      -2.12599098e-05 -9.81868743e-06 -1.88464473e-05 -3.34010801e-05
      -7.95568576e-06 -3.93009323e-05 -3.86404790e-05 -5.01219147e-05
      -2.32391994e-05 -3.05070571e-05 -3.93635164e-05 -3.99293640e-05
      -2.39971087e-05 -5.14266276e-06 1.88089302e-06 -6.53503230e-06
      5.94912490e-06 1.10769197e-05 -3.64219341e-05 -2.56562653e-05
      -2.82645924e-05 -6.65381094e-06 7.00862120e-06 2.24325595e-05
      -1.25768302e-05 -2.40524441e-05 -2.55342752e-06 -7.69067447e-06
      -1.02397262e-05 2.71682584e-05 2.30805381e-05 -9.91080469e-06
      -9.21808896e-06 -1.51777722e-05 1.82956810e-05 1.97103564e-05
      -1.02777876e-05 -3.09277129e-06 2.58942327e-05 2.11077495e-05
      4.50862608e-05 3.57865974e-05 4.23582060e-06 -4.90866250e-06
      -8.07486595e-06 -2.60412144e-05 1.16224746e-05 -6.33271520e-06
      5.07868208e-06 2.69663142e-05 6.56075281e-06 -3.46093620e-05
      -7.83973519e-05 -6.22753942e-05 4.40345066e-05 6.45219479e-05
      2.45523570e-05 2.40409390e-05 2.74724334e-05 -7.17361104e-07
      -8.63595051e-06 -1.19101478e-05 -2.50857829e-06 5.56632870e-07
      -4.04629247e-07 -1.04760929e-07 1.74672635e-07 -4.85659257e-07
      1.16814846e-07 3.53318683e-07 2.63455320e-07 9.33651279e-07
      8.39000677e-06 3.85486555e-06 5.44230090e-07 1.75689308e-07
      1.73766949e-07 -2.33324656e-07 6.70822544e-08 -5.38443139e-08
      8.41688248e-08 -1.74704674e-05 -5.24436618e-05 1.34336442e-05
      3.96213036e-05 1.23396494e-05 1.97723966e-05 4.23172787e-05
      4.86389945e-05 2.80104832e-05 4.54733680e-07 -2.13462226e-06
      -7.94910363e-07 -1.14749701e-05 -1.63299592e-05 2.89520704e-05
      5.29909303e-05 6.70919617e-05 5.99358500e-05 -2.66137590e-06
      -2.75493021e-05 -1.31683018e-05 -8.01561873e-06 3.50978166e-06
      -5.53103428e-06 -1.74844445e-05 -2.74502872e-05 -2.39716519e-05
      -1.28429028e-05 -1.74318338e-05 -1.76724971e-05 -2.63473685e-05
      -3.27125781e-05 -2.34132749e-05 -3.87762520e-05 -7.03701016e-06
      -1.06837324e-05 -2.86289087e-05 -3.87802102e-05 -2.45682986e-05
      -7.28143323e-06 -1.20281769e-07 -9.50971389e-06 -3.01821983e-05
      -3.88095068e-05 -4.50434854e-05 -3.15699835e-05 -2.69320280e-05
      -2.23021398e-05 -3.23916720e-05 -4.88659316e-06 -2.46431700e-05
      -3.50688788e-05 -2.44527655e-05 -2.49654713e-05 -3.23917084e-05
      -1.69285959e-05 -3.71060451e-05 -4.01741090e-05 -3.89077759e-05
      -2.29585767e-05 -3.64285515e-05 -3.48307985e-05 -1.47866394e-05
      -1.86936904e-05 -1.07867963e-05 3.04493005e-06 1.71591200e-05
      1.32718355e-06 -9.02769898e-06 4.61718082e-06 -1.89703096e-05
      -1.89711736e-05 -3.83312290e-05 -2.52393256e-05 -5.47384889e-06
      -1.84058827e-05 -4.45632168e-06 5.62208197e-06 -2.48101824e-05
      -2.80187796e-05 -1.23575592e-05 -1.02347976e-05 -1.10780193e-05
      -2.07981993e-05 -1.27395379e-05 -4.83030817e-06 -3.44877526e-06
      -2.52148129e-05 -6.43273188e-06 -4.52196764e-06 -2.37561399e-05
      -1.29424170e-05 1.58067201e-06 -5.39444591e-06 -2.29748512e-05
      1.11897862e-05 -1.36833955e-06 -1.89031816e-05 -4.16135626e-05
      -4.70002815e-05 -3.70001544e-05 -2.91785655e-05 -4.20355682e-05
      -1.76381054e-05 -1.29981356e-06 -3.49179063e-05 -6.11741125e-05
      -5.73918478e-05 2.33800001e-05 7.60177500e-05 3.79712765e-05
      2.38839129e-05 3.15992693e-05 9.70400833e-06 -1.65093988e-05
      -3.32296668e-06 -3.25015179e-07 -2.49524589e-07 -1.87947009e-07
      3.00162213e-07 -2.57266493e-07 9.66070779e-09 -3.28622468e-06
      -1.12726084e-07 -1.05763121e-07 1.81105997e-06 -5.84254121e-06
      -8.79762683e-06 5.76907325e-07 -2.63178180e-07 1.53550985e-07
      -5.22628945e-08 -2.70960015e-07 -1.39253189e-07 -5.55301540e-07
      -3.37112833e-05 -3.87695582e-05 7.65802997e-06 3.33280186e-05
      2.34973650e-05 2.91563847e-05 3.02499375e-05 5.35232684e-05
      4.02438236e-05 5.20183903e-06 4.89722424e-06 2.59770386e-05
      -2.91986282e-07 -7.97855591e-06 2.53977832e-05 6.09423150e-05
      5.85295129e-05 4.88383812e-05 3.76527205e-05 1.83396844e-06
      2.86462569e-06 -2.53834096e-05 -3.39829785e-05 -3.03697325e-05
      -1.34525972e-05 -8.44330043e-06 -1.27884878e-05 3.44152613e-06
      9.60905709e-06 -1.82009870e-07 -2.52469545e-06 -2.39084238e-05
      -1.05635245e-05 -1.60755699e-05 1.00002796e-06 -2.41394082e-06
      -8.78139963e-06 -6.08552500e-06 -3.03620163e-06 8.14190844e-06
      2.30835140e-05 1.18484595e-05 8.96732490e-06 7.16156819e-07
      -7.42134625e-06 1.10067992e-06 -1.62102424e-05 -1.81205178e-05
      -2.25405802e-05 -2.96192065e-05 -2.36770447e-05 -1.65735983e-05
      -3.04360074e-05 -2.37604345e-05 -2.78938933e-05 -6.31243938e-06
      -1.31762517e-05 -1.01932928e-05 -1.41840292e-05 -1.83395714e-05
      -1.83559678e-05 -2.44439670e-05 -3.49668226e-05 -5.08265202e-06
      -8.52935136e-06 -7.00910414e-06 -6.30239947e-06 -1.87602757e-06
      -2.02281935e-05 -6.77088701e-06 -9.86203577e-06 -1.72265391e-05
      -2.25126769e-05 -3.00993124e-05 -2.24796095e-05 -4.66860511e-05
      -3.88137996e-05 -2.96969865e-05 -1.95954144e-05 -2.57266074e-05
      -1.63465047e-05 -7.08270909e-06 -1.31467605e-05 -5.39685971e-06
      -1.20520690e-05 -1.04144247e-05 -4.67155542e-06 -3.09092175e-05
      -3.89275847e-05 -1.62741817e-05 -9.33860338e-06 -2.71603367e-05
      -2.77645086e-05 -1.80562056e-05 -1.62955130e-05 -2.76253068e-05
      7.23505718e-06 -4.56735688e-06 -3.44762702e-05 -5.00991373e-05
      -4.08469241e-05 -3.37510464e-05 -3.69489280e-05 -3.56393866e-05
      -3.50157461e-05 -4.03358463e-05 -5.49235992e-05 -3.21153057e-05
      2.20186303e-05 5.02038165e-05 2.43025588e-05 2.46389809e-05
      1.96593373e-05 1.38649275e-05 -2.27807104e-05 -1.08369113e-05
      -1.00525665e-06 -2.79293857e-07 -8.69714327e-08 -1.95477838e-07
      -6.38439417e-08 -2.97291786e-06 -1.35686605e-05 -1.46654111e-06
      -2.82856263e-06 -3.42331873e-06 -8.01972328e-06 -4.98236716e-07
      7.60006969e-06 2.98729873e-07 4.58336018e-07 1.66673615e-07
      -7.05245640e-08 9.62318865e-08 -7.23370647e-07 -3.27385278e-05
      -3.58642246e-05 -1.08118820e-05 3.20910622e-05 3.13365199e-05
      2.51359143e-05 1.84801900e-06 2.90591342e-05 5.34844621e-05
      2.89832860e-05 3.03625311e-05 2.99156636e-05 -6.26066094e-06
      -1.81224859e-05 1.58273961e-05 3.94665658e-05 4.90536659e-05
      3.14190220e-05 2.40185345e-05 2.82354704e-05 1.35854980e-05
      -1.38157893e-05 -1.28216016e-05 8.34649086e-07 -6.59316470e-07
      5.74170917e-06 -5.47750142e-06 -6.70293730e-06 -1.39863596e-05
      -2.07777503e-05 -1.14372970e-05 -2.12888153e-05 -6.54162022e-06
      -4.57583155e-06 2.97939732e-06 -1.31228380e-05 -2.14866468e-05
      -5.32160720e-06 -5.44043360e-06 -2.97377355e-05 -2.55576178e-05
      5.60251419e-06 3.80612096e-06 2.32929160e-05 1.59133706e-05
      -1.64482863e-05 -8.38088818e-06 -1.36939461e-05 -2.08001111e-05
      -2.18356327e-05 -2.18607966e-05 -1.41506725e-05 -3.04325786e-05
      -3.64702828e-05 -2.92398563e-05 -1.37639008e-05 -1.44473042e-05
      -1.94259410e-05 -1.49839598e-05 -1.66048540e-05 -1.38662972e-05
      -3.89204470e-05 -4.19476855e-05 -2.92069071e-05 -2.99781259e-05
      -3.18988314e-05 -3.06725960e-05 -5.70036218e-06 -1.98290145e-05
      -1.76235480e-05 -1.08818458e-05 -1.13376709e-05 -7.60287639e-06
      -2.31587237e-05 -2.81321172e-05 -4.72839092e-05 -5.11579274e-05
      -3.71992355e-05 -2.85578608e-05 -1.91490817e-05 -3.08095950e-05
      -3.29258146e-05 -2.04034077e-05 -1.48821191e-05 -1.73440058e-05
      -1.62130855e-05 -1.26433151e-05 -2.39437868e-05 -3.39239705e-05
      -1.82043732e-05 -2.14730590e-05 -1.32961804e-05 3.04528044e-07
      -3.01136206e-05 -2.79244778e-05 -2.34661456e-05 -2.61485657e-05
      9.51675611e-06 -2.24962205e-05 -3.85497442e-05 -3.84698833e-05
      -4.64047007e-05 -4.14773203e-05 -3.33033749e-05 -1.70665644e-05
      -5.51007834e-05 -7.55140791e-05 -5.23841591e-05 3.88880326e-05
      6.83291146e-05 2.56005042e-05 2.43253162e-05 2.79395590e-05
      2.55282375e-05 4.24814516e-06 -1.38759242e-05 -1.28635065e-06
      -5.47187256e-07 -5.66050673e-08 -4.29277875e-08 -1.76976030e-07
      -1.50399694e-06 -1.42796551e-07 -9.68594236e-08 -8.20727166e-08
      -3.76465294e-08 -1.06623811e-05 -1.93986762e-05 1.19903052e-05
      1.06260713e-05 -3.56990348e-08 2.18002754e-08 3.29827884e-07
      8.75038211e-08 4.37805795e-07 -2.01381918e-05 -3.92893598e-05
      -1.42990448e-05 9.30522492e-06 9.71668760e-06 -5.21455740e-06
      -4.49901654e-06 -1.25977631e-05 2.33626415e-05 2.06550649e-05
      2.53536273e-05 4.39880860e-05 3.53443693e-06 -1.83517623e-05
      -2.88956562e-06 1.87745954e-05 4.49888867e-05 2.19139802e-05
      -6.48393689e-06 9.41697908e-06 -1.11629615e-05 -2.00117793e-05
      -5.41165036e-06 -4.35869561e-06 5.83236306e-06 -6.90437673e-06
      -8.92949174e-06 -2.17272845e-05 -4.73742766e-05 -3.34571123e-05
      -3.78256555e-05 -2.43233608e-05 -2.78304797e-05 -3.26667905e-05
      -1.73960980e-05 -5.07849791e-06 -7.29998692e-06 -2.04943572e-05
      -1.00456355e-05 -2.38083758e-05 -3.04268033e-05 -2.90398730e-05
      -2.42308051e-05 -2.09100472e-05 1.02311873e-07 -5.90416448e-06
      -2.16702228e-05 -1.98994112e-05 -1.20113518e-05 -1.79287945e-05
      -1.47232922e-05 -2.47306125e-05 -3.47049754e-05 -3.39849394e-05
      -3.06670772e-05 -1.99218048e-05 -1.15005005e-05 -7.24900201e-06
      -1.43000452e-05 -1.86131692e-05 -1.66551308e-05 -1.96593119e-05
      -2.85663664e-05 -3.97375516e-05 -3.34341166e-05 -2.86659633e-05
      -2.93497724e-05 -3.58608850e-05 -1.63861696e-05 -5.03030278e-05
      -5.02874791e-05 -2.86241466e-05 -6.80788298e-06 -2.33363844e-05
      -3.90433779e-05 -4.57214774e-05 -2.89765576e-05 -3.04673140e-05
      -2.68962558e-05 -2.46496002e-05 -1.92392727e-05 -3.85965177e-05
      -3.99584096e-05 -2.69064349e-05 -1.25901724e-05 -2.67564119e-05
      -1.50487967e-05 -2.68392905e-05 -3.09579082e-05 -3.06029287e-05
      -2.81608081e-05 -2.86642025e-05 -2.02993197e-05 -3.40418446e-05
      -4.66371275e-05 -4.75522247e-05 -3.08862145e-05 -1.89119528e-05
      1.10379942e-05 -4.08601118e-05 -3.61923703e-05 -4.46136801e-05
      -4.98883528e-05 -4.33094901e-05 -4.32512497e-05 -6.42413506e-05
      -7.43821001e-05 -6.83639519e-05 3.26164845e-05 5.53179270e-05
      2.86512641e-05 2.40514237e-05 1.94148433e-05 1.46215052e-05
      -2.66942825e-05 -1.46256716e-05 -7.54962286e-07 6.04803958e-08
      -1.33138357e-07 -9.17035891e-07 2.82428061e-07 -8.17097003e-08
      -2.82198016e-08 -9.30829103e-08 7.23887172e-09 -3.29032702e-07
      -6.01959709e-06 -1.61504777e-05 -8.88854356e-06 -1.99657492e-07
      1.82725643e-07 -1.88229023e-08 2.85105557e-07 3.16330997e-08
      -9.33434805e-08 -2.27034161e-05 -3.94747112e-05 9.30236547e-06
      1.44699379e-05 2.79204278e-06 -1.89844450e-05 -2.74744834e-05
      -3.55039592e-05 -8.82844779e-06 -2.84674388e-06 1.19120350e-05
      4.15218055e-05 6.55954727e-06 -1.86529705e-05 3.37117381e-05
      2.96701091e-05 2.26256761e-05 1.42324125e-05 -1.33295398e-05
      -1.85710160e-05 -2.03587679e-05 -1.47471319e-05 -1.34006052e-06
      -1.17771015e-05 -6.26178144e-06 -1.19062379e-05 -2.43015929e-05
      -3.26354566e-05 -2.44897510e-05 -1.34095162e-05 -1.12885828e-05
      -1.65711008e-05 -2.02310584e-05 -3.44829641e-05 -4.38598363e-05
      -2.11253318e-05 -8.79787694e-06 -4.29149793e-07 -2.54035294e-05
      -2.97581028e-05 -1.90177125e-05 -2.02112042e-05 -2.23267034e-05
      -7.41046733e-06 -2.50208341e-05 -2.80911099e-05 -2.60439065e-05
      -2.61363875e-05 -1.16849942e-05 -5.45740158e-06 -2.38460889e-05
      -2.62313242e-05 -3.22984561e-05 -4.95720815e-05 -1.49155185e-05
      -1.51908789e-05 -3.80818674e-05 -1.53851288e-05 -1.67727285e-05
      -1.61393073e-05 -1.51101212e-05 -1.32704199e-05 -1.99493734e-05
      -2.97879360e-05 -2.35299976e-05 -2.30527057e-05 -2.22030958e-05
      -1.98121288e-05 -3.20953986e-05 -3.28389469e-05 -4.88592632e-05
      -5.39209359e-05 -2.96497892e-05 -2.65354411e-05 -3.80709171e-05
      -4.21126606e-05 -2.06015902e-05 -6.25891562e-06 -9.56027088e-06
      -1.83892225e-05 -2.49227578e-05 -2.04989501e-05 -2.75695002e-05
      -3.97710573e-05 -1.70604435e-05 -1.73982298e-05 -2.33088722e-05
      -3.45999106e-05 -1.91521121e-05 -7.64109063e-06 -3.08267263e-05
      -2.33420542e-05 -3.64920779e-05 -2.83699919e-05 -3.86021893e-05
      -2.99297644e-05 -3.12460506e-05 -3.62877508e-05 -1.42411827e-05
      -3.08584868e-06 -3.40140323e-05 -4.26464940e-05 -3.99898636e-05
      -3.34150864e-05 -2.85073475e-05 -5.20968060e-05 -7.62298077e-05
      -4.05435530e-05 3.23362656e-05 5.76786042e-05 2.43279119e-05
      2.46088239e-05 3.47047026e-05 1.73387034e-05 -1.13512242e-05
      -1.54317404e-05 2.89842347e-07 5.67058350e-07 -3.81522540e-07
      -1.17324203e-06 1.00112788e-06 -2.94377660e-08 -6.09615824e-08
      -1.05980867e-07 -3.96637375e-07 3.33208483e-08 -5.10780410e-06
      -9.16365934e-06 -1.50703772e-05 -9.15597923e-07 -1.05633845e-07
      -1.03051079e-07 -1.38174826e-07 -3.47013773e-09 6.02865668e-07
      -3.02214103e-05 -3.20304280e-05 -1.52109749e-06 1.59330411e-05
      -1.89775005e-06 -1.61173994e-05 -1.97967147e-05 -3.80114652e-05
      -2.15822456e-05 -1.14938566e-05 -9.98510018e-07 4.63763645e-05
      1.03840712e-05 -1.43226844e-05 1.01880960e-05 3.18691382e-05
      3.36455778e-05 8.36742947e-06 -2.37173190e-05 -3.43999855e-05
      -1.45577778e-05 -2.06970417e-05 -2.68994700e-05 -5.48171083e-05
      -2.55789182e-05 -1.33472959e-05 -2.48294691e-05 -3.15983561e-05
      -1.79520557e-05 -1.09482962e-05 2.68654003e-06 7.21444258e-06
      -2.04078115e-05 -3.08579256e-05 -4.31524313e-05 -4.39933210e-05
      -1.99162387e-05 -1.01238520e-05 -1.56490332e-05 -2.84712423e-05
      -1.91853487e-05 -3.71349074e-06 -2.20181082e-05 -2.64627470e-05
      -2.28419703e-05 -3.75451018e-05 -3.73167859e-05 -2.77893887e-05
      -7.05614923e-07 -1.15287385e-05 -2.21204464e-05 -3.00951433e-05
      -2.82009605e-05 -3.88688313e-05 -1.89552848e-05 -6.09857170e-06
      -4.11503897e-05 -4.16322619e-05 -2.99876465e-05 7.97332996e-06
      -6.50567108e-06 -1.51986114e-05 -1.73513181e-05 -3.02175376e-05
      -2.72512716e-05 -2.51795627e-05 -1.60609434e-05 -1.56447404e-05
      -3.28780116e-05 -3.91852627e-05 -3.86753381e-05 -5.09417114e-05
      -1.68445913e-05 -1.58502917e-05 -2.84237449e-05 -2.20493112e-05
      -4.75607885e-06 -6.48828200e-06 -3.51997210e-06 -2.05761589e-05
      -2.16509470e-05 -1.36623648e-05 -1.97569134e-05 -1.53431793e-05
      -9.14879365e-06 -2.21106293e-05 -2.08151723e-05 -3.17034865e-05
      -3.93118571e-05 -5.65411528e-06 1.08138784e-06 -2.05890210e-05
      -2.96659491e-05 -2.07646754e-05 -2.27410128e-05 -1.87497044e-05
      -1.58416606e-05 -2.96897015e-05 -4.41101438e-05 -7.92665924e-06
      3.72289173e-06 -3.96505820e-05 -3.06155926e-05 -2.99503008e-05
      -3.97620170e-05 -5.58392021e-05 -4.22985977e-05 -3.86197280e-05
      1.69500854e-05 5.71309720e-05 2.59132448e-05 2.43152717e-05
      2.25007316e-05 4.20428796e-06 -7.54897519e-06 -1.03660977e-05
      -5.15479144e-07 -1.33730055e-07 -1.72945775e-07 -9.61463797e-08
      -1.20449016e-07 -1.44091430e-07 -2.61204917e-07 -1.23705178e-07
      -3.37132526e-08 -2.48582737e-08 -4.83842268e-06 -4.06270283e-06
      -2.71935676e-07 -1.09332582e-07 5.02239175e-08 2.06068890e-07
      -8.79742004e-08 5.55321122e-08 -2.79839742e-08 -2.31276699e-05
      -3.68839137e-05 -9.63155890e-06 3.95783063e-05 1.72427444e-05
      -5.77960009e-06 3.42444082e-06 3.05609251e-06 -1.71500124e-05
      -1.98733487e-05 -6.13325665e-06 2.03043619e-05 8.31806301e-06
      -9.57320844e-06 8.46844068e-06 3.69993359e-05 4.67061109e-05
      1.47761857e-05 -3.49308139e-05 -4.35280126e-05 -3.99513374e-05
      -3.09575444e-05 -3.84224695e-05 -4.04703569e-05 -3.12808152e-05
      -1.65606834e-05 -2.89899926e-05 -2.79028482e-05 -3.94236031e-06
      -5.06686683e-06 -6.36145887e-06 7.95561391e-06 1.51641179e-05
      -5.13666737e-06 -2.22821072e-05 -1.14123704e-05 -1.35071389e-06
      -1.52317798e-05 -2.43542054e-05 -1.99070928e-05 -5.08117455e-06
      -2.99068088e-05 -4.04344937e-05 -3.65222913e-05 -2.84126982e-05
      -3.61226048e-05 -2.23949883e-05 2.21625146e-06 -1.00023371e-05
      -2.16815533e-05 -1.48695335e-05 -1.20864197e-05 -1.30842000e-05
      -2.72756770e-05 -2.12815121e-05 -3.27353846e-05 -4.40456461e-05
      -3.60334416e-05 -2.13716812e-05 -6.46284889e-07 9.78139724e-07
      -1.51231106e-05 -3.22069973e-05 -3.37968559e-05 -1.66186583e-05
      -1.44894238e-05 -2.27137098e-05 -3.60767117e-05 -4.23611491e-05
      -3.39290054e-05 -1.52483190e-05 -1.74208308e-05 -1.88974045e-05
      -2.55478881e-05 -1.90313622e-05 3.39595226e-06 -4.51606002e-06
      -3.54687086e-06 -2.19124668e-05 -3.75205273e-05 -2.74920330e-05
      -8.18184162e-06 -8.58729163e-06 5.36277923e-07 -8.83861503e-06
      -1.90592418e-05 -1.81202613e-05 -3.06757720e-05 -4.47606089e-06
      9.28791269e-06 -2.57299162e-05 -2.77834934e-05 -2.01358689e-05
      -1.89829825e-05 -2.36392134e-05 -2.88141928e-06 -2.06893255e-05
      -4.15917493e-05 -5.66591698e-05 -2.64959363e-05 4.14741680e-06
      2.11697425e-05 -2.32328293e-05 -3.18140483e-05 -2.93445864e-05
      -4.24617028e-05 -5.62543355e-05 -7.39820389e-05 1.34671427e-05
      6.76927302e-05 3.34774450e-05 2.45282808e-05 3.49103793e-05
      -5.69881649e-06 -3.40361621e-05 -1.88567828e-05 -1.49038658e-06
      1.87757692e-07 0. -1.62045012e-07 -1.37837247e-07 -7.91235237e-08
      -3.48980578e-08 -2.68416130e-07 -2.21134201e-07 -5.11722149e-08
      -3.80820347e-06 -2.88699607e-06 -9.70665042e-08 -1.57214359e-07
      -5.40515082e-08 4.62989078e-08 -1.99730707e-07 -8.56649720e-08
      -1.43368140e-06 -2.67604155e-05 -4.63403121e-05 -1.39691665e-05
      4.03618433e-05 2.69179072e-05 1.66606624e-05 1.57725135e-05
      8.67589551e-06 -6.11593441e-06 2.41611042e-06 7.30088914e-07
      2.03692744e-05 6.03169610e-06 -1.19513270e-05 -8.04557476e-06
      2.90340304e-05 4.93931766e-05 1.64578923e-05 -2.02508927e-05
      -1.17940308e-05 -1.20284158e-05 -3.95879251e-05 -3.01588771e-05
      -2.28282147e-06 -5.29210183e-06 -5.61129218e-06 -7.21782590e-06
      5.54323469e-06 -9.68719178e-06 -1.65806850e-05 1.93605456e-06
      3.11141048e-05 2.16237186e-05 9.28376176e-06 8.82292079e-06
      -1.14091990e-05 -8.37856624e-06 -1.43889756e-05 -7.56224745e-06
      -2.43675095e-05 -2.95719601e-05 -3.16255282e-05 -2.76991614e-05
      -3.45312183e-05 -3.47577152e-05 -3.19496030e-05 1.08698468e-05
      -8.12244525e-06 -1.93347860e-05 -6.90350453e-06 -4.46075410e-06
      -1.13422702e-05 -4.99921089e-06 -1.70349795e-05 -1.44451615e-05
      -2.27912278e-05 -8.29932287e-06 -3.02268518e-06 -1.46180464e-05
      1.18140520e-06 -1.72663367e-05 -1.83211159e-05 -1.28177244e-05
      -3.79800258e-05 -1.80989973e-05 -1.66229329e-05 -3.74185583e-05
      -2.59314002e-05 -1.78231130e-05 9.49731202e-06 -8.65989477e-06
      -2.94892325e-05 -3.39239486e-05 -2.22600102e-05 3.29176942e-06
      -2.02948158e-05 -6.35025799e-06 8.73433055e-06 -7.99007466e-06
      -1.19159949e-05 2.45526571e-05 1.42944364e-05 1.71945806e-06
      6.17969772e-06 8.71081102e-06 -5.91371418e-06 -1.52677076e-05
      -2.98544506e-07 8.66843311e-06 -1.30348349e-06 -1.15368448e-05
      -1.86188645e-05 -1.39371241e-05 -1.78501577e-05 1.87638925e-05
      1.95145494e-05 -1.71668726e-05 1.95090706e-05 9.02069769e-06
      -3.63494178e-06 -1.89845341e-05 2.55577270e-05 3.94055860e-05
      1.00949665e-05 1.30414367e-06 -5.19061032e-05 -7.20098178e-05
      -6.07368529e-05 3.80828969e-05 5.46029441e-05 2.52076134e-05
      2.41563521e-05 2.11507540e-05 -1.51195727e-05 -6.02990622e-05
      -2.30104542e-05 5.52973972e-07 -1.23102154e-07 -4.06373185e-10
      -3.38937241e-07 -6.84125212e-07 -3.78498885e-06 -3.78079335e-07
      -9.62027258e-08 -1.01980426e-07 -3.39833797e-08 -2.93341401e-07
      -4.74235655e-08 -1.88685846e-07 1.08050678e-07 4.21142907e-08
      -5.98098708e-08 8.29984330e-08 1.07926375e-07 4.27104965e-07
      -1.09594575e-05 -4.71877793e-05 -2.69549728e-05 4.15324212e-05
      3.91497160e-05 2.53350172e-05 3.01333621e-05 8.72310738e-06
      -9.34063905e-07 1.40496286e-05 1.43502994e-05 4.37719173e-05
      1.23339723e-05 -7.44363251e-06 -4.73558202e-06 2.74089543e-05
      2.72542748e-05 2.39395249e-05 2.07094263e-06 5.50069581e-06
      2.60812994e-05 -3.90715240e-06 -2.53827420e-05 3.03557340e-06
      2.37582140e-06 -7.88705165e-06 8.37162497e-06 2.96882808e-06
      -3.01820583e-05 -1.04427863e-05 2.49971836e-05 1.90618230e-05
      -4.68154713e-06 -1.64365993e-05 -2.27110304e-05 -1.38082751e-05
      -1.64019693e-05 -1.47111505e-05 -7.12897281e-06 -4.16663306e-06
      -1.16773854e-05 -3.08780109e-05 -2.15205000e-05 -1.91093368e-05
      -4.52882887e-06 -1.87152182e-05 3.06821494e-06 -1.18856160e-05
      -7.17783814e-06 3.17865761e-06 8.66647554e-08 -2.02207648e-05
      -1.72745258e-05 -1.93142350e-05 -4.44989428e-06 1.42996823e-05
      8.66346636e-06 -1.79352846e-05 -2.45213960e-05 -1.37557117e-05
      -1.34969250e-05 1.93050482e-06 1.59897754e-05 -9.48915567e-06
      -3.80283418e-05 -8.46827606e-06 1.08044578e-05 1.45318427e-05
      1.21766370e-05 -1.87773749e-05 -3.18382408e-05 -3.64804182e-05
      -2.46355849e-05 5.80181586e-06 1.74101151e-05 -9.09939990e-06
      -2.22707149e-05 -6.50053244e-06 -1.70213127e-07 2.07240646e-05
      2.37783970e-05 6.30958039e-06 7.78784852e-06 2.01704861e-05
      -1.21855437e-05 1.08462136e-05 7.91040929e-06 2.62303129e-05
      2.23977659e-05 1.19821598e-05 3.35914183e-06 1.15369203e-05
      1.03098464e-05 5.03094907e-06 7.33950992e-06 1.09206294e-05
      1.01390997e-05 1.71364882e-05 -2.34365734e-06 -9.77879063e-06
      2.44551075e-06 6.71361386e-06 3.56092023e-05 3.44168438e-05
      -1.16968467e-05 -4.02797705e-05 -6.38554775e-05 -5.32090125e-05
      3.31405340e-06 5.36159969e-05 2.45959000e-05 2.44661242e-05
      1.82884251e-05 7.40554106e-06 -3.77801080e-05 -3.58319958e-05
      -1.02671731e-06 9.79529133e-08 -6.55728982e-09 -6.94932680e-08
      -1.42165618e-07 -7.98401558e-08 -8.23267996e-08 -1.48722918e-07
      -1.21283861e-07 -9.73364145e-09 -2.74843046e-08 -1.48369338e-07
      7.69596582e-08 7.09356982e-08 4.90582011e-08 -1.36557503e-08
      -2.32033102e-07 5.98074053e-08 -2.16917840e-07 -1.71291981e-06
      -1.61950284e-05 -4.92863182e-06 3.10410251e-05 4.89415361e-05
      3.80124038e-05 3.52904171e-05 1.70758976e-05 1.03154916e-05
      1.62349752e-05 2.68899857e-05 4.95528730e-05 1.76939136e-06
      -6.23507219e-08 4.30661676e-05 4.73645086e-05 5.06178694e-05
      4.20286015e-05 3.63595427e-05 3.53188261e-05 3.11757249e-05
      4.90690582e-06 1.82474723e-05 1.81791002e-05 2.82890892e-06
      1.72096975e-06 1.64659432e-05 2.04924054e-05 1.84043511e-05
      2.83855334e-05 3.17365957e-05 -2.71561953e-06 -9.00989221e-07
      -5.64988204e-06 1.34400188e-05 7.90335378e-07 -5.84350937e-06
      -1.52521616e-05 7.76643992e-06 6.96923371e-06 1.29348873e-05
      1.45102294e-05 1.02102704e-05 2.36786782e-05 1.21657540e-05
      9.08819584e-06 1.87854457e-05 6.83529015e-06 -5.65014489e-06
      -1.92255902e-05 -1.63212044e-05 -2.13701169e-05 -2.11517072e-05
      1.59896263e-05 2.54638508e-05 5.16269347e-06 4.87572470e-06
      -1.94094919e-05 1.37216093e-05 1.36701183e-05 -7.90304057e-06
      -2.33209448e-06 -5.34200808e-07 -1.11361660e-05 -5.24644065e-06
      2.54034694e-05 2.39679430e-05 8.54965492e-06 1.21956700e-05
      4.97076098e-06 1.32110181e-05 8.59753436e-06 6.58365389e-06
      9.09443224e-06 9.76043066e-06 1.28567253e-05 4.16065041e-06
      1.94461991e-05 1.33690610e-05 9.21088304e-06 1.93649703e-05
      1.37566321e-05 2.37704226e-05 2.27010860e-05 1.97682912e-05
      2.38417906e-05 3.16216137e-05 2.95511200e-05 3.52174175e-05
      2.86048107e-05 2.85675796e-05 1.88506201e-05 2.11448096e-05
      2.38904340e-05 2.41043872e-05 2.22846902e-05 2.05060933e-05
      2.04874250e-05 9.42800489e-06 1.02922686e-05 1.18977250e-05
      5.41625241e-06 8.40474604e-06 5.07340810e-05 2.98831947e-05
      -7.83089763e-06 -2.53807011e-05 -2.83478548e-05 1.97581201e-07
      3.61245911e-05 3.87384207e-05 2.46664513e-05 1.84220298e-05
      8.17333876e-06 6.49083631e-07 -7.68479276e-06 -9.42812505e-07
      9.89602654e-07 1.32679588e-07 1.53227930e-07 1.98166546e-07
      -3.62487896e-07 1.43326048e-07 -5.01667898e-07 3.12149979e-07
      4.67363577e-07 3.64044638e-07 -2.87588620e-07 -1.56566699e-07
      1.61027799e-07 4.77882789e-10 -4.35238945e-07 1.97293772e-07
      -9.08687880e-08 -8.68178986e-08 2.10425455e-07 -5.54232838e-06
      -5.68210771e-06 8.69122505e-06 2.97870520e-05 5.28539931e-05
      5.65395494e-05 4.76318055e-05 2.80801542e-05 2.97006663e-05
      2.95711598e-05 3.16389524e-05 1.50083315e-05 1.45124136e-06
      4.48917235e-05 5.08622870e-05 5.18539928e-05 5.82065622e-05
      5.47552227e-05 4.42604760e-05 2.55553659e-05 1.45373106e-05
      2.01781695e-05 1.06202297e-05 4.13447269e-05 3.39138096e-05
      3.06344482e-05 2.36501328e-05 2.03765812e-05 9.10429208e-06
      1.56805199e-05 1.77412749e-05 2.41397993e-05 1.61831922e-05
      2.88538354e-06 1.13171827e-05 -3.20288291e-06 -1.02492404e-05
      8.67144718e-06 5.16392674e-06 1.20763507e-05 8.53823713e-06
      1.82832373e-05 2.20231341e-05 1.36109584e-05 8.37959757e-10
      -4.16230432e-06 4.10338231e-07 5.65847188e-07 2.23967459e-06
      2.09112542e-07 -2.54002680e-06 2.75642219e-06 5.57648264e-06
      5.73670513e-06 8.84636302e-06 1.62210581e-05 1.92054231e-05
      9.60085163e-06 1.96127871e-06 1.43602701e-05 1.13620290e-05
      1.29511191e-05 1.02052818e-05 8.73985027e-06 1.02539634e-05
      1.03241846e-05 8.76669765e-06 1.02443146e-05 1.04316932e-05
      1.35071023e-05 8.49715343e-06 7.32431272e-06 6.72968781e-06
      8.20377045e-06 9.54148709e-06 6.69604970e-06 7.27903080e-06
      7.65679579e-06 7.28926079e-06 9.23868538e-06 1.33725662e-05
      1.58272705e-05 1.50153492e-05 1.85031004e-05 1.96822766e-05
      2.15172931e-05 2.14455831e-05 2.15206255e-05 2.15194650e-05
      2.15102100e-05 2.15132968e-05 2.14415886e-05 2.17283559e-05
      2.11573388e-05 2.06595396e-05 2.02472638e-05 1.95441244e-05
      1.89491293e-05 1.59003193e-05 1.24836870e-05 9.65241088e-06
      6.31078046e-06 6.86999010e-06 4.69985134e-05 3.08453673e-05
      -6.85325290e-08 -1.20882769e-05 1.04682231e-05 3.67257599e-05
      2.45641240e-05 2.44631483e-05 3.23991626e-05 2.04553471e-05
      -3.91915819e-05 -1.03822931e-05 1.13561657e-06 8.90384797e-07
      -4.51486983e-07 5.35858931e-08 -3.07198107e-08 9.59512789e-08
      1.77908781e-08 2.50499482e-07 1.07685446e-06 -4.27855468e-07
      8.19528694e-08 -2.98084927e-07 3.72424779e-07 -1.50706185e-07
      -2.20006640e-07 1.81415302e-07 -2.94762799e-07 3.85078067e-07
      5.05814910e-07 7.05894308e-07 2.81797111e-06 5.88153443e-06
      8.17827913e-06 1.03657148e-05 1.58648818e-05 3.35999575e-05
      3.37350284e-05 4.47157108e-05 3.99687742e-05 2.98345985e-05
      2.62278754e-05 2.10025155e-05 -5.04986292e-06 4.57982351e-05
      7.58155074e-05 5.83489236e-05 5.11001963e-05 3.33077587e-05
      8.71111479e-06 5.61745674e-06 7.73803640e-06 1.22385127e-05
      6.10433608e-06 1.33203330e-05 1.29051268e-05 1.24687704e-05
      1.15136572e-05 1.45929316e-05 2.35142761e-05 1.82432450e-05
      8.74605121e-06 1.06841171e-05 3.82294138e-06 4.79671553e-06
      4.96895018e-06 8.40156133e-07 3.28304850e-06 3.64076391e-06
      2.56851808e-06 5.50551295e-06 6.17375645e-06 3.64234029e-06
      1.24594817e-06 9.12363134e-07 5.52917982e-07 1.06796813e-06
      1.42245699e-06 2.01897410e-06 3.29775480e-06 4.25122471e-06
      3.68961923e-06 3.29421346e-06 3.58390116e-06 3.89618344e-06
      3.74402157e-06 2.70692681e-06 2.02787737e-06 2.86862792e-06
      3.27506314e-06 4.12509644e-06 4.98556574e-06 5.91736034e-06
      6.48683272e-06 6.65979678e-06 6.42458417e-06 6.24727181e-06
      6.60385967e-06 6.79824689e-06 6.44034299e-06 6.56251859e-06
      6.71031557e-06 6.57301689e-06 6.48365449e-06 6.41662973e-06
      6.68012945e-06 6.48540572e-06 6.46934041e-06 5.33294451e-06
      4.21698996e-06 6.62724642e-06 8.82146651e-06 1.12596799e-05
      1.47164119e-05 1.93848118e-05 2.11594779e-05 2.15038544e-05
      2.14935353e-05 2.15132968e-05 2.14811025e-05 2.14709271e-05
      2.15279561e-05 2.15092787e-05 2.15939490e-05 2.14811025e-05
      2.13179101e-05 2.07503144e-05 2.03415693e-05 1.85288973e-05
      1.49679090e-05 1.14462255e-05 8.35292667e-06 5.60881927e-06
      2.42507417e-06 6.55892291e-06 4.87505567e-05 2.52622503e-05
      -9.37174082e-06 7.83335963e-06 5.73824909e-05 2.54582028e-05
      2.48757315e-05 2.80102340e-05 3.28525020e-05 -4.67938798e-06
      -1.97533268e-06 -1.85982245e-07 1.29827868e-06 4.74315300e-07
      9.72265894e-08 1.00689158e-06 -3.41766366e-07 7.43824273e-08
      -2.88409808e-07 -1.43289299e-07 5.21193328e-07 -1.83099935e-08
      4.09831244e-07 -2.75184533e-07 -4.35718846e-07 1.47916396e-07
      1.34088282e-07 9.65947038e-07 8.24529991e-07 2.52984341e-06
      6.59689204e-06 8.22162838e-06 9.42896440e-06 8.81161031e-06
      7.82041479e-06 5.97986354e-06 5.42472071e-06 1.87715250e-05
      2.75665880e-05 1.91992131e-05 7.54177472e-06 1.59678621e-05
      1.26121986e-05 3.91992671e-06 4.72299544e-05 8.99130973e-05
      7.64181095e-05 5.19694440e-05 7.44819317e-07 2.59352396e-06
      7.90508420e-06 6.82048722e-06 7.92382980e-06 7.39489451e-06
      7.69860799e-06 9.82116762e-06 8.77030379e-06 7.97046232e-06
      6.20090123e-06 3.52730763e-06 8.44626129e-07 1.10344367e-07
      2.18121500e-07 3.03582851e-07 9.04556828e-07 4.50503194e-07
      1.40295913e-06 3.32565583e-06 4.83357508e-06 4.96460780e-06
      1.71640568e-06 3.67492333e-07 6.95101576e-08 -4.09985802e-07
      -1.04020074e-07 6.32717047e-07 1.91568620e-06 4.69987890e-06
      6.01736065e-06 4.32659681e-06 2.70656187e-06 1.91326535e-06
      2.02721480e-06 2.25331723e-06 2.16269382e-06 2.07138032e-06
      2.37683457e-06 2.78720154e-06 3.20008917e-06 4.07401785e-06
      4.75960860e-06 5.57679914e-06 6.64737172e-06 7.27315273e-06
      7.97249049e-06 8.24919152e-06 8.07747529e-06 7.24833217e-06
      6.64859908e-06 6.90139723e-06 6.45177897e-06 6.47450861e-06
      6.56816883e-06 6.62569528e-06 6.59968964e-06 6.51451137e-06
      5.88551984e-06 4.93547168e-06 3.39155986e-06 3.35357799e-06
      4.65060930e-06 7.07915342e-06 1.03253051e-05 1.43110356e-05
      1.81205796e-05 2.11563929e-05 2.21508053e-05 2.18814730e-05
      2.14401880e-05 2.14888150e-05 2.15461732e-05 2.15132968e-05
      2.14673673e-05 2.14387328e-05 2.13763924e-05 2.12880259e-05
      2.12116065e-05 1.98519865e-05 1.70271906e-05 1.40988095e-05
      1.07177530e-05 7.22757522e-06 4.24375366e-06 7.64369361e-07
      9.97763436e-07 9.46065757e-06 4.50234984e-05 -7.02735815e-06
      7.83505857e-06 5.94304984e-05 3.82634353e-05 2.49529949e-05
      3.59260594e-05 3.22388187e-05 -1.17517548e-05 -6.92006807e-08
      9.73821443e-07 -6.44857153e-07 2.31811072e-07 -4.33504880e-07
      2.60257167e-07 -6.79870240e-08 4.49037742e-07 8.75628370e-09
      5.74042822e-08 -2.49236312e-08 -2.19341445e-07 -1.86943595e-07
      -2.82563434e-07 5.62950902e-07 7.71158966e-07 1.15504179e-06
      4.01376656e-06 7.18898855e-06 9.36925881e-06 8.79834352e-06
      8.47744013e-06 6.63776154e-06 4.39076257e-06 3.33064690e-06
      4.07778589e-06 2.69240445e-06 4.17300498e-06 1.03002749e-05
      7.43726605e-06 1.31501711e-05 2.92019176e-05 1.96753699e-05
      1.97288518e-05 3.25200708e-05 9.50830436e-05 7.94587104e-05
      7.20753451e-05 1.06163425e-05 7.32863055e-06 8.08004643e-06
      4.85028704e-06 5.95576876e-06 8.26178530e-06 9.20043931e-06
      7.32835724e-06 7.49521223e-06 6.40385861e-06 3.84429359e-06
      1.24534461e-06 9.65901918e-08 -1.39953951e-08 7.55529300e-07
      8.22863285e-07 7.35234551e-07 3.81815380e-06 5.01324121e-06
      3.66387167e-06 1.10507949e-06 -4.10494465e-07 5.22650055e-07
      -3.98402420e-07 -1.15109682e-08 2.39120581e-08 7.56517295e-07
      2.94548227e-06 4.41507882e-06 2.91937340e-06 1.65469476e-06
      3.47969876e-06 3.60650165e-06 3.16261003e-06 2.52215182e-06
      7.64791025e-07 4.29371568e-07 6.62687853e-07 2.03229365e-06
      2.93137077e-06 4.19713933e-06 5.08063022e-06 5.86103852e-06
      6.80615085e-06 7.45479201e-06 7.97587109e-06 8.23296614e-06
      8.24402377e-06 8.28148495e-06 8.70364056e-06 8.38875076e-06
      7.52498545e-06 6.82730570e-06 6.67576069e-06 6.45093451e-06
      6.67707445e-06 6.46377794e-06 5.64158063e-06 4.21607319e-06
      3.22425717e-06 1.90837250e-06 2.53916141e-06 4.37529161e-06
      6.55238227e-06 9.37348614e-06 1.31527195e-05 1.68594415e-05
      1.90265546e-05 2.01818093e-05 2.14954089e-05 2.23967891e-05
      2.21903592e-05 2.16243752e-05 2.12805298e-05 2.11156475e-05
      2.10195703e-05 2.08785459e-05 2.07819285e-05 2.07128978e-05
      1.86918060e-05 1.56932219e-05 1.27559706e-05 9.68977383e-06
      6.23986170e-06 3.06883385e-06 1.92082302e-06 1.06183813e-06
      1.61864577e-07 1.14632694e-05 3.62149112e-05 3.48955400e-05
      4.06664985e-05 2.52787286e-05 2.48625220e-05 2.67620071e-05
      2.76052942e-05 -7.76296929e-06 -5.90831633e-06 6.55236306e-07
      2.10447851e-07 1.27467302e-07 6.68169037e-07 -1.03749976e-07
      -7.80866594e-10 2.38318748e-07 1.19368153e-07 6.54815608e-07
      2.29881536e-07 -8.78492483e-06 -1.97881745e-05 -2.95909231e-05
      -3.59854239e-05 -1.84027886e-05 -4.63779952e-06 8.87900569e-06
      8.83261237e-06 8.06623575e-06 5.82156963e-06 4.47273851e-06
      3.29948807e-06 4.20702099e-06 3.40620659e-06 3.91106823e-06
      1.94302379e-06 4.36295568e-06 1.04855981e-05 8.26631367e-06
      9.47612534e-06 3.66717504e-05 2.39382807e-05 2.07688608e-05
      4.27884552e-05 8.37620100e-05 8.86031703e-05 8.97627033e-05
      3.07796145e-05 8.16239572e-06 7.30620332e-06 5.14803560e-06
      8.28662542e-06 7.85596876e-06 9.02420288e-06 8.38089363e-06
      7.19034006e-06 4.06845493e-06 1.98835960e-06 3.23025540e-09
      1.46345187e-07 5.00889655e-07 9.86768782e-07 4.31324816e-06
      5.30435773e-06 3.19825722e-06 1.28256204e-06 4.65928878e-08
      -2.09946606e-07 -3.87964221e-08 6.11949815e-07 -9.91396689e-08
      7.09224935e-07 3.26689133e-06 3.68685482e-06 1.88282672e-06
      1.33702201e-06 1.16770627e-06 1.91803611e-06 1.06792140e-06
      9.61081241e-07 1.37721270e-06 1.51996096e-06 1.68357485e-06
      2.41858788e-06 2.42240480e-06 2.08161555e-06 2.20848801e-06
      3.56051692e-06 5.20619642e-06 6.71144107e-06 7.57048292e-06
      8.16663487e-06 8.37098287e-06 8.51657114e-06 8.50066408e-06
      8.23332812e-06 8.22798029e-06 8.66646496e-06 8.24189101e-06
      8.34979164e-06 7.65666846e-06 7.05433285e-06 6.34708749e-06
      5.15500915e-06 3.87710497e-06 2.49530171e-06 1.34811387e-06
      5.36572422e-08 4.99361988e-07 9.26804944e-07 1.65995834e-06
      2.95886184e-06 3.95915504e-06 6.47630213e-06 9.72758335e-06
      1.28278407e-05 1.56078622e-05 1.82105741e-05 2.03814834e-05
      2.16573935e-05 2.18999085e-05 2.13578296e-05 2.05601773e-05
      2.05072702e-05 2.03283525e-05 1.98831731e-05 1.71114953e-05
      1.48238169e-05 1.21853172e-05 9.09572373e-06 5.57360090e-06
      2.94444544e-06 1.77934885e-06 1.92581570e-06 1.10255655e-06
      1.02772378e-06 1.22639158e-05 6.09939998e-05 5.84409136e-05
      2.59492626e-05 2.49343666e-05 3.36132180e-05 1.32274545e-05
      -2.19780304e-05 -3.68288823e-07 -5.10957712e-08 -5.19195567e-08
      1.51354158e-07 8.25691870e-08 1.02824742e-07 3.00988461e-07
      1.39084179e-07 6.12755457e-07 4.26883787e-07 -7.60375178e-06
      -3.04026453e-05 -3.13702403e-05 -2.55066388e-05 -2.34090603e-05
      -2.54122569e-05 -2.01884595e-05 8.91133550e-06 -1.06341313e-05
      -1.23304562e-06 3.67298003e-06 4.28755857e-06 3.50949836e-06
      4.57039778e-06 1.87304465e-06 1.10233437e-07 1.73311989e-07
      3.68714177e-06 1.30477174e-05 1.23473365e-05 4.65264429e-06
      9.46097589e-06 1.69051455e-05 2.91402393e-05 5.43784117e-05
      8.20359055e-05 8.74116886e-05 9.50435060e-05 5.00651295e-05
      1.97189656e-05 6.51242271e-06 8.06062508e-06 1.08958729e-05
      7.67398160e-06 7.23602398e-06 8.60491764e-06 5.27477323e-06
      2.64687174e-06 -2.72470913e-07 2.73564837e-07 2.22765607e-06
      4.95211862e-06 5.39443135e-06 2.64136270e-06 5.14797307e-07
      -5.59741807e-07 -3.74509909e-07 -2.61313005e-07 6.35844344e-07
      -1.56357302e-07 7.15479985e-07 2.76927267e-06 4.05009132e-06
      2.40719282e-06 8.92368689e-07 1.11824806e-06 1.48664958e-06
      1.01706974e-06 5.59969408e-07 -2.32912058e-07 -3.37003513e-07
      9.90062929e-08 2.37341609e-07 1.33471997e-06 2.50042899e-06
      3.14099429e-06 3.90046216e-06 4.80586641e-06 5.16167211e-06
      5.38432096e-06 6.12514759e-06 7.26834878e-06 8.00531961e-06
      8.46769308e-06 8.39745007e-06 8.24435938e-06 8.77517323e-06
      8.41654673e-06 8.42654299e-06 8.61970875e-06 8.36338677e-06
      8.52454286e-06 7.54781468e-06 5.96788050e-06 4.08039296e-06
      2.36408277e-06 8.99625718e-07 0. 1.21973713e-07 9.32609296e-08
      2.65905669e-07 2.78380327e-07 3.07532417e-07 1.36749790e-07
      1.70662599e-06 4.46453760e-06 7.58800206e-06 1.02831573e-05
      1.39553013e-05 1.76915928e-05 1.93212727e-05 1.96977853e-05
      2.07036501e-05 2.20043312e-05 2.15671898e-05 2.08877827e-05
      1.87546975e-05 1.55814359e-05 1.31789875e-05 1.06132329e-05
      8.34059392e-06 4.95739823e-06 3.88055969e-06 3.82112830e-06
      1.96371957e-06 1.29677483e-06 5.62654520e-07 -1.61897151e-06
      1.84764849e-05 8.31792713e-05 4.67781865e-05 2.42170572e-05
      2.93410649e-05 3.08835333e-05 -2.82543097e-05 -3.36058122e-07
      1.39933320e-07 5.83357235e-07 5.31048343e-08 1.54361317e-07
      -1.97339591e-06 -1.24667768e-05 -2.28403715e-05 -2.96283160e-05
      -3.50659320e-05 -2.03108284e-05 -1.70465755e-05 -1.33395215e-05
      -1.05724566e-05 1.38921121e-06 6.34481921e-06 1.00438192e-05
      4.66717984e-06 -1.36863964e-05 -2.91329361e-05 -2.06221011e-05
      -1.52877965e-05 -2.12170617e-05 3.10513684e-07 6.31580008e-07
      1.52265113e-06 8.83418011e-07 1.68788665e-06 1.91594268e-06
      9.56432086e-06 5.75687363e-06 6.52544668e-06 6.39430527e-06
      1.06062753e-05 6.61910672e-05 8.14000014e-05 7.76441520e-05
      7.91083658e-05 7.67944584e-05 6.32516530e-05 4.78271395e-05
      1.95020184e-05 1.02118074e-05 9.01289332e-06 7.17801913e-06
      5.71629062e-06 3.27461748e-06 5.75777449e-07 3.37254096e-06
      5.12836277e-06 5.06262631e-06 1.81303085e-06 -2.01933872e-07
      -2.09122533e-07 -3.53940351e-07 1.63098463e-07 1.59857677e-07
      -2.11274298e-07 8.10659060e-07 2.67670271e-06 3.95484994e-06
      1.43869158e-06 4.74097419e-07 5.90865284e-07 1.11742600e-06
      1.29716693e-06 5.23726669e-07 2.32693544e-08 -4.14794840e-07
      -3.87453412e-07 -9.18612102e-08 -2.33235966e-07 -5.91601967e-08
      3.63303684e-07 1.28840838e-06 2.69755355e-06 4.97758765e-06
      6.50898301e-06 7.09845290e-06 8.11958580e-06 7.79944094e-06
      7.25480322e-06 6.41000815e-06 6.87227703e-06 7.83674659e-06
      8.23281425e-06 8.32243586e-06 8.63180776e-06 8.24954350e-06
      8.51493951e-06 8.37150310e-06 7.23952508e-06 5.91499293e-06
      4.73814725e-06 3.53361747e-06 1.97791519e-06 9.86057898e-07
      4.34458059e-07 9.99487142e-08 1.68905530e-07 1.53629003e-08
      1.11322159e-07 1.21175688e-07 1.28505306e-07 2.73053217e-07
      4.59459130e-07 1.03899458e-06 2.88532146e-06 4.74623585e-06
      6.60161459e-06 7.86681358e-06 9.40147675e-06 1.03890998e-05
      1.10736146e-05 1.16791725e-05 1.27441454e-05 1.22535894e-05
      1.05260833e-05 9.24181677e-06 7.56592544e-06 6.44070542e-06
      5.04316813e-06 4.55977624e-06 3.80490451e-06 3.61983757e-06
      2.39261681e-06 2.32026059e-06 4.42018049e-08 5.45362400e-06
      7.33921479e-05 8.30547215e-05 2.75427174e-05 3.76634271e-05
      3.17312297e-05 -2.96655489e-05 -6.72279793e-06 -2.73137346e-07
      -4.40318288e-08 -2.77841064e-05 -3.62950959e-05 -3.32810159e-05
      -2.70851415e-05 -2.65368053e-05 7.86274177e-06 1.88130452e-05
      2.39797973e-05 1.26189652e-05 -8.44742590e-06 2.43855402e-06
      1.16055253e-06 -4.98360009e-07 1.25080703e-06 3.40762608e-06
      -5.54519738e-06 -2.50426456e-05 -3.22181586e-05 -4.17660885e-05
      -3.82526850e-05 -7.18502724e-06 1.16018828e-06 9.08908362e-07
      1.07275184e-06 1.11691270e-06 2.37299878e-06 5.42125372e-06
      7.02792568e-06 4.72123111e-06 2.97443012e-06 1.15495800e-06
      3.05961439e-05 4.29025458e-05 5.74943551e-05 5.84670306e-05
      6.31128423e-05 7.92736464e-05 8.07453398e-05 8.31045909e-05
      2.45209867e-05 1.24286726e-05 7.15713441e-06 2.76646210e-06
      4.16142120e-06 5.66244262e-06 4.20864808e-06 1.51591428e-06
      3.17888116e-08 -1.46360279e-07 1.71577582e-07 -7.04520531e-08
      3.13301207e-08 -2.91388886e-07 1.09305415e-06 2.79637720e-06
      3.58957595e-06 1.95258053e-06 4.89299019e-08 9.38296012e-07
      1.30205729e-06 1.12197870e-06 2.99817430e-07 -2.15315588e-08
      -1.56782619e-07 -1.69329866e-07 5.90723239e-08 -2.23418368e-07
      -1.17185863e-07 1.37261310e-07 2.50235701e-07 1.21121923e-06
      2.13547719e-06 3.49922516e-06 4.44899024e-06 5.76423099e-06
      7.38515701e-06 8.17296132e-06 8.42509689e-06 8.28431257e-06
      8.41995006e-06 7.44744693e-06 6.99660677e-06 6.69474912e-06
      7.21511469e-06 8.12897269e-06 8.41704059e-06 7.80404844e-06
      6.80875701e-06 5.81029053e-06 4.06172967e-06 3.07851997e-06
      2.05411811e-06 1.86905106e-06 1.97663599e-06 1.59234196e-06
      1.20344339e-06 3.63167629e-07 2.68348600e-07 6.05878441e-08
      1.02155994e-07 2.77421861e-07 1.91671376e-07 3.26730856e-08 0.
      8.03328870e-09 8.10216534e-07 1.91376739e-06 2.87072021e-06
      3.83501128e-06 4.71478097e-06 5.05381104e-06 5.09973961e-06
      5.01939030e-06 5.47413856e-06 5.91870503e-06 6.65166635e-06
      5.94069388e-06 5.40758310e-06 5.12172846e-06 5.02340708e-06
      4.71324392e-06 4.85910959e-06 2.81333109e-06 2.74584431e-06
      6.55385475e-06 7.72776457e-06 5.71071796e-05 5.75673475e-05
      7.43378041e-05 3.12624907e-05 3.10169817e-05 -3.93659002e-06
      -8.39482993e-07 7.96869326e-09 -7.33283940e-08 -2.82759920e-05
      -2.41415437e-05 -4.39721407e-06 8.85786903e-06 2.72062371e-05
      8.30335193e-06 1.16980009e-05 8.29846431e-06 -1.22853953e-05
      -1.53977035e-05 -1.20293398e-05 -3.35467553e-06 -7.51726702e-06
      -1.42249855e-05 1.05228560e-06 -4.21597360e-06 -1.84429234e-06
      -2.15798646e-05 -2.92479453e-05 -1.98842590e-05 -2.54085862e-05
      -1.94584445e-05 1.06479570e-06 3.16770706e-06 5.48991511e-06
      6.04991601e-06 4.12133932e-06 2.02788760e-06 1.09242637e-06
      1.16970398e-06 1.34285779e-06 3.12020893e-06 1.52890771e-05
      1.74637844e-05 4.89683625e-05 6.63351748e-05 7.98388064e-05
      7.59384129e-05 8.88843861e-05 6.35652032e-05 4.76896967e-05
      4.31602712e-05 1.02850427e-05 3.96126097e-06 8.79303855e-07
      1.04786082e-07 1.40954899e-06 -3.68379034e-07 5.67922420e-09
      2.39780888e-08 7.23887172e-09 1.15282842e-06 2.92781829e-06
      3.44586579e-06 1.77116874e-06 3.16759923e-07 6.22161394e-07
      9.33242063e-07 8.78345475e-07 3.29379560e-07 0. 0. 5.48965922e-08
      0. 2.53902304e-08 0. 5.07804607e-08 0. 2.79292550e-07
      1.11717020e-06 2.36129154e-06 3.70697376e-06 4.78802258e-06
      5.83975316e-06 6.48183823e-06 6.47450861e-06 6.48916784e-06
      7.16349223e-06 7.80509708e-06 8.33623017e-06 8.34355978e-06
      8.29618057e-06 7.80849859e-06 7.03888918e-06 6.45697492e-06
      6.17116621e-06 5.70973270e-06 5.10381460e-06 3.95105008e-06
      2.49647724e-06 1.86905106e-06 1.86905106e-06 1.89444131e-06
      1.86905106e-06 1.87978208e-06 1.86905106e-06 1.76643653e-06
      1.29001171e-06 5.20402466e-07 1.46592241e-08 1.46592241e-08 0.
      2.93184481e-08 0. 5.92841367e-08 0. 4.94034452e-07 1.40305792e-06
      2.35160405e-06 3.49776406e-06 4.42654891e-06 5.01939030e-06
      5.01939030e-06 5.03915180e-06 5.03915180e-06 5.07579989e-06
      5.54424741e-06 6.32183355e-06 6.19723050e-06 5.53023574e-06
      5.09536039e-06 5.16161890e-06 4.47775255e-06 4.09544009e-06
      4.82365340e-06 1.00996485e-05 6.17632177e-05 4.16928269e-05
      6.54592950e-05 8.74672478e-05 2.97845891e-05 5.61312447e-07
      -1.79268352e-06 1.75324075e-08 1.13839121e-06 3.90403784e-06
      2.82918518e-05 2.30315691e-05 2.64491173e-05 1.85382869e-05
      1.66264708e-05 -3.34890342e-06 -1.58983039e-05 -1.47719002e-05
      -1.26989935e-05 -1.31965708e-05 -8.32551450e-06 -3.93881828e-06
      1.55134146e-07 -1.23236914e-05 -6.56708198e-06 -5.10470898e-07
      -9.64028186e-06 -1.98333473e-05 -2.43408667e-05 -3.53836840e-05
      -3.76436656e-05 2.83623081e-06 5.31030673e-06 3.56222677e-06
      1.86715033e-06 7.65007087e-07 1.03065065e-06 1.16904903e-06
      7.13122233e-07 2.11417799e-07 2.39519068e-07 1.24683584e-05
      2.24774485e-05 2.51381953e-05 4.33003952e-05 6.99633747e-05
      6.41786974e-05 6.59796351e-05 6.98282165e-05 6.72536480e-05
      7.64199212e-05 6.09793897e-05 2.58033251e-05 6.05519199e-06
      2.95199334e-06 -1.06000506e-07 9.18764158e-07 1.82988646e-08
      1.17796287e-06 2.84642124e-06 3.31933325e-06 1.67087592e-06
      2.56482565e-07 3.71656512e-07 7.39193467e-07 6.22161394e-07
      2.92781834e-07 0. 0. 3.65977293e-08 1.82988646e-08 0. 0. 0.
      2.53902304e-08 0. 7.61706929e-08 1.29490172e-06 2.81831558e-06
      4.03704689e-06 5.17960689e-06 6.14443570e-06 6.48916784e-06
      6.47450861e-06 6.42372834e-06 6.48183823e-06 6.47450861e-06
      6.45644832e-06 6.82633026e-06 7.35851745e-06 8.19696743e-06
      8.34355978e-06 8.08232835e-06 7.10753557e-06 5.17677836e-06
      3.44104637e-06 2.03174523e-06 1.42242561e-06 1.40728559e-06
      1.86905106e-06 1.85779334e-06 1.89444131e-06 1.86905106e-06
      1.86905106e-06 1.86905106e-06 1.84706232e-06 1.86905106e-06
      1.86905106e-06 1.52455937e-06 7.84268479e-07 2.19888374e-08 0.
      2.93184481e-08 0. 5.92841367e-08 0. 2.17375174e-07 1.10663723e-06
      2.03542209e-06 2.94444544e-06 4.14988972e-06 5.03915180e-06
      5.04648142e-06 4.97986730e-06 5.03915180e-06 5.06114066e-06
      5.03915180e-06 5.28548389e-06 5.97734197e-06 6.26026076e-06
      6.09792369e-06 5.07264804e-06 7.08235211e-06 1.19413535e-05
      2.16420794e-05 4.16953662e-05 3.75809759e-05 3.84173181e-05
      8.53551683e-05 8.75761543e-05 9.37466325e-07 -7.78993069e-07
      1.09386256e-05 9.58207966e-06 1.98902508e-05 1.68670886e-05
      1.31629058e-05 -8.71924112e-06 -1.74533907e-05 -2.01205512e-05
      -1.98722155e-05 -1.47029032e-05 -6.67259155e-06 -2.36074152e-06
      4.42085320e-06 1.67587018e-06 2.02994229e-07 3.18785197e-07
      1.82582585e-06 3.27213661e-06 4.49042489e-07 5.40869860e-06
      1.07815558e-05 -1.89402781e-05 -1.84373494e-05 -3.60639424e-05
      -1.38339155e-05 9.29607779e-07 6.05318633e-07 6.73546708e-07
      7.68552297e-07 5.76172965e-07 1.82988646e-08 1.10373804e-07
      8.92660950e-08 3.65977293e-08 4.90617595e-07 1.07213555e-05
      2.15270666e-05 2.88223418e-05 3.45686094e-05 4.74618100e-05
      5.96581813e-05 6.61131271e-05 6.46911212e-05 8.81962405e-05
      8.16011234e-05 6.83810213e-05 4.24059617e-05 1.80329571e-05
      1.23319785e-06 1.07480673e-06 2.81108464e-06 3.11270264e-06
      1.97693043e-06 8.81582707e-07 6.60404623e-07 5.67264806e-07
      5.85563669e-07 2.19586369e-07 0. 0. 0. 0. 0. 0. 0. 1.82988646e-08
      7.61706929e-08 0. 4.31633936e-07 1.54880411e-06 3.04682771e-06
      4.34172944e-06 5.38272889e-06 6.44911870e-06 6.47450861e-06
      6.48183823e-06 6.49649746e-06 6.47450861e-06 6.47450861e-06
      6.48183823e-06 6.42372834e-06 6.48183823e-06 6.47450861e-06
      6.47450861e-06 6.65123252e-06 6.45888758e-06 5.88070770e-06
      4.63658625e-06 3.33224762e-06 1.57007150e-06 6.60432363e-07
      5.86368962e-08 4.53909138e-07 1.06279379e-06 1.75177729e-06
      1.86905106e-06 1.89444131e-06 1.83973270e-06 1.86905106e-06
      1.86905106e-06 1.86905106e-06 1.86172156e-06 1.86905106e-06
      1.72245882e-06 1.17273794e-06 2.27217981e-07 5.92841367e-08 0. 0.
      0. 3.95227566e-08 7.70693759e-07 1.73900139e-06 2.68754752e-06
      3.62366200e-06 4.64392406e-06 5.03915180e-06 5.03915180e-06
      4.97986730e-06 5.02671992e-06 5.03915180e-06 5.01939030e-06
      5.09373103e-06 5.73551097e-06 6.63023502e-06 9.28504687e-06
      9.28292593e-06 2.76861465e-05 6.14939636e-05 4.38295319e-05
      4.19843454e-05 3.98758129e-05 8.62997113e-05 5.46608389e-05
      -4.98104146e-06 1.58543717e-05 1.57418126e-05</_></support_vectors>
  <uncompressed_sv_total>72</uncompressed_sv_total>
  <uncompressed_support_vectors>
    <_>
      0. 0. 0. 0. 0. 0. 0. 0. 0. 0. 0. 0. 0. 0. 0. 0. 0. 0. 0. 0. 0. 0.
      0. 0. 0. 0. 0. 0. 0. 0. 0. 0. 0. 0. 0. 0. 0. 0. 0. 0. 0. 0. 0. 0.
      0. 0. 0. 0. 0. 0. 0. 0. 0. 0. 0. 0. 0. 0. 0. 0. 0. 0. 0. 0. 0. 0.
      0. 0. 0. 0. 0. 0. 0. 0. 0. 0. 0. 0. 0. 0. 0. 0. 0. 0. 0. 0. 0. 0.
      0. 0. 0. 0. 0. 0. 0. 0. 0. 0. 0. 0. 0. 0. 0. 0. 0. 0. 0. 0. 0. 0.
      0. 0. 0. 0. 0. 0. 0. 0. 0. 0. 0. 0. 0. 0. 0. 0. 0. 0. 0. 0. 0. 0.
      0. 0. 0. 0. 0. 0. 0. 0. 0. 0. 0. 0. 0. 0. 0. 0. 0. 0. 0. 0. 0. 0.
      0. 0. 0. 0. 0. 0. 0. 0. 0. 0. 0. 0. 0. 0. 0. 0. 0. 0. 0. 0. 0. 0.
      0. 0. 0. 0. 0. 0. 0. 0. 0. 0. 0. 0. 0. 0. 0. 0. 0. 0. 0. 0. 0. 0.
      0. 0. 0. 0. 0. 0. 0. 0. 0. 0. 0. 0. 0. 0. 0. 0. 0. 0. 0. 0. 0. 0.
      0. 0. 0. 0. 0. 0. 0. 0. 0. 0. 0. 0. 0. 0. 0. 0. 0. 0. 0. 0. 0. 0.
      0. 0. 0. 0. 0. 0. 0. 0. 0. 0. 0. 0. 0. 0. 0. 0. 0. 0. 0. 0. 0. 0.
      0. 0. 0. 0. 0. 0. 0. 0. 0. 0. 0. 0. 0. 0. 0. 0. 0. 0. 0. 0. 0. 0.
      0. 0. 0. 0. 0. 0. 0. 0. 0. 0. 0. 0. 0. 0. 0. 0. 0. 0. 0. 0. 0. 0.
      0. 0. 0. 0. 0. 0. 0. 0. 0. 0. 0. 0. 0. 0. 0. 0. 0. 0. 0. 0. 0. 0.
      0. 0. 0. 0. 0. 0. 0. 0. 0. 0. 0. 0. 0. 0. 0. 0. 0. 0. 0. 0. 0. 0.
      0. 0. 0. 0. 0. 0. 0. 0. 0. 0. 0. 0. 0. 0. 0. 0. 0. 0. 0. 0. 0. 0.
      0. 0. 0. 0. 0. 0. 0. 0. 0. 0. 0. 0. 0. 0. 0. 0. 0. 0. 0. 0. 0. 0.
      0. 0. 0. 0. 0. 0. 0. 0. 0. 0. 0. 0. 0. 0. 0. 0. 0. 0. 0. 0. 0. 0.
      0. 0. 0. 0. 0. 0. 0. 0. 0. 0. 0. 0. 0. 0. 0. 0. 0. 0. 0. 0. 0. 0.
      0. 0. 0. 0. 0. 0. 0. 0. 0. 0. 0. 0. 0. 0. 0. 0. 0. 0. 0. 0. 0. 0.
      0. 0. 0. 0. 0. 0. 0. 0. 0. 0. 0. 0. 0. 0. 0. 0. 0. 0. 0. 0. 0. 0.
      0. 0. 0. 0. 0. 0. 0. 0. 0. 0. 0. 0. 0. 0. 0. 0. 0. 0. 0. 0. 0. 0.
      0. 0. 0. 0. 0. 0. 0. 0. 0. 0. 0. 0. 0. 0. 0. 0. 0. 0. 0. 0. 0. 0.
      0. 0. 0. 0. 0. 0. 0. 0. 0. 0. 0. 0. 0. 0. 0. 0. 0. 0. 0. 0. 0. 0.
      0. 0. 0. 0. 0. 0. 0. 0. 0. 0. 0. 0. 0. 0. 0. 0. 0. 0. 0. 0. 0. 0.
      0. 0. 0. 0. 0. 0. 0. 0. 0. 0. 0. 0. 0. 0. 0. 0. 0. 0. 0. 0. 0. 0.
      0. 0. 0. 0. 0. 0. 0. 0. 0. 0. 0. 0. 0. 0. 0. 0. 0. 0. 0. 0. 0. 0.
      0. 0. 0. 0. 0. 0. 0. 0. 0. 0. 0. 0. 0. 0. 0. 0. 0. 0. 0. 0. 0. 0.
      0. 0. 0. 0. 0. 0. 0. 0. 0. 0. 0. 0. 0. 0. 0. 0. 0. 0. 0. 0. 0. 0.
      0. 0. 0. 0. 0. 0. 0. 0. 0. 0. 0. 0. 0. 0. 0. 0. 0. 0. 0. 0. 0. 0.
      0. 0. 0. 0. 0. 0. 0. 0. 0. 0. 0. 0. 0. 0. 0. 0. 0. 0. 0. 0. 0. 0.
      0. 0. 0. 0. 0. 0. 0. 0. 0. 0. 0. 0. 0. 0. 0. 0. 0. 0. 0. 0. 0. 0.
      0. 0. 0. 0. 0. 0. 0. 0. 0. 0. 0. 0. 0. 0. 0. 0. 0. 0. 0. 0. 0. 0.
      0. 0. 0. 0. 0. 0. 0. 0. 0. 0. 0. 0. 0. 0. 0. 0. 0. 0. 0. 0. 0. 0.
      0. 0. 0. 0. 0. 0. 0. 0. 0. 0. 0. 0. 0. 0. 0. 0. 0. 0. 0. 0. 0. 0.
      0. 0. 0. 0. 0. 0. 0. 0. 0. 0. 0. 0. 0. 0. 0. 0. 0. 0. 0. 0. 0. 0.
      0. 0. 0. 0. 0. 0. 0. 0. 0. 0. 0. 0. 0. 0. 0. 0. 0. 0. 0. 0. 0. 0.
      0. 0. 0. 0. 0. 0. 0. 0. 0. 0. 0. 0. 0. 0. 0. 0. 0. 0. 0. 0. 0. 0.
      0. 0. 0. 0. 0. 0. 0. 0. 0. 0. 0. 0. 0. 0. 0. 0. 0. 0. 0. 0. 0. 0.
      0. 0. 0. 0. 0. 0. 0. 0. 0. 0. 0. 0. 0. 0. 0. 0. 0. 0. 0. 0. 0. 0.
      0. 0. 0. 0. 0. 0. 0. 0. 0. 0. 0. 0. 0. 0. 0. 0. 0. 0. 0. 0. 0. 0.
      0. 0. 0. 0. 0. 0. 0. 0. 0. 0. 0. 0. 0. 0. 0. 0. 0. 0. 0. 0. 0. 0.
      0. 0. 0. 0. 0. 0. 0. 0. 0. 0. 0. 0. 0. 0. 0. 0. 0. 0. 0. 0. 0. 0.
      0. 0. 0. 0. 0. 0. 0. 0. 0. 0. 0. 0. 0. 0. 0. 0. 0. 0. 0. 0. 0. 0.
      0. 0. 0. 0. 0. 0. 0. 0. 0. 0. 0. 0. 0. 0. 0. 0. 0. 0. 0. 0. 0. 0.
      0. 0. 0. 0. 0. 0. 0. 0. 0. 0. 0. 0. 0. 0. 0. 0. 0. 0. 0. 0. 0. 0.
      0. 0. 0. 0. 0. 0. 0. 0. 0. 0. 0. 0. 0. 0. 0. 0. 0. 0. 0. 0. 0. 0.
      0. 0. 0. 0. 0. 0. 0. 0. 0. 0. 0. 0. 0. 0. 0. 0. 0. 0. 0. 0. 0. 0.
      0. 0. 0. 0. 0. 4. 0. 0. 2. 0. 0. 0. 0. 0. 0. 0. 0. 0. 0. 0. 0. 0.
      0. 0. 0. 0. 2. 0. 0. 1. 1. 1. 0. 0. 2. 0. 1. 0. 0. 1. 0. 0. 1. 0.
      0. 0. 1. 0. 3. 0. 1. 0. 0. 2. 0. 0. 0. 0. 0. 2. 0. 0. 0. 2. 0. 0.
      0. 0. 0. 2. 0. 0. 0. 1. 0. 2. 0. 1. 1. 0. 2. 0. 0. 4. 0. 0. 0. 0.
      1. 0. 0. 0. 0. 1. 0. 2. 0. 0. 0. 0. 1. 1. 0. 1. 0. 0. 0. 1. 0. 0.
      3. 0. 0. 0. 1. 0. 0. 0. 1. 0. 0. 0. 0. 0. 3. 0. 0. 4. 0. 1. 1. 0.
      2. 0. 0. 1. 0. 2. 0. 0. 0. 1. 0. 0. 0. 0. 0. 0. 0. 0. 0. 0. 0. 0.
      0. 0. 0. 0. 0. 0. 0. 0. 0. 1. 0. 0. 0. 1. 2. 0. 0. 0. 3. 2. 1. 0.
      2. 0. 0. 3. 1. 0. 2. 0. 0. 0. 2. 0. 1. 0. 0. 1. 0. 0. 0. 1. 1. 0.
      0. 4. 0. 0. 4. 0. 1. 0. 0. 3. 0. 3. 0. 4. 2. 0. 0. 0. 1. 0. 0. 3.
      2. 1. 0. 1. 0. 0. 0. 1. 0. 0. 1. 0. 5. 0. 1. 0. 0. 4. 0. 0. 3. 0.
      0. 2. 0. 0. 3. 1. 1. 0. 1. 1. 0. 2. 0. 1. 2. 3. 2. 0. 1. 1. 0. 1.
      0. 0. 0. 29. 0. 2. 0. 1. 0. 0. 3. 2. 0. 2. 1. 0. 0. 0. 0. 0. 0. 0.
      0. 0. 0. 0. 0. 0. 0. 0. 0. 0. 1. 0. 0. 2. 2. 0. 0. 0. 2. 0. 2. 1.
      0. 0. 1. 0. 4. 0. 2. 0. 4. 0. 1. 1. 0. 0. 3. 0. 0. 0. 3. 0. 0. 1.
      0. 0. 4. 1. 0. 0. 0. 0. 0. 0. 0. 5. 0. 0. 0. 0. 0. 0. 2. 2. 0. 0.
      2. 0. 0. 0. 0. 0. 1. 0. 0. 0. 1. 0. 1. 0. 0. 0. 0. 2. 0. 4. 0. 0.
      1. 0. 0. 0. 3. 0. 0. 4. 0. 0. 0. 1. 0. 0. 0. 2. 1. 0. 0. 0. 15. 1.
      7. 0. 2. 0. 2. 34. 234. 111. 0. 3. 0. 0. 1. 0. 0. 0. 2. 0. 2. 0.
      0. 0. 0. 0. 0. 0. 0. 0. 0. 0. 0. 0. 0. 0. 0. 0. 1. 1. 0. 0. 0. 1.
      4. 0. 2. 0. 0. 5. 4. 0. 0. 0. 0. 0. 2. 0. 2. 0. 0. 3. 0. 0. 2. 1.
      1. 2. 0. 0. 2. 0. 0. 0. 0. 0. 1. 0. 3. 3. 0. 0. 0. 0. 0. 2. 0. 2.
      3. 0. 0. 1. 2. 1. 0. 0. 0. 0. 2. 0. 9. 1. 2. 0. 0. 3. 1. 2. 3. 3.
      0. 0. 55. 0. 5. 0. 1. 0. 3. 0. 0. 2. 0. 96. 113. 3. 0. 2. 0. 6. 0.
      3. 0. 1. 16. 199. 191. 171. 8. 0. 2. 0. 37. 238. 137. 1. 0. 1. 1.
      1. 0. 0. 5. 1. 0. 2. 0. 0. 0. 0. 0. 0. 0. 0. 0. 0. 0. 0. 0. 0. 0.
      0. 0. 3. 1. 0. 0. 2. 0. 0. 2. 3. 0. 0. 2. 0. 0. 2. 1. 3. 1. 0. 0.
      0. 1. 0. 0. 2. 0. 0. 0. 0. 3. 0. 0. 2. 0. 0. 1. 1. 2. 0. 1. 0. 0.
      38. 1. 10. 2. 1. 0. 4. 0. 85. 101. 0. 2. 2. 87. 26. 0. 0. 4. 0.
      12. 193. 112. 14. 22. 39. 0. 15. 1. 0. 1. 0. 42. 146. 1. 0. 55.
      99. 98. 27. 0. 0. 0. 2. 51. 212. 62. 17. 28. 93. 199. 40. 0. 2. 0.
      2. 52. 211. 130. 1. 0. 1. 0. 0. 128. 145. 5. 3. 0. 0. 2. 0. 5. 0.
      0. 0. 0. 0. 0. 0. 0. 0. 0. 0. 0. 0. 0. 0. 0. 0. 0. 0. 0. 0. 0. 0.
      0. 2. 0. 0. 4. 31. 0. 1. 0. 0. 5. 1. 0. 75. 93. 109. 59. 83. 0. 1.
      0. 0. 0. 0. 12. 181. 174. 193. 178. 113. 0. 2. 2. 0. 0. 1. 1. 65.
      102. 134. 255. 222. 117. 0. 0. 0. 0. 3. 53. 227. 175. 209. 179.
      255. 207. 16. 0. 1. 0. 3. 49. 215. 244. 229. 255. 228. 124. 2. 0.
      0. 0. 1. 0. 0. 50. 255. 255. 222. 28. 1. 2. 0. 0. 0. 17. 0. 109.
      233. 255. 255. 134. 0. 0. 0. 0. 0. 32. 51. 0. 1. 0. 0. 1. 100.
      121. 0. 0. 3. 0. 2. 0. 0. 0. 0. 4. 0. 0. 0. 0. 0. 0. 0. 0. 0. 0.
      0. 0. 0. 0. 0. 0. 0. 0. 0. 0. 2. 0. 0. 5. 27. 232. 110. 3. 0. 2.
      0. 0. 2. 55. 228. 255. 249. 255. 112. 0. 0. 0. 1. 2. 0. 56. 220.
      254. 254. 255. 120. 2. 0. 1. 1. 0. 0. 47. 218. 255. 252. 255. 132.
      0. 0. 0. 4. 0. 4. 37. 217. 255. 252. 254. 167. 0. 0. 2. 0. 0. 2.
      39. 207. 255. 253. 253. 137. 0. 2. 1. 3. 0. 0. 2. 1. 116. 255.
      255. 133. 0. 0. 5. 0. 0. 0. 0. 0. 114. 253. 255. 144. 0. 3. 1. 0.
      0. 0. 3. 0. 0. 2. 2. 0. 78. 79. 2. 0. 3. 0. 0. 0. 0. 48. 0. 0. 1.
      0. 0. 0. 0. 0. 0. 0. 0. 0. 0. 0. 0. 0. 0. 0. 0. 0. 2. 0. 0. 2. 0.
      0. 1. 47. 241. 120. 0. 2. 0. 0. 1. 0. 46. 213. 255. 252. 255. 129.
      1. 2. 0. 0. 2. 0. 41. 83. 159. 255. 255. 129. 0. 1. 0. 1. 0. 0.
      39. 208. 254. 255. 254. 133. 1. 0. 0. 0. 0. 1. 32. 197. 255. 255.
      255. 141. 3. 0. 0. 1. 0. 2. 20. 199. 255. 255. 254. 145. 0. 1. 0.
      2. 0. 1. 0. 3. 104. 255. 254. 153. 1. 0. 0. 0. 1. 0. 0. 1. 104.
      254. 255. 151. 0. 0. 0. 1. 0. 0. 0. 2. 0. 0. 0. 116. 243. 48. 0.
      0. 0. 2. 1. 26. 173. 20. 0. 1. 0. 0. 0. 0. 0. 0. 0. 0. 0. 0. 0. 0.
      0. 0. 0. 0. 0. 0. 0. 0. 0. 0. 0. 0. 86. 255. 255. 127. 0. 2. 0. 2.
      0. 0. 40. 207. 254. 255. 255. 136. 0. 0. 0. 0. 3. 0. 13. 200. 255.
      254. 255. 144. 0. 0. 3. 0. 0. 1. 24. 200. 252. 255. 255. 140. 0.
      1. 1. 0. 2. 0. 23. 191. 255. 255. 255. 149. 0. 1. 0. 1. 1. 1. 15.
      182. 254. 255. 254. 151. 0. 4. 0. 1. 1. 2. 0. 6. 201. 255. 252.
      161. 1. 0. 2. 0. 0. 0. 1. 87. 254. 255. 255. 168. 1. 0. 0. 3. 0.
      2. 1. 0. 0. 0. 153. 211. 0. 2. 1. 1. 0. 0. 2. 1. 1. 1. 0. 0. 0. 0.
      0. 0. 0. 0. 0. 0. 0. 0. 0. 0. 0. 0. 0. 0. 0. 0. 0. 0. 0. 0. 0. 1.
      123. 253. 255. 145. 1. 0. 0. 1. 0. 2. 25. 189. 255. 255. 254. 144.
      0. 0. 0. 0. 0. 0. 25. 224. 255. 254. 255. 150. 0. 0. 3. 2. 0. 1.
      19. 185. 254. 255. 255. 87. 0. 0. 3. 0. 3. 1. 8. 215. 254. 253.
      255. 161. 1. 0. 2. 0. 2. 0. 88. 251. 251. 255. 254. 95. 0. 0. 0.
      0. 1. 0. 3. 208. 255. 255. 254. 165. 0. 1. 0. 0. 3. 0. 81. 252.
      255. 253. 255. 97. 2. 0. 0. 1. 0. 0. 2. 0. 5. 165. 208. 16. 0. 0.
      1. 0. 3. 0. 0. 0. 0. 4. 0. 0. 0. 0. 0. 0. 0. 0. 0. 0. 0. 0. 0. 0.
      0. 0. 0. 0. 0. 0. 0. 0. 0. 0. 4. 173. 255. 214. 55. 0. 2. 0. 1. 0.
      0. 36. 204. 255. 255. 254. 190. 20. 4. 1. 0. 3. 2. 156. 252. 255.
      255. 224. 65. 2. 0. 0. 0. 5. 0. 30. 192. 255. 249. 95. 0. 0. 0. 1.
      0. 0. 0. 55. 255. 255. 254. 224. 58. 0. 3. 0. 3. 2. 0. 99. 255.
      254. 255. 97. 0. 0. 2. 4. 0. 0. 1. 149. 255. 252. 174. 224. 73. 2.
      0. 0. 1. 0. 0. 89. 248. 255. 255. 106. 0. 1. 0. 1. 0. 1. 0. 0. 0.
      1. 151. 235. 34. 0. 2. 0. 1. 0. 0. 0. 1. 2. 0. 0. 0. 0. 0. 0. 0.
      0. 0. 0. 0. 0. 0. 0. 0. 0. 0. 0. 0. 0. 0. 0. 0. 0. 0. 15. 182.
      173. 18. 0. 0. 2. 0. 0. 0. 81. 243. 254. 255. 253. 146. 1. 0. 0.
      0. 0. 18. 206. 255. 255. 251. 174. 17. 0. 0. 1. 0. 0. 0. 81. 240.
      255. 255. 255. 104. 1. 0. 0. 1. 1. 2. 2. 104. 253. 255. 185. 23.
      3. 2. 1. 2. 0. 0. 72. 231. 255. 215. 57. 0. 0. 2. 0. 0. 0. 40.
      199. 255. 254. 255. 73. 8. 0. 0. 0. 1. 0. 0. 76. 229. 255. 214.
      56. 0. 2. 0. 0. 0. 0. 2. 0. 0. 0. 0. 172. 205. 14. 0. 0. 0. 0. 2.
      1. 3. 0. 0. 0. 0. 0. 0. 0. 0. 0. 0. 0. 0. 0. 0. 0. 0. 0. 0. 0. 0.
      0. 0. 0. 0. 0. 0. 0. 142. 130. 0. 0. 4. 0. 0. 0. 0. 119. 255. 255.
      252. 255. 105. 0. 0. 4. 0. 0. 3. 0. 183. 254. 253. 140. 0. 2. 0.
      0. 0. 1. 3. 116. 255. 255. 250. 255. 101. 1. 0. 6. 0. 0. 1. 0.
      151. 253. 255. 135. 0. 0. 0. 0. 0. 1. 2. 119. 255. 255. 207. 14.
      2. 0. 0. 0. 0. 1. 0. 136. 255. 252. 255. 145. 0. 0. 0. 2. 5. 0. 2.
      106. 241. 236. 212. 16. 0. 1. 0. 3. 0. 0. 14. 0. 1. 0. 1. 21. 217.
      167. 0. 1. 2. 0. 2. 0. 0. 0. 4. 3. 0. 0. 0. 0. 0. 0. 0. 0. 0. 0.
      0. 0. 0. 0. 0. 0. 0. 0. 0. 0. 0. 0. 0. 0. 0. 164. 68. 0. 2. 0. 0.
      2. 3. 47. 174. 166. 158. 238. 138. 3. 2. 0. 0. 1. 0. 37. 200. 213.
      250. 246. 70. 2. 0. 3. 3. 0. 0. 157. 194. 155. 255. 224. 63. 2. 0.
      0. 0. 2. 1. 7. 175. 211. 255. 235. 112. 0. 2. 0. 2. 0. 0. 161.
      190. 153. 152. 226. 118. 0. 0. 0. 0. 0. 2. 8. 157. 210. 255. 231.
      93. 1. 4. 0. 0. 0. 0. 25. 171. 42. 41. 212. 126. 3. 0. 2. 3. 0.
      118. 195. 11. 3. 0. 0. 25. 223. 159. 0. 1. 0. 0. 4. 0. 0. 3. 0. 0.
      0. 0. 0. 0. 0. 0. 0. 0. 0. 0. 0. 0. 0. 0. 0. 0. 0. 0. 0. 0. 0. 0.
      0. 0. 0. 38. 0. 0. 0. 0. 5. 0. 0. 1. 0. 4. 0. 62. 101. 0. 0. 0. 1.
      0. 5. 136. 112. 0. 26. 31. 2. 1. 3. 0. 0. 0. 2. 76. 3. 0. 93. 15.
      2. 0. 1. 4. 0. 0. 0. 0. 20. 1. 22. 47. 203. 43. 1. 1. 0. 5. 0. 76.
      0. 1. 1. 40. 207. 106. 2. 3. 0. 1. 1. 0. 20. 2. 24. 21. 5. 0. 0.
      1. 0. 0. 2. 1. 0. 0. 0. 32. 100. 0. 1. 0. 0. 19. 201. 156. 2. 0.
      4. 0. 1. 112. 166. 5. 0. 0. 0. 0. 2. 0. 1. 2. 1. 0. 0. 0. 0. 0. 0.
      0. 0. 0. 0. 0. 0. 0. 0. 0. 0. 0. 0. 0. 0. 0. 0. 0. 0. 0. 0. 2. 0.
      2. 0. 0. 4. 0. 0. 4. 0. 0. 4. 0. 0. 2. 0. 1. 0. 0. 1. 0. 0. 1. 2.
      0. 0. 2. 0. 3. 0. 0. 0. 0. 3. 0. 1. 0. 0. 1. 0. 1. 2. 0. 1. 1. 0.
      2. 0. 5. 1. 2. 0. 4. 0. 0. 0. 2. 0. 1. 0. 20. 8. 0. 0. 0. 2. 0. 0.
      2. 0. 0. 1. 0. 0. 2. 0. 2. 0. 0. 0. 1. 0. 3. 0. 0. 1. 0. 0. 0. 2.
      13. 59. 0. 0. 0. 0. 2. 0. 1. 0. 3. 0. 0. 0. 0. 0. 0. 0. 0. 0. 0.
      0. 0. 0. 0. 0. 0. 0. 0. 0. 0. 0. 0. 0. 0. 0. 0. 0. 0. 0. 0. 0. 0.
      0. 0. 0. 0. 0. 0. 0. 0. 0. 0. 0. 0. 0. 0. 0. 0. 0. 0. 0. 0. 0. 0.
      0. 0. 0. 0. 0. 0. 0. 0. 0. 0. 0. 0. 0. 0. 0. 0. 0. 0. 0. 0. 0. 0.
      0. 0. 0. 0. 0. 0. 0. 0. 0. 0. 0. 0. 0. 0. 0. 0. 0. 0. 0. 0. 0. 0.
      0. 0. 0. 0. 0. 0. 0. 0. 0. 0. 0. 0. 0. 0. 0. 0. 0. 0. 0. 0. 0. 0.
      0. 0. 0. 0. 0. 0. 0. 0. 0. 0. 0. 0. 0. 0. 0. 0. 0. 0. 0. 0. 0. 0.
      0. 0. 0. 0. 0. 0. 0. 0. 0. 0. 0. 0. 0. 0. 0. 0. 0. 0. 0. 0. 0. 0.
      0. 0. 0. 0. 0. 0. 0. 0. 0. 0. 0. 0. 0. 0. 0. 0. 0. 0. 0. 0. 0. 0.
      0. 0. 0. 0. 0. 0. 0. 0. 0. 0. 0. 0. 0. 0. 0. 0. 0. 0. 0. 0. 0. 0.
      0. 0. 0. 0. 0. 0. 0. 0. 0. 0. 0. 0. 0. 0. 0. 0. 0. 0. 0. 0. 0. 0.
      0. 0. 0. 0. 0. 0. 0. 0. 0. 0. 0. 0. 0. 0. 0. 0. 0. 0. 0. 0. 0. 0.
      0. 0. 0. 0. 0. 0. 0. 0. 0. 0. 0. 0. 0. 0. 0. 0. 0. 0. 0. 0. 0. 0.
      0. 0. 0. 0. 0. 0. 0. 0. 0. 0. 0. 0. 0. 0. 0. 0. 0. 0. 0. 0. 0. 0.
      0. 0. 0. 0. 0. 0. 0. 0. 0. 0. 0. 0. 0. 0. 0. 0. 0. 0. 0. 0. 0. 0.
      0. 0. 0. 0. 0. 0. 0. 0. 0. 0. 0. 0. 0. 0. 0. 0. 0. 0. 0. 0. 0. 0.
      0. 0. 0. 0. 0. 0. 0. 0. 0. 0. 0. 0. 0. 0. 0. 0. 0. 0. 0. 0. 0. 0.
      0. 0. 0. 0. 0. 0. 0. 0. 0. 0. 0. 0. 0. 0. 0. 0. 0. 0. 0. 0. 0. 0.
      0. 0. 0. 0. 0. 0. 0. 0. 0. 0. 0. 0. 0. 0. 0. 0. 0. 0. 0. 0. 0. 0.
      0. 0. 0. 0. 0. 0. 0. 0. 0. 0. 0. 0. 0. 0. 0. 0. 0. 0. 0. 0. 0. 0.
      0. 0. 0. 0. 0. 0. 0. 0. 0. 0. 0. 0. 0. 0. 0. 0. 0. 0. 0. 0. 0. 0.
      0. 0. 0. 0. 0. 0. 0. 0. 0. 0. 0. 0. 0. 0. 0. 0. 0. 0. 0. 0. 0. 0.
      0. 0. 0. 0. 0. 0. 0. 0. 0. 0. 0. 0. 0. 0. 0. 0. 0. 0. 0. 0. 0. 0.
      0. 0. 0. 0. 0. 0. 0. 0. 0. 0. 0. 0. 0. 0. 0. 0. 0. 0. 0. 0. 0. 0.
      0. 0. 0. 0. 0. 0. 0. 0. 0. 0. 0. 0. 0. 0. 0. 0. 0. 0. 0. 0. 0. 0.
      0. 0. 0. 0. 0. 0. 0. 0. 0. 0. 0. 0. 0. 0. 0. 0. 0. 0. 0. 0. 0. 0.
      0. 0. 0. 0. 0. 0. 0. 0. 0. 0. 0. 0. 0. 0. 0. 0. 0. 0. 0. 0. 0. 0.
      0. 0. 0. 0. 0. 0. 0. 0. 0. 0. 0. 0. 0. 0. 0. 0. 0. 0. 0. 0. 0. 0.
      0. 0. 0. 0. 0. 0. 0. 0. 0. 0. 0. 0. 0. 0. 0. 0. 0. 0. 0. 0. 0. 0.
      0. 0. 0. 0. 0. 0. 0. 0. 0. 0. 0. 0. 0. 0. 0. 0. 0. 0. 0. 0. 0. 0.
      0. 0. 0. 0. 0. 0. 0. 0. 0. 0. 0. 0. 0. 0. 0. 0. 0. 0. 0. 0. 0. 0.
      0. 0. 0. 0. 0. 0. 0. 0. 0. 0. 0. 0. 0. 0. 0. 0. 0. 0. 0. 0. 0. 0.
      0. 0. 0. 0. 0. 0. 0. 0. 0. 0. 0. 0. 0. 0. 0. 0. 0. 0. 0. 0. 0. 0.
      0. 0. 0. 0. 0. 0. 0. 0. 0. 0. 0. 0. 0. 0. 0. 0. 0. 0. 0. 0. 0. 0.
      0. 0. 0. 0. 0. 0. 0. 0. 0. 0. 0. 0. 0. 0. 0. 0. 0. 0. 0. 0. 0. 0.
      0. 0. 0. 0. 0. 0. 0. 0. 0. 0. 0. 0. 0. 0. 0. 0. 0. 0. 0. 0. 0. 0.
      0. 0. 0. 0. 0. 0. 0. 0. 0. 0. 0. 0. 0. 0. 0. 0. 0. 0. 0. 0. 0. 0.
      0. 0. 0. 0. 0. 0. 0. 0. 0. 0. 0. 0. 0. 0. 0. 0. 0. 0. 0. 0. 0. 0.
      0. 0. 0. 0. 0. 0. 0. 0. 0. 0. 0. 0. 0. 0. 0. 0. 0. 0. 0. 0. 0. 0.
      0. 0. 0. 0. 0. 0. 0. 0. 0. 0. 0. 0. 0. 0. 0. 0. 0. 0. 0. 0. 0. 0.
      0. 0. 0. 0. 0. 0. 0. 0. 0. 0. 0. 0. 0. 0. 0. 0. 0. 0. 0. 0. 0. 0.
      0. 0. 0. 0. 0. 0. 0. 0. 0. 0. 0. 0. 0. 0. 0. 0. 0. 0. 0. 0. 0. 0.
      0. 0. 0. 0. 0. 0. 0. 0. 0. 0. 0. 0. 0. 0. 0. 0. 0. 0. 0. 0. 0. 0.
      0. 0. 0. 0. 0. 0. 0. 0. 0. 0. 0. 0. 0. 0. 0. 0. 0. 0. 0. 0. 0. 0.
      0. 0. 0. 0. 0. 0. 0. 0. 0. 0. 0. 0. 0. 0. 0. 0. 0. 0. 0. 0. 0. 0.
      0. 0. 0. 0. 0. 0. 0. 0. 0. 0. 0. 0. 0. 0. 0. 0. 0. 0. 0. 0. 0. 0.
      0. 0. 0. 0. 0. 0. 0. 0. 0. 0. 0. 0. 0. 0. 0. 0. 0. 0. 0. 0. 0. 0.
      0. 0. 0. 0. 0. 0. 0. 0. 0. 0. 0. 0. 0. 0. 0. 0. 0. 0. 0. 0. 0. 0.
      0. 0. 0. 0. 0. 0. 0. 0. 0. 0. 0. 0. 0. 0. 0. 0. 0. 0. 0. 0. 0. 0.
      0. 0. 0. 0. 0. 0. 0. 0. 0. 0. 0. 0. 0. 0. 0. 0. 0. 0. 0. 0. 0. 0.
      0. 0. 0. 0. 0. 0. 0. 0. 0. 0. 0. 0. 0. 0. 0. 0. 0. 0. 0. 0. 0. 0.
      0. 0. 0. 0. 0. 0. 0. 0. 0. 0. 0. 0. 0. 0. 0. 0. 0. 0. 0. 0. 0. 0.
      0. 0. 0. 0. 0. 0. 0. 0. 0. 0. 0. 0. 0. 0. 0. 0. 0. 0. 0. 0. 0. 0.
      0. 0. 0. 0. 0. 0. 0. 0. 0. 0. 0. 0. 0. 0. 0. 0. 0. 0. 0. 0. 0. 0.
      0. 0. 0. 0. 0. 0. 0. 0. 0. 0. 0. 0. 0. 0. 0. 0. 0. 0. 0. 0. 0. 0.
      0. 0. 0. 0. 0. 0. 0. 0. 0. 0. 0. 0. 0. 0. 0. 0. 0. 0. 0. 0. 0. 0.
      0. 0. 0. 0. 0. 0. 0. 0. 0. 0. 0. 0. 0. 0. 0. 0. 0. 0. 0. 0. 0. 0.
      0. 0. 0. 0. 0. 0. 0. 0. 0. 0. 0. 0. 0. 0. 0. 0. 0. 0. 0. 0. 0. 0.
      0. 0. 0. 0. 0. 0. 0. 0. 0. 0. 0. 0. 0. 0. 0. 0. 0. 0. 0. 0. 0. 0.
      0. 0. 0. 0. 0. 0. 0. 0. 0. 0. 0. 0. 0. 0. 0. 0. 0. 0. 0. 0. 0. 0.
      0. 0. 0. 0. 0. 0. 0. 0. 0. 0. 0. 0. 0. 0. 0. 0. 0. 0. 0. 0. 0. 0.
      0. 0. 0. 0. 0. 0. 0. 0. 0. 0. 0. 0. 0. 0. 0. 0. 0. 0. 0. 0. 0. 0.
      0. 0. 0. 0. 0. 0. 0. 0. 0. 0. 0. 0. 0. 0. 0. 0. 0. 0. 0. 0. 0. 0.
      0. 0. 0. 0. 0. 0. 0. 0. 0. 0. 0. 0. 0. 0. 0. 0. 0. 0. 0. 0. 0. 0.
      0. 0. 0. 0. 0. 0. 0. 0. 0. 0. 0. 0. 0. 0. 0. 0. 0. 0. 0. 0. 0. 0.
      0. 0. 0. 0. 0. 0. 0. 0. 0. 0. 0. 0. 0. 0. 0. 0. 0. 0. 0. 0. 0. 0.
      0. 0. 0. 0. 0. 0. 0. 0. 0. 0. 0. 0. 0. 0. 0. 0. 0. 0. 0. 0. 0. 0.
      0. 0. 0. 0. 0. 0. 0. 0. 0. 0. 0. 0. 0. 0. 0. 0. 0. 0. 0. 0. 0. 0.
      0. 0.</_>
    <_>
      0. 0. 0. 0. 0. 0. 0. 0. 0. 0. 0. 0. 0. 0. 0. 0. 0. 0. 0. 0. 0. 0.
      0. 0. 0. 0. 0. 0. 0. 0. 0. 0. 0. 0. 0. 0. 0. 0. 0. 0. 0. 0. 0. 0.
      0. 0. 0. 0. 0. 0. 0. 0. 0. 0. 0. 0. 0. 0. 0. 0. 0. 0. 0. 0. 0. 0.
      0. 0. 0. 0. 0. 0. 0. 0. 0. 0. 0. 0. 0. 0. 0. 0. 0. 0. 0. 0. 0. 0.
      0. 0. 0. 0. 0. 0. 0. 0. 0. 0. 0. 0. 0. 0. 0. 0. 0. 0. 0. 0. 0. 0.
      0. 0. 0. 0. 0. 0. 0. 0. 0. 0. 0. 0. 0. 0. 0. 0. 0. 0. 0. 0. 0. 0.
      0. 0. 0. 0. 0. 0. 0. 0. 0. 0. 0. 0. 0. 0. 0. 0. 0. 0. 0. 0. 0. 0.
      0. 0. 0. 0. 0. 0. 0. 0. 0. 0. 0. 0. 0. 0. 0. 0. 0. 0. 0. 0. 0. 0.
      0. 0. 0. 0. 0. 0. 0. 0. 0. 0. 0. 0. 0. 0. 0. 0. 0. 0. 0. 0. 0. 0.
      0. 0. 0. 0. 0. 0. 0. 0. 0. 0. 0. 0. 0. 0. 0. 0. 0. 0. 0. 0. 0. 0.
      0. 0. 0. 0. 0. 0. 0. 0. 0. 0. 0. 0. 0. 0. 0. 0. 0. 0. 0. 0. 0. 0.
      0. 0. 0. 0. 0. 0. 0. 0. 0. 0. 0. 0. 0. 0. 0. 0. 0. 0. 0. 0. 0. 0.
      0. 0. 0. 0. 0. 0. 0. 0. 0. 0. 0. 0. 0. 0. 0. 0. 0. 0. 0. 0. 0. 0.
      0. 0. 0. 0. 0. 0. 0. 0. 0. 0. 0. 0. 0. 0. 0. 0. 0. 0. 0. 0. 0. 0.
      0. 0. 0. 0. 0. 0. 0. 0. 0. 0. 0. 0. 0. 0. 0. 0. 0. 0. 0. 0. 0. 0.
      0. 0. 0. 0. 0. 0. 0. 0. 0. 0. 0. 0. 0. 0. 0. 0. 0. 0. 0. 0. 0. 0.
      0. 0. 0. 0. 0. 0. 0. 0. 0. 0. 0. 0. 0. 0. 0. 0. 0. 0. 0. 0. 0. 0.
      0. 0. 0. 0. 0. 0. 0. 0. 0. 0. 0. 0. 0. 0. 0. 0. 0. 0. 0. 0. 0. 0.
      0. 0. 0. 0. 0. 0. 0. 0. 0. 0. 0. 0. 0. 0. 0. 0. 0. 0. 0. 0. 0. 0.
      0. 0. 0. 0. 0. 0. 0. 0. 0. 0. 0. 0. 0. 0. 0. 0. 0. 0. 0. 0. 0. 0.
      0. 0. 0. 0. 0. 0. 0. 0. 0. 0. 0. 0. 0. 0. 0. 0. 0. 0. 0. 0. 0. 0.
      0. 0. 0. 0. 0. 0. 0. 0. 0. 0. 0. 0. 0. 0. 0. 0. 0. 0. 0. 0. 0. 0.
      0. 0. 0. 0. 0. 0. 0. 0. 0. 0. 0. 0. 0. 0. 0. 0. 0. 0. 0. 0. 0. 0.
      0. 0. 0. 0. 0. 0. 0. 0. 0. 0. 0. 0. 0. 0. 0. 0. 0. 0. 0. 0. 0. 0.
      0. 0. 0. 0. 0. 0. 0. 0. 0. 0. 0. 0. 0. 0. 0. 0. 0. 0. 0. 0. 0. 0.
      0. 0. 0. 0. 0. 0. 0. 0. 0. 0. 0. 0. 0. 0. 0. 0. 0. 0. 0. 0. 0. 0.
      0. 0. 0. 0. 0. 0. 0. 0. 0. 0. 0. 0. 0. 0. 0. 0. 0. 0. 0. 0. 0. 0.
      0. 0. 0. 0. 0. 0. 0. 0. 0. 0. 0. 0. 0. 0. 0. 0. 0. 0. 0. 0. 0. 0.
      0. 0. 0. 0. 0. 0. 0. 0. 0. 0. 0. 0. 0. 0. 0. 0. 0. 0. 0. 0. 0. 0.
      0. 0. 0. 0. 0. 0. 0. 0. 0. 0. 0. 0. 0. 0. 0. 0. 0. 0. 0. 0. 0. 0.
      0. 0. 0. 0. 0. 0. 0. 0. 0. 0. 0. 0. 0. 0. 0. 0. 0. 0. 0. 0. 0. 0.
      0. 0. 0. 0. 0. 0. 0. 0. 0. 0. 0. 0. 0. 0. 0. 0. 0. 0. 0. 0. 0. 0.
      0. 0. 0. 0. 0. 0. 0. 0. 0. 0. 0. 0. 0. 0. 0. 0. 0. 0. 0. 0. 0. 0.
      0. 0. 0. 0. 0. 0. 0. 0. 0. 0. 0. 0. 0. 0. 0. 0. 0. 0. 0. 0. 0. 0.
      0. 0. 0. 0. 0. 0. 0. 0. 0. 0. 0. 0. 0. 0. 0. 0. 0. 0. 0. 0. 0. 0.
      0. 0. 0. 0. 0. 0. 0. 0. 0. 0. 0. 0. 0. 0. 0. 0. 0. 0. 0. 0. 0. 0.
      0. 0. 0. 0. 0. 0. 0. 0. 0. 0. 0. 0. 0. 0. 0. 0. 0. 0. 0. 0. 0. 0.
      0. 0. 0. 0. 0. 0. 0. 0. 0. 0. 0. 0. 0. 0. 0. 0. 0. 0. 0. 0. 0. 0.
      0. 0. 0. 0. 0. 0. 0. 0. 0. 0. 0. 0. 0. 0. 0. 0. 0. 0. 0. 0. 0. 0.
      0. 0. 0. 0. 0. 0. 0. 0. 0. 0. 0. 0. 0. 0. 0. 0. 0. 0. 0. 0. 0. 0.
      0. 0. 0. 0. 0. 0. 0. 0. 0. 0. 0. 0. 0. 0. 0. 0. 0. 0. 0. 0. 0. 0.
      0. 0. 0. 0. 0. 0. 0. 0. 0. 0. 0. 0. 0. 0. 0. 0. 0. 0. 0. 0. 0. 0.
      0. 0. 0. 0. 0. 0. 0. 0. 0. 0. 0. 0. 0. 0. 0. 0. 0. 0. 0. 0. 0. 0.
      0. 0. 0. 0. 0. 0. 0. 0. 0. 0. 0. 0. 0. 0. 0. 0. 0. 0. 0. 0. 0. 0.
      0. 0. 0. 0. 0. 0. 0. 0. 0. 0. 0. 0. 0. 0. 0. 0. 0. 0. 0. 0. 0. 0.
      0. 0. 0. 0. 0. 0. 0. 0. 0. 0. 0. 0. 0. 0. 0. 0. 0. 0. 0. 0. 0. 0.
      0. 0. 0. 0. 0. 0. 0. 0. 0. 0. 0. 0. 0. 0. 0. 0. 0. 0. 0. 0. 0. 0.
      0. 0. 0. 0. 0. 0. 0. 0. 0. 0. 0. 0. 0. 0. 0. 0. 0. 0. 0. 0. 0. 0.
      0. 0. 0. 0. 0. 0. 0. 0. 0. 0. 0. 0. 0. 0. 0. 0. 0. 0. 0. 0. 0. 0.
      0. 0. 0. 0. 0. 0. 0. 0. 0. 0. 0. 0. 0. 0. 0. 0. 0. 0. 0. 0. 0. 0.
      0. 0. 0. 0. 0. 0. 0. 0. 0. 0. 0. 0. 0. 0. 3. 0. 0. 2. 0. 0. 0. 1.
      0. 3. 0. 0. 1. 0. 0. 2. 0. 0. 1. 0. 0. 0. 0. 0. 1. 1. 0. 0. 0. 0.
      1. 0. 0. 1. 0. 3. 0. 1. 0. 1. 0. 0. 0. 0. 2. 0. 0. 1. 0. 1. 0. 1.
      0. 0. 0. 0. 0. 4. 0. 0. 0. 0. 0. 0. 1. 2. 0. 0. 0. 0. 1. 0. 0. 1.
      0. 0. 3. 0. 2. 0. 0. 3. 0. 2. 0. 0. 0. 2. 0. 0. 1. 0. 0. 0. 0. 0.
