<?xml version="1.0"?>
<opencv_storage>
<opencv_ml_svm>
  <format>3</format>
  <svmType>C_SVC</svmType>
  <kernel>
    <type>LINEAR</type></kernel>
  <C>1.</C>
  <term_criteria><epsilon>1.1920928955078125e-07</epsilon>
    <iterations>1000</iterations></term_criteria>
  <var_count>4725</var_count>
  <class_count>2</class_count>
  <class_labels type_id="opencv-matrix">
    <rows>2</rows>
    <cols>1</cols>
    <dt>i</dt>
    <data>
      0 1</data></class_labels>
  <sv_total>1</sv_total>
  <support_vectors>
    <_>
      8.07190881e-05 8.23477167e-05 8.83917601e-05 8.26825926e-05
      7.65764125e-05 6.74880430e-05 5.11680119e-05 6.16688485e-05
      7.65954392e-05 6.44022803e-05 8.65424445e-05 5.98220686e-05
      4.99089292e-05 4.55972149e-05 9.05949582e-06 -5.46716183e-05
      -5.56474115e-05 -4.94616033e-05 -4.10417015e-05 -2.98262257e-05
      -3.69117188e-05 9.61484875e-06 2.19981612e-05 1.77581587e-05
      8.33710965e-06 1.24649023e-05 2.41260841e-05 2.41317757e-05
      2.31331360e-05 1.44456790e-05 5.72530462e-06 1.53427800e-06
      1.45513798e-06 2.41583507e-06 1.04448054e-05 2.27332130e-05
      2.86004069e-05 2.95872524e-05 4.27107479e-05 4.64398254e-05
      9.13683325e-05 1.28392305e-04 1.68285100e-04 1.72595144e-04
      2.25006850e-04 3.17693979e-04 2.71593395e-04 1.24876271e-04
      4.98242698e-05 7.82922725e-05 7.01659301e-05 3.49660659e-05
      2.36800515e-05 4.73458822e-05 4.90891907e-05 4.75622473e-05
      4.41553384e-05 1.90810642e-05 3.27015550e-06 9.89350156e-07
      2.36479013e-06 3.60453532e-06 4.45245360e-06 5.65945720e-06
      7.71437954e-06 8.55655981e-06 8.61737681e-06 8.57012492e-06
      8.59024749e-06 8.59024749e-06 8.51631467e-06 5.62576997e-06
      4.01953366e-06 3.01087016e-06 1.28862712e-06 0. 6.97625069e-08 0.
      8.98852548e-08 0. 3.48346589e-07 1.39338636e-06 7.55551355e-06
      5.19357263e-06 7.57963016e-06 7.40017504e-06 6.37869698e-06
      8.46802141e-06 9.74823888e-06 9.59206591e-06 8.19941488e-06
      7.40783435e-06 6.97577707e-06 4.75418383e-05 5.00869028e-05
      3.62879473e-05 1.05613344e-05 5.00216265e-06 6.55605118e-06
      8.98803773e-05 7.19292802e-05 6.17181468e-06 5.74024580e-06
      6.44024658e-06 5.71115834e-06 5.74024580e-06 6.11743553e-06
      4.88483647e-06 4.49083382e-06 4.95089125e-06 5.79431344e-06
      6.80120638e-06 8.23291703e-06 9.59119461e-06 9.70874044e-06
      9.78750086e-06 9.91850447e-06 9.96120070e-06 9.74905561e-06
      1.42262043e-05 3.27062116e-05 3.48277499e-05 -7.09010783e-05
      -8.77703860e-05 -1.35806476e-04 -1.68272993e-04 -2.98409796e-05
      4.88459445e-05 1.22110563e-04 1.57940492e-04 1.55148649e-04
      7.72826024e-05 3.47307355e-06 -2.18090079e-07 7.20592152e-06
      6.54324467e-05 6.33543386e-05 5.65100563e-05 5.41868139e-05
      7.60086186e-05 5.09581478e-05 3.33321586e-05 3.99158307e-05
      1.73727567e-05 -2.96370376e-06 -3.94659446e-06 6.08500923e-05
      6.55753320e-05 5.06401193e-05 9.25597851e-06 -4.69564511e-05
      -6.84784463e-05 -8.09597113e-05 -5.33565471e-05 -3.46571542e-05
      -1.75215391e-05 1.59505289e-05 2.80798413e-05 2.67729520e-05
      2.24191390e-05 1.69032428e-05 2.09229347e-05 2.25006424e-05
      2.51888541e-05 2.23370243e-05 2.04298667e-05 9.62727972e-06
      2.06196728e-06 1.15776775e-05 2.88070714e-05 3.36464946e-05
      5.33648890e-05 6.83670660e-05 7.89292026e-05 1.18332682e-04
      1.67764898e-04 2.02777228e-04 1.98954003e-04 1.82504664e-04
      2.30741032e-04 2.17938024e-04 1.06905587e-04 4.13769012e-05
      2.65526851e-05 4.91919964e-05 3.60978411e-05 2.17690413e-05
      6.03731633e-06 4.67712489e-05 4.86145073e-05 3.60967606e-05
      1.77438760e-05 8.83022494e-06 1.68913800e-06 5.00469150e-06
      1.25500437e-05 3.95848247e-06 4.91833771e-06 7.57854787e-06
      8.61737681e-06 8.60381169e-06 8.59024749e-06 8.59024749e-06
      8.60426007e-06 8.52287303e-06 6.38925212e-06 4.08377264e-06
      2.45950173e-06 3.37055326e-06 1.57348154e-06 1.23572505e-07 0.
      6.73744864e-08 1.05837771e-07 4.50215332e-08 1.01061737e-07
      1.65083281e-06 5.59281807e-06 6.60270007e-06 6.64307117e-06
      8.04638785e-06 9.81561334e-06 9.14265729e-06 8.12070539e-06
      7.22248433e-06 6.75673982e-06 5.87499471e-06 2.95794762e-05
      4.95193635e-05 4.34387548e-05 1.90367555e-05 5.37935239e-06
      5.68423775e-06 5.57675730e-06 1.06037487e-05 9.55735086e-05
      6.44565444e-05 6.31411967e-06 5.91441903e-06 6.13994644e-06
      4.78821676e-06 3.71427654e-06 5.28650753e-06 4.94120013e-06
      6.20405353e-06 7.62936133e-06 8.55068902e-06 9.75256626e-06
      1.00785965e-05 9.71339159e-06 9.82129404e-06 9.95138998e-06
      1.03302045e-05 1.19567676e-05 1.70054791e-05 3.46846246e-05
      4.85060809e-05 1.98885914e-06 1.67377748e-05 -4.25134131e-05
      -8.02524810e-05 7.31297478e-05 3.41972409e-05 1.33103049e-05
      1.01223959e-05 8.28070697e-05 3.51808376e-05 3.52528309e-06
      -2.42714492e-07 -3.51408630e-07 4.71104468e-05 4.15363502e-05
      3.94078488e-05 5.29970275e-05 3.80591773e-05 2.56068688e-05
      2.06290169e-05 1.82113545e-05 7.54401390e-06 -2.93101930e-05
      -3.62899918e-05 -2.26929442e-05 -4.73853761e-05 -7.72928470e-05
      -6.18175181e-05 -8.00794223e-05 -7.23355552e-05 -5.03091287e-05
      -2.71803947e-05 -1.52529110e-05 2.58043542e-06 1.15697521e-05
      2.39212459e-05 2.61186633e-05 2.66562420e-05 2.34908603e-05
      2.27494893e-05 2.39731253e-05 2.34312920e-05 2.63250349e-05
      2.99314070e-05 2.61075456e-05 3.51880917e-05 6.18186823e-05
      4.57125789e-05 5.74396872e-05 8.30795252e-05 8.04711599e-05
      7.95334709e-05 1.43680270e-04 1.81375697e-04 1.81967946e-04
      1.78227740e-04 1.25115272e-04 8.92998505e-05 6.29606293e-05
      3.11508775e-05 2.44900584e-05 1.70041767e-05 3.50536811e-06
      7.41257554e-06 9.23788502e-06 5.47342734e-06 4.84756492e-05
      4.56627131e-05 2.89133241e-05 3.20943104e-06 1.18643602e-05
      8.52801895e-06 1.51461672e-05 2.68480853e-05 3.97509484e-06
      6.69694236e-06 8.78693118e-06 8.52287303e-06 8.60381169e-06
      8.60381169e-06 8.59024749e-06 8.59024749e-06 6.53532561e-06
      4.09599306e-06 2.98239706e-06 3.44076375e-06 3.45894637e-06
      1.87071430e-06 0. 7.43807291e-08 9.00430663e-08 0. 1.01061737e-07
      1.45428862e-06 3.61586945e-06 5.73927082e-06 8.44551050e-06
      1.02765134e-05 9.21003175e-06 8.22750462e-06 7.52007236e-06
      6.52652625e-06 6.04916795e-06 5.74024580e-06 1.53138644e-05
      4.73321852e-05 4.75052184e-05 3.19931096e-05 5.55310589e-06
      5.40366773e-06 5.56015948e-06 6.26554629e-06 7.27531233e-06
      1.53662804e-05 9.78217286e-05 5.52011224e-05 4.66250958e-06
      3.42163662e-06 3.06146444e-06 4.98587360e-06 5.58059401e-06
      6.69902511e-06 8.16935426e-06 9.87794556e-06 1.00746474e-05
      9.73590249e-06 9.86944542e-06 1.00792640e-05 1.01374408e-05
      1.00491079e-05 9.80343430e-06 1.31047382e-05 2.08620750e-05
      3.83210354e-05 3.93949158e-05 -5.66644189e-07 -5.40254587e-06
      -1.26005194e-04 -1.38214833e-04 -3.03079614e-05 -1.55378223e-06
      -1.09988294e-04 -8.36966938e-05 8.61306253e-05 1.07401480e-04
      -8.58324142e-07 2.20334141e-06 1.21907885e-06 3.56533637e-05
      3.03408251e-05 2.46902291e-05 2.01241746e-05 1.10698247e-05
      2.17223305e-06 -4.79260689e-06 6.01839065e-06 -3.08808444e-06
      5.73772104e-06 -2.09504719e-06 -1.16680212e-05 -4.84139855e-05
      -5.70716256e-05 -6.81817110e-05 -2.55584273e-05 -2.01326930e-05
      -1.44969927e-05 -1.33116112e-06 1.94068912e-06 4.32104662e-06
      3.96424821e-06 1.35749779e-05 2.49630175e-05 2.66038624e-05
      2.66698498e-05 2.64069586e-05 3.37388228e-05 3.28691058e-05
      4.49603976e-05 5.38812528e-05 5.92437354e-05 3.92064248e-05
      1.38085534e-05 1.00308298e-05 2.28050867e-05 5.53214122e-05
      5.96532991e-05 1.07805572e-04 1.46942795e-04 1.38826479e-04
      1.17160904e-04 1.15357907e-04 6.62429738e-05 3.40802435e-05
      4.48253195e-05 2.59143908e-05 1.36293029e-05 8.63532705e-07
      1.46197056e-06 2.65141193e-06 5.42600674e-06 5.98917541e-06
      4.58839786e-05 4.49821309e-05 2.35897733e-05 1.28955378e-06
      3.52651696e-05 3.23675486e-05 3.54621625e-05 3.66695131e-05
      1.18032203e-05 9.13527856e-06 8.63730020e-06 8.57012492e-06
      8.59024749e-06 8.59024749e-06 8.60381169e-06 6.71732641e-06
      3.84034593e-06 1.52920416e-06 2.83497957e-06 3.43837564e-06
      3.51275639e-06 1.98041630e-06 1.41913034e-07 2.25107666e-08
      3.36872432e-08 8.79452244e-08 6.96255654e-07 3.47073319e-06
      7.67068650e-06 9.71439385e-06 9.49100377e-06 8.19941488e-06
      7.28985879e-06 6.52078961e-06 5.91441903e-06 5.77393303e-06
      5.90850595e-06 4.41211023e-06 3.69534428e-05 4.81905772e-05
      4.14380702e-05 1.40596658e-05 5.22249820e-06 6.26276551e-06
      5.95564461e-06 6.50777883e-06 5.74024580e-06 5.86939723e-06
      2.17289926e-05 9.96345116e-05 4.29897918e-05 3.58830403e-06
      4.77148706e-06 6.01840611e-06 7.48595494e-06 8.38755204e-06
      9.48828347e-06 9.80343430e-06 9.74247905e-06 1.05495155e-05
      1.00830621e-05 1.01688292e-05 9.78750086e-06 9.80768527e-06
      8.85565623e-06 1.23361306e-05 2.37717613e-05 4.18587042e-05
      3.40869847e-05 5.95133715e-05 6.55765180e-05 -1.56032293e-05
      -7.61806004e-05 -6.29293027e-06 -6.02891960e-05 -1.13805931e-04
      -6.28750568e-05 2.02145129e-05 -4.21245823e-05 -6.98761323e-06
      5.83116673e-07 -2.63193760e-06 2.30440055e-05 1.78855626e-05
      6.98610938e-06 6.88231012e-07 6.22359721e-07 4.29779192e-07
      1.88058334e-06 -4.53747795e-08 7.03808610e-07 -1.89390178e-07
      -7.15063209e-08 -2.76725746e-06 -1.02116519e-06 -2.00780391e-06
      5.55716269e-06 9.51972709e-07 -1.91297408e-06 1.28725503e-06
      5.17928629e-06 5.00245687e-06 3.01964292e-06 1.06552682e-06
      4.96039411e-06 1.80599272e-05 1.52654884e-05 3.15754914e-05
      5.88612020e-05 7.28414452e-05 7.21555480e-05 9.29545713e-05
      9.24536798e-05 7.95273372e-05 6.90351299e-05 1.51422091e-05
      2.43310133e-05 -1.69048474e-06 6.05121895e-05 8.53674355e-05
      1.13579590e-04 1.23147678e-04 1.04516133e-04 6.81085439e-05
      4.66855126e-05 3.21856678e-05 2.37624572e-05 1.10881128e-05
      2.06999675e-06 3.50203982e-06 1.50953340e-07 4.81604218e-07
      4.73315049e-06 5.90997479e-06 2.95796212e-06 4.51273991e-05
      4.45363585e-05 1.80263905e-05 4.82819473e-07 4.44700927e-05
      4.44141915e-05 4.73449800e-05 4.61854979e-05 1.70022704e-05
      8.67331346e-06 8.87121951e-06 8.61275839e-06 8.47145111e-06
      8.60381169e-06 7.07432127e-06 4.10984376e-06 9.43242867e-07
      8.13869747e-07 2.63762240e-06 3.32762943e-06 3.42258090e-06
      2.34547156e-06 2.37154680e-07 8.57150226e-08 1.01061737e-07
      1.04572496e-06 4.96565917e-06 8.79366144e-06 9.17634497e-06
      8.26678934e-06 7.31221189e-06 6.20053288e-06 5.93677214e-06
      5.71773489e-06 5.54882536e-06 4.31073295e-06 3.95006919e-06
      2.13282910e-05 4.70727427e-05 4.71805251e-05 2.57465235e-05
      5.43627129e-06 5.71773489e-06 5.78804793e-06 6.48526839e-06
      5.78804793e-06 4.57313035e-06 3.31976798e-06 3.49133620e-06
      2.52683312e-05 1.02103026e-04 3.56882338e-05 6.42814575e-06
      7.49877472e-06 9.28703594e-06 1.03815246e-05 1.00652896e-05
      9.75841340e-06 9.80343430e-06 9.73590249e-06 9.82787060e-06
      9.90131321e-06 8.60996352e-06 7.78377944e-06 8.30295176e-06
      1.40717966e-05 2.80481781e-05 5.15812280e-05 4.24537939e-05
      3.07669798e-05 6.35137167e-06 7.43036362e-05 8.86218622e-05
      1.72642976e-05 -1.02554397e-04 -2.19425012e-04 -3.53899741e-05
      1.10115536e-04 9.33232805e-05 3.72689965e-06 2.25119337e-07
      7.46379737e-06 9.49823061e-06 1.06005955e-05 1.15783751e-05
      1.02881559e-05 6.16894249e-06 3.51604103e-06 2.87127278e-07
      -1.23575705e-06 2.43430037e-07 -3.39398071e-07 6.48240302e-07
      1.61651627e-07 1.19026332e-07 -2.76058245e-07 8.68350369e-09
      1.42286228e-06 2.42797364e-06 6.04058414e-06 5.48966955e-06
      2.63889092e-06 2.15705711e-07 -1.09184278e-07 -1.07017695e-06
      -1.30819590e-05 -5.00412079e-06 1.73201861e-05 6.75988340e-05
      8.15879976e-05 1.39823300e-04 1.74949149e-04 1.13995775e-04
      9.44462954e-05 7.20461030e-05 4.66386409e-05 1.72365089e-05
      1.64869543e-05 1.03571343e-04 1.06742256e-04 1.03650913e-04
      7.61808551e-05 5.26249933e-05 3.80670426e-05 2.74139875e-05
      2.12560262e-05 6.43868270e-06 5.51612447e-06 3.98081920e-06
      2.22316089e-06 1.03740399e-06 8.13770839e-07 4.68952749e-06
      5.29492945e-06 2.98700002e-06 3.38908758e-05 4.49879481e-05
      1.59723786e-05 2.04176686e-07 4.45556216e-05 4.71428575e-05
      4.95826462e-05 3.01877371e-05 1.01578071e-05 8.61043281e-06
      8.80944208e-06 8.63526930e-06 8.63526930e-06 7.63582830e-06
      4.63766355e-06 1.32736704e-06 1.34748973e-07 2.98418911e-07
      1.07159519e-06 1.73625540e-06 2.92292475e-06 2.36022220e-06
      4.20499362e-07 5.76333662e-07 2.69234579e-06 6.74960074e-06
      8.07536890e-06 8.88463364e-06 7.35723324e-06 6.23995720e-06
      5.69522399e-06 6.15596673e-06 5.68931137e-06 4.09695986e-06
      3.32568084e-06 3.51167978e-06 1.01029818e-05 4.13141825e-05
      4.93213811e-05 4.02763508e-05 8.82443055e-06 5.74024580e-06
      5.77393303e-06 5.71773489e-06 6.27301279e-06 2.82977999e-06
      2.31860895e-06 3.22012329e-06 3.33993557e-06 5.25220685e-06
      3.50703522e-05 1.04099548e-04 3.07513146e-05 1.04133924e-05
      9.77156651e-06 9.80343430e-06 9.80343430e-06 9.63372077e-06
      1.09547345e-05 9.96732433e-06 9.03864020e-06 7.76530669e-06
      7.49517721e-06 7.79997663e-06 8.10332222e-06 1.31977895e-05
      2.96250946e-05 5.40158071e-05 5.53084501e-05 -6.03230255e-05
      -1.30460714e-04 -1.95127245e-06 7.67584133e-05 1.05557876e-04
      -1.16137741e-07 -1.35562543e-04 -3.42617641e-05 -3.55747652e-05
      -3.36278899e-05 -6.33716354e-06 1.67668179e-06 -1.50616199e-06
      2.31321860e-06 1.10920644e-06 1.01316509e-05 1.21076373e-05
      1.02933964e-05 9.88588363e-06 6.94006803e-06 5.58618603e-06
      2.19322646e-06 2.63938972e-07 5.10079133e-07 -1.97097393e-07
      -9.16399756e-08 8.20318689e-07 4.52350577e-07 2.92178561e-06
      5.43768647e-06 6.59551506e-06 3.93145638e-06 1.57678664e-06
      -1.01796149e-06 -2.07464132e-06 -3.48559188e-05 -4.81042262e-05
      -1.06851439e-05 1.67283706e-05 8.33625290e-06 5.30884754e-05
      1.16787654e-04 1.08954693e-04 8.24991512e-05 6.12312142e-05
      3.34027900e-05 2.78672887e-05 1.62156120e-05 4.42941491e-05
      9.66175576e-05 1.00341007e-04 6.87981446e-05 4.44574289e-05
      2.60198176e-05 2.15366472e-05 1.94464865e-05 4.87515717e-06
      3.29463433e-06 1.62553908e-06 3.26394661e-06 1.81009455e-06
      6.65681057e-07 2.91461151e-06 5.85917542e-06 4.63868400e-06
      4.89135630e-07 2.09259852e-05 4.65274679e-05 1.35743967e-05
      7.40302028e-07 4.64892983e-05 4.93493026e-05 4.22271223e-05
      1.51279564e-05 8.58342810e-06 8.80944208e-06 8.63310106e-06
      8.66239770e-06 8.06258595e-06 4.79954133e-06 1.93612550e-06 0. 0.
      1.68436230e-07 0. 5.74036847e-07 1.77694892e-06 2.36164851e-06
      3.11016697e-06 4.87334455e-06 6.50531683e-06 7.56636337e-06
      7.32354601e-06 6.36896903e-06 5.74024580e-06 6.01548072e-06
      5.51498033e-06 4.02926935e-06 2.92639970e-06 3.52269831e-06
      3.69176587e-06 4.43972704e-06 2.86221984e-05 4.83215190e-05
      4.72266875e-05 1.85615372e-05 5.74024580e-06 5.94810626e-06
      4.42279543e-06 2.55965074e-06 2.49622690e-06 3.00437296e-06
      3.44523096e-06 4.70841769e-06 5.23070821e-06 7.36140282e-06
      7.43883447e-06 4.78853472e-05 1.07235144e-04 2.12620544e-05
      1.01421792e-05 9.74247905e-06 9.78750086e-06 1.05709678e-05
      8.34681123e-06 7.43954115e-06 7.19470154e-06 7.48249977e-06
      7.60521834e-06 5.76844559e-06 3.74172669e-06 7.63632397e-06
      2.62116300e-05 5.50204386e-05 6.76417330e-05 -4.57685164e-05
      -1.72395303e-04 4.02571231e-06 1.58430103e-05 8.19631168e-05
      5.00697461e-05 -1.65090551e-05 -3.71233073e-05 1.97353825e-06
      1.82058993e-05 -2.81331086e-06 -1.88756121e-06 3.57090335e-06
      -4.28517478e-06 -1.90879764e-05 -1.04322653e-05 5.81265977e-06
      2.25662352e-05 3.15666657e-05 2.07355824e-05 1.44047372e-05
      7.45763964e-06 9.92864670e-07 3.13443621e-07 6.96416976e-07
      2.10481204e-07 2.28587226e-07 2.25308759e-06 6.50205902e-06
      6.92236017e-06 3.50035066e-06 1.08581241e-06 -8.65876473e-07
      -3.72486579e-06 -3.01356122e-05 -5.31205333e-05 -3.89694833e-05
      -3.34693468e-05 -6.65762627e-06 -4.68821918e-06 8.54534119e-06
      9.85471706e-05 8.05499658e-05 1.44055430e-05 1.72316577e-05
      2.50491703e-05 4.06672771e-05 2.86473314e-05 6.45116961e-05
      7.73674255e-05 7.52792330e-05 6.83461403e-05 4.65057237e-05
      1.26119676e-05 1.84987050e-06 2.62537378e-06 3.38628888e-06
      2.88545925e-06 2.36849610e-06 2.40733016e-06 1.76528204e-06
      9.71065106e-07 5.22039818e-06 3.18924594e-06 2.73492060e-06
      2.09409336e-06 1.39692866e-05 2.97038496e-05 9.00653959e-06
      5.73624948e-06 4.93303596e-05 5.22835035e-05 2.40242971e-05
      8.80944208e-06 9.38289668e-06 8.78166793e-06 8.61275839e-06
      8.34326056e-06 5.43721080e-06 2.15598357e-06 0. 1.14626232e-07
      1.35644953e-08 0. 6.08162338e-08 7.47605895e-07 2.91428614e-06
      4.81355664e-06 4.97949759e-06 6.18904050e-06 6.78455035e-06
      6.39132213e-06 5.74024580e-06 5.87499471e-06 5.54833377e-06
      3.84934128e-06 2.71246859e-06 3.06146444e-06 3.79824905e-06
      4.31024182e-06 4.32206753e-06 1.72061191e-05 4.40856529e-05
      4.98001755e-05 3.41978666e-05 5.94810626e-06 4.15857903e-06
      2.27358760e-06 1.98094745e-06 2.36363053e-06 3.42380395e-06
      3.26406121e-06 4.64737241e-06 5.49434662e-06 7.07824574e-06
      8.39505810e-06 1.02194026e-05 9.80343430e-06 5.62166897e-05
      1.07280161e-04 1.31963789e-05 9.80343430e-06 8.23425762e-06
      7.41837675e-06 7.37335540e-06 7.25971768e-06 7.61305409e-06
      5.87972181e-06 4.36439268e-06 3.85979047e-06 4.79416167e-06
      4.36605251e-06 1.88322792e-05 4.32192282e-05 4.71258318e-05
      -7.23590056e-05 -2.47008961e-06 7.61312185e-05 5.42804901e-06
      3.32524614e-05 6.70191512e-05 9.87195108e-06 8.32688386e-07
      5.83933361e-05 3.40088191e-05 4.56674888e-06 1.99313627e-06
      8.78761909e-07 2.74564409e-05 -4.60090487e-05 -6.82350728e-05
      1.16533956e-05 7.98011388e-05 1.08498090e-04 6.60977676e-05
      4.39460928e-05 2.76033588e-05 2.24552623e-05 1.19930492e-05
      7.90209651e-06 1.37794586e-05 7.01963927e-06 1.00755269e-05
      5.80887308e-06 2.39562792e-06 2.15286974e-07 -5.71600140e-07
      4.15345767e-06 -1.92341449e-05 -4.09944405e-05 -2.41617763e-05
      -9.81675203e-06 2.60533725e-05 3.14849931e-05 4.04259190e-05
      5.44573631e-05 8.56851038e-05 1.03321900e-05 -2.37580407e-05
      2.03719592e-05 6.16035832e-05 3.45388653e-05 5.94850280e-05
      7.72526691e-05 8.10954371e-05 8.82634486e-05 7.85143566e-05
      1.85387562e-05 8.09746581e-09 -2.77076060e-06 -2.52156360e-06
      -1.89585649e-06 -4.85463579e-06 -3.17979357e-06 -3.54475037e-06
      -1.18385273e-07 6.91662706e-07 -3.76977573e-06 2.45715256e-07
      -2.89513338e-07 -7.79615732e-07 -1.65925389e-08 1.83556176e-06
      4.12717327e-06 8.39147287e-06 4.64564655e-05 4.73609834e-05
      1.47337387e-05 4.63437300e-06 5.05011894e-06 6.85094528e-06
      5.65348182e-06 2.90268713e-06 5.17455419e-07 -2.81479402e-06
      -9.56811618e-07 -6.74169951e-06 -1.04322658e-06 -1.06391417e-06
      3.97686705e-07 8.02690522e-07 9.87399631e-07 3.30756939e-06
      3.37239726e-06 3.25414658e-06 1.79155029e-06 4.05753735e-06
      1.83426130e-06 9.28488703e-07 -1.26561747e-06 3.20262643e-06
      1.11662757e-06 -5.96799396e-07 1.12011719e-06 9.10596100e-07
      2.81262282e-06 3.40237275e-05 4.74390035e-05 4.53556531e-05
      4.17145793e-06 -1.06332243e-06 -7.14050486e-07 -2.20014294e-06
      1.00871944e-06 1.99414853e-06 2.22271154e-07 2.03800028e-06
      6.67361655e-06 5.68863834e-06 7.83226187e-06 6.81594292e-06
      6.34670960e-06 7.26458757e-06 5.08083485e-06 6.52486560e-05
      1.03537051e-04 3.03440999e-07 7.53321183e-06 4.83865415e-06
      8.09087305e-06 3.49711081e-06 4.32110892e-06 -2.62146813e-07
      4.23407442e-07 5.16849877e-06 2.37760332e-06 2.79112692e-06
      3.94919698e-06 2.90723947e-05 3.08414274e-05 4.45720034e-05
      3.71557580e-05 3.74804622e-05 -1.45843114e-05 8.03288422e-05
      9.27461515e-05 5.44881805e-05 5.60243898e-05 8.09118646e-05
      9.15643523e-06 2.53420239e-06 -1.66759173e-06 -1.09004532e-06
      3.77406250e-04 2.72840989e-04 1.34104150e-04 1.12953254e-04
      1.83090131e-04 1.56096954e-04 9.10231902e-05 8.71562879e-05
      7.07789804e-05 3.33876778e-05 2.39422025e-05 2.45934662e-05
      2.27194614e-05 2.60752549e-05 2.12855048e-05 2.12803479e-05
      3.87962064e-06 -2.44648788e-07 -5.30407476e-07 1.10899300e-05
      -5.74698504e-07 1.93600554e-05 6.29401839e-05 6.86055864e-05
      6.91930327e-05 3.28560527e-05 6.77784692e-06 2.69644306e-06
      2.55946525e-05 1.04909122e-05 -2.14705087e-05 5.50497418e-07
      8.84982146e-05 8.27030090e-05 5.85379057e-05 6.39084319e-05
      7.69719554e-05 6.55878466e-05 3.07080445e-05 8.38551114e-06
      -2.94327265e-06 -6.20194305e-06 -2.96612075e-06 -2.13484623e-06
      -4.90988987e-06 -8.45446084e-06 -9.88389911e-06 -1.46228804e-05
      -1.33782041e-05 -1.29185946e-05 -4.48682295e-06 9.80853088e-07
      4.81695133e-06 6.39806876e-06 1.20714822e-06 4.84161592e-06
      8.83972098e-06 4.73095497e-05 4.68608996e-05 1.53884121e-05
      7.41574377e-06 2.77753702e-06 4.35193988e-06 1.53389874e-06
      9.80643904e-07 -1.27464375e-06 8.20543278e-08 -4.23276151e-06
      -4.57955639e-06 1.72681769e-06 -1.83997963e-06 -7.52546498e-07
      -2.02073511e-06 5.70158363e-07 -8.29661474e-07 -5.41361430e-07
      4.52042013e-06 5.89962565e-06 6.06156345e-06 3.57238969e-06
      -1.68418865e-05 -3.34138567e-05 -2.80094919e-05 -2.89252966e-05
      -7.48950561e-06 2.18275682e-06 4.79951541e-06 7.00409419e-06
      3.69668342e-05 4.14777824e-05 2.67768664e-05 1.00714906e-05
      6.98864505e-06 3.82261078e-06 -8.95368714e-07 -7.07195250e-06
      -6.46557510e-06 -4.94077085e-06 -1.09718167e-06 -4.33781224e-07
      4.12118061e-06 8.55237431e-06 1.73967765e-05 9.62586819e-06
      8.91110261e-08 -1.46980537e-05 -2.01493149e-05 3.83491388e-05
      6.52477611e-05 -8.71275006e-06 1.88607623e-06 -1.18975447e-06
      1.67465134e-06 4.87715761e-06 1.27391095e-05 1.86247380e-05
      1.91284962e-05 2.63643014e-05 2.43103368e-05 1.48398840e-05
      7.71511895e-06 2.94884940e-05 3.67505090e-05 6.21925210e-05
      3.45896951e-05 5.30827565e-05 7.70260303e-05 7.60865005e-05
      -1.12427741e-04 -2.68483600e-05 1.44435311e-04 5.46008887e-05
      -3.75481841e-06 -1.86420641e-06 -2.63528432e-06 2.26678283e-04
      1.28714382e-04 5.42314301e-05 9.37072982e-05 1.87985454e-04
      2.29454425e-04 1.64818019e-04 1.81724157e-04 1.45412865e-04
      6.94121263e-05 4.61222480e-05 4.11129367e-05 3.36902121e-05
      2.73030273e-05 2.80008426e-05 2.06370823e-05 1.06735206e-05
      1.98695011e-06 9.11449479e-06 1.72804539e-05 2.77657073e-05
      7.72686399e-05 1.22061479e-04 9.81776539e-05 2.66044553e-05
      6.67253289e-06 -2.34967416e-07 6.96995949e-06 4.18754862e-05
      1.84997498e-05 2.79074293e-08 1.68395854e-05 9.99973781e-05
      9.95211012e-05 5.83841247e-05 5.47443015e-05 4.43273711e-05
      2.77696818e-05 2.15079126e-05 1.91941872e-05 1.90459814e-05
      2.08465262e-05 3.05282592e-05 2.85002061e-05 -2.38357430e-07
      -1.36065382e-05 -2.49803270e-05 -4.31704539e-05 -5.36894404e-05
      -3.55329757e-05 -1.49639991e-05 -1.51885397e-05 1.82213898e-06
      2.56372023e-05 3.14467106e-05 3.76632124e-05 3.07440241e-05
      4.49216495e-05 6.02064174e-05 1.70929852e-05 4.98256168e-06
      4.26132419e-06 -2.68251824e-06 5.88827697e-06 1.24110020e-05
      3.23723434e-05 4.00216595e-05 3.34609176e-05 1.35777855e-05
      -7.06041192e-06 -2.94962174e-05 -3.06670954e-05 -1.02611475e-05
      1.58133616e-06 3.28596116e-06 -9.94997026e-06 -1.10461815e-05
      1.22661240e-05 3.51815652e-05 3.47041751e-05 -3.44830869e-06
      -3.00436350e-05 -2.61650202e-05 -2.89921536e-05 -7.09274627e-06
      5.71907094e-06 1.00278339e-05 1.44246087e-05 3.80974707e-05
      4.23238962e-05 2.79742744e-05 2.24687064e-05 2.04240268e-06
      -1.91820018e-05 -2.40501304e-05 -1.89772145e-05 -3.77285869e-05
      -1.74663655e-05 -2.43826958e-06 -1.28706517e-06 1.40869352e-05
      2.80613112e-05 4.19140088e-05 3.85165076e-05 -4.82792120e-06
      -1.94401800e-05 -3.51037161e-05 -5.30922116e-05 4.12762747e-05
      4.78485235e-05 -2.43890208e-05 -6.60135856e-06 -3.12779480e-06
      -9.51310369e-07 3.20394129e-08 -4.93712093e-07 -1.39242002e-05
      -3.94558447e-06 -2.96038979e-06 -8.12887538e-06 -3.62183141e-06
      1.50967162e-05 7.07482977e-05 8.67018607e-05 -2.48498363e-05
      -6.31813464e-06 6.73805116e-05 -2.21335122e-05 -1.34610367e-04
      -1.04307939e-04 -8.16173779e-05 -1.69156265e-04 -2.65365743e-05
      6.90887509e-06 -4.79380833e-06 8.12079888e-05 2.08426372e-05
      5.83661749e-05 1.07094229e-06 5.25058749e-05 2.14584448e-04
      2.80018110e-04 2.58935441e-04 2.05219825e-04 9.96983945e-05
      4.52909771e-05 4.37496783e-05 5.08535741e-05 3.53529867e-05
      2.49803834e-05 2.77588915e-05 1.92959269e-05 1.70123913e-05
      2.48712277e-05 2.45577739e-05 5.65595401e-05 1.11144240e-04
      1.16164236e-04 1.18449869e-04 6.70025329e-05 9.98745418e-06
      1.48039430e-06 1.42427716e-05 6.01893698e-05 -1.70689873e-05
      1.45876288e-06 2.13466883e-05 4.80576309e-05 5.46981028e-05
      5.36439111e-05 5.17003064e-05 5.58011016e-06 -9.56108943e-06
      2.27310538e-05 2.84002799e-05 3.47082132e-05 4.70167652e-05
      6.41415318e-05 5.07540462e-05 1.70385792e-05 1.17026166e-05
      -2.90499429e-06 -5.62765999e-05 -6.61023223e-05 -5.66983690e-05
      -5.22486771e-05 -3.26208828e-05 -1.48887639e-05 3.43686188e-05
      5.59991240e-05 1.09403727e-05 1.40257339e-06 4.73617038e-05
      3.44684595e-05 -2.81794437e-05 -1.80692514e-05 -7.05295452e-06
      -2.66931984e-05 -1.28360043e-05 1.22286865e-05 4.72383363e-05
      6.34914250e-05 4.79109840e-05 1.69469931e-05 -1.08044542e-05
      -3.33444150e-05 -4.90294733e-05 -2.28975750e-05 -1.33387239e-05
      -3.49591210e-06 1.87090645e-05 -3.54676467e-06 2.22499548e-05
      3.94557865e-05 3.16613732e-05 -7.86753347e-08 -3.33948119e-05
      -2.90637436e-05 -2.41670332e-05 -2.97220522e-05 -7.62573836e-06
      -1.03285392e-05 1.61343778e-05 6.85346531e-05 3.36169796e-05
      1.47254641e-05 -1.03016333e-07 -1.14686454e-05 -3.50966620e-05
      -5.72631543e-05 -1.94072527e-05 -4.11024530e-06 2.63221386e-06
      2.02917090e-05 -1.86880925e-06 3.75274467e-05 -8.46351759e-06
      -3.78520999e-05 1.49087873e-05 9.96200379e-06 -2.19287485e-05
      -2.00360755e-05 -3.87764958e-05 -3.82178296e-05 -1.19787628e-05
      -1.08580389e-05 -2.00211125e-05 1.37340639e-05 -2.87912171e-05
      1.12428042e-05 -1.38783491e-06 -3.30126823e-05 -7.42484990e-05
      -9.78433454e-05 -1.65107540e-05 1.42361614e-06 -3.60475351e-05
      -4.75655688e-05 -6.47076013e-05 -6.10161296e-05 6.53928582e-05
      5.03527917e-05 4.33822152e-06 -1.16343190e-05 -3.82220423e-05
      -1.71293417e-04 -9.36872966e-05 -5.18129636e-05 -8.28075099e-06
      3.99885539e-06 2.01363262e-04 4.76627574e-05 -1.27084095e-05
      -7.09349260e-05 -8.15905878e-05 8.35294923e-05 1.88339123e-04
      2.56540021e-04 1.85910147e-04 9.05152483e-05 4.24340942e-05
      3.52748066e-05 3.50393966e-05 2.67890937e-05 2.74668964e-05
      2.09661084e-05 2.25788281e-05 2.55362665e-05 -3.29881436e-06
      3.64084081e-05 1.02995305e-04 9.99116310e-05 1.06852131e-04
      1.12727343e-04 9.73584392e-05 3.61405764e-05 1.04472485e-06
      1.46923003e-05 4.83708436e-06 -2.67825908e-05 2.79269916e-05
      2.49397217e-05 2.78028001e-05 3.72581562e-05 1.13089482e-04
      8.54725367e-05 -4.07775224e-06 -5.66010785e-05 5.11800818e-06
      6.42764717e-05 2.09152622e-05 -2.02122865e-05 -1.74393645e-05
      -1.45605800e-05 -8.18543122e-05 -6.87680222e-05 1.10691581e-05
      -1.08261584e-05 -9.28917725e-05 -8.59252541e-05 -9.60241377e-05
      -8.18003391e-05 -5.94137746e-05 -2.37562344e-05 -4.56535818e-05
      -9.31979448e-05 -8.10991041e-05 -1.75037246e-06 -2.93256726e-05
      -4.50398766e-05 -5.06326942e-05 -3.39289036e-05 -2.71951449e-05
      -1.86460984e-05 -2.23592378e-05 4.41692682e-05 4.32473971e-05
      6.11760242e-06 2.70570604e-06 -1.03692866e-04 -9.08043294e-05
      -9.62750055e-05 -8.59825450e-05 -3.23997992e-05 1.49555271e-05
      2.05699507e-05 -7.67439633e-05 -5.06703109e-05 7.12304391e-05
      7.57883608e-05 2.04965872e-05 -4.39264477e-05 -3.05164194e-05
      -6.66936321e-05 -3.15722900e-05 -2.93149806e-05 -7.03352407e-06
      1.67175567e-05 2.99932017e-05 -2.33221199e-05 -3.27655944e-05
      -8.49907665e-05 -7.66490848e-05 -1.65612728e-05 -4.06759136e-05
      2.98073155e-05 1.01313453e-04 6.39018035e-05 6.73418836e-05
      -1.09383918e-05 5.67583193e-05 1.53306628e-05 -4.58799950e-05
      -4.24353457e-05 1.27393150e-05 1.87349833e-05 -3.21324405e-05
      -1.51284512e-05 -2.59278113e-05 -1.94948152e-05 7.78478134e-05
      6.36059849e-05 -6.53132447e-05 1.61710086e-05 1.43330872e-05
      -1.95376160e-05 -9.40142309e-06 -5.63869289e-05 -3.81360655e-06
      1.53866640e-04 1.35302980e-04 3.38472746e-05 -1.11822221e-04
      -2.22341216e-04 -1.32765213e-04 -7.95722190e-06 4.68928083e-05
      6.14389573e-05 5.98081897e-05 4.96098874e-05 -5.43836541e-05
      -8.96436177e-05 -7.34746136e-05 -1.90387141e-06 2.09531618e-06
      2.33283732e-04 1.06170068e-04 1.03133334e-05 -9.03029068e-05
      -5.05024655e-05 -3.05926442e-05 -2.72368889e-05 1.38857838e-04
      1.93423431e-04 8.17474720e-05 3.82572580e-05 2.58649779e-05
      2.50383073e-05 2.66036059e-05 2.44148559e-05 3.44271211e-05
      3.04621753e-05 -4.59872399e-06 -1.08707987e-04 -2.66134211e-05
      1.09240609e-04 8.70488802e-05 8.92292446e-05 1.17796539e-04
      1.17617128e-04 3.62750579e-05 1.35414177e-06 1.52270477e-05
      2.70594792e-05 -3.84658197e-05 -3.16158221e-05 2.94080091e-05
      2.37958757e-05 3.62392129e-05 1.80463379e-04 1.69691280e-04
      2.08420479e-05 -8.67807612e-05 6.32651208e-05 1.95079600e-04
      5.07006507e-06 -9.27600922e-05 -1.15681369e-05 -2.88306528e-05
      -1.47883213e-04 -8.00161797e-05 9.01754975e-05 3.12977500e-05
      -7.44164026e-06 -5.86977649e-06 -2.07357753e-05 -8.72384044e-06
      -6.31130097e-05 -7.25758218e-05 -3.59159421e-05 -7.42714910e-05
      -3.37334168e-05 8.05017989e-05 9.88712927e-05 8.96386700e-05
      9.80547120e-05 1.54000765e-04 1.35326089e-04 9.21265382e-05
      5.55730185e-05 1.71926891e-04 9.11602110e-05 3.94057242e-05
      1.33488953e-04 9.58404053e-05 1.56431779e-05 -8.85841509e-05
      -7.61124757e-05 -1.18167191e-05 -5.05218632e-05 -7.61685442e-06
      -1.08833650e-04 -5.03934025e-05 1.00445272e-04 1.14442017e-04
      7.57565795e-05 6.52910676e-05 -2.23583957e-05 -8.39969925e-06
      6.78735960e-05 2.37866807e-05 3.86092916e-06 5.42462039e-05
      4.02052174e-05 3.68722540e-05 4.14566784e-05 -8.64337489e-05
      -1.18495627e-04 7.36961083e-05 -2.52461814e-06 -1.05911269e-04
      1.95047269e-05 5.97226826e-05 -7.44747922e-06 -4.53446119e-05
      9.45559077e-05 9.14295670e-05 3.40926126e-05 -6.32926240e-05
      -3.19275714e-05 1.12294156e-05 -1.16075462e-05 -3.18951606e-05
      -5.35766640e-06 6.78415063e-07 2.80904078e-05 7.36508664e-05
      2.08984038e-05 8.32949881e-05 1.88937247e-05 -9.31452450e-06
      7.59146351e-05 1.22975805e-04 8.10397760e-05 1.47402898e-04
      8.23907685e-05 5.22719638e-05 -5.45985058e-05 -1.61787626e-04
      -1.30306929e-04 -2.86502654e-05 6.05485766e-05 8.96713391e-05
      1.91098334e-05 -4.16078583e-05 -1.17807918e-04 -1.17453223e-04
      -8.32522128e-05 -6.58006775e-06 -4.12465965e-07 2.69619457e-04
      2.55779363e-04 1.39535259e-04 -2.02350602e-05 -8.03829535e-05
      -1.16152150e-04 -1.72082189e-04 -6.05519890e-05 1.46147242e-04
      1.38554926e-04 5.08929297e-05 3.56707169e-05 2.22544713e-05
      2.35497191e-05 2.59564840e-05 3.29037903e-05 3.45418994e-05
      -3.06935799e-05 -1.40544536e-04 -2.70019950e-06 1.15577277e-04
      2.56744734e-05 1.87131791e-05 7.92521823e-05 1.11180343e-04
      8.78316496e-05 1.05702884e-05 1.22593519e-05 9.36520973e-06
      -5.05371900e-05 -2.45737228e-05 3.04113619e-05 2.35633415e-05
      5.79469597e-05 1.34205344e-04 1.47370287e-04 1.21624551e-04
      1.62971017e-04 2.55735125e-04 2.55587220e-04 1.17936295e-04
      4.33609748e-05 9.85461593e-05 2.19657868e-05 -9.53848667e-06
      9.54819625e-05 1.82470132e-04 3.14211575e-05 3.97736985e-05
      1.11071116e-04 1.09176530e-04 1.14766117e-04 5.71924247e-05
      6.93954207e-05 8.23194205e-05 1.48940035e-05 2.66810621e-05
      1.97556044e-04 1.72253873e-04 6.77718854e-05 9.40616010e-05
      5.23761773e-05 4.79754053e-05 3.58461220e-05 6.62156235e-05
      1.20062628e-04 4.04122657e-05 3.63282197e-05 4.42539567e-05
      1.07234242e-04 1.15267554e-04 6.17968835e-05 7.63439821e-05
      7.95844535e-05 -5.15805259e-05 -1.25865510e-04 -6.79460936e-05
      6.37432913e-06 5.99606719e-05 6.64131585e-05 -1.40302909e-05
      -5.08325115e-07 -5.74126898e-05 2.18115420e-05 1.51644796e-04
      4.71403546e-05 9.47662920e-06 5.03746560e-05 5.48991011e-07
      1.50187761e-05 7.86359487e-06 3.75813124e-06 -3.30502917e-05
      7.21334654e-05 9.79812376e-06 -8.28738193e-05 -3.87855725e-05
      -3.46630113e-05 -1.07691776e-04 -2.13639069e-05 8.15539897e-05
      1.53801957e-05 -8.31495254e-06 9.77233594e-06 2.15951286e-06
      2.32375005e-05 -1.28492229e-05 1.49692305e-05 3.14586869e-05
      5.31642654e-05 5.01658687e-05 8.96572456e-05 4.09081331e-05
      4.74307344e-05 -3.20686995e-05 4.85494274e-06 7.92755091e-05
      8.91811505e-05 -1.36755116e-05 -8.64455342e-06 3.59969090e-05
      9.86738232e-05 -1.70417861e-05 -9.37664590e-05 -1.25521343e-04
      -9.09491791e-05 4.64107652e-05 7.27376246e-05 -8.94412151e-05
      -1.86317222e-04 -1.27818159e-04 -1.84733959e-04 -9.40101090e-05
      -1.83464476e-06 -3.30711828e-06 2.89076328e-04 2.96557206e-04
      2.69655109e-04 1.05306070e-04 -6.39735663e-05 -8.31459474e-05
      -9.34380878e-05 -8.82718232e-05 1.19425067e-05 2.01845134e-04
      6.73119284e-05 2.06211425e-05 2.34126946e-05 1.60144737e-05
      2.10671915e-05 2.58237960e-05 2.70482033e-05 -6.52720410e-05
      -1.10101770e-04 2.14522097e-05 7.57839662e-05 -4.31828084e-06
      -4.72604333e-05 -4.13076377e-05 4.29655302e-05 1.24805141e-04
      3.15296966e-05 2.26418178e-05 5.48140706e-05 -1.30055887e-05
      -2.43299983e-05 -1.33552430e-05 5.03709052e-05 1.20696488e-04
      1.38423406e-04 1.55416827e-04 4.95357526e-05 8.25106472e-05
      1.97040659e-04 1.71712920e-04 2.42088165e-04 1.00402453e-04
      -8.44291844e-06 -4.37492599e-05 -8.99405791e-07 1.09057371e-04
      1.33518872e-04 6.49670910e-05 -2.75889561e-05 8.84127803e-06
      1.01875066e-05 6.52013332e-05 5.15628744e-05 -4.40072472e-05
      -2.91661109e-07 2.96936855e-06 -1.73730423e-05 -2.31736485e-05
      1.70245823e-06 1.50459737e-05 4.72256907e-05 7.88102479e-05
      3.49195543e-05 3.75056734e-05 6.85806081e-05 3.47203822e-05
      4.35523289e-05 1.36429910e-04 1.31205365e-04 7.44602512e-05
      2.60787638e-05 8.11178325e-06 8.45069444e-05 1.13914728e-04
      -4.51310189e-05 -9.36037250e-05 -3.72334871e-05 -3.78015611e-05
      -3.70476373e-05 -1.49618490e-05 9.61638398e-06 2.43438499e-05
      -1.02333906e-05 -4.52048007e-05 -5.67519237e-06 -2.41047655e-05
      -1.18487169e-05 -2.21414430e-05 4.93335392e-05 6.32098236e-05
      1.93745218e-05 -4.33181849e-05 -4.10799221e-05 -9.47680007e-07
      2.24339558e-07 1.55566067e-05 5.04963937e-05 7.41803451e-05
      -7.45007055e-05 -2.55075374e-05 6.79277437e-05 7.17905423e-05
      6.75810443e-05 -9.32042042e-07 -6.47961360e-06 1.11247982e-05
      -5.55640472e-05 -1.39261669e-04 -1.23449281e-04 -8.85363625e-05
      5.67153393e-06 -3.38038194e-06 -1.12711368e-05 8.65050533e-05
      2.36295946e-05 7.79981019e-06 3.42260864e-05 1.19638389e-05
      7.72275689e-06 -3.16686201e-05 -1.60584095e-05 7.35469293e-05
      3.58274337e-05 -9.01715757e-05 -1.77649694e-04 -6.30942886e-05
      3.39736471e-05 9.94111251e-05 -1.06498672e-04 -2.34760388e-04
      -1.89030325e-04 -1.18781565e-04 -5.35211875e-05 -6.63113860e-06
      6.57217197e-06 2.98264204e-04 2.99399224e-04 2.85439717e-04
      2.13455016e-04 6.67761269e-05 -1.94080440e-05 -8.34109451e-05
      -1.40860444e-04 2.81525736e-05 2.76478735e-04 2.02561961e-04
      9.70136971e-05 1.43768457e-05 6.81967640e-06 1.87127498e-05
      2.57669180e-05 3.29859286e-05 -7.92865976e-05 -1.25238352e-04
      -2.34842173e-05 5.03648589e-05 -2.72271427e-05 -6.66576016e-05
      -1.08760680e-04 -3.93888695e-05 1.49293643e-04 7.92606370e-05
      5.41980407e-05 6.49762005e-05 -3.94658346e-05 -5.85057642e-05
      -6.22128937e-05 -1.48087820e-05 1.14022245e-04 6.08822629e-05
      7.06478895e-05 -4.21138157e-06 -2.73254973e-05 8.95106496e-05
      2.85753104e-05 4.78360671e-05 -2.16440094e-05 -8.92521202e-05
      -1.87656588e-05 -1.89938655e-05 1.18214757e-05 4.31592562e-05
      1.59384635e-05 -7.86930250e-05 -2.39355995e-05 2.15500745e-06
      2.95454811e-05 3.22380515e-06 2.21690880e-05 8.32834630e-05
      8.39635904e-05 -5.51947232e-05 -6.31587609e-05 6.19897855e-06
      -2.80952863e-05 9.02493048e-06 4.38769894e-05 5.02220337e-06
      5.57102321e-05 3.35997102e-05 -5.42027701e-05 -6.69552974e-05
      1.25966226e-05 -6.10329198e-06 -7.27107399e-05 2.36257129e-05
      2.19055764e-05 -1.02947597e-05 3.52060524e-05 -3.26541012e-05
      -3.27826783e-05 -1.15293024e-05 -9.37364966e-05 -2.07682227e-04
      -8.11613500e-05 2.88048213e-05 -8.11129212e-06 -1.32474361e-05
      -3.73096264e-05 -2.81744815e-05 -1.00059549e-06 -2.12558461e-05
      -6.85985506e-05 -6.75635556e-06 8.38840933e-05 -2.23594770e-06
      2.61484024e-06 6.56993507e-06 -5.50776313e-05 -4.38877578e-05
      -1.52993343e-05 1.32956566e-05 -3.49591101e-05 -8.25207317e-05
      -6.86863277e-05 2.35282514e-05 1.02593607e-04 7.19437594e-05
      -1.21224102e-05 -2.08418187e-05 -2.96165217e-05 -6.46214903e-05
      -6.92089889e-05 -3.49022848e-05 2.31896156e-05 1.82338749e-06
      8.00984435e-06 6.25789908e-05 8.52290177e-05 9.14958946e-05
      2.10608832e-05 2.49643927e-05 -2.61252808e-05 -1.71385527e-05
      -8.25431998e-05 -1.02270351e-04 -4.66050697e-05 -4.06622530e-05
      -1.21529731e-04 -2.44624855e-04 3.21171465e-05 9.79888646e-05
      1.00672929e-04 -2.95265709e-05 -8.26209362e-05 -1.34564849e-04
      -1.03672450e-04 -4.01838697e-05 -8.05617310e-06 1.20374921e-06
      3.02771718e-04 2.96555896e-04 2.11638690e-04 1.68282524e-04
      8.76847407e-05 1.35005957e-05 -3.72099057e-05 -1.00250742e-04
      9.91992129e-05 3.07593000e-04 3.95876879e-04 2.05841396e-04
      3.60752092e-05 2.29655016e-05 2.93518933e-05 4.51491360e-05
      4.02255755e-05 -6.30934883e-05 -1.07840569e-04 -2.01113708e-05
      3.85422827e-05 -4.19713833e-05 -8.72219971e-05 -8.74419857e-05
      -7.85244483e-05 7.15513524e-05 4.96291577e-05 5.43487149e-05
      7.26812214e-05 -1.94709646e-05 -9.01499516e-05 -1.08113316e-04
      -8.10704732e-05 1.00032375e-04 5.68130017e-05 1.95660359e-05
      -6.08830742e-05 -1.80184743e-05 4.99124653e-05 7.58141141e-07
      -2.34977870e-05 1.68583865e-05 8.42683803e-05 9.58082965e-05
      -2.14417687e-05 -2.36764499e-05 3.04781952e-06 1.77465736e-05
      1.99787951e-06 -5.50641380e-05 -1.86627531e-05 -1.67914095e-05
      -4.31304652e-05 2.83088611e-05 1.28307584e-04 7.07690779e-05
      -3.42509702e-05 -8.02652812e-06 -7.01759636e-05 -8.25073039e-06
      -7.38057788e-05 -7.59796312e-05 -4.01432044e-05 -1.10873480e-05
      -4.05492356e-05 -5.89236006e-05 -1.12643211e-04 -1.62421042e-04
      -1.88623249e-04 -1.71313499e-04 -4.35196816e-05 -4.94652377e-05
      -5.88113689e-05 -2.90020307e-05 -1.95842513e-05 4.61443487e-05
      5.29086828e-05 -3.29411014e-05 -5.73685211e-05 -3.89337547e-05
      7.44536919e-06 2.34879117e-05 -3.25882029e-05 -4.88871956e-05
      -3.45928129e-05 -3.66942586e-05 -9.44108760e-05 -7.81179479e-05
      -3.26166664e-05 -4.91692663e-05 -6.68348221e-05 -3.85276035e-05
      -1.18112057e-05 -5.29357203e-05 -6.43906169e-05 -3.01441742e-05
      1.55361613e-05 -1.79008293e-05 -8.58548374e-05 -6.12980803e-05
      1.35995169e-05 9.80082405e-05 1.07956395e-04 1.94837467e-05
      -5.53419195e-05 -3.89077795e-05 -9.57519660e-05 -6.41961451e-05
      1.02271915e-05 -1.81686191e-05 -2.45707270e-05 4.68013459e-05
      5.84079498e-05 1.04015009e-04 1.04132821e-04 5.39217763e-05
      -5.37314481e-05 -4.80758281e-05 -6.95072813e-05 -8.56576735e-05
      -1.04180661e-04 -1.86428544e-04 -1.73761306e-04 -1.04783277e-04
      -2.33611616e-04 -1.37849536e-04 7.12022375e-05 1.00743062e-04
      2.74131580e-05 8.48081108e-05 -8.92170647e-05 -1.90790219e-04
      -8.57738705e-05 -8.21291724e-06 -9.60951866e-07 2.83969013e-04
      1.97818983e-04 1.88157283e-04 1.07061111e-04 -8.01471324e-05
      -1.31721958e-04 -9.75536605e-05 -5.89461597e-05 1.06566418e-04
      1.99268892e-04 1.53429195e-04 7.53780987e-05 3.87740365e-05
      3.41661944e-05 3.15713623e-05 4.15081959e-05 3.64409680e-05
      -3.65090636e-05 -7.71727864e-05 5.84111840e-05 6.61558079e-05
      -3.82713115e-05 -8.36890467e-05 -1.05872445e-04 -1.06169595e-04
      -6.01095689e-06 5.07828991e-05 5.72550198e-06 6.41777879e-05
      8.18402987e-06 -6.63999381e-05 -6.72587630e-05 -9.33366609e-05
      2.75225593e-05 4.99312519e-05 8.25980969e-05 -2.15272230e-05
      -9.95901701e-06 1.31985244e-05 -7.21298566e-05 -4.66283527e-05
      1.54607187e-05 6.44697575e-05 5.33358361e-05 -4.97988149e-05
      -4.27623818e-05 -4.64368131e-05 -6.76581622e-05 3.19291644e-06
      -3.82967919e-05 -8.87347414e-05 -6.15206081e-05 -5.08506964e-05
      4.90376897e-06 4.34574795e-05 -4.60474221e-05 -6.10794959e-05
      -5.88794246e-05 -9.61523692e-05 -2.03731488e-05 -5.74734077e-05
      -1.36509290e-04 -1.00722631e-04 -3.75863892e-05 -1.94829900e-05
      5.28885030e-05 -1.27538215e-06 -5.08458397e-05 -7.70151673e-05
      -7.37821465e-05 -2.01204439e-05 -6.58546996e-05 -1.07431806e-04
      -9.59466197e-05 -6.88853033e-05 -1.91578583e-05 -1.73898807e-05
      -7.71799314e-05 2.68611871e-06 -4.87770449e-05 -3.77510769e-05
      1.28032179e-05 -7.09405649e-05 -1.04405925e-04 -5.87760587e-05
      -4.62919816e-05 -5.35392355e-05 -8.63882742e-05 -1.00080440e-04
      1.19091592e-05 3.70744492e-05 -3.94042763e-06 5.44566774e-06
      -8.25292082e-05 -4.85292621e-05 -3.81509963e-05 -1.22157580e-05
      -4.17638112e-05 -6.93022521e-05 -1.44482416e-04 -6.21363215e-05
      -4.61264572e-05 1.15492337e-04 4.29326974e-05 -4.35470101e-05
      -2.01500661e-05 -7.45979341e-05 -5.06881406e-05 2.17784582e-05
      -9.21039900e-05 -1.26669009e-04 -9.50571211e-06 -1.11860991e-05
      4.85781275e-05 6.11320793e-05 -2.66147890e-05 1.35126784e-05
      -6.18291670e-05 -8.24187955e-05 -1.63778041e-05 -5.81828353e-05
      -1.30973349e-04 -1.51644563e-04 -2.10641447e-04 -2.29041165e-04
      -1.05927305e-04 1.11640120e-05 2.21161517e-05 1.42848185e-05
      -1.68403149e-05 -1.44946185e-04 -2.68916396e-04 -1.05306652e-04
      -9.22580148e-06 1.98621456e-06 4.78320544e-05 -6.39019054e-05
      9.93088761e-05 1.04421815e-05 -2.77388113e-04 -2.68272648e-04
      -9.80792029e-05 5.42400812e-06 7.10412278e-05 9.07413705e-05
      1.63452441e-05 3.96988107e-05 4.21261902e-05 3.88718945e-05
      3.42138410e-05 3.33270473e-05 2.99137755e-05 -3.30423063e-05
      -5.82087996e-05 5.08003614e-05 9.45831707e-05 -7.69924281e-06
      -9.20959210e-05 -1.32233603e-04 -1.07130436e-04 7.36282846e-06
      3.34560100e-05 4.83890062e-06 1.83331540e-05 -4.96932125e-06
      1.34554546e-06 3.73294861e-05 -5.27786005e-06 -5.32399863e-05
      -3.00351985e-06 6.32266674e-05 6.80159355e-05 7.73434367e-05
      2.39499605e-05 -1.96859710e-05 -3.89120723e-05 -1.20172826e-05
      3.49731854e-05 3.62380415e-05 1.94285767e-05 -6.49621188e-06
      -8.44631140e-05 -3.67802531e-05 -1.03364873e-05 -6.21468644e-05
      -6.31522780e-05 -6.69399888e-05 -9.58289893e-05 -8.03792573e-05
      -5.42060661e-05 -1.08492837e-04 -8.46692419e-05 -1.15109884e-04
      -1.09620101e-04 1.67720973e-05 -6.76899581e-05 -8.54277750e-05
      -6.20408900e-05 -5.80719279e-05 -3.00603588e-05 7.31898690e-05
      1.97443242e-05 4.30796063e-05 -6.94086848e-05 -9.76335286e-05
      5.56330679e-06 -3.35812219e-05 -3.74273732e-05 -1.00576020e-04
      -1.05344079e-04 -2.00551422e-05 -6.65111975e-06 -1.37687486e-04
      -4.28551939e-05 -4.63160977e-05 -5.88566363e-05 -6.74752591e-05
      -5.65411319e-05 -2.16884528e-05 -5.12912356e-06 -4.22587509e-05
      -1.68434271e-05 -6.00202429e-06 -7.88556135e-05 1.19306769e-05
      -3.89115376e-05 -6.96421848e-05 -9.98308606e-05 -5.08801386e-05
      2.06918266e-05 4.30642831e-06 -1.23533607e-06 1.41595165e-05
      -6.22646039e-05 -1.03847560e-04 -3.27730522e-05 1.35237206e-05
      1.23529062e-05 3.19672872e-05 -4.78884685e-05 -4.19073258e-05
      -1.01486512e-05 2.53545768e-05 5.74540791e-05 -8.10917263e-05
      -8.77875646e-05 -3.47745809e-05 -3.21541556e-05 5.34036299e-05
      -2.74345020e-05 -5.83972142e-05 -1.23195505e-05 1.09679077e-05
      -3.78145196e-05 -1.23854152e-05 -2.44448274e-05 -3.92898619e-05
      -1.38357223e-04 -1.21909201e-04 -2.14115775e-04 -1.52442299e-04
      -1.92797397e-05 3.29866380e-05 1.13951410e-05 7.76651359e-05
      7.89990372e-06 -1.19845186e-04 -9.75412258e-05 -1.35496130e-05
      -3.83201768e-06 -2.32691571e-04 -2.01423900e-04 -1.79679933e-04
      -2.38552442e-04 -3.56960722e-04 -1.83753597e-04 4.06691761e-05
      1.27894818e-04 6.72666938e-05 4.65507474e-05 6.16222096e-05
      5.17683002e-05 3.79691264e-05 3.39417056e-05 3.08127710e-05
      3.66532986e-05 3.38426289e-05 -4.89201811e-05 -9.29228554e-05
      6.82203972e-05 1.58395051e-04 3.16555379e-05 -5.24737443e-05
      -4.25178696e-05 -1.12933676e-05 1.47225219e-05 2.90165353e-05
      -5.24334155e-06 -6.11405767e-06 1.48375839e-05 1.35179682e-04
      3.20099149e-04 1.90561623e-04 7.08145380e-05 -3.04768000e-05
      4.00988902e-05 3.45655462e-05 8.12067883e-05 8.58592466e-05
      -1.50241976e-05 -7.19773234e-05 -6.62449311e-05 5.07866644e-05
      7.40779942e-05 -2.75295515e-05 -5.28591081e-05 -1.90668245e-04
      -1.18175820e-04 1.83133252e-05 -3.43173233e-05 -8.68354837e-05
      -6.90266970e-05 -6.03741028e-05 -5.05355238e-05 -1.67020371e-05
      -6.89171939e-05 -3.45974404e-05 -4.19574790e-05 -4.68077706e-05
      -1.34107613e-05 -5.41410991e-05 -6.64935651e-05 -9.02384927e-05
      -1.39652140e-04 -4.80798262e-05 2.68707845e-05 -2.60002844e-06
      -2.30683963e-05 -1.14923001e-04 -3.64131738e-05 -4.75231100e-05
      -1.20240882e-04 -5.35032486e-05 -3.53944415e-05 -2.44081639e-05
      2.52331956e-05 -4.98126319e-05 -9.39866254e-07 2.81535122e-05
      -4.32204506e-05 -5.83556539e-05 -2.03745985e-05 6.47734169e-06
      -2.56194598e-05 -1.41116261e-05 -5.93455552e-05 1.83462926e-05
      6.03971275e-05 1.21315918e-06 -7.70722836e-05 -1.49439860e-04
      -5.16771070e-05 -4.65732455e-06 2.04751850e-05 -1.06897805e-05
      -5.77877545e-05 4.15315226e-05 8.90440278e-05 -1.44170031e-06
      1.46061066e-05 4.14928945e-05 -2.37607801e-05 -3.61478283e-06
      1.74210109e-05 2.07914691e-05 2.97730603e-05 1.02848880e-05
      5.82615176e-05 1.50785068e-04 5.84927511e-05 2.44036510e-05
      -2.91064807e-05 8.71303382e-06 5.67770840e-05 6.74814783e-06
      -3.79698904e-05 -7.42721240e-05 3.35687946e-05 1.50950073e-04
      9.75017829e-05 5.13083796e-05 -4.43969548e-05 -1.60256182e-04
      -9.34240888e-05 -2.02217023e-04 -1.41952100e-04 5.35335275e-05
      8.51079021e-05 -2.58349319e-05 -4.35146430e-05 -1.12714442e-04
      -1.42294317e-04 -9.97335228e-05 -1.36850103e-05 2.58018713e-06
      -5.82568813e-04 -4.55095142e-04 -3.00914893e-04 -1.91500643e-04
      -2.05793869e-04 -2.18319328e-05 1.76388974e-04 1.69437772e-04
      4.16900984e-05 3.74400915e-05 5.33936909e-05 3.38165337e-05
      3.44214495e-05 3.14581921e-05 3.68915498e-05 3.37781748e-05
      3.42979147e-05 -5.91883982e-05 -1.20064513e-04 3.42250974e-06
      1.36025104e-04 1.00707759e-04 3.08393392e-05 -2.18868336e-05
      -1.14037211e-05 6.60354854e-05 6.42033337e-05 4.87937405e-06
      -2.15188520e-05 -3.11450131e-05 3.52633069e-05 7.27067600e-05
      3.42120766e-04 1.84935052e-04 -2.29814959e-05 3.04214450e-06
      1.83619977e-05 6.94507207e-06 3.48428584e-05 3.41516570e-05
      -2.80811928e-05 -2.97400220e-05 9.40624086e-05 1.09941298e-04
      -2.31807317e-05 3.16884289e-05 2.73016558e-05 -1.80112511e-05
      1.71904333e-06 -7.63831213e-06 -3.53107898e-05 4.38589086e-06
      -1.03193037e-04 -1.23814636e-04 8.64551794e-07 -3.63983672e-05
      4.43321442e-05 8.72893506e-05 9.20178900e-06 -3.16346086e-05
      -6.21500440e-05 -4.14181595e-05 -2.50255380e-05 -9.81240373e-05
      -9.40546015e-05 6.47239212e-05 4.56468515e-05 2.17781017e-05
      1.14860250e-05 1.99997230e-05 -6.51271039e-05 -4.16486073e-05
      8.46890816e-06 4.76476853e-05 -6.02100190e-05 -1.00615820e-04
      -9.26717348e-06 3.45240078e-05 1.35649709e-04 4.97252113e-05
      3.96920077e-05 2.81545363e-05 1.14002560e-05 -3.99331620e-05
      1.89371640e-05 -9.63553175e-05 -5.46733281e-05 3.85700114e-05
      3.92506736e-05 -9.49084915e-06 -7.97834073e-05 3.16139813e-05
      1.39546828e-05 3.56747987e-05 6.77509661e-06 -2.10803883e-05
      4.23608835e-05 1.09551598e-04 5.35382105e-06 8.68263596e-05
      1.11419708e-04 1.19783454e-05 -2.32657094e-05 -4.19561002e-06
      -5.31794603e-06 5.89328447e-05 -1.91028703e-05 -1.54270729e-05
      2.80885470e-05 4.41730299e-05 -1.78113823e-05 -5.87622962e-05
      -8.52232006e-06 -3.62573737e-05 -6.33910749e-05 -6.14600649e-05
      -6.65171319e-06 2.32570183e-05 2.71823810e-04 2.72756442e-04
      1.32047848e-04 -2.93296980e-05 -2.06338314e-04 -2.42663897e-04
      -2.76025501e-04 -1.53999092e-04 -2.55618834e-05 3.55426018e-05
      -1.27831416e-04 -1.12716931e-04 -3.95211646e-05 -7.91801285e-05
      -8.08098775e-05 -5.14103385e-06 -3.54139252e-06 -4.19586315e-04
      -2.65964714e-04 -6.92055182e-05 -1.07327287e-04 -8.74569232e-05
      7.20066237e-05 1.29934895e-04 5.40497385e-05 4.26089791e-05
      5.06002762e-05 5.18596644e-05 3.63628242e-05 3.08503732e-05
      3.61806815e-05 3.59784426e-05 3.64318475e-05 3.43955107e-05
      -2.98424820e-05 -1.15103816e-04 -6.18042759e-05 1.79258292e-04
      1.77286624e-04 6.90119632e-05 3.05692047e-05 7.87643421e-06
      6.49034773e-05 6.95494018e-05 1.95326829e-05 3.35000441e-05
      -1.66463849e-06 -4.93552216e-05 -5.04707714e-05 1.08714608e-04
      1.32358735e-04 1.65833553e-05 1.28055268e-04 1.31073597e-04
      1.08250810e-04 1.09450237e-04 -1.84810360e-05 2.97569677e-05
      -4.58286340e-05 9.82385586e-07 6.05894747e-05 4.27296015e-07
      4.03988670e-05 6.76795462e-05 8.95033081e-05 5.96593509e-06
      -3.42341918e-05 -3.80275997e-05 4.03684055e-07 -4.29688153e-05
      -6.14173332e-05 -3.04418209e-05 1.97844947e-05 9.71742702e-05
      4.58884097e-05 7.99527788e-06 7.63193384e-06 -1.43353454e-05
      4.09920467e-05 7.04557606e-05 -2.09730479e-05 -7.08289663e-05
      -2.34727868e-05 -2.39574001e-06 8.38783089e-05 5.92276047e-05
      1.86164671e-05 1.16929850e-05 2.70551591e-05 8.76107733e-05
      8.70930598e-05 -3.76169628e-05 -3.16958503e-05 -2.01741859e-05
      -7.19316886e-05 -4.86641875e-05 1.83132834e-05 2.66087372e-05
      -1.37949046e-05 -9.48587967e-06 2.19701928e-06 4.93041152e-05
      4.83481881e-06 -4.04242637e-05 -2.68861950e-05 1.00973637e-04
      1.55551927e-04 1.01566293e-05 -3.72329623e-06 -2.05219803e-05
      3.21231491e-05 6.81236052e-05 3.95761126e-05 -3.40590705e-05
      3.39200665e-06 6.14682449e-06 1.45564154e-05 6.35752804e-05
      -5.82107132e-05 -7.03055994e-05 -1.91791787e-05 2.82169058e-05
      7.32711705e-05 -3.60137437e-06 -1.12368354e-04 -6.40051148e-05
      4.37676790e-05 6.01294369e-06 -8.08385230e-05 4.82573159e-06
      -6.37062931e-06 5.98847646e-06 3.67641078e-05 3.39037870e-05
      1.59925294e-05 1.81626547e-05 1.10943765e-04 8.56235129e-05
      -1.54433801e-05 -8.38413907e-05 -1.60522759e-04 -2.47286807e-04
      -1.90015766e-04 -2.56626390e-05 1.78938917e-05 -7.45575817e-05
      -7.17800285e-05 -5.05441349e-05 -7.33160487e-05 -4.61863310e-05
      -1.22343217e-05 -1.15463865e-06 -2.37484142e-04 -8.45923569e-05
      4.61755481e-05 -2.39002907e-06 4.70488544e-07 9.61580081e-05
      5.59189975e-05 4.06351719e-05 4.01715079e-05 4.97993133e-05
      4.73148721e-05 3.76947828e-05 3.27342714e-05 3.36291087e-05
      3.40916631e-05 3.59904516e-05 3.41205414e-05 2.56256099e-05
      -1.97482223e-05 -1.34838701e-05 1.30695538e-04 1.81885960e-04
      1.08736509e-04 6.08297014e-05 3.51495401e-05 6.90082161e-05
      4.49198888e-05 4.89565209e-05 6.02912696e-05 1.64775292e-06
      2.40332497e-06 -9.65180425e-06 1.23899852e-04 2.18373752e-04
      1.87087484e-04 2.79971282e-04 1.05288615e-04 5.73531761e-05
      2.41275251e-04 1.53692799e-05 -3.94663293e-05 -2.82940182e-05
      3.07929149e-05 5.58729153e-05 -1.92753159e-05 -1.46393344e-04
      -1.34253889e-04 6.01778993e-05 1.44141177e-05 1.66582613e-05
      -6.48889272e-06 9.46542496e-05 8.93190372e-05 2.52575519e-05
      -4.41296652e-05 3.76014104e-05 8.66123664e-05 1.38518635e-05
      -1.10253104e-05 -3.04319910e-05 -7.97742614e-05 -1.12850466e-04
      -4.46675003e-05 -3.01433738e-05 2.02106435e-06 -7.84638178e-06
      -9.87026506e-05 -6.79750156e-05 -9.05179113e-05 -2.01044695e-05
      -3.23879467e-05 -5.15029978e-06 3.88233238e-05 5.63026115e-05
      9.27368455e-06 7.53347704e-05 1.94488912e-05 -3.87082837e-05
      -4.32471534e-05 -1.82891799e-05 -9.43769828e-06 -2.11313709e-05
      1.96235869e-05 3.63355684e-05 6.69836809e-05 3.44215027e-06
      -1.33158219e-05 4.36450027e-05 1.04842882e-04 6.88502187e-05
      3.96333053e-05 2.11096376e-05 8.68493516e-05 1.85600002e-04
      2.06183468e-04 1.25131890e-04 1.12641947e-05 2.22212420e-05
      7.06159990e-05 4.10199791e-05 5.14767671e-05 1.67473307e-04
      1.42571589e-04 1.87248326e-04 1.31608205e-04 1.17035263e-04
      6.00388012e-05 8.91687978e-06 1.59122264e-05 1.26014465e-05
      8.78225401e-05 7.61192859e-05 8.60544387e-05 1.73840104e-04
      1.65855337e-04 4.46983222e-06 -4.97834080e-05 4.14772967e-06
      -1.09604315e-07 2.81647208e-05 1.57210699e-04 7.16778086e-05
      1.95371140e-05 -5.51658559e-05 -1.24644284e-04 -1.01030346e-04
      5.16210457e-05 5.66157432e-05 3.55886441e-05 8.50958386e-05
      1.33540125e-05 -3.60406084e-05 -3.39236103e-05 -4.11626888e-06
      1.93030971e-07 -8.07058968e-05 7.70542101e-05 2.43936578e-04
      8.91835298e-05 3.49215611e-06 -2.76007950e-06 5.55542138e-05
      1.35498094e-05 2.63162965e-05 3.68376386e-05 3.79891389e-05
      3.70454945e-05 3.54757722e-05 3.54790864e-05 3.41998784e-05
      3.51729250e-05 3.49081347e-05 3.56890450e-05 3.11354888e-05
      3.36370686e-05 5.37585074e-05 1.38010219e-04 1.94031789e-04
      1.62038748e-04 1.63929159e-04 1.09526729e-04 7.83940704e-05
      5.70557931e-05 7.58362439e-05 2.77985109e-05 -1.08187287e-05
      7.04477725e-06 1.77009642e-04 2.94709520e-04 2.33665254e-04
      1.16473653e-04 -9.86087107e-05 -1.38250383e-04 8.22483435e-06
      5.15058164e-05 1.42028239e-05 3.45389453e-05 6.96264688e-05
      7.72784842e-05 -3.89372690e-06 -1.18999815e-04 -1.60600262e-04
      3.27554662e-05 6.15074096e-05 7.85376415e-06 -8.08593632e-06
      1.39768899e-05 6.79608565e-05 -2.07839116e-06 -5.49752476e-05
      -7.93226536e-06 -4.93450498e-05 -1.16999858e-04 -1.20170123e-04
      -7.35021240e-05 -2.32554939e-05 -6.89813751e-05 -2.42842125e-05
      -9.83322570e-06 2.11100196e-05 1.85273529e-05 -6.80006997e-06
      -2.35493935e-05 3.26614245e-05 2.54075712e-05 -7.34505156e-05
      -1.13065158e-04 -7.26574508e-05 -5.26473232e-05 -3.66536442e-05
      3.93501250e-05 -2.94617839e-05 -1.33463973e-05 8.39953918e-06
      -1.31489578e-05 2.50110497e-06 3.90230598e-05 -7.68487644e-06
      -9.20515522e-05 -4.22772500e-05 -1.85033969e-05 -1.82511303e-05
      1.85571917e-05 1.64021731e-05 1.55735488e-05 -1.42927784e-05
      -3.36234152e-05 3.01759665e-05 1.30887478e-04 1.37712137e-04
      7.26894868e-05 1.89114198e-05 2.62835601e-05 2.63658294e-05
      1.98583748e-05 5.77923711e-05 1.76395726e-04 2.20377871e-04
      2.29198093e-04 1.05334060e-04 5.39515786e-05 4.24885147e-05
      1.98844318e-05 2.32723469e-05 3.56834571e-05 4.98518202e-05
      4.21226359e-05 4.42406417e-05 8.01803471e-05 1.06584739e-04
      1.34138872e-05 -5.23390518e-05 1.61023709e-05 3.98508928e-05
      3.01724667e-05 6.76160562e-05 1.46406601e-04 7.59074901e-05
      -1.26340601e-04 -2.30906808e-04 -8.16239117e-05 5.92924698e-05
      4.66807105e-05 5.75123304e-05 1.11717840e-04 -4.31932167e-05
      -6.86083440e-05 -2.28574372e-05 -1.36559527e-06 2.21171626e-06
      5.51441690e-06 6.05449495e-05 1.29895649e-04 4.22843877e-05
      -3.34594879e-05 3.26141526e-05 4.03410522e-05 3.53508549e-05
      3.52863462e-05 3.61547645e-05 3.59596670e-05 3.39047438e-05
      3.45677072e-05 3.49294751e-05 3.47450004e-05 3.54841941e-05
      3.52193820e-05 3.43611136e-05 3.61162456e-05 3.46359266e-05
      3.38776044e-05 5.26912590e-05 8.01932256e-05 1.40636927e-04
      1.18855438e-04 1.17439944e-04 9.88291140e-05 6.29098431e-05
      5.64233815e-05 3.75105374e-05 -3.08396047e-05 3.71294227e-05
      2.38145527e-04 2.84323090e-04 1.80734831e-04 4.66622114e-05
      -1.01862759e-04 -9.93109788e-05 -2.47579246e-05 2.14265083e-06
      -3.03966517e-05 -4.97986366e-05 -2.75067541e-05 -2.94423917e-05
      -3.33697717e-05 -2.22456729e-05 -9.13429976e-05 -7.74251293e-06
      2.07561661e-05 -3.54658769e-05 -9.34480850e-05 -5.96936916e-05
      -1.17554100e-05 -3.87990076e-06 -2.75081093e-05 -5.04020027e-05
      -3.77728211e-05 -5.49563556e-05 -8.79202344e-05 -1.12128873e-04
      -6.15418467e-05 -2.15613836e-05 3.39817143e-06 -2.59905082e-05
      -1.11495647e-05 1.20625718e-05 6.17789567e-07 1.58983112e-05
      7.99501649e-05 6.72908791e-05 -7.20396838e-06 -4.69190991e-06
      -9.86365194e-06 -5.93134791e-05 -3.27724883e-05 -2.76619653e-06
      -4.28810654e-06 -8.40486337e-06 -6.74265357e-06 -3.55438024e-05
      -5.00441674e-05 -1.24708286e-05 -1.88032354e-05 -2.19220692e-05
      -4.43319368e-06 -1.65017118e-05 -3.62527635e-06 3.99047167e-05
      4.63671859e-05 4.25057988e-05 4.51447413e-05 4.20725519e-05
      3.00498632e-05 2.12470204e-05 2.29067009e-05 3.62546270e-05
      3.96813593e-05 4.22776866e-05 4.42408309e-05 4.56495582e-05
      3.10835749e-05 3.22348424e-05 7.09487358e-05 9.40977552e-05
      5.83051915e-05 3.77161305e-05 3.87543623e-05 2.57041229e-05
      3.06407601e-05 2.81241682e-05 3.44973996e-05 3.83079787e-05
      3.81741702e-05 -6.19799812e-06 -7.11009534e-07 -3.41529653e-06
      -3.14473004e-06 1.75470650e-05 3.10335745e-05 4.05655883e-05
      5.94768644e-05 6.91544556e-05 5.07808363e-05 -9.23610060e-05
      -8.80828957e-05 -3.16648693e-05 7.34057758e-05 -2.30227300e-07
      5.63527428e-05 5.30906364e-05 -1.15970892e-04 -8.16133033e-05
      -9.44262592e-06 -2.86620048e-06 -1.57878776e-06 3.50283917e-05
      -5.45093462e-06 1.28010197e-05 1.34052780e-05 3.45069129e-05
      3.65315645e-05 3.33513490e-05 3.63026811e-05 3.45691442e-05
      3.53090873e-05 3.47654859e-05 3.45674125e-05 3.47583555e-05
      3.50028895e-05 3.58120160e-05 3.47973910e-05 3.36090161e-05
      3.53135147e-05 3.55207485e-05 3.52593706e-05 3.61157654e-05
      3.48876310e-05 3.60036538e-05 5.55686311e-05 7.57218513e-05
      8.75869955e-05 6.05804380e-05 4.74952503e-05 5.81624736e-05
      2.86640952e-05 -6.00626754e-06 4.98914269e-05 1.15945433e-04
      1.32799512e-04 8.38050546e-05 4.25585240e-05 1.66504033e-05
      2.35562056e-05 3.52751049e-05 2.80558888e-05 -2.83740928e-06
      -9.69686698e-06 -3.61101002e-06 -3.49837228e-06 -9.76636056e-06
      1.08162044e-06 -1.21491084e-05 -1.42182234e-05 2.69869702e-06
      -9.45711145e-06 -1.59196588e-05 1.15593514e-06 1.17092775e-07
      4.65316953e-06 -4.08799997e-06 2.58112050e-06 -5.03961064e-06
      -6.36313462e-06 -5.14060412e-06 -1.16093479e-05 -1.51197291e-05
      -7.93450909e-06 -4.03614331e-06 -1.77428660e-06 2.01577404e-06
      2.12459418e-06 3.67578582e-06 4.21434524e-05 4.47352759e-05
      4.52561071e-05 3.62104838e-05 4.41286866e-05 4.12433110e-05
      -4.91731498e-06 -1.69567249e-06 -1.66869449e-06 2.42713691e-06
      1.30448086e-06 2.60113347e-06 2.36585902e-06 2.69600264e-06
      4.19394496e-07 -3.93992104e-06 1.40487055e-06 3.44227783e-06
      8.95304652e-07 3.75233890e-06 4.64710465e-05 4.68810358e-05
      5.02922776e-05 4.74814697e-05 4.71373642e-05 4.60600022e-05
      5.10489626e-05 4.46956074e-05 4.39708856e-05 4.85363635e-05
      4.49845757e-05 4.26162806e-05 4.69341176e-05 3.37123274e-05
      2.36875640e-05 3.16333462e-05 2.84430062e-05 2.89381533e-05
      3.39884100e-05 3.92893089e-05 2.19713547e-06 1.67240808e-06
      6.23836831e-06 1.44916194e-05 1.60232703e-05 1.59341107e-05
      -1.35521668e-06 -1.55512657e-06 -3.32984996e-07 9.70165530e-08
      1.56482326e-06 4.88458227e-06 3.13548444e-05 5.17284570e-05
      6.24063759e-05 -5.19893547e-06 -2.45872179e-05 -1.70506391e-04
      -1.15297415e-04 -1.44135638e-05 -2.93978555e-05 7.49218202e-07
      3.93158552e-05 -2.52075642e-05 -4.11228866e-05 -8.29893088e-06
      6.53233474e-06 -2.80586892e-06 4.86173594e-05 4.53747925e-05
      4.26271617e-05 4.37598756e-05 3.24068278e-05 3.43907050e-05
      3.27079833e-05 2.96524813e-05 3.55133052e-05 3.44218788e-05
      3.41931773e-05 3.58091347e-05 3.33581957e-05 3.48298854e-05
      3.37527199e-05 3.53061587e-05 3.64425032e-05 3.50730443e-05
      3.48038702e-05 3.41783780e-05 3.33457610e-05 3.13827804e-05
      2.81784560e-05 3.20423205e-05 4.48160099e-05 5.37276428e-05
      5.14022831e-05 6.54978139e-05 6.98373769e-05 4.06467916e-05
      2.63174370e-05 3.49284273e-05 1.15088580e-04 1.11988527e-04
      9.98791656e-05 5.27600096e-05 4.94200904e-05 4.93773114e-05
      5.31982878e-05 3.91621761e-05 2.13822168e-05 1.66264308e-05
      4.75673141e-06 5.87115710e-06 5.63784715e-06 7.01293629e-07
      4.10310577e-06 3.89837714e-06 2.73466071e-06 9.13115400e-07
      1.02480890e-05 7.07040863e-06 2.88084607e-06 -2.50744961e-07
      -1.57021532e-06 -2.70606665e-06 -4.98912186e-06 -2.65544463e-06
      5.57546969e-07 -3.65428718e-06 -1.93398091e-06 -8.06501930e-07
      2.14983197e-06 8.37701555e-06 6.21281242e-06 -5.94373432e-07
      1.10723863e-06 4.05593200e-05 4.26463848e-05 4.46141785e-05
      4.22896628e-05 4.08859378e-05 4.30390464e-05 2.50381436e-05
      -4.50149059e-07 1.13314400e-06 1.07535266e-06 -6.43760757e-07
      -7.25004043e-07 6.25115763e-06 3.34799302e-06 2.85685337e-06
      5.22885671e-07 7.36726315e-06 8.24022027e-06 4.74506169e-06
      1.99027818e-06 4.69493643e-05 4.55947666e-05 4.23933379e-05
      4.54093570e-05 4.94312444e-05 4.63898323e-05 4.65537996e-05
      4.54339788e-05 2.26924294e-05 1.88720478e-05 2.10065700e-05
      3.02433054e-05 3.64201769e-05 1.57297036e-05 6.61462536e-06
      2.22034168e-06 2.75600996e-06 5.70822658e-06 1.03887842e-05
      1.16389710e-05 8.62516814e-08 -3.45844967e-07 -9.14770453e-07
      2.15574028e-06 -1.50175788e-06 -9.09633400e-07 1.32693310e-06
      3.80544202e-06 9.61266437e-07 -1.26847283e-06 -1.21681171e-06
      2.50501625e-06 1.98009693e-05 4.55668705e-05 4.89199738e-05
      1.29599021e-05 8.72236251e-06 -1.94282784e-05 -5.93066652e-05
      3.15644211e-05 2.71115769e-05 1.34493102e-05 1.05752260e-05
      -6.36517580e-05 -8.24442395e-05 -1.29685550e-05 -2.22114863e-06
      2.20563820e-07 3.99795244e-05 4.50488697e-05 4.28925268e-05
      3.90709174e-05 3.89999623e-05 3.50556438e-05 3.65070773e-05
      3.46472261e-05 2.78151892e-05 2.18040404e-05 2.02432839e-05
      1.65028505e-05 2.13021849e-05 2.88454830e-05 3.56665951e-05
      3.23896493e-05 2.82156980e-05 2.53368580e-05 2.20588317e-05
      2.10860562e-05 1.71129886e-05 1.25594379e-05 8.67533527e-06
      9.17352190e-06 1.95412831e-05 4.43136050e-05 3.77981087e-05
      4.82412252e-05 7.28076338e-05 5.18298148e-05 3.35324876e-05
      4.64987279e-05 5.12718871e-05 9.44947969e-05 1.01222613e-04
      8.52438825e-05 4.30639629e-05 4.16474722e-05 5.41175577e-05
      5.77856736e-05 4.77505091e-05 1.94817476e-05 2.72874672e-06
      6.67355971e-06 7.78094818e-06 7.26014741e-06 3.16528508e-06
      3.93724167e-06 1.17155432e-05 4.80680092e-06 6.22241896e-06
      7.80803202e-06 6.75463980e-06 3.77011588e-06 4.19961765e-07
      3.89425304e-06 3.33659386e-07 1.04453271e-07 -1.52524467e-06
      -1.03441232e-06 1.22439161e-07 3.82158532e-06 -3.82993306e-07
      -1.66921313e-06 -2.44648959e-06 6.08533469e-07 6.67424047e-07
      4.10676184e-05 4.51804590e-05 4.47605671e-05 4.39273135e-05
      4.23966703e-05 4.24130267e-05 3.10497417e-05 1.34433117e-06
      -5.69595784e-07 1.92943185e-06 4.73169121e-06 1.18452135e-06
      4.29668989e-06 4.73115415e-06 2.96270036e-06 4.69232464e-06
      2.96688609e-06 2.44072612e-06 2.72074976e-06 1.20176242e-06
      4.96117136e-05 5.20936592e-05 2.83189347e-05 1.56103233e-05
      2.41097678e-05 2.39933579e-05 2.64967275e-05 3.05712165e-05
      6.38420943e-06 -8.05964874e-07 -9.25791710e-07 4.14414671e-06
      8.74685247e-06 5.39796065e-06 4.44080524e-06 3.13400528e-06
      -9.17303566e-07 1.22322234e-07 -1.01193530e-06 -1.41545343e-06
      1.15175692e-06 2.32690894e-07 2.38827170e-06 6.50899210e-07
      2.23454677e-08 -1.72004388e-06 -5.39530674e-07 -4.34027243e-07
      -6.90514014e-07 -1.19573315e-06 3.60034676e-07 3.88897888e-06
      8.54575774e-06 3.28616043e-05 5.22420196e-05 6.65429907e-05
      1.10542162e-04 7.68081591e-05 7.42776101e-05 4.85111559e-05
      3.76152275e-05 -4.64784971e-05 3.06210641e-05 1.45677222e-05
      -1.49970374e-05 -1.24550279e-05 4.18733907e-06 1.43396937e-06
      3.54681579e-05 3.37507081e-05 4.08827145e-05 4.58546638e-05
      2.94274942e-05 1.72824239e-05 1.89460989e-05 8.90174852e-06
      6.61918375e-06 4.82228234e-06 4.30348018e-06 7.45902435e-06
      1.42068229e-05 1.67444723e-05 1.89578896e-05 1.40910779e-05
      9.82723304e-06 8.84654673e-06 6.36629466e-06 4.33526202e-06
      5.64171205e-06 2.64063328e-06 1.85988668e-07 7.11125040e-07
      3.18095135e-06 9.73759234e-06 3.84364648e-06 8.59523789e-06
      2.55100585e-05 2.72831257e-05 4.79921509e-05 4.25422004e-05
      4.00529425e-05 7.00609307e-05 1.14027891e-04 7.57973030e-05
      2.33230039e-05 3.46316592e-05 5.18098823e-05 5.85762464e-05
      5.14227213e-05 4.35212642e-05 2.95929567e-05 2.15495584e-05
      9.11404823e-06 4.32059915e-06 5.15335569e-06 5.58253623e-06
      1.42568376e-06 1.19803644e-06 8.91161017e-06 1.48216595e-05
      4.64282539e-06 -2.53540009e-07 1.40619068e-06 7.60371449e-07
      -6.42855230e-06 2.13076555e-06 4.45364812e-08 6.07700895e-06
      5.22022037e-06 -1.44077376e-06 -1.42789986e-06 5.36216760e-07
      -1.17119430e-06 1.01631622e-06 2.75942261e-06 3.95272837e-05
      4.19378048e-05 4.11126966e-05 4.22969788e-05 4.03282538e-05
      4.71938583e-05 2.92844124e-05 1.64001642e-06 5.47767377e-06
      1.96895462e-06 1.94299514e-06 3.88502849e-06 2.14845795e-06
      6.79916229e-06 2.46976310e-06 4.85298142e-06 3.04056630e-06
      4.18725540e-06 8.57346731e-06 4.34142885e-06 4.68951257e-05
      3.79971643e-05 1.76237754e-05 6.74990588e-06 8.95476148e-07
      -3.20512811e-07 -1.42235558e-06 2.84572343e-06 7.84250631e-07
      1.29853652e-06 5.06205379e-06 4.29580996e-06 5.20161075e-06
      4.87786974e-06 1.63370282e-06 2.79101869e-06 -7.22538175e-07
      1.79156785e-07 -7.61379965e-07 -3.27013936e-07 -4.02928976e-07
      7.18513434e-07 1.27147507e-06 -2.14139300e-06 1.99619444e-06
      1.93705546e-07 1.65169342e-06 3.32567112e-07 -1.31997808e-07
      4.01335626e-07 3.05301705e-06 7.67405436e-06 8.31579109e-06
      2.96249946e-05 3.34950528e-05 2.51686433e-05 5.59819528e-05
      2.49859022e-05 -2.04829903e-05 3.33154640e-05 -4.19505595e-05
      -1.13393151e-04 3.52573988e-05 4.66904858e-05 -6.92827962e-05
      -9.02848569e-06 -1.74979550e-06 -2.40714229e-07 1.75308378e-05
      2.29805373e-05 2.15575419e-05 2.11376191e-05 1.33917738e-05
      3.38828977e-06 4.94673986e-06 9.34354830e-06 1.40830389e-05
      2.17631496e-05 6.06947197e-06 2.54066563e-05 1.63573532e-05
      2.71019362e-05 3.30978291e-05 3.37935999e-05 2.02385927e-05
      5.96128075e-06 3.86883903e-06 1.97327790e-06 -2.14499423e-07
      3.88671054e-07 9.82182314e-07 3.33016658e-07 9.80023060e-07
      1.28470958e-06 1.31204229e-06 1.69909049e-06 1.01039004e-05
      3.10831456e-05 3.04495588e-05 3.87469045e-05 4.67295067e-05
      4.14248316e-05 9.36259385e-05 9.78582539e-05 5.22523660e-05
      5.12231600e-05 5.01435643e-05 5.37571868e-05 5.97289545e-05
      5.42531270e-05 5.19308742e-05 4.83590738e-05 1.91169111e-05
      2.57681745e-06 -2.18042800e-07 5.45404328e-06 4.24589189e-06
      1.91485037e-06 2.21963546e-05 3.56138989e-05 1.10513483e-05
      3.09031884e-06 1.16199226e-05 -6.74065404e-07 1.36178755e-06
      5.11141343e-06 -2.02599517e-06 -3.28140027e-06 4.25421149e-07
      -1.04707146e-06 -1.02055367e-06 6.14229805e-07 -1.00872512e-06
      -1.47135370e-06 -2.01659100e-06 4.16564108e-05 4.57831193e-05
      4.18918717e-05 2.62907961e-05 2.23727438e-05 4.11207257e-05
      1.88532540e-05 1.37108736e-06 1.68137490e-06 1.13752787e-06
      1.35509720e-06 5.52096526e-06 2.51701886e-06 1.08474580e-06
      7.57509952e-06 3.79376388e-06 3.93963273e-06 1.85569809e-06
      3.74718161e-06 6.86033445e-06 4.85570890e-05 2.94597703e-05
      3.39923963e-06 1.09271730e-06 -5.83391852e-07 1.77519439e-06
      5.77546643e-07 -8.57733994e-07 4.48498395e-06 2.42313627e-06
      3.22544884e-06 4.29947841e-06 3.14354156e-06 3.69655118e-06
      -1.35715311e-06 -1.12173029e-06 4.52778750e-06 1.91317184e-07
      -3.90069943e-07 -1.28614388e-07 3.02332865e-07 -1.19996628e-07
      2.95526843e-06 -6.84056431e-07 1.04070352e-06 4.54681003e-06
      -5.38784434e-07 -4.44482851e-07 -1.01747912e-06 2.54472843e-06
      3.93238406e-06 5.90022773e-06 1.36611434e-05 3.38931532e-05
      2.91315228e-05 -4.83614022e-05 -1.09773639e-04 4.15970717e-05
      2.82953788e-05 2.08149891e-06 -3.98872471e-05 -1.79539638e-04
      3.23937384e-05 1.41654993e-04 3.36821649e-05 -1.02046833e-05
      -3.39442181e-06 -5.86525175e-07 2.80765598e-05 1.36617336e-05
      1.97914414e-05 1.59978827e-05 2.45219744e-05 3.93889932e-05
      2.95905229e-05 3.96983778e-05 2.59127428e-05 -1.72735345e-05
      -5.85148200e-06 -8.42056863e-07 -1.01817159e-05 -1.68956594e-05
      1.06253065e-05 4.04185848e-05 1.86337020e-05 3.03865090e-05
      4.65168250e-06 -6.72760052e-06 -7.66428570e-07 7.35093522e-07
      -6.97998104e-08 1.82379026e-07 1.27406656e-06 9.04396529e-07
      -1.38579779e-07 7.27107931e-07 2.95450445e-06 2.17690431e-05
      4.37725394e-05 3.42137573e-05 9.60533816e-06 1.52171733e-05
      3.02874669e-05 5.60594744e-05 8.37889311e-05 4.99937523e-05
      8.32938022e-05 7.88729376e-05 6.67314380e-05 5.90682394e-05
      5.80472406e-05 5.99358827e-05 3.75799536e-05 3.02942935e-05
      2.85196584e-05 9.62256581e-06 -1.25925055e-06 1.33038311e-05
      4.54326655e-05 4.66907586e-05 1.76035628e-05 4.27567829e-06
      6.65327434e-06 5.48976459e-06 2.07564267e-06 -2.53411940e-06
      3.79421704e-06 7.79303321e-07 1.61087442e-07 -3.67828670e-06
      8.04711249e-07 -3.40358883e-06 -1.98976477e-06 -4.55686120e-07
      2.09759423e-06 2.37064287e-05 2.76319151e-05 3.29078321e-05
      2.29588250e-06 6.18134163e-06 3.05065023e-05 2.50333778e-06
      3.03610727e-06 7.07656727e-06 3.51731137e-06 4.00770796e-06
      6.64373829e-07 3.84445048e-06 3.36927496e-06 2.35091170e-06
      2.57770239e-06 2.97118618e-06 2.29461898e-06 2.18877176e-06
      1.59593037e-05 4.58064169e-05 3.50276823e-05 6.06762296e-06
      4.11673591e-06 2.75123085e-07 3.29855425e-07 -1.45230410e-06
      1.95736038e-06 2.78802736e-06 3.24064808e-06 8.43056114e-06
      2.44231956e-06 -8.90262086e-08 1.40267628e-06 -9.09586106e-07
      2.94923467e-07 -1.35472760e-06 -2.76419513e-07 3.44337468e-06
      -7.81070639e-07 -1.28105810e-07 -1.29507885e-06 1.39412521e-06
      -3.59599113e-07 -5.81525455e-07 -9.20319678e-07 -6.61530031e-09
      1.70807016e-06 1.73680041e-06 4.43144700e-06 6.88014143e-06
      6.88831778e-06 1.77405836e-05 3.48373396e-05 5.60062581e-05
      2.85868555e-05 4.71708845e-05 1.26861560e-04 5.15793363e-05
      -2.73776477e-05 -1.50045189e-05 2.34427152e-05 3.30560797e-05
      8.60397267e-05 -1.42981889e-05 -2.05503839e-05 1.96333986e-06
      -7.81004644e-07 3.31357805e-05 3.66884888e-05 4.21939149e-05
      4.81221068e-05 1.01397571e-04 9.79742035e-05 8.82746390e-05
      6.03217777e-05 -3.83439510e-05 -8.74481557e-05 -8.11724312e-05
      -9.33983029e-05 -8.48746713e-05 -8.93813703e-05 -2.11920815e-06
      2.00062750e-05 1.28183274e-05 1.20299101e-05 3.40573388e-05
      6.64874533e-05 1.59639185e-05 -2.49585605e-06 3.25492579e-07
      4.53234151e-07 9.29400841e-08 2.34135655e-07 5.70811665e-08
      5.13906969e-07 1.01013825e-06 3.42597832e-06 3.01466898e-05
      2.70002711e-05 5.10824939e-05 4.17523370e-05 6.35988035e-05
      7.67866877e-05 9.13973563e-05 9.09472947e-05 1.65985883e-04
      1.55342088e-04 9.13933109e-05 6.66439882e-05 5.97854123e-05
      5.63753056e-05 5.60139197e-05 5.33210296e-05 5.16160690e-05
      2.72940197e-05 2.70149008e-06 3.44947039e-05 6.86220446e-05
      3.51678063e-05 8.32465958e-06 9.61381738e-06 6.74116154e-06
      4.25679900e-06 3.45907802e-06 2.91412516e-06 1.61569142e-06
      4.05193816e-07 0. 0. 6.75323051e-08 0. 5.54582812e-07 0.
      2.22170286e-07 6.96693178e-07 2.96204757e-06 7.41483564e-06
      1.83021552e-06 5.28732107e-06 1.41749542e-05 4.12446343e-06
      4.06318895e-06 4.23736219e-06 4.15833983e-06 4.41153543e-06
      4.04725461e-06 4.33251307e-06 4.06318895e-06 4.39560154e-06
      4.06318895e-06 4.06318895e-06 4.01538682e-06 3.74340584e-06
      9.32847979e-06 3.98670345e-05 4.57409697e-05 5.62355081e-06
      1.74173294e-07 4.03702032e-08 1.90107372e-07 1.31203160e-06
      5.31712294e-06 5.14720068e-06 5.14720068e-06 3.69387362e-06 0.
      1.81665911e-07 0. 0. 2.01851016e-08 0. 0. 0. 0. 0. 0. 0. 0. 0.
      9.78787895e-08 3.32909195e-07 6.55870792e-07 4.96258190e-06
      5.28478176e-06 5.58217471e-06 1.43971620e-05 2.94659912e-05
      4.99340531e-05 5.43988208e-05 -1.07315066e-06 -2.09968548e-05
      1.04012128e-04 -4.21313825e-06 -1.04974151e-05 -3.75354066e-05
      1.28153828e-04 1.82175761e-04 7.53708664e-05 1.25590668e-05
      -1.48713216e-05 -1.09693644e-06 5.80367123e-06 7.29369276e-05
      1.30424189e-04 1.21801866e-04 1.22064288e-04 6.84238767e-05
      7.62351510e-06 -4.40200747e-05 -8.00773923e-05 -8.94410550e-05
      -8.77270504e-05 -7.75593871e-05 -5.02406510e-05 -6.37397875e-07
      -3.31183787e-06 -3.79246958e-05 -1.80626084e-05 1.97389527e-05
      9.83939208e-06 9.61471596e-06 1.42257795e-05 -1.94400054e-05
      -1.05358358e-05 -4.01526313e-06 -5.31172645e-07 3.86311882e-07
      2.75267439e-07 3.56484520e-07 1.59221861e-06 1.41348482e-06
      3.56731698e-06 1.87964088e-05 3.62130559e-05 4.82817886e-05
      6.58876670e-05 8.79159197e-05 9.65452055e-05 9.20869788e-05
      1.25010658e-04 2.56556319e-04 2.67182186e-04 1.66119789e-04
      1.01126054e-04 7.97995017e-05 5.79977059e-05 6.09838571e-05
      6.37419434e-05 5.40788351e-05 4.32512752e-05 4.90548591e-05
      8.68038769e-05 9.75988878e-05 4.91591345e-05 1.52482080e-05
      5.23980862e-06 6.11850055e-06 5.64120501e-06 5.31434989e-06
      3.91016374e-06 1.08818824e-06 0. 4.50215332e-08 9.38673779e-08 0.
      5.35174571e-08 0. 2.85258437e-07 0. 3.17126592e-07 1.19324204e-06
      2.92500181e-06 2.91412198e-06 6.75501178e-06 1.45597305e-05
      1.19607275e-05 6.56775228e-06 4.03132071e-06 4.06318895e-06
      4.15833983e-06 4.04725461e-06 4.23736219e-06 4.01538682e-06
      4.06318895e-06 4.06318895e-06 4.07802145e-06 3.98021393e-06
      2.75659477e-06 2.70438659e-06 2.92847581e-05 4.41317825e-05
      1.39338636e-06 1.94358392e-07 1.59340736e-08 2.37970184e-07
      4.17831598e-06 5.12701581e-06 5.10683049e-06 4.82423911e-06
      9.28514680e-07 0. 2.01851016e-08 2.01851016e-08 4.03702032e-08 0.
      2.01851016e-08 0. 0. 0. 0. 0. 0. 0. 0. 1.68964107e-06
      1.42248223e-06 3.65045662e-06 5.44887871e-06 5.12701581e-06
      5.57841804e-06 1.44985625e-05 3.61491511e-05 5.73486323e-05
      5.74081496e-05 -6.48317655e-05 -2.35902662e-05 1.17471020e-04
      9.66277366e-05 -1.74423694e-05 -6.74040857e-05 1.52907051e-05
      2.10462546e-04 2.52881087e-04 4.47881575e-05 -1.07262322e-05
      1.38428106e-06 -3.43326064e-06 9.88176689e-05 3.82091348e-05
      4.93390218e-08 -4.14031019e-05 -6.45649270e-05 -6.62022649e-05
      -7.61854899e-05 -4.33646783e-05 -4.59220100e-05 -5.86838905e-06
      8.72132841e-06 4.61996706e-06 2.20528864e-06 8.28126849e-06
      -7.87742283e-06 -5.54246981e-06 1.43781244e-05 1.92186053e-05
      9.05565412e-06 5.95077927e-06 3.53304267e-06 -2.69117700e-05
      -9.66848347e-06 1.79869573e-07 2.12885027e-07 1.11165321e-06
      1.01428861e-06 7.94602954e-07 4.30480299e-07 4.27341178e-07
      2.44452758e-06 2.41206399e-05 2.41743855e-05 3.14317767e-05
      6.69327710e-05 8.95899939e-05 9.15489363e-05 1.26654879e-04
      2.47914315e-04 2.49627396e-04 1.47160492e-04 1.61486329e-04
      1.87939528e-04 1.23348756e-04 4.64472469e-05 5.15921638e-05
      5.29530262e-05 5.71775527e-05 7.66709636e-05 1.16500916e-04
      1.24227023e-04 8.87701754e-05 5.29379795e-05 1.86521556e-05
      5.69261556e-06 5.20269396e-06 4.51330561e-06 2.83642521e-06
      3.92461345e-07 7.13566095e-08 3.56783048e-08 0. 0. 2.25107666e-08
      1.42953297e-07 1.74173294e-07 3.66030321e-07 1.33645392e-06
      1.91208892e-06 8.90954652e-06 1.56041242e-05 1.89859729e-05
      2.71848985e-05 1.81923115e-05 5.28402370e-06 4.06318895e-06
      4.50668631e-06 4.15833983e-06 4.03132071e-06 4.06318895e-06
      4.23736219e-06 4.06318895e-06 3.79230960e-06 3.23461700e-06
      2.51758365e-06 1.73681406e-06 1.05164884e-06 2.73474107e-05
      4.45894657e-05 1.46709272e-05 3.18681472e-08 8.07404064e-08
      3.39629696e-06 5.10683049e-06 5.14294970e-06 5.14720068e-06
      1.93776964e-06 0. 2.01851016e-08 0. 0. 0. 4.03702032e-08 0. 0. 0.
      0. 0. 0. 0. 0. 0. 3.14887575e-06 3.44860564e-06 5.42236239e-06
      5.86747910e-06 5.91575417e-06 9.04171975e-06 1.37249053e-05
      3.64027692e-05 6.64805048e-05 8.48298223e-05 5.71055207e-05
      7.18883211e-06 3.71661190e-05 2.73250644e-05 -8.13812876e-05
      -7.90676568e-05 -2.17750094e-05 4.48929022e-05 2.40334761e-04
      1.12908405e-04 -3.81477412e-06 -8.51762763e-07 -3.39085955e-06</_></support_vectors>
  <uncompressed_sv_total>169</uncompressed_sv_total>
  <uncompressed_support_vectors>
    <_>
      0. 0. 0. 0. 0. 0. 0. 0. 0. 0. 0. 0. 0. 0. 0. 0. 0. 0. 0. 0. 0. 0.
      0. 0. 0. 0. 0. 0. 0. 0. 0. 0. 0. 0. 0. 0. 0. 0. 0. 0. 0. 0. 0. 0.
      0. 0. 0. 0. 0. 0. 0. 0. 0. 0. 0. 0. 0. 0. 0. 0. 0. 0. 0. 0. 0. 0.
      0. 0. 0. 0. 0. 0. 0. 0. 0. 0. 0. 0. 0. 0. 0. 0. 0. 0. 0. 0. 0. 0.
      0. 0. 0. 0. 0. 0. 0. 0. 0. 0. 0. 0. 0. 0. 0. 0. 0. 0. 0. 0. 0. 0.
      0. 0. 0. 0. 0. 0. 0. 0. 0. 0. 0. 0. 0. 0. 0. 0. 0. 0. 0. 0. 0. 0.
      0. 0. 0. 0. 0. 0. 0. 0. 0. 0. 0. 0. 0. 0. 0. 0. 0. 0. 0. 0. 0. 0.
      0. 0. 0. 0. 0. 0. 0. 0. 0. 0. 0. 0. 0. 0. 0. 0. 0. 0. 0. 0. 0. 0.
      0. 0. 0. 0. 0. 0. 0. 0. 0. 0. 0. 0. 0. 0. 0. 0. 0. 0. 0. 0. 0. 0.
      0. 0. 0. 0. 0. 0. 0. 0. 0. 0. 0. 0. 0. 0. 0. 0. 0. 0. 0. 0. 0. 0.
      0. 0. 0. 0. 0. 0. 0. 0. 0. 0. 0. 0. 0. 0. 0. 0. 0. 0. 0. 0. 0. 0.
      0. 0. 0. 0. 0. 0. 0. 0. 0. 0. 0. 0. 0. 0. 0. 0. 0. 0. 0. 0. 0. 0.
      0. 0. 0. 0. 0. 0. 0. 0. 0. 0. 0. 0. 0. 0. 0. 0. 0. 0. 0. 0. 0. 0.
      0. 0. 0. 0. 0. 0. 0. 0. 0. 0. 0. 0. 0. 0. 0. 0. 0. 0. 0. 0. 0. 0.
      0. 0. 0. 0. 0. 0. 0. 0. 0. 0. 0. 0. 0. 0. 0. 0. 0. 0. 0. 0. 0. 0.
      0. 0. 0. 0. 0. 0. 0. 0. 0. 0. 0. 0. 0. 0. 0. 0. 0. 0. 0. 0. 0. 0.
      0. 0. 0. 0. 0. 0. 0. 0. 0. 0. 0. 0. 0. 0. 0. 0. 0. 0. 0. 0. 0. 0.
      0. 0. 0. 0. 0. 0. 0. 0. 0. 0. 0. 0. 0. 0. 0. 0. 0. 0. 0. 0. 0. 0.
      0. 0. 0. 0. 0. 0. 0. 0. 0. 0. 0. 0. 0. 0. 0. 0. 0. 0. 0. 0. 0. 0.
      0. 0. 0. 0. 0. 0. 0. 0. 0. 0. 0. 0. 0. 0. 0. 0. 0. 0. 0. 0. 0. 0.
      0. 0. 0. 0. 0. 0. 0. 0. 0. 0. 0. 0. 0. 0. 0. 0. 0. 0. 0. 0. 0. 0.
      0. 0. 0. 0. 0. 0. 0. 0. 0. 0. 0. 0. 0. 0. 0. 0. 0. 0. 0. 0. 0. 0.
      0. 0. 0. 0. 0. 0. 0. 0. 0. 0. 0. 0. 0. 0. 0. 0. 0. 0. 0. 0. 0. 0.
      0. 0. 0. 0. 0. 0. 0. 0. 0. 0. 0. 0. 0. 0. 0. 0. 0. 0. 0. 0. 0. 0.
      0. 0. 0. 0. 0. 0. 0. 0. 0. 0. 0. 0. 0. 0. 0. 0. 0. 0. 0. 0. 0. 0.
      0. 0. 0. 0. 0. 0. 0. 0. 0. 0. 0. 0. 0. 0. 0. 0. 0. 0. 0. 0. 0. 0.
      0. 0. 0. 0. 0. 0. 0. 0. 0. 0. 0. 0. 0. 0. 0. 0. 0. 0. 0. 0. 0. 0.
      0. 0. 0. 0. 0. 0. 0. 0. 0. 0. 0. 0. 0. 0. 0. 0. 0. 0. 0. 0. 0. 0.
      0. 0. 0. 0. 0. 0. 0. 0. 0. 0. 0. 0. 0. 0. 0. 0. 0. 0. 0. 0. 0. 0.
      0. 0. 0. 0. 0. 0. 0. 0. 0. 0. 0. 0. 0. 0. 0. 0. 0. 0. 0. 0. 0. 0.
      0. 0. 0. 0. 0. 0. 0. 0. 0. 0. 0. 0. 0. 0. 0. 0. 0. 0. 0. 0. 0. 0.
      0. 0. 0. 0. 0. 0. 0. 0. 0. 0. 0. 0. 0. 0. 0. 0. 0. 0. 0. 0. 0. 0.
      0. 0. 0. 0. 0. 0. 0. 0. 0. 0. 0. 0. 0. 0. 0. 0. 0. 0. 0. 0. 0. 0.
      0. 0. 0. 0. 0. 0. 0. 0. 0. 0. 0. 0. 0. 0. 0. 0. 0. 0. 0. 0. 0. 0.
      0. 0. 0. 0. 0. 0. 0. 0. 0. 0. 0. 0. 0. 0. 0. 0. 0. 0. 0. 0. 0. 0.
      0. 0. 0. 0. 0. 0. 0. 0. 0. 0. 0. 0. 0. 0. 0. 0. 0. 0. 0. 0. 0. 0.
      0. 0. 0. 0. 0. 0. 0. 0. 0. 0. 0. 0. 0. 0. 0. 0. 0. 0. 0. 0. 0. 0.
      0. 0. 0. 0. 0. 0. 0. 0. 0. 0. 0. 0. 0. 0. 0. 0. 0. 0. 0. 0. 0. 0.
      0. 0. 0. 0. 0. 0. 0. 0. 0. 0. 0. 0. 0. 0. 0. 0. 0. 0. 0. 0. 0. 0.
      0. 0. 0. 0. 0. 0. 0. 0. 0. 0. 0. 0. 0. 0. 0. 0. 0. 0. 0. 0. 0. 0.
      0. 0. 0. 0. 0. 0. 0. 0. 0. 0. 0. 0. 0. 0. 0. 0. 0. 0. 0. 0. 0. 0.
      0. 0. 0. 0. 0. 0. 0. 0. 0. 0. 0. 0. 0. 0. 0. 0. 0. 0. 0. 0. 0. 0.
      0. 0. 0. 0. 0. 0. 0. 0. 0. 0. 0. 0. 0. 0. 0. 0. 0. 0. 0. 0. 0. 0.
      0. 0. 0. 0. 0. 0. 0. 0. 0. 0. 0. 0. 0. 0. 0. 0. 0. 0. 0. 0. 0. 0.
      0. 0. 0. 0. 0. 0. 0. 0. 0. 0. 0. 0. 0. 0. 0. 0. 0. 0. 0. 0. 0. 0.
      0. 0. 0. 0. 0. 0. 0. 0. 0. 0. 0. 0. 0. 0. 0. 0. 0. 0. 0. 0. 0. 0.
      0. 0. 0. 0. 0. 0. 0. 0. 0. 0. 0. 0. 0. 0. 0. 0. 0. 0. 0. 0. 0. 0.
      0. 0. 0. 0. 0. 0. 0. 0. 0. 0. 0. 0. 0. 0. 0. 0. 0. 0. 0. 0. 0. 0.
      0. 0. 0. 0. 0. 0. 0. 0. 0. 0. 0. 0. 0. 0. 0. 0. 0. 0. 0. 0. 0. 0.
      0. 0. 0. 3. 0. 3. 0. 0. 1. 0. 0. 0. 0. 0. 0. 0. 0. 0. 1. 1. 0. 0.
      1. 0. 1. 0. 2. 0. 0. 2. 0. 1. 0. 0. 2. 0. 0. 2. 0. 2. 0. 0. 1. 0.
      0. 0. 0. 0. 0. 0. 0. 0. 0. 1. 0. 0. 0. 1. 0. 1. 1. 0. 0. 0. 1. 0.
      0. 2. 0. 1. 0. 1. 0. 0. 1. 0. 1. 1. 2. 0. 1. 0. 2. 0. 0. 0. 0. 2.
      0. 0. 1. 0. 2. 0. 0. 2. 0. 0. 2. 0. 0. 0. 1. 0. 2. 0. 0. 1. 0. 2.
      1. 0. 0. 0. 0. 2. 0. 0. 0. 0. 0. 4. 0. 0. 1. 0. 2. 0. 0. 1. 0. 0.
      3. 0. 0. 1. 0. 2. 0. 120. 151. 0. 0. 0. 1. 0. 0. 0. 0. 0. 0. 0. 0.
      2. 0. 3. 2. 0. 0. 0. 0. 0. 0. 4. 0. 0. 1. 1. 0. 0. 1. 0. 0. 2. 0.
      2. 0. 0. 4. 0. 0. 1. 3. 0. 2. 2. 0. 0. 0. 0. 0. 4. 0. 4. 0. 2. 0.
      0. 0. 0. 1. 2. 0. 0. 2. 2. 0. 3. 1. 0. 3. 0. 0. 0. 1. 0. 2. 0. 1.
      3. 0. 1. 0. 3. 1. 3. 0. 0. 4. 0. 2. 0. 0. 0. 4. 0. 1. 0. 0. 0. 1.
      0. 0. 3. 0. 0. 1. 0. 2. 3. 0. 0. 2. 0. 2. 2. 0. 3. 0. 3. 0. 0. 2.
      2. 0. 0. 2. 0. 2. 2. 0. 0. 0. 2. 18. 168. 192. 21. 0. 2. 0. 0. 0.
      0. 0. 0. 0. 0. 0. 1. 0. 0. 3. 1. 0. 0. 0. 3. 0. 0. 3. 0. 0. 0. 0.
      2. 1. 3. 0. 1. 0. 2. 1. 0. 0. 0. 0. 0. 0. 2. 0. 1. 2. 0. 4. 2. 0.
      1. 0. 0. 2. 0. 3. 4. 1. 0. 0. 2. 0. 0. 2. 0. 0. 1. 2. 0. 0. 2. 0.
      1. 2. 0. 2. 2. 0. 2. 1. 0. 0. 0. 0. 4. 0. 0. 2. 0. 0. 1. 0. 0. 4.
      0. 2. 1. 0. 0. 3. 0. 2. 0. 3. 0. 2. 0. 0. 3. 0. 0. 0. 2. 0. 2. 0.
      1. 0. 3. 0. 0. 2. 3. 0. 0. 2. 0. 2. 0. 0. 0. 0. 0. 0. 75. 2. 0. 0.
      0. 0. 0. 0. 0. 0. 0. 0. 2. 0. 2. 1. 0. 0. 2. 1. 0. 2. 0. 3. 0. 0.
      3. 1. 4. 0. 0. 0. 1. 0. 1. 0. 0. 0. 2. 2. 0. 0. 2. 0. 0. 1. 0. 0.
      0. 3. 1. 1. 2. 0. 1. 0. 2. 0. 0. 1. 4. 0. 0. 2. 0. 0. 2. 0. 0. 3.
      0. 0. 1. 0. 0. 1. 0. 0. 1. 0. 0. 2. 2. 1. 3. 0. 36. 2. 0. 0. 0. 0.
      3. 0. 0. 1. 0. 0. 2. 1. 0. 0. 1. 0. 0. 1. 0. 0. 1. 1. 0. 0. 0. 0.
      1. 0. 0. 0. 53. 120. 4. 0. 0. 0. 0. 2. 176. 108. 0. 3. 1. 2. 1. 0.
      3. 0. 0. 0. 0. 0. 0. 0. 0. 0. 0. 0. 0. 0. 0. 1. 0. 1. 5. 0. 0. 1.
      0. 0. 2. 2. 1. 0. 0. 0. 0. 5. 1. 0. 1. 2. 0. 0. 2. 0. 0. 3. 0. 1.
      0. 1. 0. 0. 2. 2. 0. 0. 0. 0. 0. 2. 0. 0. 3. 0. 1. 0. 0. 0. 0. 0.
      1. 2. 0. 0. 0. 2. 0. 1. 1. 0. 2. 14. 2. 0. 0. 1. 0. 0. 0. 1. 12.
      192. 167. 8. 8. 5. 0. 17. 0. 0. 0. 1. 4. 1. 0. 2. 17. 0. 0. 90.
      185. 8. 3. 0. 2. 1. 34. 110. 1. 1. 1. 1. 0. 23. 69. 0. 3. 0. 3. 2.
      64. 245. 103. 0. 0. 0. 0. 0. 0. 0. 0. 0. 3. 0. 0. 0. 0. 0. 0. 0.
      0. 0. 0. 4. 1. 0. 2. 0. 0. 2. 0. 2. 0. 0. 1. 0. 2. 2. 2. 1. 0. 7.
      0. 0. 1. 1. 0. 0. 3. 0. 55. 53. 0. 81. 105. 0. 3. 0. 0. 4. 0. 1.
      0. 40. 80. 103. 41. 0. 5. 0. 2. 0. 5. 0. 122. 183. 34. 97. 97. 64.
      0. 0. 0. 4. 0. 19. 216. 119. 63. 61. 100. 9. 0. 0. 0. 2. 0. 154.
      213. 216. 149. 38. 217. 94. 0. 2. 0. 0. 0. 1. 40. 240. 203. 213.
      253. 165. 4. 0. 2. 0. 0. 30. 182. 174. 14. 73. 62. 65. 0. 0. 0. 1.
      0. 1. 0. 65. 249. 95. 0. 1. 1. 2. 0. 1. 1. 0. 1. 0. 1. 0. 0. 0. 0.
      0. 0. 0. 0. 1. 0. 0. 0. 0. 0. 0. 0. 0. 0. 0. 0. 0. 3. 0. 5. 0. 30.
      9. 204. 112. 0. 2. 0. 1. 0. 1. 1. 103. 254. 150. 255. 254. 85. 0.
      0. 6. 0. 3. 0. 1. 59. 243. 255. 231. 79. 0. 1. 0. 4. 0. 0. 2. 137.
      251. 253. 243. 63. 0. 2. 0. 0. 4. 0. 53. 195. 255. 254. 255. 206.
      48. 2. 4. 0. 1. 0. 112. 255. 254. 249. 254. 135. 0. 1. 0. 0. 0. 1.
      1. 81. 230. 255. 254. 167. 0. 0. 0. 1. 4. 1. 0. 148. 239. 254.
      255. 253. 104. 15. 41. 0. 3. 0. 4. 39. 230. 114. 1. 3. 0. 0. 1. 0.
      0. 0. 0. 0. 0. 0. 0. 0. 0. 0. 0. 0. 0. 1. 0. 1. 0. 57. 66. 0. 7.
      0. 2. 0. 0. 1. 0. 5. 156. 129. 252. 105. 158. 255. 152. 0. 2. 1.
      0. 0. 2. 0. 64. 217. 254. 250. 90. 0. 0. 0. 0. 0. 1. 0. 80. 254.
      253. 254. 255. 120. 0. 1. 0. 2. 1. 0. 0. 98. 249. 255. 207. 54. 0.
      0. 0. 0. 2. 0. 7. 161. 255. 254. 255. 248. 86. 0. 3. 0. 2. 0. 73.
      222. 255. 255. 252. 179. 22. 0. 2. 0. 0. 0. 0. 38. 192. 254. 255.
      111. 0. 1. 0. 0. 0. 1. 0. 105. 255. 255. 255. 252. 231. 133. 0. 1.
      1. 0. 14. 216. 147. 0. 0. 3. 0. 0. 0. 0. 0. 0. 0. 0. 0. 0. 0. 0.
      0. 0. 0. 0. 0. 1. 2. 0. 96. 252. 160. 207. 56. 2. 0. 0. 0. 26.
      125. 0. 0. 59. 205. 254. 255. 254. 190. 41. 0. 0. 0. 3. 0. 0. 21.
      216. 255. 255. 127. 1. 0. 1. 1. 0. 0. 1. 89. 239. 254. 254. 255.
      159. 6. 0. 1. 0. 2. 0. 32. 236. 254. 255. 245. 96. 0. 0. 0. 1. 0.
      1. 1. 133. 255. 255. 252. 255. 130. 0. 2. 1. 0. 0. 34. 182. 254.
      255. 255. 215. 65. 0. 1. 0. 0. 2. 1. 138. 255. 255. 252. 151. 2.
      0. 1. 0. 0. 2. 0. 66. 233. 255. 252. 255. 154. 5. 3. 0. 0. 46.
      238. 134. 0. 1. 0. 0. 0. 0. 0. 0. 0. 0. 0. 0. 0. 0. 0. 0. 0. 0. 0.
      0. 2. 0. 0. 101. 255. 254. 255. 243. 84. 3. 0. 1. 7. 126. 2. 2. 0.
      19. 165. 254. 253. 255. 229. 79. 0. 2. 0. 1. 4. 41. 236. 254. 255.
      255. 166. 20. 0. 0. 1. 0. 0. 0. 131. 255. 255. 255. 229. 41. 0. 1.
      1. 0. 2. 1. 111. 254. 251. 255. 255. 133. 0. 0. 1. 1. 1. 3. 149.
      254. 252. 255. 255. 187. 12. 0. 0. 3. 0. 0. 15. 227. 255. 254.
      254. 135. 0. 2. 1. 2. 0. 0. 59. 207. 255. 255. 255. 190. 25. 0. 2.
      1. 0. 0. 61. 255. 255. 255. 255. 140. 0. 0. 3. 0. 47. 253. 116. 5.
      0. 0. 0. 0. 0. 0. 0. 0. 0. 0. 0. 0. 0. 0. 0. 0. 0. 0. 2. 0. 0. 3.
      88. 255. 255. 252. 218. 39. 0. 0. 2. 151. 194. 9. 0. 0. 0. 162.
      255. 255. 255. 255. 224. 26. 0. 3. 0. 0. 2. 40. 235. 252. 255.
      252. 134. 2. 0. 1. 2. 1. 1. 129. 255. 253. 250. 255. 64. 0. 0. 2.
      0. 0. 0. 88. 255. 255. 254. 232. 63. 3. 2. 0. 0. 0. 2. 141. 255.
      255. 255. 181. 10. 0. 0. 1. 0. 0. 25. 200. 251. 255. 254. 132. 0.
      1. 0. 0. 0. 1. 2. 0. 178. 255. 244. 233. 152. 0. 1. 0. 0. 5. 0.
      56. 239. 253. 255. 251. 138. 1. 0. 0. 2. 18. 212. 147. 0. 1. 2. 0.
      0. 0. 0. 0. 0. 0. 0. 0. 0. 0. 0. 0. 0. 0. 0. 0. 0. 0. 2. 16. 174.
      164. 182. 33. 0. 0. 1. 0. 128. 225. 73. 2. 0. 2. 125. 255. 252.
      255. 213. 41. 0. 0. 0. 2. 2. 0. 157. 254. 255. 254. 161. 2. 1. 0.
      0. 0. 1. 39. 215. 255. 255. 255. 101. 3. 0. 2. 0. 0. 0. 95. 255.
      251. 255. 225. 47. 0. 0. 2. 0. 4. 1. 150. 254. 254. 255. 163. 1.
      0. 0. 0. 0. 0. 35. 205. 255. 255. 253. 113. 0. 0. 0. 0. 3. 2. 0.
      7. 186. 255. 230. 58. 18. 0. 3. 0. 0. 0. 0. 62. 239. 255. 255.
      254. 154. 159. 0. 3. 0. 0. 0. 202. 169. 8. 0. 1. 0. 0. 0. 0. 0. 0.
      0. 0. 0. 0. 0. 0. 0. 0. 0. 0. 0. 7. 0. 0. 0. 0. 0. 4. 0. 1. 0. 0.
      1. 1. 87. 243. 110. 0. 116. 253. 255. 255. 204. 37. 0. 5. 1. 0. 2.
      0. 166. 255. 255. 255. 151. 0. 0. 1. 2. 0. 2. 48. 225. 250. 254.
      255. 98. 0. 0. 0. 2. 0. 1. 106. 254. 254. 255. 212. 42. 0. 2. 1.
      0. 1. 0. 153. 255. 255. 253. 161. 1. 0. 0. 2. 0. 3. 41. 212. 255.
      255. 253. 125. 0. 0. 1. 4. 0. 0. 0. 18. 190. 254. 235. 48. 1. 0.
      0. 2. 0. 1. 2. 72. 250. 253. 255. 246. 72. 0. 1. 2. 0. 0. 1. 35.
      221. 157. 0. 0. 0. 0. 0. 0. 0. 0. 0. 0. 0. 0. 0. 0. 0. 0. 0. 0. 0.
      2. 0. 4. 1. 0. 4. 0. 0. 4. 0. 4. 0. 0. 0. 2. 51. 207. 131. 253.
      254. 255. 200. 24. 0. 0. 0. 0. 2. 0. 176. 255. 251. 253. 145. 0.
      0. 0. 1. 0. 1. 56. 230. 255. 254. 255. 85. 0. 0. 0. 0. 0. 1. 111.
      254. 255. 254. 253. 129. 0. 0. 3. 0. 1. 0. 168. 255. 253. 255.
      231. 32. 0. 1. 0. 0. 3. 22. 225. 255. 208. 234. 255. 152. 3. 1. 0.
      0. 0. 1. 8. 192. 205. 221. 209. 157. 7. 0. 0. 0. 1. 0. 46. 254.
      77. 116. 255. 136. 0. 0. 0. 0. 4. 0. 0. 26. 235. 105. 0. 2. 0. 0.
      0. 0. 0. 0. 0. 0. 0. 0. 0. 0. 0. 0. 0. 0. 0. 0. 0. 1. 0. 0. 0. 0.
      1. 0. 0. 0. 0. 0. 1. 0. 0. 4. 2. 62. 219. 225. 17. 0. 1. 0. 5. 0.
      0. 55. 135. 117. 83. 183. 147. 4. 2. 0. 1. 0. 69. 237. 121. 130.
      99. 246. 71. 1. 0. 0. 3. 0. 30. 174. 127. 125. 159. 255. 102. 0.
      3. 0. 0. 2. 82. 165. 161. 120. 124. 110. 46. 0. 0. 1. 1. 0. 0. 88.
      175. 8. 38. 193. 161. 0. 3. 0. 0. 3. 0. 2. 20. 3. 14. 0. 124. 11.
      0. 4. 0. 3. 0. 0. 31. 4. 0. 67. 117. 0. 4. 0. 1. 0. 3. 0. 0. 138.
      14. 2. 0. 0. 0. 0. 0. 0. 0. 0. 0. 0. 0. 0. 0. 0. 0. 0. 0. 0. 1. 0.
      2. 0. 0. 1. 0. 0. 0. 1. 0. 0. 2. 0. 0. 1. 0. 1. 1. 22. 176. 59. 1.
      1. 1. 0. 2. 1. 0. 0. 0. 0. 2. 17. 0. 2. 0. 0. 3. 47. 64. 0. 1. 0.
      33. 0. 0. 0. 0. 0. 0. 0. 2. 0. 0. 0. 43. 0. 2. 0. 0. 0. 2. 0. 0.
      1. 0. 0. 1. 0. 2. 1. 1. 0. 2. 0. 1. 0. 2. 0. 0. 36. 4. 0. 0. 1. 0.
      0. 0. 1. 0. 0. 1. 0. 0. 0. 0. 2. 0. 0. 1. 0. 0. 3. 0. 0. 0. 0. 0.
      2. 1. 0. 0. 2. 93. 1. 1. 0. 2. 0. 0. 0. 0. 0. 0. 0. 0. 0. 0. 0. 0.
      0. 0. 0. 0. 0. 0. 0. 0. 0. 0. 0. 0. 0. 0. 0. 0. 0. 0. 0. 0. 0. 0.
      0. 0. 0. 0. 0. 0. 0. 0. 0. 0. 0. 0. 0. 0. 0. 0. 0. 0. 0. 0. 0. 0.
      0. 0. 0. 0. 0. 0. 0. 0. 0. 0. 0. 0. 0. 0. 0. 0. 0. 0. 0. 0. 0. 0.
      0. 0. 0. 0. 0. 0. 0. 0. 0. 0. 0. 0. 0. 0. 0. 0. 0. 0. 0. 0. 0. 0.
      0. 0. 0. 0. 0. 0. 0. 0. 0. 0. 0. 0. 0. 0. 0. 0. 0. 0. 0. 0. 0. 0.
      0. 0. 0. 0. 0. 0. 0. 0. 0. 0. 0. 0. 0. 0. 0. 0. 0. 0. 0. 0. 0. 0.
      0. 0. 0. 0. 0. 0. 0. 0. 0. 0. 0. 0. 0. 0. 0. 0. 0. 0. 0. 0. 0. 0.
      0. 0. 0. 0. 0. 0. 0. 0. 0. 0. 0. 0. 0. 0. 0. 0. 0. 0. 0. 0. 0. 0.
      0. 0. 0. 0. 0. 0. 0. 0. 0. 0. 0. 0. 0. 0. 0. 0. 0. 0. 0. 0. 0. 0.
      0. 0. 0. 0. 0. 0. 0. 0. 0. 0. 0. 0. 0. 0. 0. 0. 0. 0. 0. 0. 0. 0.
      0. 0. 0. 0. 0. 0. 0. 0. 0. 0. 0. 0. 0. 0. 0. 0. 0. 0. 0. 0. 0. 0.
      0. 0. 0. 0. 0. 0. 0. 0. 0. 0. 0. 0. 0. 0. 0. 0. 0. 0. 0. 0. 0. 0.
      0. 0. 0. 0. 0. 0. 0. 0. 0. 0. 0. 0. 0. 0. 0. 0. 0. 0. 0. 0. 0. 0.
      0. 0. 0. 0. 0. 0. 0. 0. 0. 0. 0. 0. 0. 0. 0. 0. 0. 0. 0. 0. 0. 0.
      0. 0. 0. 0. 0. 0. 0. 0. 0. 0. 0. 0. 0. 0. 0. 0. 0. 0. 0. 0. 0. 0.
      0. 0. 0. 0. 0. 0. 0. 0. 0. 0. 0. 0. 0. 0. 0. 0. 0. 0. 0. 0. 0. 0.
      0. 0. 0. 0. 0. 0. 0. 0. 0. 0. 0. 0. 0. 0. 0. 0. 0. 0. 0. 0. 0. 0.
      0. 0. 0. 0. 0. 0. 0. 0. 0. 0. 0. 0. 0. 0. 0. 0. 0. 0. 0. 0. 0. 0.
      0. 0. 0. 0. 0. 0. 0. 0. 0. 0. 0. 0. 0. 0. 0. 0. 0. 0. 0. 0. 0. 0.
      0. 0. 0. 0. 0. 0. 0. 0. 0. 0. 0. 0. 0. 0. 0. 0. 0. 0. 0. 0. 0. 0.
      0. 0. 0. 0. 0. 0. 0. 0. 0. 0. 0. 0. 0. 0. 0. 0. 0. 0. 0. 0. 0. 0.
      0. 0. 0. 0. 0. 0. 0. 0. 0. 0. 0. 0. 0. 0. 0. 0. 0. 0. 0. 0. 0. 0.
      0. 0. 0. 0. 0. 0. 0. 0. 0. 0. 0. 0. 0. 0. 0. 0. 0. 0. 0. 0. 0. 0.
      0. 0. 0. 0. 0. 0. 0. 0. 0. 0. 0. 0. 0. 0. 0. 0. 0. 0. 0. 0. 0. 0.
      0. 0. 0. 0. 0. 0. 0. 0. 0. 0. 0. 0. 0. 0. 0. 0. 0. 0. 0. 0. 0. 0.
      0. 0. 0. 0. 0. 0. 0. 0. 0. 0. 0. 0. 0. 0. 0. 0. 0. 0. 0. 0. 0. 0.
      0. 0. 0. 0. 0. 0. 0. 0. 0. 0. 0. 0. 0. 0. 0. 0. 0. 0. 0. 0. 0. 0.
      0. 0. 0. 0. 0. 0. 0. 0. 0. 0. 0. 0. 0. 0. 0. 0. 0. 0. 0. 0. 0. 0.
      0. 0. 0. 0. 0. 0. 0. 0. 0. 0. 0. 0. 0. 0. 0. 0. 0. 0. 0. 0. 0. 0.
      0. 0. 0. 0. 0. 0. 0. 0. 0. 0. 0. 0. 0. 0. 0. 0. 0. 0. 0. 0. 0. 0.
      0. 0. 0. 0. 0. 0. 0. 0. 0. 0. 0. 0. 0. 0. 0. 0. 0. 0. 0. 0. 0. 0.
      0. 0. 0. 0. 0. 0. 0. 0. 0. 0. 0. 0. 0. 0. 0. 0. 0. 0. 0. 0. 0. 0.
      0. 0. 0. 0. 0. 0. 0. 0. 0. 0. 0. 0. 0. 0. 0. 0. 0. 0. 0. 0. 0. 0.
      0. 0. 0. 0. 0. 0. 0. 0. 0. 0. 0. 0. 0. 0. 0. 0. 0. 0. 0. 0. 0. 0.
      0. 0. 0. 0. 0. 0. 0. 0. 0. 0. 0. 0. 0. 0. 0. 0. 0. 0. 0. 0. 0. 0.
      0. 0. 0. 0. 0. 0. 0. 0. 0. 0. 0. 0. 0. 0. 0. 0. 0. 0. 0. 0. 0. 0.
      0. 0. 0. 0. 0. 0. 0. 0. 0. 0. 0. 0. 0. 0. 0. 0. 0. 0. 0. 0. 0. 0.
      0. 0. 0. 0. 0. 0. 0. 0. 0. 0. 0. 0. 0. 0. 0. 0. 0. 0. 0. 0. 0. 0.
      0. 0. 0. 0. 0. 0. 0. 0. 0. 0. 0. 0. 0. 0. 0. 0. 0. 0. 0. 0. 0. 0.
      0. 0. 0. 0. 0. 0. 0. 0. 0. 0. 0. 0. 0. 0. 0. 0. 0. 0. 0. 0. 0. 0.
      0. 0. 0. 0. 0. 0. 0. 0. 0. 0. 0. 0. 0. 0. 0. 0. 0. 0. 0. 0. 0. 0.
      0. 0. 0. 0. 0. 0. 0. 0. 0. 0. 0. 0. 0. 0. 0. 0. 0. 0. 0. 0. 0. 0.
      0. 0. 0. 0. 0. 0. 0. 0. 0. 0. 0. 0. 0. 0. 0. 0. 0. 0. 0. 0. 0. 0.
      0. 0. 0. 0. 0. 0. 0. 0. 0. 0. 0. 0. 0. 0. 0. 0. 0. 0. 0. 0. 0. 0.
      0. 0. 0. 0. 0. 0. 0. 0. 0. 0. 0. 0. 0. 0. 0. 0. 0. 0. 0. 0. 0. 0.
      0. 0. 0. 0. 0. 0. 0. 0. 0. 0. 0. 0. 0. 0. 0. 0. 0. 0. 0. 0. 0. 0.
      0. 0. 0. 0. 0. 0. 0. 0. 0. 0. 0. 0. 0. 0. 0. 0. 0. 0. 0. 0. 0. 0.
      0. 0. 0. 0. 0. 0. 0. 0. 0. 0. 0. 0. 0. 0. 0. 0. 0. 0. 0. 0. 0. 0.
      0. 0. 0. 0. 0. 0. 0. 0. 0. 0. 0. 0. 0. 0. 0. 0. 0. 0. 0. 0. 0. 0.
      0. 0. 0. 0. 0. 0. 0. 0. 0. 0. 0. 0. 0. 0. 0. 0. 0. 0. 0. 0. 0. 0.
      0. 0. 0. 0. 0. 0. 0. 0. 0. 0. 0. 0. 0. 0. 0. 0. 0. 0. 0. 0. 0. 0.
      0. 0. 0. 0. 0. 0. 0. 0. 0. 0. 0. 0. 0. 0. 0. 0. 0. 0. 0. 0. 0. 0.
      0. 0. 0. 0. 0. 0. 0. 0. 0. 0. 0. 0. 0. 0. 0. 0. 0. 0. 0. 0. 0. 0.
      0. 0. 0. 0. 0. 0. 0. 0. 0. 0. 0. 0. 0. 0. 0. 0. 0. 0. 0. 0. 0. 0.
      0. 0. 0. 0. 0. 0. 0. 0. 0. 0. 0. 0. 0. 0. 0. 0. 0. 0. 0. 0. 0. 0.
      0. 0. 0. 0. 0. 0. 0. 0. 0. 0. 0. 0. 0. 0. 0. 0. 0. 0. 0. 0. 0. 0.
      0. 0. 0. 0. 0. 0. 0. 0. 0. 0. 0. 0. 0. 0. 0. 0. 0. 0. 0. 0. 0. 0.
      0. 0. 0. 0. 0. 0. 0. 0. 0. 0. 0. 0. 0. 0. 0. 0. 0. 0. 0. 0. 0. 0.
      0. 0. 0. 0. 0. 0. 0. 0. 0. 0. 0. 0. 0. 0. 0. 0. 0. 0. 0. 0. 0. 0.
      0. 0. 0. 0. 0. 0. 0. 0. 0. 0. 0. 0. 0. 0. 0. 0. 0. 0. 0. 0. 0. 0.
      0. 0. 0. 0. 0. 0. 0. 0. 0. 0. 0. 0. 0. 0. 0. 0. 0. 0. 0. 0. 0. 0.
      0. 0. 0. 0. 0. 0. 0. 0. 0. 0. 0. 0. 0. 0. 0. 0. 0. 0. 0. 0. 0. 0.
      0. 0. 0. 0. 0. 0. 0. 0. 0. 0. 0. 0. 0. 0. 0. 0. 0. 0. 0. 0. 0. 0.
      0. 0. 0. 0. 0. 0. 0. 0. 0. 0. 0. 0. 0. 0. 0. 0. 0. 0. 0. 0. 0. 0.
      0. 0. 0. 0. 0. 0. 0. 0. 0. 0. 0. 0. 0. 0. 0. 0. 0. 0. 0. 0. 0. 0.
      0. 0. 0. 0. 0. 0. 0. 0. 0. 0. 0. 0. 0. 0. 0. 0. 0. 0. 0. 0. 0. 0.
      0. 0. 0. 0. 0. 0. 0. 0. 0. 0. 0. 0. 0. 0. 0. 0. 0. 0. 0. 0. 0.</_>
    <_>
      0. 0. 0. 0. 0. 0. 0. 0. 0. 0. 0. 0. 0. 0. 0. 0. 0. 0. 0. 0. 0. 0.
      0. 0. 0. 0. 0. 0. 0. 0. 0. 0. 0. 0. 0. 0. 0. 0. 0. 0. 0. 0. 0. 0.
      0. 0. 0. 0. 0. 0. 0. 0. 0. 0. 0. 0. 0. 0. 0. 0. 0. 0. 0. 0. 0. 0.
      0. 0. 0. 0. 0. 0. 0. 0. 0. 0. 0. 0. 0. 0. 0. 0. 0. 0. 0. 0. 0. 0.
      0. 0. 0. 0. 0. 0. 0. 0. 0. 0. 0. 0. 0. 0. 0. 0. 0. 0. 0. 0. 0. 0.
      0. 0. 0. 0. 0. 0. 0. 0. 0. 0. 0. 0. 0. 0. 0. 0. 0. 0. 0. 0. 0. 0.
      0. 0. 0. 0. 0. 0. 0. 0. 0. 0. 0. 0. 0. 0. 0. 0. 0. 0. 0. 0. 0. 0.
      0. 0. 0. 0. 0. 0. 0. 0. 0. 0. 0. 0. 0. 0. 0. 0. 0. 0. 0. 0. 0. 0.
      0. 0. 0. 0. 0. 0. 0. 0. 0. 0. 0. 0. 0. 0. 0. 0. 0. 0. 0. 0. 0. 0.
      0. 0. 0. 0. 0. 0. 0. 0. 0. 0. 0. 0. 0. 0. 0. 0. 0. 0. 0. 0. 0. 0.
      0. 0. 0. 0. 0. 0. 0. 0. 0. 0. 0. 0. 0. 0. 0. 0. 0. 0. 0. 0. 0. 0.
      0. 0. 0. 0. 0. 0. 0. 0. 0. 0. 0. 0. 0. 0. 0. 0. 0. 0. 0. 0. 0. 0.
      0. 0. 0. 0. 0. 0. 0. 0. 0. 0. 0. 0. 0. 0. 0. 0. 0. 0. 0. 0. 0. 0.
      0. 0. 0. 0. 0. 0. 0. 0. 0. 0. 0. 0. 0. 0. 0. 0. 0. 0. 0. 0. 0. 0.
      0. 0. 0. 0. 0. 0. 0. 0. 0. 0. 0. 0. 0. 0. 0. 0. 0. 0. 0. 0. 0. 0.
      0. 0. 0. 0. 0. 0. 0. 0. 0. 0. 0. 0. 0. 0. 0. 0. 0. 0. 0. 0. 0. 0.
      0. 0. 0. 0. 0. 0. 0. 0. 0. 0. 0. 0. 0. 0. 0. 0. 0. 0. 0. 0. 0. 0.
      0. 0. 0. 0. 0. 0. 0. 0. 0. 0. 0. 0. 0. 0. 0. 0. 0. 0. 0. 0. 0. 0.
      0. 0. 0. 0. 0. 0. 0. 0. 0. 0. 0. 0. 0. 0. 0. 0. 0. 0. 0. 0. 0. 0.
      0. 0. 0. 0. 0. 0. 0. 0. 0. 0. 0. 0. 0. 0. 0. 0. 0. 0. 0. 0. 0. 0.
      0. 0. 0. 0. 0. 0. 0. 0. 0. 0. 0. 0. 0. 0. 0. 0. 0. 0. 0. 0. 0. 0.
      0. 0. 0. 0. 0. 0. 0. 0. 0. 0. 0. 0. 0. 0. 0. 0. 0. 0. 0. 0. 0. 0.
      0. 0. 0. 0. 0. 0. 0. 0. 0. 0. 0. 0. 0. 0. 0. 0. 0. 0. 0. 0. 0. 0.
      0. 0. 0. 0. 0. 0. 0. 0. 0. 0. 0. 0. 0. 0. 0. 0. 0. 0. 0. 0. 0. 0.
      0. 0. 0. 0. 0. 0. 0. 0. 0. 0. 0. 0. 0. 0. 0. 0. 0. 0. 0. 0. 0. 0.
      0. 0. 0. 0. 0. 0. 0. 0. 0. 0. 0. 0. 0. 0. 0. 0. 0. 0. 0. 0. 0. 0.
      0. 0. 0. 0. 0. 0. 0. 0. 0. 0. 0. 0. 0. 0. 0. 0. 0. 0. 0. 0. 0. 0.
      0. 0. 0. 0. 0. 0. 0. 0. 0. 0. 0. 0. 0. 0. 0. 0. 0. 0. 0. 0. 0. 0.
      0. 0. 0. 0. 0. 0. 0. 0. 0. 0. 0. 0. 0. 0. 0. 0. 0. 0. 0. 0. 0. 0.
      0. 0. 0. 0. 0. 0. 0. 0. 0. 0. 0. 0. 0. 0. 0. 0. 0. 0. 0. 0. 0. 0.
      0. 0. 0. 0. 0. 0. 0. 0. 0. 0. 0. 0. 0. 0. 0. 0. 0. 0. 0. 0. 0. 0.
      0. 0. 0. 0. 0. 0. 0. 0. 0. 0. 0. 0. 0. 0. 0. 0. 0. 0. 0. 0. 0. 0.
      0. 0. 0. 0. 0. 0. 0. 0. 0. 0. 0. 0. 0. 0. 0. 0. 0. 0. 0. 0. 0. 0.
      0. 0. 0. 0. 0. 0. 0. 0. 0. 0. 0. 0. 0. 0. 0. 0. 0. 0. 0. 0. 0. 0.
      0. 0. 0. 0. 0. 0. 0. 0. 0. 0. 0. 0. 0. 0. 0. 0. 0. 0. 0. 0. 0. 0.
      0. 0. 0. 0. 0. 0. 0. 0. 0. 0. 0. 0. 0. 0. 0. 0. 0. 0. 0. 0. 0. 0.
      0. 0. 0. 0. 0. 0. 0. 0. 0. 0. 0. 0. 0. 0. 0. 0. 0. 0. 0. 0. 0. 0.
      0. 0. 0. 0. 0. 0. 0. 0. 0. 0. 0. 0. 0. 0. 0. 0. 0. 0. 0. 0. 0. 0.
      0. 0. 0. 0. 0. 0. 0. 0. 0. 0. 0. 0. 0. 0. 0. 0. 0. 0. 0. 0. 0. 0.
      0. 0. 0. 0. 0. 0. 0. 0. 0. 0. 0. 0. 0. 0. 0. 0. 0. 0. 0. 0. 0. 0.
      0. 0. 0. 0. 0. 0. 0. 0. 0. 0. 0. 0. 0. 0. 0. 0. 0. 0. 0. 0. 0. 0.
      0. 0. 0. 0. 0. 0. 0. 0. 0. 0. 0. 0. 0. 0. 0. 0. 0. 0. 0. 0. 0. 0.
      0. 0. 0. 0. 0. 0. 0. 0. 0. 0. 0. 0. 0. 0. 0. 0. 0. 0. 0. 0. 0. 0.
      0. 0. 0. 0. 0. 0. 0. 0. 0. 0. 0. 0. 0. 0. 0. 0. 0. 0. 0. 0. 0. 0.
      0. 0. 0. 0. 0. 0. 0. 0. 0. 0. 0. 0. 0. 0. 0. 0. 0. 0. 0. 0. 0. 0.
      0. 0. 0. 0. 0. 0. 0. 0. 0. 0. 0. 0. 0. 0. 0. 0. 0. 0. 0. 0. 0. 0.
      0. 0. 0. 0. 0. 0. 0. 0. 0. 0. 0. 0. 0. 0. 0. 0. 0. 0. 0. 0. 0. 0.
      0. 0. 0. 0. 0. 0. 0. 0. 0. 0. 0. 0. 0. 0. 0. 0. 0. 0. 0. 0. 0. 0.
      0. 0. 0. 0. 0. 0. 0. 0. 0. 0. 0. 0. 0. 0. 0. 0. 0. 0. 0. 0. 0. 0.
      0. 0. 42. 0. 0. 4. 0. 0. 2. 0. 0. 0. 0. 0. 0. 0. 0. 0. 1. 0. 0. 0.
      1. 0. 0. 1. 0. 0. 0. 0. 1. 0. 0. 1. 2. 0. 0. 3. 0. 0. 1. 0. 1. 0.
      1. 2. 0. 0. 1. 0. 0. 0. 2. 0. 2. 0. 0. 0. 0. 1. 0. 0. 0. 0. 2. 0.
      0. 1. 0. 0. 0. 1. 0. 0. 0. 1. 0. 1. 0. 0. 0. 0. 1. 2. 0. 0. 2. 0.
      0. 1. 0. 1. 0. 1. 0. 2. 0. 1. 1. 0. 1. 0. 0. 0. 0. 1. 0. 0. 1. 0.
      1. 1. 0. 1. 0. 0. 0. 2. 0. 1. 0. 1. 0. 2. 3. 0. 0. 3. 0. 0. 1. 0.
      2. 0. 0. 2. 0. 1. 1. 0. 165. 76. 0. 0. 1. 0. 0. 0. 0. 0. 0. 0. 0.
      1. 0. 0. 0. 5. 0. 0. 0. 2. 0. 2. 0. 0. 1. 0. 0. 1. 1. 0. 0. 2. 0.
      0. 0. 0. 2. 0. 0. 0. 2. 0. 0. 0. 0. 0. 0. 0. 4. 1. 0. 0. 4. 0. 0.
