<?xml version="1.0"?>
<opencv_storage>
<opencv_ml_svm>
  <format>3</format>
  <svmType>C_SVC</svmType>
  <kernel>
    <type>LINEAR</type></kernel>
  <C>1.</C>
  <term_criteria><epsilon>1.1920928955078125e-07</epsilon>
    <iterations>1000</iterations></term_criteria>
  <var_count>4725</var_count>
  <class_count>2</class_count>
  <class_labels type_id="opencv-matrix">
    <rows>2</rows>
    <cols>1</cols>
    <dt>i</dt>
    <data>
      0 1</data></class_labels>
  <sv_total>1</sv_total>
  <support_vectors>
    <_>
      -6.13973938e-08 4.97724216e-07 2.06638629e-06 1.45293586e-06
      3.30841594e-08 -2.69235798e-08 -5.50440760e-08 -1.78862116e-08
      2.52632753e-06 1.06676771e-06 1.35906060e-08 8.16271267e-07
      9.51054460e-07 2.79294369e-07 6.14089402e-08 -2.50189743e-07
      -2.91530085e-07 -7.13323445e-09 4.89812768e-09 1.95224814e-08
      1.08983453e-08 1.86307787e-08 8.89822786e-07 9.05817785e-07
      1.74816250e-06 5.81373740e-07 2.56542183e-08 2.72086396e-07
      1.50685469e-06 1.73636249e-06 1.82784424e-06 2.11306519e-06
      2.66518668e-06 3.12995212e-06 8.57562100e-06 1.67046073e-05
      2.37751228e-05 2.69314041e-05 3.10486721e-05 3.10639007e-05
      3.22635678e-05 3.78997102e-05 3.57849967e-05 3.98913435e-05
      3.54488984e-05 3.59241712e-05 4.81137104e-05 5.42589551e-05
      4.12400295e-05 3.63500694e-05 3.55350603e-05 2.74735849e-05
      8.10443726e-06 2.67329619e-06 5.12582261e-08 1.38937494e-07 0.
      1.42615111e-08 0. 1.42615111e-08 0. 0. 0. 2.85230222e-08 0. 0. 0.
      1.42615111e-08 0. 0. 0. 1.42615111e-08 0. 0. 1.42615111e-08
      4.27845350e-08 0. 0. 1.42615111e-08 0. 0. 0. 0. 0. 0. 0. 0. 0. 0.
      0. 0. 0. 0. 0. 0. 0. 0. 0. 0. 0. 0. 0. 0. 0. 0. 0. 0. 0. 0. 0. 0.
      0. 0. 0. 0. 0. 0. 0. 0. 0. 7.95573669e-08 -8.54023980e-08
      -8.85626378e-06 -2.01489183e-05 -5.29728550e-06 -1.03823540e-05
      -2.59681815e-06 -2.36924598e-06 1.70726594e-06 4.89631111e-06
      7.18642377e-06 1.93295114e-06 2.46230752e-06 5.55946187e-08
      3.26294547e-08 1.41995251e-08 1.65697145e-08 -1.21253962e-07
      9.79910553e-08 -1.76093877e-08 4.87217982e-08 1.32658769e-07
      1.79516007e-07 2.32576645e-06 4.18245872e-06 3.33104754e-06
      3.04498059e-07 4.60653382e-07 1.42808858e-07 4.92736554e-08
      7.65835608e-08 5.15103444e-08 1.57964735e-08 2.48169698e-08
      2.41710758e-08 1.69197758e-08 4.25526792e-07 1.55618602e-06
      2.35854372e-07 2.55332452e-07 9.31025070e-08 6.54716317e-08
      4.83726659e-08 1.39649569e-06 1.72915134e-06 2.00017257e-06
      3.14373960e-06 4.09962695e-06 6.24009544e-06 1.24521384e-05
      2.26467382e-05 2.97020852e-05 3.18785242e-05 3.36780686e-05
      3.09370444e-05 3.64870029e-05 3.99751552e-05 3.66125823e-05
      3.47921778e-05 3.68750880e-05 5.32794111e-05 5.01538707e-05
      3.83120423e-05 3.62708161e-05 3.41977575e-05 2.46575655e-05
      5.77973333e-06 3.51014393e-07 9.87064723e-08 3.72631973e-07
      9.41055944e-08 0. 0. 0. 2.85230222e-08 0. 4.27845350e-08 0. 0. 0.
      0. 0. 1.42615111e-08 0. 0. 0. 0. 1.42615111e-08 0. 0. 0. 0. 0.
      1.42615111e-08 1.42615111e-08 0. 0. 0. 0. 0. 0. 0. 0. 0. 0. 0. 0.
      0. 0. 0. 0. 0. 0. 0. 0. 0. 0. 0. 0. 0. 0. 0. 0. 0. 0. 0. 0. 0. 0.
      0. 0. 0. 0. 0. 0. 7.48596420e-08 -1.59168053e-07 -5.27178690e-06
      -1.32614268e-05 -6.19049115e-06 -1.01815740e-05 -2.44665057e-06
      -1.83334282e-06 -9.46535965e-06 -2.80333416e-06 1.09323155e-05
      2.22888980e-06 2.42832402e-06 -9.04168758e-08 -3.82015060e-08
      2.50272393e-07 3.73717128e-08 -4.33593428e-08 -9.14942788e-09
      -8.24973512e-09 -8.28883771e-08 4.86965064e-08 1.29838691e-08
      1.41112892e-07 -1.84408167e-09 4.09537392e-07 4.26118504e-07
      3.54029027e-07 6.16103577e-08 8.67023786e-08 7.63336487e-08 0.
      4.41635137e-08 1.68985625e-08 5.15111616e-08 4.53029436e-08
      6.00021766e-09 4.52748253e-07 6.44648651e-07 5.06008178e-07
      9.46684793e-07 1.37578454e-07 1.64045403e-07 1.59386798e-06
      2.62003073e-06 3.50089294e-06 5.01409886e-06 8.09551148e-06
      1.38217156e-05 2.47220760e-05 3.02087938e-05 3.21052867e-05
      3.17339400e-05 3.74998272e-05 3.66489439e-05 3.98863558e-05
      3.78218974e-05 3.51630697e-05 4.23828351e-05 5.39987632e-05
      4.13111993e-05 3.57406061e-05 3.58816942e-05 3.17409613e-05
      2.05229353e-05 4.65584662e-06 2.28367625e-07 1.38687923e-07
      4.88527725e-08 2.86434329e-07 1.35705292e-07 0. 5.70460443e-08
      2.85230222e-08 0. 5.70460443e-08 0. 0. 0. 1.42615111e-08 0. 0. 0.
      0. 0. 0. 1.42615111e-08 0. 0. 4.27845350e-08 1.42615111e-08
      1.42615111e-08 0. 1.42615111e-08 0. 0. 0. 0. 0. 0. 0. 0. 0. 0. 0.
      0. 0. 0. 0. 0. 0. 0. 0. 0. 0. 0. 0. 0. 0. 0. 0. 0. 0. 0. 0. 0. 0.
      0. 0. 0. 0. 0. 0. 0. 0. -1.21751171e-07 -2.91091382e-08
      -2.06505231e-08 -1.32265995e-05 -5.75498279e-06 -8.98488088e-06
      -2.47468620e-06 -1.69815632e-06 1.22466463e-06 -2.05794422e-07
      7.08026073e-06 3.22195910e-06 2.31768036e-06 9.03726345e-07
      3.19660987e-09 1.61261505e-06 4.46594839e-07 3.64351149e-09
      -2.25626771e-08 1.06260700e-07 8.59222737e-08 1.53992534e-08
      -1.60603726e-08 5.07133997e-08 8.28586280e-07 8.24853657e-07
      7.09520782e-06 1.18020653e-05 6.77403750e-06 1.40041720e-06
      1.56863578e-07 2.83796595e-08 6.02692651e-08 8.21032700e-08
      4.99900707e-08 -4.74266404e-09 1.32966125e-06 2.19940330e-06
      2.59460421e-06 1.53869269e-06 3.52864674e-07 1.37455103e-07
      1.04871468e-07 2.78524817e-06 4.41387238e-06 7.56954341e-06
      1.33928779e-05 1.61812841e-05 2.14132942e-05 2.83485588e-05
      3.04916121e-05 3.26300542e-05 3.71551068e-05 3.70781127e-05
      3.74565825e-05 3.51668205e-05 3.66749955e-05 4.69187435e-05
      4.79925220e-05 3.83603256e-05 3.55800876e-05 3.41857049e-05
      2.86441809e-05 1.52539369e-05 3.64061316e-06 9.96851952e-08
      1.49477444e-07 2.03172036e-07 2.89945405e-07 5.71757397e-08
      6.85028567e-08 0. 0. 0. 1.42615111e-08 0. 0. 1.42615111e-08
      1.42615111e-08 0. 0. 0. 0. 2.85230222e-08 1.42615111e-08 0. 0. 0.
      1.42615111e-08 0. 0. 0. 0. 0. 0. 0. 0. 0. 0. 0. 0. 0. 0. 0. 0. 0.
      0. 0. 0. 0. 0. 0. 0. 0. 0. 0. 0. 0. 0. 0. 0. 0. 0. 0. 0. 0. 0. 0.
      0. 0. 0. 0. 0. 0. 0. 2.59651301e-07 -3.58530514e-07
      -3.63108597e-06 -1.24638636e-05 -8.72303917e-06 -8.82076802e-06
      -2.31111926e-06 -2.37498671e-06 4.17314823e-06 5.76210095e-06
      3.90156083e-06 2.59966237e-06 2.52294194e-06 2.56206977e-06
      6.01010015e-07 1.71514137e-06 1.68526549e-06 9.37354116e-07
      8.54394155e-09 4.46303403e-08 5.28734347e-07 2.28652834e-06
      3.58391981e-06 5.10878135e-06 5.83914198e-06 4.83031670e-07
      2.49422510e-06 7.39093184e-06 8.55891813e-06 5.03170440e-06
      4.60225280e-08 2.35856916e-08 6.00021766e-09 5.35914317e-08
      2.88361974e-07 7.80142841e-07 2.59484796e-06 1.39825011e-06
      1.21978769e-06 2.63790128e-07 1.57015180e-07 7.58524408e-08
      1.37008192e-06 4.80888502e-06 7.12855763e-06 1.26263421e-05
      2.16174703e-05 2.17807137e-05 2.32177154e-05 2.80866243e-05
      2.96867474e-05 3.26371519e-05 3.41383929e-05 3.65513115e-05
      3.80809724e-05 4.13841844e-05 5.54498220e-05 4.82669529e-05
      3.64613370e-05 3.54965268e-05 3.21081061e-05 2.20388174e-05
      6.45751743e-06 2.38986217e-07 1.06850200e-08 1.55486219e-07
      3.42433054e-07 2.08652082e-07 2.75417250e-07 1.41979314e-07
      1.69063853e-07 2.85230222e-08 0. 1.42615111e-08 1.42615111e-08
      2.85230222e-08 0. 0. 1.42615111e-08 1.42615111e-08 1.42615111e-08
      0. 0. 0. 0. 0. 2.85230222e-08 0. 5.70460443e-08 0. 0.
      4.27845350e-08 4.27845350e-08 0. 2.85230222e-08 0. 0. 0. 0. 0. 0.
      0. 0. 0. 0. 0. 0. 0. 0. 0. 0. 0. 0. 0. 0. 0. 0. 0. 0. 0. 0. 0. 0.
      0. 0. 0. 0. 0. 0. 0. 0. 0. 0. 0. 0. 1.59760560e-08 -1.71222183e-07
      -1.94143354e-06 -8.65789207e-06 -1.20220666e-05 -8.03610328e-06
      -2.11107181e-06 -2.33013020e-06 2.14192846e-06 2.13120211e-06
      7.17778767e-06 2.40160512e-06 2.20750962e-06 2.33798119e-06
      -1.16864804e-07 4.17058345e-06 4.57441502e-06 5.52250822e-06
      6.33966238e-06 5.54839744e-06 5.85350608e-06 5.69159965e-06
      5.76763068e-06 5.88507692e-06 5.92719380e-06 1.85870317e-06
      5.45403473e-08 2.81592577e-07 1.12125981e-07 1.60029600e-07
      1.02359643e-07 4.92836030e-08 3.35995871e-08 4.56991529e-08
      1.11873419e-06 8.46685509e-07 1.51960376e-06 3.39878125e-06
      3.64724428e-06 2.84538856e-07 2.20543708e-08 9.06777359e-07
      4.33394735e-06 8.97364043e-06 1.24273274e-05 2.09906721e-05
      2.30110454e-05 2.26996945e-05 2.25852673e-05 2.72397228e-05
      2.79627711e-05 3.76099670e-05 3.50223090e-05 3.65403248e-05
      4.68273684e-05 5.30076650e-05 3.96431242e-05 3.62572027e-05
      3.54198564e-05 3.08370836e-05 1.67432045e-05 3.08097856e-06
      3.28134774e-07 8.65499103e-08 5.99236273e-07 9.06719748e-08
      8.44709831e-08 2.04310680e-07 2.70761529e-08 6.66243025e-08
      1.28788301e-07 0. 0. 1.42615111e-08 0. 4.27845350e-08 0. 0. 0. 0.
      0. 0. 1.42615111e-08 0. 0. 0. 0. 0. 0. 1.42615111e-08
      2.85230222e-08 0. 0. 0. 0. 0. 0. 0. 0. 0. 0. 0. 0. 0. 0. 0. 0. 0.
      0. 0. 0. 0. 0. 0. 0. 0. 0. 0. 0. 0. 0. 0. 0. 0. 0. 0. 0. 0. 0. 0.
      0. 0. 0. 0. 0. 9.59554072e-08 1.16417439e-07 -5.26736676e-06
      -2.23692095e-05 -7.77175774e-06 -5.55421366e-06 -2.51566507e-06
      -2.38954476e-06 -1.61339517e-06 -3.61419188e-06 3.80750794e-06
      2.42599958e-06 2.18822197e-06 1.75568994e-06 6.28038492e-08
      9.35207663e-06 1.18013077e-05 1.23899754e-05 1.14372388e-05
      7.42155271e-06 6.70472627e-06 5.79201514e-06 5.79827474e-06
      5.80268943e-06 5.68776613e-06 2.32274192e-06 6.15618632e-08
      1.06839131e-07 1.02998698e-07 2.26611689e-08 5.78815289e-08
      4.17353370e-08 8.99590091e-08 5.22072199e-08 1.13501142e-06
      3.03534330e-06 5.07326695e-06 3.47887863e-06 1.34697530e-06
      3.95794046e-08 1.05931186e-07 3.15736429e-06 8.99411225e-06
      1.11656964e-05 1.88717986e-05 2.34548170e-05 2.37702570e-05
      2.12363084e-05 1.87940623e-05 2.48441374e-05 3.13054989e-05
      3.65077940e-05 4.36336923e-05 5.29947647e-05 5.57774038e-05
      4.17302763e-05 3.70059752e-05 3.54462718e-05 2.74321428e-05
      9.48135312e-06 1.77081893e-06 1.13334261e-06 4.35099906e-07
      2.10600561e-07 1.72604658e-07 1.25812221e-07 1.93180213e-07
      8.18907750e-08 3.99962715e-07 3.61058113e-07 5.49444579e-08
      2.85230222e-08 2.85230222e-08 0. 0. 0. 1.42615111e-08
      1.42615111e-08 0. 4.27845350e-08 0. 0. 2.85230222e-08 0.
      1.42615111e-08 4.27845350e-08 0. 5.70460443e-08 0. 0. 0.
      5.70460443e-08 0. 2.85230222e-08 0. 0. 0. 0. 0. 0. 0. 0. 0. 0. 0.
      0. 0. 0. 0. 0. 0. 0. 0. 0. 0. 0. 0. 0. 0. 0. 0. 0. 0. 0. 0. 0. 0.
      0. 0. 0. 0. 0. 0. 0. 0. -3.23291509e-08 -3.87321037e-08
      -7.17112971e-06 -1.39152726e-05 -9.16578483e-06 -7.28604982e-06
      -1.94122413e-06 -2.32989714e-06 -3.55351881e-06 -2.33518040e-06
      3.76645488e-08 2.86608315e-06 2.52727409e-06 1.78164362e-06
      1.29769853e-06 1.10217195e-06 8.73918816e-06 8.81032065e-06
      1.23340824e-05 1.01959959e-05 8.76328886e-06 6.94494884e-06
      6.05586911e-06 5.82832990e-06 4.45607293e-06 8.35013765e-08
      4.59113423e-08 1.00657802e-08 -1.07824183e-09 6.04875936e-08
      1.96336991e-08 7.68505881e-09 2.52584247e-08 5.09200468e-08
      1.54050917e-06 2.59909689e-06 7.23569599e-07 1.43422940e-09
      3.71316879e-08 4.45578969e-08 4.23024403e-07 5.24740381e-06
      8.31611760e-06 1.37432080e-05 2.21753708e-05 2.49562363e-05
      2.26546927e-05 1.69125033e-05 1.84424716e-05 2.45056272e-05
      3.28985407e-05 3.91164976e-05 5.29016870e-05 6.09655508e-05
      4.80816634e-05 4.43999852e-05 4.11857327e-05 2.34453546e-05
      6.18566264e-06 2.11929068e-06 3.06531911e-06 4.30625278e-06
      3.96981522e-06 3.66475183e-06 3.34078049e-06 2.92148684e-06
      2.65916810e-06 2.20998027e-06 1.88922786e-06 1.39601718e-06
      1.10866927e-06 6.70291058e-07 3.42276280e-07 0. 4.27845350e-08
      2.22479571e-06 2.46724153e-06 2.19627282e-06 1.81121197e-06
      1.45467413e-06 1.06961340e-06 6.84552560e-07 3.28014778e-07
      1.42615111e-08 0. 4.27845350e-08 0. 0. 5.70460443e-08 0. 0.
      5.84721988e-07 3.13753247e-07 1.42615111e-08 0. 0. 0. 0. 0. 0. 0.
      0. 0. 0. 0. 0. 0. 0. 0. 0. 0. 0. 0. 0. 0. 0. 0. 0. 0. 0. 0. 0. 0.
      0. 0. 0. 0. 0. 0. 0. 0. 0. 0. 0. 0. -2.97758138e-08 1.39345957e-07
      -2.65804192e-06 -6.02174350e-06 -9.28580448e-06 -5.84258851e-06
      -2.60949560e-06 -2.28804993e-06 3.55827956e-06 2.39032806e-06
      -5.12624274e-06 2.43666818e-06 2.31614536e-06 7.31195371e-07
      1.62116964e-06 -8.16640659e-06 -5.51522646e-07 1.63044285e-06
      4.39235691e-06 8.81367760e-06 9.94799029e-06 6.65443486e-06
      6.96306324e-06 6.26795099e-06 1.11935869e-07 6.24969303e-08
      2.00908460e-07 1.36124555e-07 8.55912035e-08 5.70667025e-09
      -7.08825151e-11 5.45977885e-09 2.01325872e-08 0. 0. 3.40097586e-08
      0. 1.34217242e-08 5.45977885e-09 -2.67195208e-08 6.28483235e-07
      4.56258385e-06 8.79168056e-06 1.54668796e-05 2.26430930e-05
      2.31184295e-05 1.96976489e-05 1.58806906e-05 2.12872092e-05
      2.41859216e-05 3.04642708e-05 4.41001175e-05 4.30985638e-05
      5.48698299e-05 5.11060207e-05 4.71703715e-05 2.82980473e-05
      7.33276056e-06 5.78467916e-06 7.83689484e-06 6.61212471e-06
      7.71244686e-06 7.24007077e-06 5.50011555e-06 5.86212718e-06
      6.84342240e-06 5.41314648e-06 4.98714917e-06 5.53363134e-06
      4.36227901e-06 6.35256356e-06 5.05962907e-06 6.74943294e-06
      5.66716290e-06 4.03920239e-06 4.68396956e-06 5.37297001e-06
      4.61874424e-06 6.28748376e-06 4.37733843e-06 3.73802368e-06
      4.87303760e-06 3.92733045e-06 5.46616593e-06 4.48386345e-06
      2.42460942e-06 3.41044233e-06 2.61407467e-06 2.46519267e-06
      2.63601964e-06 1.14912382e-06 3.57429622e-06 3.91588992e-06
      3.56280293e-06 3.87775572e-06 3.20433605e-06 2.56591147e-06
      2.29786156e-06 2.03618015e-06 1.65087340e-06 1.23280824e-06
      8.13045233e-07 4.90799607e-07 1.68205887e-07 5.48610544e-08
      2.97583142e-07 2.58955106e-06 2.49547202e-06 1.94234826e-06
      1.64275741e-06 1.26086150e-06 8.55563201e-07 2.20447120e-07
      1.76940020e-07 -8.57875335e-08 -2.84280706e-08 1.93871728e-07
      -3.89414190e-08 4.86040150e-08 -6.18794260e-08 7.29292111e-08
      -9.15071308e-09 -5.10751370e-08 2.60662603e-07 1.77467371e-07
      9.03029544e-08 -2.36894326e-08 -5.50061259e-08 4.55080595e-08
      -7.86552548e-08 8.44128749e-08 7.70999531e-09 -1.85481383e-07
      1.08673753e-07 1.08064974e-07 -1.11077263e-07 -1.65207013e-08
      -7.48093316e-06 -1.46503417e-05 -1.72998043e-05 -7.14653015e-06
      -2.37609902e-06 -2.32475077e-06 -6.99845771e-07 2.46663171e-06
      -4.38392362e-06 1.68202564e-06 2.28254703e-06 5.39904079e-07
      1.40637565e-06 -8.75524984e-06 -4.00460522e-06 -4.48161882e-06
      -2.37164591e-06 1.46729246e-06 5.84676991e-06 5.83904102e-06
      6.65315702e-06 6.40774215e-06 1.41959902e-06 3.00867868e-07
      -2.04654171e-07 -5.96913594e-08 1.43162438e-07 7.07312751e-08
      2.14554760e-07 6.71086209e-09 0. 1.70687695e-08 2.61755915e-08 0.
      2.01325872e-08 2.07158131e-08 1.21706414e-08 3.12790505e-08
      1.03946422e-06 5.27301927e-06 8.56170300e-06 1.48884346e-05
      2.34784857e-05 2.20549173e-05 1.74078068e-05 1.81181003e-05
      2.19997874e-05 2.43735285e-05 4.24942227e-05 4.50565822e-05
      4.52239801e-05 5.33457496e-05 5.28052879e-05 4.50599800e-05
      1.94857566e-05 1.04088076e-05 9.98058658e-06 9.02348165e-06
      9.50561662e-06 9.22746676e-06 8.73370482e-06 8.75107798e-06
      7.23856556e-06 7.52682945e-06 9.27716701e-06 8.52935227e-06
      9.78572098e-06 9.71121881e-06 8.84753717e-06 9.42497263e-06
      1.03243601e-05 1.00202024e-05 9.17417219e-06 9.12448468e-06
      1.02413069e-05 8.99331553e-06 8.61488934e-06 8.86116140e-06
      8.08201639e-06 1.00878842e-05 8.81464257e-06 8.83247230e-06
      8.28767770e-06 7.80096161e-06 8.25574625e-06 9.09162100e-06
      8.03384592e-06 8.57963460e-06 7.47527019e-06 6.73819204e-06
      9.25560562e-06 6.99244038e-06 8.45080831e-06 7.57508406e-06
      6.14277769e-06 6.94523851e-06 7.10382528e-06 6.29102578e-06
      3.94744757e-06 4.44157376e-06 4.94546293e-06 7.64692413e-06
      5.88896819e-06 4.32530396e-06 5.18583738e-06 4.83492886e-06
      5.32764807e-06 5.50138793e-06 3.51043582e-06 4.12130885e-06
      5.16078535e-06 3.38611108e-06 5.52173924e-06 3.25349970e-06
      3.07438677e-06 3.00900001e-06 2.38408620e-06 2.70750161e-06
      2.13244425e-06 1.15547846e-06 1.59726073e-06 3.39945223e-06
      3.80950223e-06 3.61656043e-06 2.64172718e-06 2.64980736e-06
      2.04669004e-06 1.79219376e-06 1.79243455e-06 8.21365177e-07
      7.92556648e-07 5.29592967e-07 -8.15450392e-08 4.74736268e-08
      -5.85408166e-09 -2.58697855e-06 -1.10413584e-05 -9.42507995e-06
      -3.80734332e-06 -1.26756140e-06 -1.50728545e-06 -6.26681276e-06
      -5.82186112e-06 -1.05410982e-06 5.76354523e-07 2.26345219e-06
      1.52396433e-06 -4.76956856e-08 -9.82366328e-06 -1.26289597e-05
      -1.43146408e-05 -1.27678268e-05 -1.67062226e-05 -1.05905719e-05
      -1.08117725e-07 7.69270991e-06 9.51802485e-06 7.28702753e-06
      3.69437521e-06 1.36427843e-07 1.88022213e-07 6.14619067e-09
      8.72172308e-08 -1.75973156e-07 1.83198523e-08 0. 3.18495921e-07 0.
      3.46991875e-08 2.32179804e-08 1.63793370e-08 1.46943826e-08
      -8.24641475e-08 -3.39693642e-08 5.27216571e-06 8.72126839e-06
      1.55479011e-05 2.18825899e-05 1.81640135e-05 1.63804725e-05
      1.78990667e-05 1.79645212e-05 2.27572164e-05 4.34168942e-05
      3.94494273e-05 4.00015924e-05 4.69698425e-05 3.86025313e-05
      2.88432511e-05 2.01365747e-05 7.98264682e-06 1.05639538e-05
      1.29864220e-05 1.03295388e-05 8.07521610e-06 6.72013721e-06
      7.71349278e-06 4.68753433e-06 1.66206723e-06 1.25520432e-06
      5.42928592e-06 6.50010998e-06 9.09846221e-06 8.61902390e-06
      1.13655742e-05 1.02975773e-05 7.01628142e-06 6.69996780e-06
      6.06054300e-06 6.16744865e-06 3.58473721e-06 4.56174712e-06
      9.40570953e-06 8.53054098e-06 7.51217340e-06 9.55610813e-06
      1.01760879e-05 1.06591297e-05 6.81667962e-06 7.06577021e-06
      4.63228389e-06 5.17740273e-06 4.21619688e-06 4.61045602e-06
      4.45095293e-06 7.02991156e-06 9.32933744e-06 9.07245521e-06
      9.88357442e-06 6.89786793e-06 2.94193524e-06 5.50435743e-06
      6.65581047e-06 4.65644644e-06 4.31049148e-06 5.60898161e-06
      8.68009920e-06 8.88834802e-06 9.74210707e-06 1.01488158e-05
      7.63150365e-06 5.07081450e-06 1.47526316e-06 2.64088499e-07
      5.10746258e-06 5.83871315e-06 2.65909262e-06 6.88816908e-06
      6.40394092e-06 5.70815564e-06 6.11029463e-06 5.02345574e-06
      5.75592321e-06 5.93162531e-06 3.69964346e-06 6.02501450e-06
      7.22837149e-06 6.21946629e-06 4.05733817e-06 6.53758161e-06
      3.65668370e-06 5.19667083e-06 2.78301354e-06 7.83552787e-06
      7.77950572e-06 5.67918141e-06 -6.12189865e-07 1.55517932e-06
      4.49404979e-06 6.25728887e-07 -6.91403727e-07 -1.02570466e-05
      -2.63121410e-06 -1.23375003e-06 1.39861197e-06 6.02372495e-07
      -3.83571160e-06 -4.49046411e-06 1.30243404e-06 -1.40898908e-06
      2.36814662e-06 2.37785571e-06 -4.88207604e-07 -2.35229509e-05
      -2.35367370e-05 -1.99146234e-05 -1.49419957e-05 -1.22450583e-05
      -1.71992833e-05 1.30456851e-06 6.36071763e-06 9.45954980e-06
      6.78008291e-06 4.64055938e-06 3.90436705e-09 -6.85780179e-08
      -8.18351751e-08 -1.60064587e-07 3.33176303e-07 2.51489467e-07
      8.38392566e-07 1.12311000e-06 1.65071175e-08 0. 1.21706414e-08
      1.16089902e-08 2.18391154e-08 -9.24896213e-08 3.32718429e-07
      3.68263727e-06 8.73414956e-06 1.38996993e-05 1.96034216e-05
      1.70770436e-05 1.58521616e-05 1.30004055e-05 1.67849594e-05
      2.11408642e-05 3.71643364e-05 3.29267386e-05 2.88362789e-05
      3.72814284e-05 2.45184492e-05 1.64748744e-05 1.41058217e-05
      3.22642268e-06 7.35546109e-06 1.17287182e-05 1.27208432e-05
      6.71283169e-06 3.83856013e-06 1.88687750e-06 1.44058546e-07
      8.37540142e-07 1.15055775e-06 3.05892058e-06 6.83927146e-06
      6.55010308e-06 9.37683581e-06 1.22261990e-05 7.71508167e-06
      7.64599463e-06 1.35881805e-06 1.55945813e-07 2.24603582e-06
      1.35661207e-06 3.36908602e-06 5.32926197e-06 7.21388096e-06
      9.97485768e-06 9.22258459e-06 8.16504871e-06 1.15154498e-05
      8.88136037e-06 3.78513892e-06 5.49907782e-06 4.43008685e-06
      6.38285155e-06 4.27023997e-06 7.18171805e-06 6.19149932e-06
      5.84546615e-06 6.40197004e-06 8.16486317e-06 3.98310112e-06
      4.34970070e-06 4.93931520e-06 7.96804613e-07 3.32068362e-06
      5.74128580e-06 4.07322295e-06 6.81106349e-06 8.48470518e-06
      7.98702604e-06 7.64162814e-06 1.38383739e-05 3.40457996e-06
      6.78915012e-06 5.98535962e-06 6.22862399e-06 1.18492408e-05
      7.51116386e-06 7.45389343e-06 7.03439923e-07 8.77357070e-06
      -1.58446460e-06 5.93389996e-06 1.17319519e-06 8.05736090e-06
      6.33987202e-06 6.01277043e-06 7.85807697e-06 1.37146517e-05
      1.40683223e-05 1.76397571e-05 9.85621318e-06 5.02454395e-06
      1.38846262e-05 7.78030153e-06 3.69193231e-06 3.70202815e-06
      1.43402724e-06 3.93696746e-06 7.18917454e-06 7.22700406e-06
      2.26402040e-06 -1.30788185e-05 -5.56256282e-06 2.12520149e-06
      1.39893075e-06 -1.96028083e-07 -2.44631337e-06 -7.86694545e-06
      -1.08814197e-06 3.83082352e-07 2.13232738e-06 2.25886902e-06
      -3.75659283e-07 -1.95808097e-05 -8.56183851e-06 -1.42189665e-05
      -1.90082683e-05 -5.28946430e-06 -1.23377613e-05 2.17477577e-06
      8.44464012e-06 8.35255378e-06 6.39205564e-06 5.72361205e-06
      2.19146614e-06 3.47615696e-07 2.18164459e-07 -3.03352587e-09
      1.59408060e-08 4.29514387e-07 8.25740869e-07 1.37391407e-06
      1.50724361e-07 6.71086209e-09 1.63793370e-08 9.79625536e-09 0.
      4.53928228e-09 6.19735317e-07 3.76956746e-06 8.67394283e-06
      1.24300450e-05 1.98901307e-05 1.70615203e-05 1.16562642e-05
      5.10564541e-06 1.17029986e-05 1.79786057e-05 2.96597209e-05
      2.37600616e-05 2.11797869e-05 3.53048927e-05 2.53410417e-05
      2.09978607e-05 1.34357579e-05 4.97026576e-06 7.45708030e-06
      8.42401550e-06 7.59211343e-06 1.21101639e-05 9.80042387e-06
      6.89467925e-06 1.02958813e-06 4.93487141e-06 9.60048237e-06
      6.90449679e-06 3.80404367e-06 6.84387078e-06 7.42829070e-06
      6.20441097e-06 5.91522121e-06 8.23107985e-06 1.28156289e-05
      8.79120398e-06 4.45874775e-06 7.68214522e-06 4.56486669e-06
      2.85205465e-06 6.31554713e-06 9.79697961e-06 1.00275502e-05
      9.17929719e-06 6.57269084e-06 1.67343296e-05 7.87203771e-06
      6.07386528e-06 5.53997506e-06 1.27870608e-05 1.17741465e-05
      7.40006544e-06 9.32946932e-06 1.69966170e-05 8.13325914e-06
      5.30278203e-06 9.22424806e-06 1.47972451e-05 1.67119051e-05
      8.36215531e-06 1.01219066e-05 9.12281121e-06 1.04135397e-05
      2.17184297e-05 1.74900106e-05 2.16725512e-05 2.10595936e-05
      1.79887065e-05 4.87303532e-06 1.25539136e-05 1.44541445e-05
      1.32979085e-05 1.28742604e-05 1.84680266e-05 1.82873646e-05
      1.57657942e-05 2.08234105e-05 2.10893068e-05 8.29762848e-06
      -3.50306749e-07 2.00225568e-05 2.63414931e-05 2.10471517e-05
      1.83881402e-05 3.04176720e-05 3.50183400e-05 2.97338775e-05
      3.28966307e-05 3.34708129e-05 2.81073972e-05 2.24728319e-05
      2.01584608e-05 1.84730725e-05 2.39755536e-05 2.65573217e-05
      2.59140361e-05 1.73397730e-05 -6.00606336e-06 -6.61013655e-06
      -6.01705688e-06 1.43584589e-06 1.93895994e-06 7.46645128e-07
      -6.26250312e-07 -1.93311939e-06 -1.24729286e-05 -4.48396520e-07
      2.58474006e-06 2.33466403e-06 -1.13319470e-06 -1.40663178e-05
      -4.57731494e-06 -2.12077957e-05 -2.74634367e-05 -9.33018964e-06
      -1.86758680e-05 -1.83283046e-05 -3.56270743e-06 6.18248123e-06
      4.78778020e-06 5.78083336e-06 5.84343525e-06 1.54003010e-06
      6.20880902e-09 1.25158522e-07 -4.58040503e-08 1.51757490e-06
      1.26659040e-06 3.49740560e-07 6.71086209e-09 1.63793370e-08
      1.95925107e-08 5.53934285e-08 0. 2.31507631e-08 4.42154402e-07
      5.19183823e-06 8.67005656e-06 1.61062599e-05 2.11072820e-05
      1.98403250e-05 9.46286673e-06 4.03685863e-06 1.32964960e-05
      2.22279596e-05 4.09765562e-05 3.97920703e-05 3.05553258e-05
      4.16314142e-05 2.71677891e-05 2.55997966e-05 1.88787726e-05
      1.01913447e-05 1.15353587e-05 1.18286544e-05 1.36696735e-05
      1.59787323e-05 2.07319299e-05 2.31683189e-05 1.59994979e-05
      1.67282360e-05 1.92143998e-05 1.68057595e-05 1.81800897e-05
      7.49815536e-06 1.15274797e-05 1.59382525e-05 1.12399193e-05
      1.30175376e-05 2.07452995e-05 1.53482906e-05 2.04197331e-05
      9.65067193e-06 2.64565728e-07 1.11256795e-05 1.18513572e-05
      1.06919051e-05 8.77250113e-06 1.52144949e-05 1.35631881e-05
      7.54870825e-06 7.52984579e-06 8.20399327e-06 1.48467852e-05
      1.30513263e-05 1.25218639e-05 1.67857543e-05 2.10764429e-05
      2.12985869e-05 1.66548652e-05 1.27020485e-05 1.82277643e-06
      6.33778336e-06 1.60881318e-05 1.41955461e-05 1.51850481e-05
      1.09840094e-05 2.08741149e-05 1.97422141e-05 2.05674914e-05
      3.12255070e-05 2.40581139e-05 1.75807327e-05 9.45048760e-06
      1.32795267e-05 2.35329899e-05 2.51886104e-05 2.52016962e-05
      3.67297107e-05 2.60663055e-05 2.43520899e-05 2.96434500e-05
      3.32781092e-05 2.64291521e-05 1.84020537e-05 2.65071485e-05
      1.95688626e-05 2.09421287e-05 3.05503272e-05 4.06200234e-05
      4.09286804e-05 3.13729179e-05 3.66584645e-05 3.63361978e-05
      3.51042181e-05 2.91329070e-05 2.57105676e-05 3.30005496e-05
      2.95090285e-05 3.18337370e-05 3.81535065e-05 3.17906088e-05
      -1.54663780e-07 -1.92693255e-06 -3.00358579e-06 -8.98468571e-08
      1.65687723e-07 -3.64324080e-07 2.19006870e-06 -3.30296552e-06
      -9.71754707e-06 -4.93328753e-06 1.95231405e-06 1.92508355e-06
      -1.29998114e-06 -7.99274312e-06 -1.65670500e-07 -1.50075475e-05
      -2.65308572e-05 -8.77554430e-06 -2.57043612e-05 -2.66225506e-05
      -1.35814798e-05 1.71120901e-05 5.51274161e-06 1.08860340e-05
      5.85862063e-06 3.02740568e-06 1.06498831e-07 2.04317150e-08
      1.01542064e-07 5.69068106e-07 1.47924482e-06 5.98539373e-07 0.
      1.58176849e-08 6.71086209e-09 2.01541610e-08 6.71086209e-09
      3.33801999e-08 2.50478774e-06 6.53254619e-06 8.14738087e-06
      1.38871783e-05 2.22141589e-05 1.71517295e-05 9.77783020e-06
      5.86791157e-06 1.66102727e-05 2.35848238e-05 4.04842031e-05
      3.64881053e-05 3.64076441e-05 3.05641515e-05 9.25918903e-06
      1.93209362e-05 1.79985254e-05 2.14530555e-05 1.74440556e-05
      1.18850667e-05 2.04101416e-05 1.67552116e-05 1.08055674e-05
      7.77895275e-06 1.34627844e-05 1.15454295e-05 1.42844701e-05
      9.98826090e-06 1.08992699e-05 1.55160924e-05 1.93047363e-05
      1.64626508e-05 1.42965409e-05 1.48518654e-06 9.47430090e-06
      1.48799199e-05 1.59829633e-05 1.38446503e-05 6.30627392e-06
      7.22819038e-07 4.67881000e-06 1.62328161e-05 1.49671814e-05
      1.44184496e-05 7.47794365e-06 1.25143624e-05 7.56102736e-06
      1.29686623e-05 1.36285462e-05 2.59369262e-05 1.82657695e-05
      7.57121916e-06 1.76365938e-05 2.67883970e-05 2.58233667e-05
      1.22340743e-05 1.94283202e-05 1.49873913e-05 1.50253363e-05
      1.34886131e-05 2.49036366e-05 2.85993137e-05 2.49830937e-05
      2.13265575e-05 2.59347726e-05 3.34634387e-05 2.71798854e-05
      1.81910837e-05 2.23165407e-05 1.73355547e-05 1.30984272e-05
      1.99405258e-05 3.02230837e-05 3.20358849e-05 2.50532757e-05
      2.71713834e-05 3.03905581e-05 2.49612258e-05 2.44970906e-05
      2.79882424e-05 2.42039496e-05 1.75921559e-05 1.26469804e-05
      2.29486559e-05 2.93255707e-05 2.46045547e-05 1.90320261e-05
      2.89296531e-05 2.82805686e-05 2.15831569e-05 2.33483370e-05
      2.65031686e-05 2.19118174e-05 1.50991918e-05 2.19040357e-05
      2.87324947e-05 2.20327947e-05 1.48302917e-07 -8.70946769e-06
      -1.03407301e-05 -4.98359555e-07 -4.59923370e-08 -1.19200990e-07
      -4.77374783e-07 -7.92603987e-06 3.41139355e-07 -2.32641673e-06
      2.48694732e-06 1.70085616e-06 -1.34578340e-06 -1.39720146e-06
      1.11499332e-06 3.72089232e-07 -1.17078907e-05 -1.64093999e-05
      -1.90832798e-05 -1.92775442e-05 -6.55593431e-06 1.80038551e-05
      1.23770888e-05 1.45232989e-05 5.76725461e-06 4.61813624e-06
      8.64892797e-08 6.76283491e-08 4.02322726e-08 1.75198829e-06
      1.55294617e-06 5.57001556e-07 2.07158131e-08 2.19668959e-08
      6.71086209e-09 5.45977885e-09 4.89812768e-09 4.53092586e-09
      5.53082771e-07 5.74671913e-06 9.33880074e-06 1.47824721e-05
      1.94886416e-05 1.37850411e-05 1.12323150e-05 1.36495792e-05
      1.36909848e-05 1.50913047e-05 2.66632287e-05 2.81616831e-05
      2.45331048e-05 2.90384378e-05 9.78327535e-06 7.09614278e-06
      1.09887997e-05 2.86397176e-06 1.68435963e-05 1.06499010e-05
      6.76487025e-06 9.19371996e-06 1.03836846e-05 1.24680400e-05
      3.96713449e-06 1.41540340e-07 5.86554870e-06 6.85732175e-06
      7.88109537e-06 1.44195019e-05 2.02762494e-05 1.26704781e-05
      9.02694501e-06 7.99351983e-06 1.65030160e-05 1.59990832e-05
      1.51752201e-05 1.54745630e-05 2.49331879e-05 1.08554577e-05
      3.68510587e-06 1.09823477e-05 2.36698306e-05 2.40998525e-05
      9.36284687e-06 1.51815948e-05 2.04583630e-05 1.72777709e-05
      1.37866564e-05 2.12841423e-05 2.42867281e-05 1.30045546e-05
      8.12333474e-06 2.10392682e-05 2.54192109e-05 1.49907883e-05
      2.08562451e-05 2.52578429e-05 1.80052248e-05 6.18936610e-06
      1.68501720e-05 2.46615218e-05 2.61638852e-05 1.10938963e-05
      1.39648600e-05 2.75362509e-05 2.16042990e-05 1.24811795e-05
      1.93648848e-05 2.23786847e-05 1.05643048e-05 6.52208428e-06
      1.78300652e-05 2.65406143e-05 2.04168173e-05 1.91149156e-05
      2.32745278e-05 2.66024199e-05 1.55276721e-05 1.86014331e-05
      1.85725257e-05 1.76380781e-05 7.35339745e-06 1.37290053e-05
      2.29221569e-05 2.32889615e-05 2.13583644e-05 2.74295526e-05
      2.68117346e-05 2.33232968e-05 1.69674822e-05 2.00701379e-05
      2.26230932e-05 1.38180994e-05 9.91248453e-06 2.16407552e-05
      1.40953862e-05 -2.42500914e-06 -5.46930414e-06 -8.62489014e-06
      7.91007615e-09 -1.30750863e-07 -3.07415982e-10 -1.90782271e-06
      -1.73099652e-05 -8.27989788e-06 -2.80576000e-06 2.31293643e-06
      1.24094242e-06 -1.24370342e-06 -8.46853396e-08 -1.59604046e-08
      -4.11742576e-07 -2.47689459e-05 -2.00083796e-05 -1.54779154e-05
      -1.20720370e-05 4.31783974e-07 2.04699845e-07 7.85437896e-06
      1.13894048e-05 4.32184379e-06 2.81757889e-06 1.08220085e-07
      -4.05514982e-08 -1.43144007e-07 6.41073768e-07 1.67047824e-06
      1.04288392e-06 4.89812768e-09 3.41690054e-08 3.46073463e-08
      3.43407756e-08 2.13356941e-08 -8.69910366e-08 4.33885077e-07
      3.34638230e-06 8.68922962e-06 1.44758596e-05 2.31158592e-05
      1.52391258e-05 9.11930510e-06 1.52281355e-05 1.72656346e-05
      1.07336082e-05 1.86378456e-05 2.35115949e-05 1.37644492e-05
      2.33316732e-05 8.88831255e-06 1.01326605e-05 1.89365346e-05
      1.52179409e-05 1.07561118e-05 2.35426814e-05 2.19074627e-05
      9.40767677e-06 1.56424830e-05 2.34753461e-05 1.72710497e-05
      1.37353509e-05 1.26302593e-05 1.66989048e-05 1.79034814e-05
      7.19828267e-06 1.78591072e-05 2.50834455e-05 1.33851545e-05
      6.99176962e-06 1.35605851e-05 1.88241920e-05 8.37812877e-06
      1.14139411e-05 1.61398184e-05 1.67766921e-05 8.90153933e-06
      6.58932277e-06 1.94007353e-05 2.60071356e-05 1.25698425e-05
      8.82651966e-06 1.97621175e-05 1.45593258e-05 8.73819590e-06
      1.15832145e-05 2.02359661e-05 1.70974599e-05 9.43150280e-06
      9.11357802e-06 2.14820029e-05 2.12752457e-05 1.12583120e-05
      1.93456144e-05 1.88253071e-05 7.11401208e-06 9.58630699e-06
      1.39902095e-05 2.13695421e-05 2.16770204e-05 6.94414121e-06
      1.55077814e-05 2.40257850e-05 1.40358261e-05 1.35433993e-05
      1.49557491e-05 1.36409526e-05 4.68258122e-06 7.02252737e-06
      1.55644138e-05 2.25222066e-05 1.70694293e-05 1.33785261e-05
      2.30691858e-05 1.58553830e-05 1.26964778e-05 1.46185694e-05
      9.85726911e-06 5.94517678e-06 5.23733706e-06 1.00303441e-05
      2.17565321e-05 1.96619585e-05 2.49030563e-05 2.96250601e-05
      2.39007441e-05 2.31469057e-05 1.91612744e-05 2.22882427e-05
      2.13519597e-05 1.45120630e-05 7.37380378e-06 4.64108598e-06
      -5.80192022e-07 -6.33828495e-06 -2.98836767e-06 -1.37237137e-07
      1.19288444e-07 -1.04407064e-07 1.41016372e-07 -4.16091916e-06
      -1.09204784e-05 -1.34659797e-06 2.28350359e-06 6.39782115e-07
      -1.57405043e-06 4.41883863e-08 -1.29655376e-07 -7.44227737e-06
      -1.03679031e-05 -1.61381740e-05 -1.88217964e-05 -3.60394961e-06
      4.93649486e-06 -1.54679685e-06 7.72976455e-06 1.90362118e-06
      1.63873597e-06 2.22757464e-07 -1.39596551e-07 1.79450822e-07
      1.41059768e-08 1.30270917e-06 1.22096992e-06 2.31706050e-08
      1.82118441e-07 4.30683578e-08 4.63412100e-08 4.03742852e-08
      3.40967290e-08 1.39224468e-07 1.43443344e-06 6.20441051e-06
      9.25824770e-06 1.50739179e-05 2.15120508e-05 1.56144142e-05
      9.78128355e-06 1.72154305e-05 2.37438144e-05 1.86029829e-05
      2.57663942e-05 2.33079227e-05 1.85834524e-05 1.93790875e-05
      1.40677575e-05 1.32996156e-05 2.05604174e-05 1.62396736e-05
      1.20989025e-05 1.43011121e-05 2.64785795e-05 2.30744590e-05
      1.14435225e-05 1.86467532e-05 1.41451201e-05 9.63375260e-06
      1.07035767e-05 1.29557839e-05 1.39581925e-05 6.51980281e-06
      4.82096129e-06 1.51817630e-05 1.37952129e-05 5.79044536e-06
      5.99666646e-06 9.02196916e-06 6.49357526e-06 6.89975968e-06
      1.14785616e-05 1.21872572e-05 1.34887268e-05 8.80649259e-06
      7.90257127e-06 2.01706753e-05 1.66035916e-05 8.41274505e-06
      1.12541766e-05 1.59025440e-05 1.23822374e-05 8.33967260e-06
      1.24524913e-05 1.37841253e-05 1.03910170e-05 5.63456479e-06
      9.55722589e-06 1.33314652e-05 1.19478200e-05 1.09098610e-05
      1.02890335e-05 7.42591919e-06 7.82275038e-06 6.50067568e-06
      1.38507157e-05 2.00847826e-05 1.29226664e-05 9.84523285e-06
      1.43502402e-05 1.27052726e-05 1.34926922e-05 7.12931251e-06
      1.76658359e-05 1.68964361e-05 5.86769374e-06 8.46529201e-06
      1.34172251e-05 1.80452134e-05 1.28005095e-05 1.25275146e-05
      1.67654689e-05 1.73777789e-05 1.23151531e-05 7.67944857e-06
      1.02803670e-05 8.94008372e-06 8.06108983e-06 8.28894281e-06
      1.84678574e-05 1.87172027e-05 1.98293619e-05 2.38532630e-05
      2.44197054e-05 1.83508237e-05 1.38469686e-05 1.37197158e-05
      2.22521394e-05 1.20891864e-05 3.39883604e-06 -1.09100495e-06
      -6.75441015e-06 -1.05416875e-05 -4.53789340e-07 -5.23852925e-08
      1.91785162e-07 -7.00222316e-08 -6.01337979e-06 -5.17620265e-06
      3.90223704e-06 2.04374351e-06 3.68250824e-07 -1.17457057e-06
      -4.82308280e-07 -1.55192515e-06 4.54590145e-06 -6.12870508e-06
      -1.52120419e-05 -1.89796774e-05 -1.45387276e-06 6.13845077e-06
      1.66496211e-05 2.81510202e-05 1.72879372e-05 1.24171438e-05
      2.21464504e-07 7.17409563e-08 7.34287440e-08 3.87930049e-06
      3.49888933e-06 1.57166585e-06 2.57819721e-07 4.95709429e-08
      9.79625536e-09 3.16931228e-08 3.29351302e-08 0. -3.73746794e-08
      6.79641630e-07 4.57363558e-06 8.36449726e-06 1.50527039e-05
      2.04599328e-05 1.53156234e-05 1.14012846e-05 1.95065859e-05
      2.43055656e-05 2.35703774e-05 3.13014461e-05 2.25559379e-05
      1.02519425e-05 1.50479718e-05 1.76013382e-05 1.25830011e-05
      1.04087703e-05 8.82413224e-06 1.68125353e-05 1.64195262e-05
      1.75334808e-05 2.08925012e-05 1.06786847e-05 6.33754235e-06
      5.00309625e-06 6.49270351e-06 7.23597441e-06 7.33700426e-06
      1.03271386e-05 8.85138252e-06 4.82287805e-06 1.29089949e-05
      1.12659145e-05 8.37900006e-06 6.61187732e-06 7.98570454e-06
      6.37837320e-06 5.23948529e-06 6.86565181e-06 9.78802109e-06
      1.33105150e-05 9.95882783e-06 8.73929002e-06 1.49228408e-05
      1.92463958e-05 9.17882335e-06 1.09002776e-05 1.19922661e-05
      1.74025208e-05 8.78966694e-06 8.27289205e-06 1.10298270e-05
      1.32625628e-05 1.07080386e-05 6.76158652e-06 1.60180371e-05
      2.34544113e-05 1.18504186e-05 1.10602232e-05 1.52251869e-05
      1.20205750e-05 8.37981497e-06 8.36264280e-06 2.09709506e-05
      1.71490155e-05 1.35671762e-05 9.70612109e-06 2.41205053e-05
      1.34810480e-05 8.58034491e-06 1.23235741e-05 2.09343852e-05
      1.14496552e-05 7.83627365e-06 1.35628397e-05 2.15228974e-05
      1.37173884e-05 1.39855274e-05 1.85787649e-05 1.84456785e-05
      9.43618306e-06 7.16886188e-06 1.48625340e-05 1.60525542e-05
      7.10313770e-06 1.02024069e-05 1.91521267e-05 2.26172106e-05
      1.50001533e-05 1.33834292e-05 2.64116188e-05 2.15887230e-05
      9.08977563e-06 1.40206130e-05 2.12929335e-05 2.00551985e-05
      5.18626484e-06 -4.20982087e-06 -1.01925880e-05 -1.08432341e-05
      -7.25710407e-08 -7.04041625e-08 2.03340047e-08 -9.20016760e-07
      -1.54098634e-05 1.89802307e-07 1.50872347e-06 2.33017977e-06
      -1.62595228e-07 -1.33541596e-06 -6.96236657e-06 7.27152019e-06
      1.77606453e-05 -5.19468585e-06 -1.20909099e-05 -7.07425852e-06
      -7.68951668e-06 5.96956988e-06 9.20629100e-06 1.83983720e-05
      1.92944917e-05 1.52875309e-05 7.51223297e-07 1.43245572e-07
      6.85176360e-08 1.15218586e-06 2.02966612e-06 1.22621998e-06
      1.80916651e-08 7.81187293e-09 6.14736990e-08 9.63173292e-08
      3.51598324e-08 6.65743372e-08 2.10960724e-08 5.85976522e-07
      5.50047071e-06 9.86727719e-06 1.31760798e-05 2.04262633e-05
      1.46018037e-05 8.23394930e-06 1.40384736e-05 2.34538784e-05
      1.16984711e-05 2.80316854e-05 1.84348337e-05 -2.97413158e-06
      8.40351458e-06 1.85358131e-05 1.54531372e-05 1.83184648e-06
      7.24187294e-06 2.28546160e-05 1.88819322e-05 1.37045236e-05
      1.27338926e-05 1.48997260e-05 1.25243685e-06 -4.26977181e-07
      1.19985571e-05 1.14412305e-05 5.35304935e-06 4.15535942e-06
      6.50744460e-06 1.03601924e-05 1.56254337e-05 5.29937688e-06
      8.86484759e-06 9.34462241e-06 5.19797140e-06 3.68750966e-06
      6.22801963e-06 8.60588170e-06 8.73647969e-06 7.31679211e-06
      2.14111406e-05 1.74781417e-05 1.37430343e-05 1.59576284e-05
      1.00380303e-05 1.19045972e-05 1.02028025e-05 1.38706655e-05
      1.02627428e-05 6.15374711e-06 1.20136938e-05 1.93421201e-05
      1.30562885e-05 9.47213994e-06 1.29370383e-05 2.32020593e-05
      1.70668918e-05 1.34262564e-05 1.75577297e-05 2.34103754e-05
      1.22066294e-05 8.85750796e-06 2.07675275e-05 2.24419655e-05
      1.97334793e-05 1.73567969e-05 1.84540349e-05 2.27099281e-05
      1.20909717e-05 1.36135877e-05 2.03242980e-05 1.22068204e-05
      9.28954796e-06 1.78106457e-05 2.14947886e-05 1.86122525e-05
      1.83888351e-05 2.45554402e-05 1.88356425e-05 7.34850119e-06
      1.15466582e-05 2.00448630e-05 1.51389622e-05 9.60090620e-06
      1.03455068e-05 2.07267858e-05 2.15048440e-05 1.11062327e-05
      1.71354732e-05 2.98583163e-05 1.38525138e-05 1.15644079e-05
      1.41286264e-05 1.99548813e-05 1.38588111e-05 6.96736095e-07
      -6.61958939e-06 -4.79490291e-06 -4.38523330e-06 1.25362462e-07
      -2.62863580e-08 2.45499422e-07 1.29418379e-06 -3.48325148e-06
      -2.22364429e-06 4.28640897e-06 2.43412069e-06 -4.26922128e-07
      -1.17734226e-06 -2.18487294e-05 -6.55461372e-06 4.63834749e-06
      1.13711185e-05 9.03519049e-06 5.41516158e-07 2.59429839e-06
      1.94303557e-05 1.67545350e-05 1.94951444e-05 1.91945092e-05
      1.48016361e-05 1.25151291e-05 1.61284731e-06 5.74735168e-07
      3.06447714e-06 1.92510515e-06 3.75136082e-08 4.17993391e-08
      1.54639906e-07 2.04373620e-07 2.33008333e-08 9.40801002e-08
      1.69197758e-08 2.14259241e-08 1.07406504e-06 5.41379859e-06
      9.25340464e-06 1.28227330e-05 2.07806297e-05 1.71772408e-05
      9.20147613e-06 1.62272481e-05 2.07521789e-05 1.21119429e-05
      3.04592722e-05 2.91283595e-05 4.91084529e-06 1.17363943e-05
      1.64664616e-05 9.50501180e-06 2.86205449e-07 3.16730939e-06
      2.19602898e-05 1.17826739e-05 6.59931720e-06 1.57335417e-05
      2.02535321e-05 9.69224948e-06 3.81838026e-06 8.57888608e-06
      1.33506737e-05 3.93740720e-06 1.12085445e-06 1.52106750e-05
      1.49477755e-05 8.98354847e-06 6.02141108e-06 1.69039449e-05
      1.22579950e-05 2.29917691e-06 8.93156596e-07 1.11572990e-05
      5.52412212e-06 5.12609313e-06 6.84262432e-06 1.43727220e-05
      1.48745585e-05 8.96052825e-06 7.24603751e-06 5.93111145e-06
      5.99789109e-06 5.89984165e-06 1.46925668e-05 6.43706835e-06
      3.08975245e-06 1.21308085e-05 1.36809704e-05 1.33850172e-05
      1.07426704e-05 1.53944839e-05 1.27020012e-05 8.29935288e-06
      1.07739952e-05 1.87841579e-05 1.10625278e-05 6.26117344e-06
      7.31069304e-06 1.74060679e-05 2.04319058e-05 1.59334941e-05
      1.34855018e-05 1.70281728e-05 8.47183946e-06 1.23927912e-05
      1.19781280e-05 1.21236944e-05 1.05079780e-05 9.43902887e-06
      1.61563148e-05 1.88047561e-05 1.52318016e-05 2.16860244e-05
      2.38968350e-05 1.12009511e-05 1.21087596e-05 1.97687841e-05
      1.83895463e-05 8.55687267e-06 1.26135646e-05 1.83818011e-05
      1.93376000e-05 1.63163404e-05 1.74346496e-05 2.46026157e-05
      1.88793256e-05 9.98293490e-06 1.64239973e-05 1.93295000e-05
      1.94472850e-05 1.13497063e-05 1.01998257e-05 -6.94189339e-07
      -1.17877044e-05 -1.02217427e-05 -7.20160074e-07 -2.17336549e-07
      -2.50367918e-07 -1.24526900e-06 -8.47808224e-06 -5.75479498e-06
      4.15481145e-06 2.07936296e-06 -9.41480835e-07 -1.26997031e-06
      -3.44281871e-05 -1.60286945e-05 2.95450400e-06 1.70483927e-05
      1.34307004e-06 1.97747204e-06 1.24069511e-05 1.98355137e-05
      1.78698210e-05 1.92161460e-05 1.84388009e-05 1.93194464e-05
      8.86302314e-06 5.39678382e-08 4.35988454e-07 3.14564500e-06
      1.03253467e-06 1.29217135e-08 2.01325872e-08 1.61990852e-06
      1.04813614e-06 5.35932578e-08 4.78017128e-08 7.83364555e-08
      4.20772430e-08 1.01139062e-06 5.25068208e-06 8.70174063e-06
      1.22380134e-05 2.11831939e-05 1.54010377e-05 1.04453111e-05
      1.60147392e-05 2.17384004e-05 1.36973886e-05 2.97898441e-05
      2.46534655e-05 9.74780050e-06 2.03213931e-05 1.73196822e-05
      9.05676461e-06 9.54856205e-06 1.20966679e-05 1.83438133e-05
      9.73098849e-06 1.18409971e-05 1.31230254e-05 2.44568055e-05
      7.44762110e-06 7.99652389e-06 1.72711498e-05 5.79089601e-06
      2.02996304e-07 1.37226571e-05 1.52054781e-05 1.51680224e-05
      7.55708425e-06 1.83185039e-05 1.40833372e-05 6.49168533e-06
      2.34923573e-06 5.43093302e-06 2.89248464e-06 4.18892341e-06
      9.50249523e-06 1.04393521e-05 1.33799858e-05 1.08742443e-05
      8.92459684e-06 8.98533017e-06 5.59219779e-06 9.26638495e-06
      8.35797891e-06 9.56574240e-06 5.96845439e-06 1.08334971e-05
      1.71963311e-05 1.55334401e-05 1.28350821e-05 1.82032472e-05
      1.73420285e-05 8.26192081e-06 9.33428873e-06 1.36888257e-05
      9.70290785e-06 3.83118686e-06 6.81319034e-06 1.92971693e-05
      2.04241042e-05 1.63566692e-05 1.32559871e-05 1.92859588e-05
      1.28889742e-05 8.06086427e-06 1.20265522e-05 1.54469872e-05
      8.19301931e-06 1.26320156e-05 2.50563371e-05 1.69125105e-05
      1.40305474e-05 2.03169475e-05 2.20555030e-05 1.06647931e-05
      9.59120280e-06 1.53468955e-05 1.41495530e-05 8.29281907e-06
      1.54638710e-05 2.58652453e-05 2.93375979e-05 1.57565391e-05
      2.00066734e-05 2.48162451e-05 2.52446389e-05 1.70544827e-05
      1.32700388e-05 2.21523005e-05 1.89771708e-05 1.40718284e-05
      2.19722679e-05 2.26664633e-05 -3.29017394e-06 -9.22513118e-06
      -1.25759143e-05 -2.68060671e-06 -1.87811872e-06 -1.30633452e-06
      1.81016873e-07 5.57598105e-06 -7.85833436e-07 2.17220713e-06
      2.03007062e-06 -1.22108588e-06 -1.01600619e-06 -1.88591348e-05
      -1.79856561e-05 -9.39908841e-06 -1.05922900e-05 -1.69156137e-05
      -6.68755729e-06 1.43266898e-05 2.46821492e-05 2.38951889e-05
      9.43686700e-06 5.58048760e-06 4.81692632e-06 -4.68597925e-08
      8.48786286e-08 -2.34898163e-08 4.75155304e-07 5.39420952e-08
      3.90216215e-08 7.46973754e-08 1.05490835e-06 1.14841191e-06
      1.27110802e-08 2.45515643e-08 4.70418815e-09 1.83595759e-07
      5.18259867e-07 6.08730625e-06 8.53794882e-06 1.27506519e-05
      1.89727671e-05 1.74447705e-05 1.62857341e-05 1.99479546e-05
      2.68711665e-05 2.31781833e-05 2.36348897e-05 2.82019628e-05
      2.63820457e-05 3.41712621e-05 2.67724536e-05 1.64946869e-05
      2.38628018e-05 2.09764585e-05 1.19653032e-05 1.30820563e-05
      1.87665210e-05 1.82991025e-05 1.18784374e-05 1.47296096e-05
      2.05308224e-05 1.75977457e-05 8.01513033e-06 1.86202615e-05
      2.02176398e-05 7.71269697e-06 9.19577997e-06 1.66971804e-05
      1.37812722e-05 7.86086821e-06 1.04157962e-05 8.02318482e-06
      1.35948731e-05 1.09204784e-05 1.24522012e-05 2.00308150e-05
      1.15837483e-05 1.25590759e-05 1.66347036e-05 1.22279216e-05
      6.98167150e-06 7.78315643e-06 1.49821572e-05 4.57306123e-06
      3.10848986e-06 8.04410138e-06 1.33673821e-05 6.28305406e-06
      6.07964103e-06 1.81118376e-05 1.97429654e-05 6.34854132e-06
      1.20439236e-05 1.56253718e-05 1.36875005e-05 3.71161059e-06
      6.68570010e-06 2.26509219e-05 2.66091520e-05 9.46505588e-06
      9.86145187e-06 2.18330570e-05 1.44270516e-05 4.38000052e-06
      1.14393233e-05 1.16855481e-05 3.11890994e-06 1.29739719e-05
      1.75740734e-05 2.30785590e-05 1.28343045e-05 1.36849440e-05
      2.24778214e-05 1.28168967e-05 6.61374088e-06 1.42739700e-05
      1.59788178e-05 1.31105498e-05 3.59081037e-06 1.21705807e-05
      2.85750411e-05 2.28584631e-05 6.76446552e-06 1.59836491e-05
      2.28296576e-05 -4.47024689e-07 9.48395427e-06 1.03270659e-05
      1.50492747e-06 -8.66842038e-06 -2.55197460e-06 1.10777983e-05
      9.91289380e-06 -2.25633139e-05 -2.24658124e-05 -1.81412670e-05
      -4.16764897e-06 -2.03278501e-06 -8.76832303e-07 7.90373520e-07
      -1.31873196e-06 -1.39587883e-06 8.50625952e-07 1.09950486e-06
      -1.16273554e-06 -1.39139820e-06 -1.34205911e-05 -6.60089927e-06
      -5.75638387e-06 -2.91953393e-06 -1.05107692e-05 1.01398939e-06
      6.31775811e-06 1.50925644e-05 5.83984956e-06 -6.48151683e-08
      9.54620845e-08 -5.74076751e-08 1.41819086e-07 -4.58281839e-08
      1.86644840e-07 -1.80044744e-08 4.06773637e-08 6.71086209e-09
      2.20685141e-08 3.51598324e-08 2.36306370e-08 2.14219398e-08
      8.98433470e-08 6.00021766e-09 -7.48272342e-08 1.05142317e-06
      4.45667501e-06 8.17371529e-06 1.38292862e-05 2.14263782e-05
      1.91732815e-05 1.78302635e-05 1.74343786e-05 2.54614297e-05
      2.16293574e-05 2.76169030e-05 3.57350436e-05 3.90966634e-05
      4.56666712e-05 2.80852419e-05 2.14722513e-05 1.90915944e-05
      1.51457816e-05 1.20922759e-05 2.21328210e-05 1.97280824e-05
      1.28021720e-05 8.73767203e-06 2.04734042e-05 1.70857384e-05
      1.10628425e-05 2.23997558e-05 1.78865248e-05 1.32221794e-05
      9.32792136e-06 1.37984043e-05 1.59069787e-05 1.24489707e-05
      1.15076173e-05 1.68862935e-05 2.11783372e-05 1.01749620e-05
      1.05253321e-05 2.21718510e-05 2.26454686e-05 5.18040406e-06
      1.34792408e-05 1.68491351e-05 1.40636839e-05 2.42551619e-06
      1.03781485e-05 1.21967259e-05 8.01487295e-06 1.22586316e-05
      1.53198835e-05 1.58682997e-05 7.38639574e-06 8.43951693e-06
      9.66329299e-06 1.08660115e-05 8.99138013e-06 8.53311030e-06
      1.00266479e-05 9.06671357e-06 6.51398523e-06 8.32682690e-06
      1.80078259e-05 1.52886423e-05 6.59697025e-06 1.18810931e-06
      7.05299090e-06 -3.20283857e-06 3.32244639e-07 7.63268508e-06
      8.21166850e-06 -2.05613429e-08 6.95356130e-06 7.82258394e-06
      5.08722178e-06 5.66379504e-06 8.15451858e-06 1.92792436e-06
      1.46983871e-06 7.08082950e-07 2.51285110e-06 -4.10605253e-06
      -6.67117865e-06 7.38414059e-08 4.82947462e-06 -1.69621865e-06
      3.72286627e-06 -6.94148916e-09 1.11523395e-08 2.27826922e-06
      -7.03481055e-06 -1.19578217e-05 -1.01267706e-05 -1.88672984e-05
      -1.27916474e-05 -7.44297813e-06 -1.47562105e-05 -8.54338759e-06
      -2.38570483e-05 -3.13667624e-05 -1.65056645e-05 -2.69534144e-06
      -1.35601067e-06 9.90826948e-07 -5.45984051e-07 -9.07987578e-06
      -3.39076632e-06 1.61661564e-08 1.28491445e-06 -1.37060590e-06
      -1.18169964e-06 -1.95509729e-05 -1.49647976e-05 -6.94290338e-06
      -2.72547754e-06 5.54548888e-06 1.44956815e-07 9.22537583e-06
      9.32183139e-06 -1.42479246e-06 9.05821835e-08 2.25650805e-08
      5.13031950e-10 8.91980463e-08 2.76884311e-08 3.05509218e-08
      7.10020771e-08 5.12335019e-09 5.12335019e-09 0. 0. 0.
      5.12335019e-09 1.02467004e-08 0. 6.33666701e-08 5.44250895e-07
      4.32861179e-06 9.39451547e-06 1.65000129e-05 2.30769347e-05
      2.46460459e-05 2.13868861e-05 2.55183895e-05 2.83971258e-05
      2.80986842e-05 3.51853123e-05 3.79143748e-05 3.73549956e-05
      4.04691345e-05 2.89343679e-05 2.37078784e-05 1.47543751e-05
      1.50734895e-05 1.78691807e-05 1.40794637e-05 1.31217112e-05
      1.00455636e-05 1.09828397e-05 7.65717687e-06 6.26632027e-06
      1.27047724e-05 1.29740656e-05 7.37100299e-06 1.16057772e-05
      1.18858288e-05 4.14891929e-06 1.14827617e-05 7.42829388e-06
      3.58589068e-06 5.12668430e-06 1.07337391e-05 3.71287865e-06
      5.80640062e-06 1.02410359e-05 8.83203393e-06 1.22042184e-05
      5.81114023e-07 7.29532667e-06 4.23019355e-06 5.70142731e-07
      6.06985122e-06 1.25454717e-05 1.06241278e-05 -7.97992527e-07
      3.70141811e-06 7.93093477e-06 4.66160691e-06 8.82134282e-06
      5.62370769e-06 1.49489761e-05 1.40724633e-05 -2.56295402e-06
      -7.90774175e-06 8.66542450e-06 7.32750050e-06 2.07319204e-06
      -2.47226376e-06 1.73823389e-06 1.31226207e-05 9.49880086e-06
      6.51551045e-06 4.95073436e-06 -1.46246680e-06 -6.54726909e-06
      2.00246930e-07 5.78272011e-06 -4.72286547e-06 -8.78655828e-06
      -3.27900875e-06 9.55272571e-06 -3.94898689e-06 -7.68370865e-06
      3.10580594e-06 -7.82158259e-06 -6.77996604e-06 -8.04902629e-06
      -1.72344028e-06 -7.10803079e-06 -9.93403683e-06 -1.17494474e-05
      -1.89272882e-07 -5.54222288e-06 -1.30396143e-06 -1.40402915e-06
      -5.98917313e-06 -1.23017089e-05 -9.08270067e-06 -1.19115057e-05
      -1.19272554e-05 -8.93064407e-06 -7.98327710e-06 -3.05249637e-06
      -1.56263159e-05 -2.46164927e-05 -1.38914356e-05 -3.75004311e-06
      -2.20284119e-06 4.92846823e-07 -1.66960342e-06 -1.19682863e-05
      -8.03750663e-06 -2.46588434e-06 8.60647731e-07 -1.38836958e-06
      -5.88647424e-07 -7.13454392e-06 6.54624500e-07 3.00885790e-06
      6.56805878e-06 1.66074078e-05 1.30745357e-05 1.39258318e-05
      1.44749483e-05 7.97823577e-06 1.45578639e-07 6.00470855e-08
      9.15941030e-08 3.08928065e-08 7.25251894e-08 8.99899746e-08
      2.35403803e-08 0. 0. 0. 5.12335019e-09 1.02467004e-08 0. 0.
      1.02467004e-08 1.55890078e-07 1.52303457e-07 4.71202475e-06
      9.16164845e-06 1.51075265e-05 2.26200791e-05 2.45426527e-05
      2.25204731e-05 2.35886873e-05 2.32774673e-05 2.75537514e-05
      3.73657895e-05 3.60460363e-05 3.62135470e-05 4.46465965e-05
      3.68009823e-05 2.84906400e-05 2.25841231e-05 1.92717707e-05
      1.72143282e-05 1.80476363e-05 1.88345421e-05 1.83295870e-05
      1.29755808e-05 1.42963327e-05 1.59094780e-05 6.09598055e-06
      7.17971352e-06 1.01601108e-05 1.74060733e-05 2.45867595e-05
      1.29505524e-05 1.55072885e-05 1.44316346e-05 8.84570454e-06
      2.08679694e-06 9.75319108e-06 1.50536844e-05 6.15305771e-06
      1.70304702e-05 9.37076038e-06 1.42854942e-05 1.45325603e-05
      1.63350924e-05 1.17420977e-05 8.06834214e-06 1.17255140e-05
      1.62307024e-05 1.09506918e-05 6.27186978e-07 7.67446636e-06
      1.14841750e-05 1.11765557e-05 9.05647357e-06 9.87986550e-06
      1.72483542e-05 6.70731379e-06 4.29988313e-06 4.71783460e-06
      8.37856260e-06 9.75723924e-06 3.58637953e-06 8.55999588e-06
      3.57900853e-06 8.42232930e-06 3.69292297e-06 6.42772193e-06
      4.15241630e-06 3.49833113e-06 -1.06090545e-06 -1.54056670e-06
      3.68782685e-06 2.63729316e-06 2.26221772e-07 -3.74669185e-07
      4.60380285e-08 1.47650292e-06 -8.09688686e-07 -2.13499348e-07
      -9.32157604e-07 -4.58772348e-07 -1.27350063e-07 -5.91624712e-07
      -3.53135670e-06 6.79813112e-08 -7.40337072e-08 -3.88273918e-07
      4.22835775e-08 -2.46257542e-07 8.95128807e-08 2.74650507e-08
      -7.54206440e-07 -1.72483351e-06 -9.68060817e-07 -2.00503536e-07
      6.23496632e-08 -4.25266336e-07 -5.16424805e-08 -8.25400639e-06
      -1.81855539e-05 -5.65517757e-06 -4.06164372e-06 -2.55453210e-06
      6.82485222e-07 -1.99356600e-06 -1.10799310e-05 -7.50123036e-06
      -3.25193446e-06 1.56689396e-07 -8.44162344e-07 1.37533436e-06
      7.14134876e-06 1.17453974e-05 1.69573013e-05 1.06275847e-05
      1.03202474e-05 1.42201452e-05 1.10881238e-05 1.37866800e-05
      7.61684487e-06 1.25581141e-06 1.59547221e-06 9.77854484e-07
      5.17839034e-08 7.53646674e-08 1.12825402e-08 1.61731734e-07
      2.56167514e-08 5.12335019e-09 0. 0. 0. 1.02467004e-08 0.
      5.12335019e-09 6.70698150e-11 1.02809804e-06 4.31552280e-06
      8.73066892e-06 1.24239432e-05 2.10983362e-05 2.18829355e-05
      1.78000537e-05 1.85207518e-05 2.06628702e-05 2.14254578e-05
      4.36997761e-05 4.32782726e-05 4.43508943e-05 5.24014431e-05
      4.80466588e-05 4.01322905e-05 1.88222693e-05 1.68671704e-05
      1.72731397e-05 1.36145063e-05 1.86654270e-05 1.58429521e-05
      1.63618242e-05 1.91042836e-05 1.29401515e-05 1.86297693e-05
      1.80053776e-05 1.76601898e-05 1.46317325e-05 1.41624105e-05
      1.87016376e-05 8.49419666e-06 1.09684597e-05 1.16317769e-05
      1.39503709e-05 1.22421970e-05 8.62664183e-06 1.08696322e-05
      9.09874780e-06 8.34522416e-06 4.91416722e-06 8.32865135e-06
      5.58084912e-06 3.72736145e-06 8.39722816e-07 1.74748345e-06
      2.98408941e-06 5.70562906e-06 1.23015099e-07 9.11121674e-07
      2.50094104e-06 1.06925677e-06 2.54090423e-07 4.09265439e-08
      1.10194526e-06 1.03738728e-07 -1.08106221e-07 5.50664254e-07
      -6.34157828e-08 6.82867210e-07 -6.88867843e-08 -1.70579213e-07
      1.78455632e-08 -1.19139818e-08 2.13442618e-07 -2.35878659e-07
      -1.90462714e-07 3.87268564e-08 -2.53514756e-08 -9.03805812e-08
      -6.10955198e-08 -2.67958654e-07 -1.05785055e-07 -5.68986387e-08
      -1.28489603e-07 -7.11500405e-08 -1.05326549e-07 -9.14201337e-08
      -1.47445419e-07 8.93004355e-08 3.97812308e-08 -1.35671471e-07
      -1.36242946e-07 -1.41700312e-07 5.40918279e-08 -1.28549914e-07
      -2.45370046e-07 -3.27637970e-08 -1.38840576e-07 -2.08190698e-07
      -1.44462220e-08 9.58008783e-08 -1.05034275e-07 -7.50988960e-08
      -1.29032244e-07 1.54012881e-07 1.71799321e-08 -4.04985349e-06
      -1.28468619e-05 -1.17366153e-05 2.19785861e-07 -2.03926220e-06
      1.16759873e-06 1.04668084e-06 -2.84098746e-06 -7.40021460e-06
      2.29333773e-06 -4.44381421e-08 -1.28277691e-06 1.38263738e-06
      8.37975949e-06 1.83436914e-05 8.94419918e-06 1.84520513e-06
      4.13525731e-06 5.46711044e-06 3.66617201e-06 9.30144142e-06
      3.61973844e-06 2.02861725e-06 7.38455640e-07 6.82512621e-07
      2.05614104e-08 1.61737068e-10 8.02709152e-08 4.95202146e-09 0. 0.
      1.02467004e-08 1.53700501e-08 0. 0. 1.02467004e-08 0.
      8.25691870e-08 6.84939266e-07 5.88787816e-06 8.33002923e-06
      1.06793987e-05 2.00357354e-05 2.00243139e-05 1.68785627e-05
      1.40289603e-05 1.89792863e-05 2.08365818e-05 4.30038417e-05
      3.90048299e-05 4.45619662e-05 5.49295728e-05 4.81834759e-05
      3.76847529e-05 2.28560075e-05 6.95834569e-06 6.77978096e-06
      3.77960919e-06 2.64041728e-06 2.81788152e-06 1.21094024e-06
      6.99504790e-06 6.25263539e-08 1.94834502e-06 3.28526403e-06
      1.66142365e-06 2.93797484e-06 2.18692165e-07 2.02145634e-06
      -3.56622429e-08 3.97540788e-07 1.40967531e-08 1.46836484e-07
      4.30218108e-07 5.01171158e-08 6.99429506e-07 -1.61943291e-07
      -4.22191313e-08 1.24823842e-07 5.72162868e-08 4.79057896e-08
      -1.80860454e-07 -1.19135841e-07 1.66540914e-07 -1.75778922e-07
      -1.92035472e-07 -8.44033821e-08 9.51297352e-08 -1.17738487e-07
      -3.51059204e-09 4.77069939e-08 1.27314248e-08 5.36643476e-08
      -1.12503855e-07 1.85694049e-07 -8.68249046e-08 2.54720078e-07
      -2.55806981e-07 2.87855606e-08 -1.75211483e-07 -2.86718578e-08
      -2.28318584e-07 -1.77518857e-07 7.06949237e-08 1.88154536e-09
      9.92787292e-08 -1.74060361e-07 -2.50174963e-07 3.28188960e-08
      -7.31793506e-08 6.20259470e-08 -4.71433026e-08 3.60033965e-07
      -1.48836889e-07 -4.90908114e-08 1.65347970e-07 -2.42822953e-08
      -3.84248580e-08 -1.07488397e-07 4.67838852e-08 -1.87804091e-07
      -1.31577366e-07 -9.11538720e-08 1.26428830e-07 1.43653182e-07
      -4.32881713e-08 5.64558711e-08 -5.45961356e-08 -3.31150396e-08
      -1.23889947e-07 7.94397934e-08 -2.72912160e-07 -1.48384672e-07
      1.03923696e-07 3.04648466e-08 -4.51514870e-06 -2.28941481e-05
      -7.30179136e-06 -3.13559696e-07 -2.29626971e-06 1.33284937e-06
      -8.23563596e-07 -6.45752516e-06 -7.11168377e-06 2.23166444e-06
      -6.03608839e-07 -1.21373625e-06 1.57793704e-06 1.58574807e-08
      2.78987591e-06 2.05454785e-06 1.93545998e-06 3.32559949e-07
      6.96733366e-07 4.17164500e-07 -1.57384488e-08 1.03382781e-07
      3.17518101e-08 7.22877829e-08 1.08399711e-09 7.49615552e-08
      1.37911087e-07 1.21255326e-07 6.42572218e-08 5.12335019e-09
      5.12335019e-09 0. 1.53700501e-08 5.12335019e-09 0. 0. 0.
      5.84945532e-08 1.90948512e-07 4.18333684e-06 8.86849466e-06
      1.13735086e-05 2.02158753e-05 1.99206715e-05 1.81310152e-05
      1.66473619e-05 1.95749271e-05 1.94691129e-05 3.84625855e-05
      3.43588508e-05 3.99117562e-05 5.51715384e-05 3.78714249e-05
      3.22892192e-05 1.76650137e-05 1.04071778e-05 3.23620043e-06
      6.66154776e-08 2.95078166e-07 -1.43337147e-08 -4.40899939e-08
      -2.35525363e-07 -8.51376143e-08 -1.32328140e-08 1.03954960e-07
      -1.16257063e-07 1.37034519e-07 -1.28805908e-07 -2.26452190e-09
      -9.08467968e-08 -1.19469249e-07 -4.64154937e-08 1.27615024e-07
      8.17513595e-08 1.37043884e-07 -2.34028661e-07 -1.49761732e-08
      8.47324557e-08 -6.81065515e-08 1.14588907e-08 3.96649753e-08
      -1.54292024e-07 2.41397345e-07 5.72100305e-08 -9.51907140e-08
      2.16960778e-08 -1.20927297e-07 -1.83801191e-07 -1.38554086e-07
      1.69755680e-07 -2.09285087e-08 -3.00884665e-07 5.27565049e-08
      4.61638088e-08 -1.77483116e-07 -2.48464591e-08 -1.74179504e-09
      -1.41749183e-07 -3.12323635e-07 -6.08256912e-08 1.06510718e-07
      1.51008113e-08 3.99007538e-09 -2.25789194e-07 -1.67321147e-07
      -3.22702391e-07 9.64319327e-08 1.07233433e-07 1.00261299e-10
      4.80978368e-09 -2.57570321e-07 5.50357342e-08 -4.83684175e-07
      -8.39470431e-08 -6.82474877e-09 -2.51549920e-07 5.87654938e-08
      -2.72064909e-07 1.32676348e-07 -1.57350073e-07 -1.21586211e-07
      -4.15303454e-08 -2.95149448e-07 1.71450424e-07 -1.12847566e-07
      -6.54762360e-08 -2.43864633e-07 -2.89301312e-07 1.14725573e-07
      -1.00488343e-07 -1.19012526e-07 2.91779383e-08 -1.97668186e-07
      -4.53808902e-09 -2.68512764e-07 -2.43663817e-06 -1.72470518e-05
      -1.80918892e-06 -1.70682836e-06 -1.05016238e-06 1.17667241e-06
      -3.00324086e-06 -1.08614768e-05 -2.23206189e-06 1.65740937e-06
      -1.14925194e-06 -9.29233522e-07 1.22742790e-06 9.44158245e-08
      -2.48840131e-08 1.26367459e-08 2.00938755e-09 -1.01063421e-07
      -5.10872518e-08 9.75761552e-08 -1.14659624e-08 1.02176209e-07
      9.47554426e-08 6.08777526e-08 3.23474136e-10 8.18290431e-08
      -8.02975393e-08 8.55451958e-08 6.00709953e-08 0. 2.04934008e-08 0.
      0. 1.02467004e-08 1.02467004e-08 0. 0. 4.59528202e-08
      1.45586830e-06 6.29229044e-06 8.34745151e-06 1.20962504e-05
      2.15946548e-05 2.15808468e-05 1.86938250e-05 2.49285295e-05
      2.21906430e-05 1.88189333e-05 3.34475008e-05 3.42338499e-05
      3.53618016e-05 5.16724285e-05 3.96689211e-05 3.72936920e-05
      2.74631948e-05 1.68472434e-05 1.15423509e-05 5.45678222e-06
      2.59932472e-06 3.69044784e-07 1.63568131e-07 -2.09739586e-08
      7.83825282e-10 1.16555690e-07 -6.33994475e-08 4.41830643e-08
      -4.64566661e-08 -4.02353294e-07 1.62108179e-07 -8.37215026e-08
      1.47273212e-07 -1.65714582e-07 -3.43085240e-08 2.05763904e-08
      -4.31482299e-08 2.03113721e-08 -3.78395937e-09 1.17867049e-08
      1.65798227e-07 -1.77830970e-07 3.17174340e-08 -9.76796599e-08
      -6.21430516e-08 -1.36772291e-08 1.57449023e-07 -2.56211280e-07
      9.45083443e-08 -6.75418406e-08 1.89762630e-07 -9.88712046e-08
      -2.98606693e-07 1.55140597e-07 -1.85288854e-07 -9.47241006e-08
      -2.34615722e-08 -1.08458686e-07 -1.79567522e-07 1.88411988e-07
      -4.76532875e-08 -2.44887332e-07 -8.67108696e-08 -2.81710690e-08
      -2.52447222e-07 4.96349877e-08 2.42924870e-07 -9.66001110e-08
      1.22835658e-07 -2.11517218e-07 -1.56084141e-07 -1.32823459e-07
      1.14882166e-08 1.10429163e-07 -9.51427825e-09 -1.50040989e-07
      -1.04509020e-07 -2.31775701e-07 -9.97134322e-08 -1.40122779e-07
      1.34022287e-07 -3.98496354e-07 6.61759145e-08 -8.13237691e-08
      -8.08523026e-08 -1.41778802e-08 -2.89583880e-07 -5.31084368e-08
      -8.15548802e-08 -9.30289943e-08 -3.49640914e-07 -2.24329781e-08
      -3.55738564e-07 5.21510337e-08 1.28257369e-07 1.69201058e-07
      2.63596803e-07 -1.75449668e-06 -5.81948143e-06 -9.34400123e-06
      -5.14891235e-06 -1.07090011e-06 1.20407105e-06 5.96358541e-06
      -7.68091650e-06 1.52792222e-06 2.21430969e-06 -1.15880016e-06
      -1.01326236e-06 1.47288438e-06 -2.15157705e-08 1.16477250e-09
      -5.36689413e-08 -4.54971563e-08 1.65365947e-07 1.25842845e-07
      -2.34611917e-07 -8.24605806e-08 1.33314693e-08 2.42842546e-08
      4.55290490e-08 1.19863714e-07 1.02131807e-07 8.30984703e-08
      1.79861928e-07 2.67951457e-08 1.02467004e-08 0. 1.02467004e-08 0.
      0. 1.02467004e-08 0. 5.12335019e-09 1.65404472e-08 6.32755416e-07
      4.90065440e-06 7.43280634e-06 1.01842897e-05 1.97890713e-05
      2.22095732e-05 2.00577615e-05 3.26310401e-05 3.26929439e-05
      2.47696898e-05 3.38448372e-05 3.45245389e-05 3.52227180e-05
      4.43325189e-05 3.63459112e-05 3.88455192e-05 3.63017498e-05
      2.50997145e-05 1.75353653e-05 1.04909668e-05 9.32704461e-06
      3.73836724e-06 1.13482201e-07 -4.61502019e-08 -4.24946762e-08
      1.54029237e-07 2.88233455e-08 4.60324534e-09 3.23897922e-07
      -9.86719328e-08 -1.43579243e-07 -6.74375471e-08 6.81028638e-08
      -3.10490371e-08 4.93846848e-08 2.53087421e-07 -1.28988731e-07
      -1.24159172e-07 -5.19831467e-08 -1.49374159e-07 -1.73417163e-07
      -2.60621524e-09 -1.25313576e-07 1.43574425e-07 7.28771212e-08
      -1.39846065e-07 -6.97862959e-08 1.65091890e-07 -1.44896504e-07
      -1.38317489e-07 1.48185421e-07 -1.59042898e-07 1.63212732e-07
      9.38584748e-08 -1.69208604e-07 1.59068364e-07 -3.18856735e-07
      1.47974681e-08 -2.71540461e-08 -1.44080488e-07 -5.49073285e-08
      -1.44911198e-07 3.80280483e-08 -1.18115466e-07 -3.22038488e-07
      2.44045140e-07 -1.15679534e-07 -1.11026921e-07 -3.02147100e-07
      1.89507112e-08 -5.58471420e-08 -2.97725990e-07 5.13516980e-08
      -2.61000565e-07 -1.05229134e-07 1.31671968e-07 2.00917583e-07
      -2.78732188e-07 9.00242796e-08 1.27611671e-07 -3.68540299e-07
      5.86666822e-08 1.84930453e-08 -7.25039371e-08 -2.22591119e-08
      -3.02517776e-07 6.48697718e-09 -2.42410554e-08 -4.17675949e-07
      7.15778086e-08 1.12410639e-07 -2.07066051e-07 1.86459843e-07
      -3.74811378e-07 2.82743500e-08 2.17018808e-07 -7.01599276e-08
      -1.17926729e-05 -1.80883708e-05 -3.99687406e-06 -4.74351026e-07
      -6.97427254e-07 1.05411368e-06 1.11168156e-05 -3.91903450e-06
      2.15774003e-06 1.78919822e-06 -1.73685453e-06 -1.12077464e-06
      1.53966062e-06 -6.52865069e-08 -5.86035611e-08 5.81422910e-08
      -1.46608414e-07 7.26280192e-08 -1.86191315e-07 6.95709588e-08
      -9.83648860e-08 2.61968136e-08 8.34993799e-08 4.22303792e-08
      2.82617503e-08 1.03994058e-08 8.65870504e-08 7.43873557e-07
      8.64878359e-07 2.92030961e-07 1.53700501e-08 0. 1.53700501e-08 0.
      1.53700501e-08 0. 5.12335019e-09 4.13229699e-08 3.40531500e-07
      2.88486490e-06 6.84979068e-06 8.80907646e-06 1.78313712e-05
      2.26960001e-05 2.12186224e-05 2.42166352e-05 3.44414002e-05
      3.59761580e-05 4.28430030e-05 3.13922719e-05 2.58288455e-05
      3.54149670e-05 3.10303258e-05 3.42999228e-05 3.81206737e-05
      3.75782183e-05 2.74990598e-05 2.03071049e-05 1.57330160e-05
      1.05377430e-05 4.74549006e-06 1.71441479e-06 2.26558630e-08
      -1.38373110e-07 7.53404450e-08 -1.17181116e-07 -1.58807495e-07
      2.19332392e-07 -1.54391742e-07 -1.16997356e-07 2.29877273e-08
      6.95763731e-08 -1.57331623e-08 -1.03219612e-07 9.21715824e-08
      1.50778291e-07 -8.36219769e-08 1.15814075e-07 7.23902076e-08
      -7.13618462e-08 5.67758569e-08 1.85990601e-08 -1.90470644e-07
      -2.03044266e-08 2.19257252e-08 -1.31819917e-07 9.26792509e-09
      -6.20868050e-08 -1.42167877e-07 7.03782419e-08 3.12086605e-08
      4.05816287e-08 1.64546051e-07 -2.29495612e-07 1.53603246e-08
      -1.03588832e-07 -2.94340822e-07 -2.49736303e-08 -1.30638711e-07
      2.15986162e-08 -3.12262785e-08 -4.49381687e-08 -2.59053046e-08
      2.07218758e-08 -1.65932150e-07 -2.71227023e-08 8.47368042e-08
      -1.58865689e-07 -2.54295731e-08 -1.85505478e-08 -3.61845537e-07
      8.77327100e-09 6.32119921e-08 -2.75218753e-07 5.69991556e-08
      -6.04297341e-08 -1.28614332e-07 -4.04317611e-08 -4.24126867e-08
      3.76665312e-08 -3.36113089e-07 -5.73783296e-08 -7.84944305e-08
      -2.89097159e-07 3.62325316e-08 -7.74670426e-08 -7.11823844e-08
      1.04926897e-07 -1.38062916e-07 -2.12713474e-07 9.87849376e-08
      -3.54615857e-08 -1.42333406e-07 -1.00450691e-07 1.07837408e-07
      -6.98511712e-06 -1.85498757e-05 -4.81386405e-06 -1.45790318e-06
      -9.90916078e-08 1.22651181e-06 4.63561901e-06 -3.01359933e-06
      -2.93379549e-06 2.08115057e-06 -6.00533838e-07 -9.77014679e-07
      1.18385981e-06 0. 6.00021766e-09 0. 0. 0. 0. 1.20004353e-08 0. 0.
      0. 5.12335019e-09 7.32639080e-07 9.42696431e-07 9.11956306e-07
      1.18861726e-06 1.30645424e-06 4.50854799e-07 0. 5.12335019e-09 0.
      0. 0. 1.53700501e-08 0. 6.15972411e-08 2.19155353e-07
      3.83113274e-06 6.56298380e-06 6.79763616e-06 1.22825413e-05
      2.09487243e-05 2.34001345e-05 2.77803647e-05 3.45416011e-05
      3.78859149e-05 4.57464957e-05 4.26726547e-05 2.96416420e-05
      2.99468156e-05 2.58923119e-05 2.92845743e-05 3.42869898e-05
      3.74341435e-05 3.88230255e-05 3.32204363e-05 2.03850886e-05
      1.62232591e-05 1.35082082e-05 7.45293755e-06 2.18911237e-06
      1.27005080e-06 1.64671960e-07 3.28414487e-08 1.64058900e-08
      9.48610577e-08 4.94981123e-08 0. 0. 0. 0. 0. 0. 0. 0. 0. 0. 0. 0.
      0. 0. 0. 0. 0. 0. 0. 0. 0. 0. 0. 0. 0. 0. 0. 0. 0. 0. 0. 0. 0. 0.
      0. 0. 0. 0. 0. 0. 0. 0. 0. 0. 0. 0. 0. 0. 0. 0. 0. 0. 0. 0. 0. 0.
      -4.48999810e-10 0. 0. -4.48999810e-10 0. -8.97999619e-10
      -8.97999630e-09 -1.75109935e-08 9.75892505e-08 6.92697526e-08
      -5.91517028e-06 -1.81568121e-05 -7.75966964e-06 -4.65325775e-06
      3.86768903e-07 1.26632835e-06 -2.41498606e-06 -8.55221242e-06
      -2.50092444e-06 2.25216672e-06 1.13777310e-06 -1.08649635e-06
      1.38981250e-06 1.20004353e-08 0. 0. 1.80006534e-08 6.00021766e-09
      6.00021766e-09 0. 0. 0. 8.76092884e-07 1.01442333e-06
      1.21423398e-06 1.28083752e-06 1.30645424e-06 6.91652247e-07
      4.50854799e-07 1.69070560e-07 0. 5.12335019e-09 0. 5.12335019e-09
      0. 0. 0. 5.37340128e-08 7.70172548e-08 2.42403280e-06
      6.40528697e-06 6.54719361e-06 6.58585850e-06 9.21991614e-06
      1.74364613e-05 2.53771686e-05 3.89994493e-05 3.54608019e-05
      4.78040456e-05 5.27173652e-05 4.77405229e-05 4.34376452e-05
      3.34341821e-05 1.77179336e-05 2.52874815e-05 2.98241903e-05
      3.37266356e-05 3.76387507e-05 3.52909774e-05 3.00386673e-05
      1.87437563e-05 1.39717504e-05 5.67000325e-06 3.14975068e-06
      1.04418064e-06 1.60300658e-07 1.89672434e-07 1.25250125e-07
      6.77346819e-08 0. 0. 0. 0. 0. 0. 0. 0. 0. 0. 0. 0. 0. 0. 0. 0. 0.
      0. 0. 0. 0. 0. 0. 0. 0. 0. 0. 0. 0. 0. 0. 0. 0. 0. 0. 0. 0. 0. 0.
      0. 0. 0. 0. 0. 0. 0. 0. 0. 0. 0. 0. 0. 0. 0. 0. 0. -4.48999810e-10
      0. 0. -4.48999810e-10 -4.48999810e-10 0. 0. 0. 2.62198853e-07
      5.53820243e-08 -6.28841281e-06 -1.21845815e-05 -4.42366718e-06
      -5.63872845e-06 -2.03885679e-06 7.48491175e-07 -3.54439248e-06
      -3.31586989e-06 7.99813790e-07 1.86795796e-06 5.27279326e-07
      -9.73316446e-07 1.61555135e-06 1.92006965e-07 2.40008706e-08 0. 0.
      0. 6.00021766e-09 0. 6.00021766e-09 8.60722821e-07 1.24497410e-06
      1.30645424e-06 5.89185277e-07 3.84251251e-07 3.63757863e-07
      1.33207109e-07 0. 0. 0. 0. 0. 0. 5.12335019e-09 0. 0.
      5.88393583e-08 7.46464011e-08 8.55334150e-08 1.51043582e-06
      4.57709029e-06 6.49289132e-06 6.60127989e-06 8.66144819e-06
      1.16895435e-05 2.39313958e-05 4.02205478e-05 5.16337932e-05
      5.44824688e-05 5.39932807e-05 5.13879568e-05 4.67101090e-05
      2.43023078e-05 2.99109997e-05 2.33107221e-05 2.96441031e-05
      3.52254901e-05 3.83364022e-05 3.92303264e-05 3.03429606e-05
      2.43330851e-05 1.82692420e-05 1.11949348e-05 6.18009062e-06
      1.41461976e-06 5.92984009e-07 6.70499816e-08 6.98881237e-08 0. 0.
      0. 0. 0. 0. 0. 0. 0. 0. 0. 0. 0. 0. 0. 0. 0. 0. 0. 0. 0. 0. 0. 0.
      0. 0. 0. 0. 0. 0. 0. 0. 0. 0. 0. 0. 0. 0. 0. 0. 0. 0. 0. 0. 0. 0.
      0. 0. 0. 0. 0. 0. 0. 0. 0. 0. -8.97999619e-10 -4.48999810e-10 0.
      0. 0. -4.48999810e-10 0. 0. 2.83233259e-08 3.66564308e-07
      -4.40890426e-06 -1.52706816e-05 -4.27528130e-06 -4.61616901e-06
      -2.53050825e-06 9.33227795e-07 2.41556654e-06 -7.15521492e-06
      1.81212818e-06 1.63543666e-06 1.46830018e-07 -1.12959037e-06
      1.18988896e-06</_></support_vectors>
  <uncompressed_sv_total>56</uncompressed_sv_total>
  <uncompressed_support_vectors>
    <_>
      0. 0. 0. 0. 0. 0. 0. 0. 0. 0. 0. 0. 0. 0. 0. 0. 0. 0. 0. 0. 0. 0.
      0. 0. 0. 0. 0. 0. 0. 0. 0. 0. 0. 0. 0. 0. 0. 0. 0. 0. 0. 0. 0. 0.
      0. 0. 0. 0. 0. 0. 0. 0. 0. 0. 0. 0. 0. 0. 0. 0. 0. 0. 0. 0. 0. 0.
      0. 0. 0. 0. 0. 0. 0. 0. 0. 0. 0. 0. 0. 0. 0. 0. 0. 0. 0. 0. 0. 0.
      0. 0. 0. 0. 0. 0. 0. 0. 0. 0. 0. 0. 0. 0. 0. 0. 0. 0. 0. 0. 0. 0.
      0. 0. 0. 0. 0. 0. 0. 0. 0. 0. 0. 0. 88. 255. 254. 255. 255. 255.
      200. 7. 0. 0. 2. 0. 0. 0. 0. 0. 0. 0. 0. 0. 0. 0. 0. 0. 0. 0. 0.
      0. 0. 0. 0. 0. 0. 0. 0. 0. 0. 0. 0. 0. 0. 0. 0. 0. 0. 0. 0. 0. 0.
      0. 0. 0. 0. 0. 0. 0. 0. 0. 0. 0. 0. 0. 0. 0. 0. 0. 0. 0. 0. 0. 0.
      0. 0. 0. 0. 0. 0. 0. 0. 0. 0. 0. 0. 0. 0. 0. 0. 0. 0. 0. 0. 0. 0.
      0. 0. 0. 0. 0. 0. 0. 0. 0. 0. 0. 0. 0. 0. 0. 0. 0. 0. 0. 0. 0. 0.
      0. 0. 0. 0. 0. 0. 0. 0. 0. 0. 0. 0. 0. 0. 0. 0. 0. 0. 0. 3. 5.
      212. 255. 254. 254. 255. 230. 17. 0. 0. 0. 1. 2. 0. 0. 0. 0. 0. 0.
      0. 0. 0. 0. 0. 0. 0. 0. 0. 0. 0. 0. 0. 0. 0. 0. 0. 0. 0. 0. 0. 0.
      0. 0. 0. 0. 0. 0. 0. 0. 0. 0. 0. 0. 0. 0. 0. 0. 0. 0. 0. 0. 0. 0.
      0. 0. 0. 0. 0. 0. 0. 0. 0. 0. 0. 0. 0. 0. 0. 0. 0. 0. 0. 0. 0. 0.
      0. 0. 0. 0. 0. 0. 0. 0. 0. 0. 0. 0. 0. 0. 0. 0. 0. 0. 0. 0. 0. 0.
      0. 0. 0. 0. 0. 0. 0. 0. 0. 0. 0. 0. 0. 0. 0. 0. 0. 0. 0. 0. 0. 0.
      0. 0. 0. 0. 1. 0. 3. 223. 255. 255. 255. 254. 179. 1. 0. 2. 0. 0.
      1. 0. 0. 0. 0. 0. 0. 0. 0. 0. 0. 0. 0. 0. 0. 0. 0. 0. 0. 0. 0. 0.
      0. 0. 0. 0. 0. 0. 0. 0. 0. 0. 0. 0. 0. 0. 0. 0. 0. 0. 0. 0. 0. 0.
      0. 0. 0. 0. 0. 0. 0. 0. 0. 0. 0. 0. 0. 0. 0. 0. 0. 0. 0. 0. 0. 0.
      0. 0. 0. 0. 0. 0. 0. 0. 0. 0. 0. 0. 0. 0. 0. 0. 0. 0. 0. 0. 0. 0.
      0. 0. 0. 0. 0. 0. 0. 0. 0. 0. 0. 0. 0. 0. 0. 0. 0. 0. 0. 0. 0. 0.
      0. 0. 0. 0. 0. 0. 0. 0. 0. 0. 0. 0. 1. 51. 253. 255. 253. 255.
      255. 158. 0. 0. 0. 0. 0. 0. 0. 0. 0. 0. 0. 0. 0. 0. 0. 0. 0. 0. 0.
      0. 0. 0. 0. 0. 0. 0. 0. 0. 0. 0. 0. 0. 0. 0. 0. 0. 0. 0. 0. 0. 0.
      0. 0. 0. 0. 0. 0. 0. 0. 0. 0. 0. 0. 0. 0. 0. 0. 0. 0. 0. 0. 0. 0.
      0. 0. 0. 0. 0. 0. 0. 0. 0. 0. 0. 0. 0. 0. 0. 0. 0. 0. 0. 0. 0. 0.
      0. 0. 0. 0. 0. 0. 0. 0. 0. 0. 0. 0. 0. 0. 0. 0. 0. 0. 0. 0. 0. 0.
      0. 0. 0. 0. 0. 0. 0. 0. 0. 0. 0. 0. 0. 0. 0. 0. 0. 0. 0. 1. 3. 49.
      249. 254. 255. 255. 254. 174. 5. 0. 2. 0. 0. 2. 0. 0. 0. 0. 0. 0.
      0. 0. 0. 0. 0. 0. 0. 0. 0. 0. 0. 0. 0. 0. 0. 0. 0. 0. 0. 0. 0. 0.
      0. 0. 0. 0. 0. 0. 0. 0. 0. 0. 0. 0. 0. 0. 0. 0. 0. 0. 0. 0. 0. 0.
      0. 0. 0. 0. 0. 0. 0. 0. 0. 0. 0. 0. 0. 0. 0. 0. 0. 0. 0. 0. 0. 0.
      0. 0. 0. 0. 0. 0. 0. 0. 0. 0. 0. 0. 0. 0. 0. 0. 0. 0. 0. 0. 0. 0.
      0. 0. 0. 0. 0. 0. 0. 0. 0. 0. 0. 0. 0. 0. 0. 0. 0. 0. 0. 0. 0. 0.
      0. 0. 0. 0. 0. 1. 25. 237. 253. 254. 255. 255. 143. 0. 0. 1. 0. 0.
      0. 0. 0. 0. 0. 0. 0. 0. 0. 0. 0. 0. 0. 0. 0. 0. 0. 0. 0. 0. 0. 0.
      0. 0. 0. 0. 0. 0. 0. 0. 0. 0. 0. 0. 0. 0. 0. 0. 0. 0. 0. 0. 0. 0.
      0. 0. 0. 0. 0. 0. 0. 0. 0. 0. 0. 0. 0. 0. 0. 0. 0. 0. 0. 0. 0. 0.
      0. 0. 0. 0. 0. 0. 0. 0. 0. 0. 0. 0. 0. 0. 0. 0. 0. 0. 0. 0. 0. 0.
      0. 0. 0. 0. 0. 0. 0. 0. 0. 0. 0. 0. 0. 0. 0. 0. 0. 0. 0. 0. 0. 0.
      0. 0. 0. 0. 0. 0. 0. 0. 0. 0. 0. 5. 0. 81. 255. 254. 255. 251.
      255. 116. 1. 0. 0. 1. 3. 0. 0. 0. 0. 0. 0. 0. 0. 0. 0. 0. 0. 0. 0.
      0. 0. 0. 0. 0. 0. 0. 0. 0. 0. 0. 0. 0. 0. 0. 0. 0. 0. 0. 0. 0. 0.
      0. 0. 0. 0. 0. 0. 0. 0. 0. 0. 0. 0. 0. 0. 0. 0. 0. 0. 0. 0. 0. 0.
      0. 0. 0. 0. 0. 0. 0. 0. 0. 0. 0. 0. 0. 0. 0. 0. 0. 0. 0. 0. 0. 0.
      0. 0. 0. 0. 0. 0. 0. 0. 0. 0. 0. 0. 0. 0. 0. 0. 0. 0. 0. 0. 0. 0.
      0. 0. 0. 0. 0. 0. 0. 0. 0. 0. 0. 0. 0. 0. 0. 0. 0. 0. 0. 0. 0. 0.
      146. 253. 253. 255. 254. 111. 0. 3. 0. 0. 0. 0. 10. 3. 0. 0. 1. 2.
      1. 0. 0. 0. 0. 0. 0. 0. 0. 0. 0. 0. 0. 0. 0. 0. 0. 0. 0. 0. 0. 0.
      0. 0. 0. 0. 0. 3. 0. 0. 0. 0. 1. 0. 0. 3. 0. 0. 0. 1. 0. 0. 1. 0.
      0. 0. 0. 0. 1. 0. 2. 0. 1. 3. 0. 1. 0. 0. 1. 0. 1. 0. 0. 0. 2. 0.
      1. 0. 1. 1. 0. 3. 0. 3. 0. 1. 0. 0. 0. 1. 1. 0. 0. 1. 0. 0. 0. 0.
      1. 0. 0. 5. 0. 0. 0. 0. 0. 0. 1. 0. 0. 1. 0. 0. 0. 0. 0. 1. 0. 0.
      2. 0. 0. 0. 0. 2. 73. 238. 255. 254. 255. 254. 151. 1. 3. 0. 0. 1.
      0. 183. 51. 63. 2. 0. 0. 0. 1. 0. 0. 0. 0. 0. 0. 0. 0. 0. 0. 0. 0.
      0. 0. 0. 0. 0. 0. 0. 0. 0. 0. 0. 0. 1. 0. 0. 0. 1. 3. 1. 2. 4. 0.
      0. 0. 0. 0. 2. 0. 0. 0. 1. 0. 2. 2. 0. 0. 0. 0. 2. 0. 2. 1. 1. 0.
      1. 0. 2. 0. 1. 5. 0. 0. 0. 0. 0. 4. 0. 0. 4. 0. 1. 0. 0. 3. 2. 0.
      2. 2. 0. 0. 0. 2. 1. 0. 0. 2. 0. 1. 0. 2. 2. 2. 0. 1. 1. 0. 0. 1.
      0. 0. 0. 1. 1. 0. 1. 0. 1. 0. 0. 2. 1. 0. 112. 255. 255. 255. 254.
      255. 248. 42. 0. 1. 3. 0. 2. 254. 250. 239. 57. 0. 2. 3. 1. 0. 0.
      0. 0. 0. 0. 0. 0. 0. 0. 0. 0. 0. 0. 0. 0. 0. 0. 0. 0. 0. 0. 0. 0.
      0. 0. 3. 0. 0. 0. 0. 0. 0. 1. 0. 1. 0. 0. 0. 3. 2. 0. 0. 0. 3. 0.
      0. 4. 2. 3. 0. 2. 0. 0. 0. 2. 3. 0. 0. 0. 1. 0. 0. 2. 1. 3. 0. 0.
      0. 0. 0. 3. 0. 5. 0. 0. 2. 1. 0. 0. 1. 3. 1. 1. 0. 2. 1. 0. 2. 0.
      2. 0. 0. 0. 2. 1. 1. 0. 0. 3. 0. 2. 0. 0. 1. 0. 0. 0. 0. 1. 3. 0.
      1. 0. 1. 178. 255. 255. 253. 255. 237. 51. 0. 0. 2. 2. 0. 255.
      254. 255. 223. 41. 3. 0. 0. 0. 0. 0. 0. 0. 0. 0. 0. 0. 0. 0. 0. 0.
      0. 0. 0. 0. 0. 0. 0. 0. 0. 0. 0. 0. 0. 1. 1. 2. 2. 1. 0. 3. 0. 0.
      0. 4. 0. 2. 0. 0. 1. 4. 0. 0. 0. 0. 0. 0. 0. 2. 1. 0. 2. 0. 0. 0.
      0. 4. 0. 1. 0. 0. 1. 1. 0. 2. 0. 2. 1. 0. 2. 4. 0. 5. 1. 0. 1. 0.
      2. 0. 0. 0. 0. 2. 0. 0. 3. 0. 0. 0. 3. 0. 1. 0. 0. 0. 3. 0. 0. 0.
      4. 2. 0. 0. 0. 2. 1. 0. 1. 0. 3. 12. 1. 11. 225. 255. 253. 254.
      255. 255. 172. 10. 2. 0. 1. 2. 255. 254. 255. 254. 118. 0. 2. 0.
      0. 0. 0. 0. 0. 0. 0. 0. 0. 0. 0. 0. 0. 0. 0. 0. 0. 0. 0. 0. 0. 0.
      0. 0. 3. 0. 0. 0. 0. 0. 1. 0. 0. 0. 0. 2. 0. 0. 2. 1. 1. 0. 0. 0.
      0. 3. 2. 0. 0. 1. 0. 0. 0. 0. 0. 3. 0. 1. 0. 0. 0. 4. 0. 0. 0. 4.
      0. 0. 0. 4. 0. 0. 0. 0. 0. 0. 2. 0. 33. 0. 19. 23. 1. 0. 0. 0. 3.
      0. 0. 93. 51. 32. 62. 42. 0. 5. 0. 0. 1. 60. 153. 132. 106. 117.
      113. 18. 1. 0. 2. 0. 0. 64. 232. 177. 171. 234. 255. 254. 255.
      253. 207. 17. 0. 0. 0. 0. 3. 255. 255. 253. 255. 93. 0. 5. 0. 0.
      0. 0. 0. 0. 0. 0. 0. 0. 0. 0. 0. 0. 0. 0. 0. 0. 0. 0. 0. 0. 0. 0.
      0. 0. 3. 0. 0. 2. 3. 0. 1. 0. 2. 5. 0. 0. 2. 1. 0. 0. 2. 0. 3. 0.
      0. 52. 0. 1. 5. 0. 0. 2. 3. 1. 127. 88. 99. 107. 0. 0. 0. 2. 0. 1.
      42. 3. 148. 152. 176. 1. 20. 0. 3. 1. 0. 107. 70. 249. 207. 213.
      248. 89. 47. 3. 2. 0. 0. 162. 253. 251. 241. 255. 247. 169. 0. 3.
      0. 16. 230. 251. 255. 253. 254. 254. 185. 164. 76. 0. 0. 74. 255.
      255. 255. 255. 255. 254. 255. 255. 254. 222. 37. 2. 1. 3. 0. 0.
      253. 255. 255. 244. 47. 62. 48. 1. 0. 0. 0. 0. 0. 0. 0. 0. 0. 0.
      0. 0. 0. 0. 0. 0. 0. 0. 0. 0. 0. 0. 0. 0. 0. 3. 0. 0. 1. 0. 2. 67.
      31. 65. 56. 0. 37. 39. 0. 0. 0. 0. 151. 111. 114. 165. 255. 73.
      94. 0. 3. 1. 0. 0. 163. 255. 255. 252. 254. 160. 154. 40. 2. 0.
      89. 255. 219. 255. 252. 252. 197. 238. 57. 0. 0. 1. 206. 255. 254.
      255. 255. 253. 254. 255. 134. 1. 1. 117. 254. 255. 255. 253. 254.
      255. 255. 151. 0. 15. 12. 203. 255. 254. 253. 255. 255. 255. 255.
      233. 61. 2. 73. 254. 254. 251. 252. 255. 255. 255. 254. 255. 255.
      124. 0. 0. 3. 0. 3. 255. 255. 255. 255. 238. 255. 255. 160. 0. 0.
      0. 0. 0. 0. 0. 0. 0. 0. 0. 0. 0. 0. 0. 0. 0. 0. 0. 0. 0. 0. 0. 0.
      1. 0. 0. 2. 0. 2. 75. 255. 239. 255. 255. 228. 236. 255. 112. 0.
      0. 131. 255. 255. 252. 254. 255. 250. 255. 135. 150. 14. 18. 191.
      255. 254. 254. 255. 255. 254. 253. 209. 23. 0. 101. 255. 254. 254.
      255. 255. 254. 255. 221. 43. 1. 28. 255. 254. 255. 255. 253. 255.
      255. 255. 254. 116. 5. 113. 254. 255. 255. 255. 255. 254. 254.
      255. 190. 209. 22. 204. 255. 253. 255. 252. 255. 254. 255. 255.
      220. 32. 123. 255. 255. 255. 255. 254. 254. 255. 255. 255. 255.
      102. 0. 0. 1. 0. 0. 253. 254. 255. 253. 255. 254. 252. 255. 130.
      4. 0. 0. 3. 0. 2. 0. 0. 0. 0. 0. 0. 0. 0. 0. 0. 0. 0. 0. 0. 0. 0.
      0. 0. 3. 0. 0. 3. 0. 61. 248. 255. 254. 255. 255. 253. 255. 254.
      95. 2. 123. 255. 255. 254. 255. 255. 255. 255. 254. 255. 181. 2.
      223. 254. 254. 254. 255. 254. 255. 255. 250. 194. 8. 150. 253.
      255. 255. 255. 255. 255. 254. 254. 209. 146. 128. 227. 255. 255.
      255. 253. 255. 255. 255. 252. 255. 106. 81. 254. 254. 255. 255.
      254. 253. 255. 254. 254. 255. 226. 254. 255. 255. 255. 255. 253.
      255. 255. 252. 255. 210. 13. 168. 255. 253. 255. 255. 254. 255.
      255. 254. 245. 53. 0. 1. 0. 3. 0. 255. 255. 252. 255. 253. 255.
      255. 252. 87. 0. 2. 0. 0. 3. 0. 0. 0. 0. 0. 0. 0. 0. 0. 0. 0. 0.
      0. 0. 0. 0. 0. 0. 0. 0. 0. 4. 0. 0. 108. 254. 255. 255. 255. 251.
      253. 251. 255. 255. 79. 142. 251. 255. 253. 255. 255. 255. 253.
      255. 255. 255. 216. 254. 255. 255. 255. 254. 255. 253. 255. 254.
      255. 174. 8. 189. 255. 254. 252. 255. 255. 255. 255. 252. 254.
      254. 255. 253. 255. 253. 255. 253. 255. 254. 255. 255. 251. 87.
      97. 255. 252. 254. 255. 255. 255. 253. 255. 251. 255. 255. 253.
      254. 253. 255. 255. 253. 251. 255. 254. 253. 186. 0. 181. 255.
      255. 251. 255. 255. 255. 255. 254. 69. 1. 0. 0. 0. 1. 252. 255.
      255. 254. 255. 250. 255. 254. 227. 30. 2. 2. 0. 0. 3. 0. 0. 0. 0.
      0. 0. 0. 0. 0. 0. 0. 0. 0. 0. 0. 0. 0. 4. 0. 0. 159. 165. 0. 29.
      133. 255. 255. 254. 255. 255. 255. 253. 255. 249. 250. 172. 255.
      255. 255. 255. 251. 255. 255. 255. 251. 254. 255. 253. 253. 255.
      254. 255. 255. 254. 253. 255. 253. 161. 26. 207. 252. 255. 252.
      253. 255. 254. 255. 255. 253. 169. 193. 253. 255. 253. 253. 252.
      255. 253. 254. 255. 255. 44. 115. 255. 255. 254. 254. 255. 255.
      255. 255. 255. 133. 95. 255. 254. 255. 254. 255. 255. 255. 255.
      255. 243. 47. 15. 203. 255. 255. 251. 255. 255. 253. 255. 67. 0.
      1. 0. 0. 0. 255. 155. 255. 255. 254. 255. 255. 211. 167. 0. 0. 0.
      0. 2. 1. 0. 0. 0. 0. 0. 0. 0. 0. 0. 0. 0. 0. 0. 0. 0. 0. 0. 0. 2.
      177. 255. 255. 224. 137. 1. 151. 255. 255. 254. 253. 251. 255.
      254. 255. 235. 46. 138. 255. 253. 255. 255. 252. 255. 255. 255.
      253. 255. 204. 255. 255. 255. 254. 254. 255. 255. 255. 255. 236.
      36. 127. 255. 253. 255. 255. 255. 255. 255. 254. 254. 145. 22.
      227. 255. 255. 255. 255. 255. 255. 255. 253. 216. 23. 197. 255.
      255. 252. 255. 255. 253. 253. 255. 253. 135. 32. 223. 255. 254.
      254. 254. 253. 252. 255. 252. 255. 44. 32. 211. 255. 255. 254.
      255. 253. 254. 233. 17. 2. 1. 0. 0. 1. 63. 80. 245. 255. 151. 146.
      62. 13. 0. 2. 0. 1. 2. 1. 0. 0. 0. 0. 0. 0. 0. 0. 0. 0. 0. 0. 0.
      0. 0. 0. 0. 0. 0. 1. 197. 255. 252. 255. 110. 0. 110. 253. 255.
      255. 255. 255. 255. 255. 255. 255. 189. 3. 199. 255. 253. 254.
      255. 249. 252. 255. 253. 245. 79. 234. 253. 255. 254. 255. 255.
      254. 250. 255. 241. 28. 150. 254. 255. 252. 253. 253. 253. 255.
      255. 207. 39. 133. 254. 253. 254. 255. 253. 255. 253. 253. 255.
      209. 109. 255. 255. 255. 255. 253. 254. 255. 254. 255. 121. 49.
      226. 254. 255. 254. 255. 255. 255. 255. 254. 255. 111. 56. 225.
      253. 254. 255. 255. 255. 255. 255. 226. 19. 1. 0. 1. 0. 0. 161.
      16. 41. 68. 0. 0. 0. 4. 0. 1. 2. 0. 0. 0. 2. 0. 0. 0. 0. 0. 0. 0.
      0. 0. 0. 0. 0. 0. 0. 0. 0. 0. 1. 30. 239. 255. 255. 254. 73. 0.
      107. 255. 252. 255. 255. 252. 255. 254. 255. 196. 33. 135. 255.
      255. 255. 255. 253. 255. 255. 255. 255. 226. 251. 254. 255. 253.
      255. 255. 255. 253. 255. 254. 112. 66. 229. 255. 253. 255. 255.
      255. 255. 255. 189. 24. 152. 253. 254. 255. 255. 252. 255. 253.
      255. 255. 192. 15. 154. 249. 255. 250. 254. 255. 253. 255. 255.
      94. 68. 236. 252. 255. 251. 255. 254. 254. 255. 255. 255. 92. 73.
      246. 254. 255. 255. 253. 255. 255. 253. 255. 255. 35. 4. 0. 2. 2.
      0. 214. 15. 1. 0. 0. 0. 4. 0. 2. 0. 0. 0. 7. 0. 0. 2. 0. 0. 0. 0.
      0. 0. 0. 0. 0. 0. 0. 0. 0. 0. 0. 0. 0. 1. 71. 255. 179. 121. 83.
      71. 235. 255. 254. 254. 255. 255. 254. 255. 183. 9. 159. 251. 255.
      255. 254. 254. 255. 254. 255. 255. 175. 7. 206. 255. 255. 253.
      249. 255. 255. 255. 253. 87. 61. 252. 254. 255. 255. 255. 253.
      255. 255. 165. 3. 0. 153. 255. 255. 255. 254. 253. 253. 255. 255.
      168. 0. 174. 255. 255. 255. 255. 255. 255. 253. 246. 81. 0. 80.
      255. 255. 253. 255. 251. 255. 254. 255. 246. 73. 26. 249. 254.
      255. 255. 252. 255. 255. 254. 255. 255. 221. 19. 0. 0. 2. 0. 0.
      241. 52. 2. 0. 2. 0. 0. 2. 0. 2. 0. 1. 0. 1. 0. 0. 0. 0. 0. 0. 0.
      0. 0. 0. 0. 0. 0. 0. 0. 0. 0. 0. 0. 1. 0. 58. 1. 2. 85. 255. 255.
      252. 255. 255. 255. 254. 255. 159. 0. 82. 255. 255. 253. 255. 255.
      255. 253. 255. 254. 161. 4. 183. 255. 252. 253. 255. 255. 253.
      255. 240. 72. 0. 31. 243. 255. 255. 254. 255. 252. 255. 149. 3. 0.
      2. 192. 254. 254. 255. 255. 255. 254. 254. 150. 1. 0. 175. 255.
      254. 255. 255. 254. 253. 234. 55. 1. 0. 2. 94. 255. 255. 253. 255.
      253. 224. 224. 56. 0. 0. 81. 140. 192. 255. 255. 253. 255. 254.
      255. 255. 255. 165. 2. 0. 0. 1. 1. 255. 129. 2. 0. 0. 0. 0. 2. 0.
      0. 0. 0. 0. 0. 0. 0. 0. 0. 0. 0. 0. 0. 0. 0. 0. 0. 0. 0. 0. 0. 0.
      0. 0. 0. 0. 1. 1. 12. 219. 253. 255. 255. 255. 254. 255. 255. 143.
      0. 0. 94. 254. 253. 255. 255. 255. 255. 249. 255. 135. 0. 0. 125.
      251. 255. 255. 254. 254. 235. 224. 46. 0. 3. 84. 252. 254. 252.
      255. 253. 255. 128. 1. 0. 0. 1. 24. 207. 236. 255. 251. 214. 135.
      130. 0. 0. 0. 10. 192. 187. 216. 244. 211. 205. 39. 1. 1. 0. 0. 0.
      111. 140. 182. 168. 123. 1. 26. 2. 0. 0. 0. 0. 25. 97. 142. 255.
      255. 254. 255. 255. 207. 28. 1. 2. 0. 2. 0. 132. 2. 0. 1. 1. 1. 2.
      0. 0. 0. 0. 0. 0. 0. 0. 0. 0. 0. 0. 0. 0. 0. 0. 0. 0. 0. 0. 0. 0.
      0. 0. 0. 0. 4. 2. 0. 2. 0. 48. 234. 236. 255. 253. 246. 255. 119.
      0. 0. 0. 38. 225. 202. 221. 255. 218. 209. 74. 104. 0. 4. 1. 0.
      137. 150. 195. 183. 113. 30. 27. 0. 5. 0. 0. 95. 73. 105. 130.
      115. 113. 0. 0. 5. 0. 0. 0. 30. 20. 66. 58. 28. 0. 1. 0. 2. 3. 0.
      9. 0. 15. 31. 0. 15. 2. 0. 0. 2. 0. 1. 0. 0. 8. 0. 0. 1. 0. 0. 1.
      0. 2. 0. 1. 0. 2. 220. 255. 255. 255. 254. 203. 8. 0. 0. 0. 0. 2.
      2. 1. 1. 0. 0. 0. 0. 1. 0. 0. 0. 0. 0. 0. 0. 0. 0. 0. 0. 0. 0. 0.
      0. 0. 0. 0. 0. 0. 0. 0. 0. 0. 0. 0. 0. 1. 1. 1. 0. 47. 15. 69. 81.
      57. 86. 0. 3. 1. 1. 0. 22. 0. 11. 38. 15. 10. 0. 6. 1. 0. 0. 0. 1.
      0. 1. 5. 0. 0. 4. 0. 0. 0. 0. 2. 0. 1. 0. 0. 3. 1. 0. 0. 0. 0. 1.
      3. 0. 1. 0. 0. 0. 0. 0. 0. 0. 2. 0. 1. 0. 1. 0. 0. 2. 0. 1. 0. 2.
      3. 0. 0. 4. 0. 0. 1. 1. 0. 0. 2. 0. 0. 0. 4. 36. 252. 253. 255.
      255. 255. 149. 0. 1. 1. 3. 0. 0. 0. 0. 0. 0. 1. 4. 0. 2. 0. 0. 0.
      0. 0. 0. 0. 0. 0. 0. 0. 0. 0. 0. 0. 0. 0. 0. 0. 0. 0. 0. 0. 0. 2.
      1. 0. 0. 1. 1. 0. 3. 0. 0. 1. 0. 0. 3. 0. 0. 1. 0. 1. 0. 0. 0. 0.
      3. 0. 0. 0. 1. 2. 0. 0. 3. 0. 0. 2. 1. 0. 0. 0. 0. 1. 0. 0. 4. 2.
      0. 0. 0. 1. 0. 1. 0. 0. 0. 0. 2. 1. 0. 1. 4. 0. 4. 2. 0. 0. 1. 1.
      0. 1. 0. 0. 0. 0. 1. 0. 0. 2. 1. 0. 1. 0. 0. 0. 0. 3. 0. 0. 0. 1.
      0. 60. 253. 255. 253. 255. 255. 155. 4. 0. 0. 0. 2. 0. 0. 2. 2. 0.
      0. 0. 2. 0. 0. 0. 0. 0. 0. 0. 0. 0. 0. 0. 0. 0. 0. 0. 0. 0. 0. 0.
      0. 0. 0. 0. 0. 0. 0. 2. 1. 0. 0. 0. 0. 0. 0. 2. 0. 0. 4. 0. 0. 3.
      2. 0. 2. 1. 3. 0. 5. 0. 3. 1. 1. 0. 0. 1. 0. 0. 2. 0. 0. 0. 2. 0.
      2. 0. 0. 2. 1. 0. 0. 1. 1. 2. 0. 1. 0. 0. 1. 6. 0. 0. 0. 1. 0. 0.
      0. 0. 0. 0. 0. 0. 0. 3. 0. 1. 5. 0. 0. 0. 1. 2. 0. 3. 0. 0. 0. 6.
      0. 0. 0. 0. 0. 4. 0. 3. 6. 158. 255. 255. 251. 255. 156. 0. 5. 4.
      1. 0. 0. 2. 0. 0. 4. 0. 1. 0. 0. 0. 0. 0. 0. 0. 0. 0. 0. 0. 0. 0.
      0. 0. 0. 0. 0. 0. 0. 0. 0. 0. 0. 0. 0. 1. 0. 4. 0. 1. 1. 0. 3. 1.
      2. 0. 0. 0. 0. 2. 0. 0. 2. 0. 0. 0. 3. 0. 1. 0. 1. 1. 1. 1. 0. 2.
      0. 0. 2. 0. 1. 0. 0. 0. 0. 0. 2. 0. 0. 3. 0. 0. 1. 2. 0. 0. 3. 0.
      0. 2. 0. 0. 2. 0. 2. 2. 1. 0. 2. 0. 2. 1. 0. 0. 0. 0. 0. 3. 0. 0.
      0. 2. 0. 2. 1. 1. 0. 0. 5. 0. 4. 0. 0. 0. 0. 0. 151. 254. 254.
      255. 255. 114. 1. 0. 0. 0. 0. 0. 0. 1. 0. 0. 1. 0. 1. 1. 0. 0. 0.
      0. 0. 0. 0. 0. 0. 0. 0. 0. 0. 0. 0. 0. 0. 0. 0. 0. 0. 0. 0. 0. 1.
      2. 0. 3. 0. 0. 0. 0. 0. 0. 0. 7. 0. 0. 0. 1. 2. 1. 0. 0. 1. 0. 1.
      1. 4. 0. 2. 0. 0. 4. 0. 1. 0. 2. 0. 0. 0. 2. 1. 1. 0. 1. 2. 0. 0.
      4. 0. 0. 0. 2. 0. 0. 3. 0. 3. 0. 2. 0. 0. 0. 2. 0. 2. 0. 3. 0. 1.
      0. 0. 3. 3. 1. 0. 3. 0. 3. 0. 0. 0. 1. 0. 4. 0. 0. 1. 0. 1. 0. 1.
      1. 106. 255. 255. 253. 255. 255. 92. 1. 0. 0. 3. 0. 0. 0. 0. 2. 2.
      0. 0. 1. 0. 0. 0. 0. 0. 0. 0. 0. 0. 0. 0. 0. 0. 0. 0. 0. 0. 0. 0.
      0. 0. 0. 0. 0. 0. 0. 1. 0. 0. 0. 1. 3. 0. 1. 0. 0. 0. 0. 0. 1. 0.
      0. 0. 2. 0. 0. 3. 0. 0. 1. 0. 0. 1. 0. 0. 0. 1. 1. 0. 1. 0. 0. 0.
      0. 0. 1. 0. 1. 2. 0. 0. 0. 1. 2. 0. 0. 3. 0. 0. 0. 0. 0. 1. 1. 0.
      0. 1. 0. 1. 0. 4. 0. 0. 2. 0. 0. 1. 0. 1. 0. 1. 0. 1. 3. 0. 0. 0.
      0. 1. 1. 0. 0. 1. 0. 2. 0. 172. 255. 255. 252. 255. 182. 0. 2. 0.
      0. 0. 1. 0. 0. 0. 0. 0. 0. 0. 0. 0. 0. 0. 0. 0. 0. 0. 0. 0. 0. 0.
      0. 0. 0. 0. 0. 0. 0. 0. 0. 0. 0. 0. 0. 0. 0. 0. 0. 0. 0. 0. 0. 0.
      0. 0. 0. 0. 0. 0. 0. 0. 0. 0. 0. 0. 0. 0. 0. 0. 0. 0. 0. 0. 0. 0.
      0. 0. 0. 0. 0. 0. 0. 0. 0. 0. 0. 0. 0. 0. 0. 0. 0. 0. 0. 0. 0. 0.
      0. 0. 0. 0. 0. 0. 0. 0. 0. 0. 0. 0. 0. 0. 0. 0. 0. 0. 0. 0. 0. 0.
      0. 0. 0. 0. 0. 0. 0. 0. 0. 0. 0. 0. 0. 0. 1. 15. 210. 255. 255.
      254. 255. 227. 25. 1. 1. 0. 0. 2. 0. 0. 0. 0. 0. 0. 0. 0. 0. 0. 0.
      0. 0. 0. 0. 0. 0. 0. 0. 0. 0. 0. 0. 0. 0. 0. 0. 0. 0. 0. 0. 0. 0.
      0. 0. 0. 0. 0. 0. 0. 0. 0. 0. 0. 0. 0. 0. 0. 0. 0. 0. 0. 0. 0. 0.
      0. 0. 0. 0. 0. 0. 0. 0. 0. 0. 0. 0. 0. 0. 0. 0. 0. 0. 0. 0. 0. 0.
      0. 0. 0. 0. 0. 0. 0. 0. 0. 0. 0. 0. 0. 0. 0. 0. 0. 0. 0. 0. 0. 0.
      0. 0. 0. 0. 0. 0. 0. 0. 0. 0. 0. 0. 0. 0. 0. 0. 0. 0. 0. 0. 0. 1.
      0. 0. 191. 253. 255. 252. 255. 252. 33. 0. 0. 1. 1. 1. 0. 0. 0. 0.
      0. 0. 0. 0. 0. 0. 0. 0. 0. 0. 0. 0. 0. 0. 0. 0. 0. 0. 0. 0. 0. 0.
      0. 0. 0. 0. 0. 0. 0. 0. 0. 0. 0. 0. 0. 0. 0. 0. 0. 0. 0. 0. 0. 0.
      0. 0. 0. 0. 0. 0. 0. 0. 0. 0. 0. 0. 0. 0. 0. 0. 0. 0. 0. 0. 0. 0.
      0. 0. 0. 0. 0. 0. 0. 0. 0. 0. 0. 0. 0. 0. 0. 0. 0. 0. 0. 0. 0. 0.
      0. 0. 0. 0. 0. 0. 0. 0. 0. 0. 0. 0. 0. 0. 0. 0. 0. 0. 0. 0. 0. 0.
      0. 0. 0. 0. 0. 0. 1. 0. 1. 200. 255. 255. 255. 252. 201. 2. 0. 0.
      1. 2. 0.</_>
    <_>
      0. 0. 0. 0. 0. 0. 0. 0. 0. 0. 0. 0. 0. 0. 0. 0. 0. 0. 0. 0. 0. 0.
      0. 0. 0. 0. 0. 0. 0. 0. 0. 0. 0. 0. 0. 0. 0. 0. 0. 0. 0. 0. 0. 0.
      0. 0. 0. 0. 0. 0. 0. 0. 0. 0. 0. 0. 0. 0. 0. 0. 0. 0. 0. 0. 0. 0.
      0. 0. 0. 0. 0. 0. 0. 0. 0. 0. 0. 0. 0. 0. 0. 0. 0. 0. 0. 0. 0. 0.
      0. 0. 0. 0. 0. 0. 0. 0. 0. 0. 0. 0. 0. 0. 0. 0. 0. 0. 0. 0. 0. 0.
      0. 0. 0. 0. 0. 0. 0. 0. 0. 0. 0. 2. 0. 113. 255. 255. 254. 255.
      255. 149. 0. 3. 0. 0. 0. 0. 0. 0. 0. 0. 0. 0. 0. 0. 0. 0. 0. 0. 0.
      0. 0. 0. 0. 0. 0. 0. 0. 0. 0. 0. 0. 0. 0. 0. 0. 0. 0. 0. 0. 0. 0.
      0. 0. 0. 0. 0. 0. 0. 0. 0. 0. 0. 0. 0. 0. 0. 0. 0. 0. 0. 0. 0. 0.
      0. 0. 0. 0. 0. 0. 0. 0. 0. 0. 0. 0. 0. 0. 0. 0. 0. 0. 0. 0. 0. 0.
      0. 0. 0. 0. 0. 0. 0. 0. 0. 0. 0. 0. 0. 0. 0. 0. 0. 0. 0. 0. 0. 0.
      0. 0. 0. 0. 0. 0. 0. 0. 0. 0. 0. 0. 0. 0. 0. 0. 0. 0. 2. 0. 3. 2.
      189. 255. 255. 255. 255. 200. 10. 0. 2. 3. 0. 0. 0. 0. 0. 0. 0. 0.
      0. 0. 0. 0. 0. 0. 0. 0. 0. 0. 0. 0. 0. 0. 0. 0. 0. 0. 0. 0. 0. 0.
      0. 0. 0. 0. 0. 0. 0. 0. 0. 0. 0. 0. 0. 0. 0. 0. 0. 0. 0. 0. 0. 0.
      0. 0. 0. 0. 0. 0. 0. 0. 0. 0. 0. 0. 0. 0. 0. 0. 0. 0. 0. 0. 0. 0.
      0. 0. 0. 0. 0. 0. 0. 0. 0. 0. 0. 0. 0. 0. 0. 0. 0. 0. 0. 0. 0. 0.
      0. 0. 0. 0. 0. 0. 0. 0. 0. 0. 0. 0. 0. 0. 0. 0. 0. 0. 0. 0. 0. 0.
      0. 0. 0. 0. 3. 1. 45. 255. 255. 250. 255. 254. 244. 52. 0. 1. 2.
      0. 0. 0. 0. 0. 0. 0. 0. 0. 0. 0. 0. 0. 0. 0. 0. 0. 0. 0. 0. 0. 0.
      0. 0. 0. 0. 0. 0. 0. 0. 0. 0. 0. 0. 0. 0. 0. 0. 0. 0. 0. 0. 0. 0.
      0. 0. 0. 0. 0. 0. 0. 0. 0. 0. 0. 0. 0. 0. 0. 0. 0. 0. 0. 0. 0. 0.
      0. 0. 0. 0. 0. 0. 0. 0. 0. 0. 0. 0. 0. 0. 0. 0. 0. 0. 0. 0. 0. 0.
      0. 0. 0. 0. 0. 0. 0. 0. 0. 0. 0. 0. 0. 0. 0. 0. 0. 0. 0. 0. 0. 0.
      0. 0. 0. 0. 0. 0. 0. 0. 0. 0. 0. 1. 0. 0. 68. 250. 255. 254. 255.
      255. 230. 20. 0. 0. 0. 1. 0. 0. 0. 0. 0. 0. 0. 0. 0. 0. 0. 0. 0.
      0. 0. 0. 0. 0. 0. 0. 0. 0. 0. 0. 0. 0. 0. 0. 0. 0. 0. 0. 0. 0. 0.
      0. 0. 0. 0. 0. 0. 0. 0. 0. 0. 0. 0. 0. 0. 0. 0. 0. 0. 0. 0. 0. 0.
      0. 0. 0. 0. 0. 0. 0. 0. 0. 0. 0. 0. 0. 0. 0. 0. 0. 0. 0. 0. 0. 0.
      0. 0. 0. 0. 0. 0. 0. 0. 0. 0. 0. 0. 0. 0. 0. 0. 0. 0. 0. 0. 0. 0.
      0. 0. 0. 0. 0. 0. 0. 0. 0. 0. 0. 0. 0. 0. 0. 0. 0. 0. 0. 0. 0. 1.
      56. 238. 254. 253. 255. 254. 168. 1. 0. 3. 0. 5. 0. 0. 0. 0. 0. 0.
      0. 0. 0. 0. 0. 0. 0. 0. 0. 0. 0. 0. 0. 0. 0. 0. 0. 0. 0. 0. 0. 0.
      0. 0. 0. 0. 0. 0. 0. 0. 0. 0. 0. 0. 0. 0. 0. 0. 0. 0. 0. 0. 0. 0.
      0. 0. 0. 0. 0. 0. 0. 0. 0. 0. 0. 0. 0. 0. 0. 0. 0. 0. 0. 0. 0. 0.
      0. 0. 0. 0. 0. 0. 0. 0. 0. 0. 0. 0. 0. 0. 0. 0. 0. 0. 0. 0. 0. 0.
      0. 0. 0. 0. 0. 0. 0. 0. 0. 0. 0. 0. 0. 0. 0. 0. 0. 0. 0. 0. 0. 0.
      0. 0. 0. 0. 0. 1. 0. 2. 174. 255. 255. 253. 255. 255. 61. 3. 0. 0.
      0. 0. 0. 0. 0. 0. 0. 0. 0. 0. 0. 0. 0. 0. 0. 0. 0. 0. 0. 0. 0. 0.
      0. 0. 0. 0. 0. 0. 0. 0. 0. 0. 0. 0. 0. 0. 0. 0. 0. 0. 0. 0. 0. 0.
      0. 0. 0. 0. 0. 0. 0. 0. 0. 0. 0. 0. 0. 0. 0. 0. 0. 0. 0. 0. 0. 0.
      0. 0. 0. 0. 0. 0. 0. 0. 0. 0. 0. 0. 0. 0. 0. 0. 0. 0. 0. 0. 0. 0.
      0. 0. 0. 0. 0. 0. 0. 0. 0. 0. 0. 0. 0. 0. 0. 0. 0. 0. 0. 0. 0. 0.
      0. 0. 0. 0. 0. 0. 0. 0. 0. 0. 0. 1. 0. 6. 20. 227. 254. 254. 255.
      254. 232. 51. 4. 0. 1. 3. 0. 0. 0. 0. 0. 0. 0. 0. 0. 0. 0. 0. 0.
      0. 0. 0. 0. 0. 0. 0. 0. 0. 0. 0. 0. 0. 0. 0. 0. 0. 0. 0. 0. 0. 0.
      0. 0. 0. 0. 0. 0. 0. 0. 0. 0. 0. 0. 0. 0. 0. 0. 0. 0. 0. 0. 0. 0.
      0. 0. 0. 0. 0. 0. 0. 0. 0. 0. 0. 0. 0. 0. 0. 0. 0. 0. 0. 0. 0. 0.
      0. 0. 0. 0. 0. 0. 0. 0. 0. 0. 0. 0. 0. 0. 0. 0. 0. 0. 0. 0. 0. 0.
      0. 0. 0. 0. 0. 0. 0. 0. 0. 0. 0. 0. 0. 0. 0. 0. 0. 0. 0. 0. 3. 0.
      63. 254. 255. 255. 254. 255. 255. 46. 0. 0. 0. 0. 0. 1. 1. 0. 3.
      0. 0. 1. 0. 0. 0. 0. 0. 0. 0. 0. 0. 0. 0. 0. 0. 0. 0. 0. 0. 0. 0.
      0. 0. 0. 0. 0. 0. 2. 0. 2. 0. 2. 0. 1. 0. 3. 0. 0. 2. 1. 0. 0. 1.
      0. 1. 1. 1. 0. 2. 0. 0. 4. 0. 0. 2. 0. 0. 1. 0. 1. 1. 1. 0. 0. 1.
      0. 0. 1. 0. 3. 0. 0. 1. 0. 0. 0. 1. 3. 0. 0. 2. 0. 0. 0. 0. 0. 0.
      0. 5. 0. 0. 2. 0. 1. 1. 0. 3. 0. 0. 0. 3. 0. 3. 0. 0. 2. 1. 0. 0.
      0. 2. 0. 1. 0. 0. 0. 1. 57. 241. 255. 254. 254. 254. 193. 0. 0. 1.
      0. 1. 39. 0. 16. 2. 0. 5. 2. 0. 0. 0. 0. 0. 0. 0. 0. 0. 0. 0. 0.
      0. 0. 0. 0. 0. 0. 0. 0. 0. 0. 0. 0. 0. 1. 0. 0. 0. 0. 0. 0. 1. 0.
      0. 0. 2. 0. 0. 0. 2. 0. 2. 1. 0. 0. 4. 0. 6. 1. 0. 0. 1. 1. 0. 2.
      0. 0. 0. 0. 3. 1. 0. 2. 0. 0. 2. 0. 0. 0. 1. 0. 1. 0. 1. 0. 0. 0.
      1. 2. 0. 0. 1. 1. 0. 3. 0. 1. 0. 1. 0. 1. 0. 0. 2. 0. 4. 3. 2. 0.
      0. 0. 3. 0. 0. 0. 2. 2. 0. 1. 0. 0. 4. 0. 1. 0. 116. 255. 255.
      255. 255. 255. 255. 105. 3. 0. 3. 0. 255. 201. 175. 1. 1. 1. 1. 0.
      0. 0. 0. 0. 0. 0. 0. 0. 0. 0. 0. 0. 0. 0. 0. 0. 0. 0. 0. 0. 0. 0.
      0. 0. 0. 0. 0. 2. 0. 2. 1. 0. 4. 0. 2. 1. 1. 2. 0. 0. 2. 0. 0. 1.
      2. 0. 0. 0. 0. 2. 2. 3. 0. 0. 2. 0. 3. 0. 1. 0. 0. 1. 0. 1. 1. 0.
      2. 0. 0. 0. 0. 0. 3. 0. 0. 2. 0. 0. 0. 1. 0. 1. 0. 2. 2. 2. 0. 4.
      2. 2. 1. 2. 0. 0. 3. 0. 0. 0. 0. 1. 1. 0. 5. 0. 0. 0. 2. 1. 0. 0.
      1. 0. 0. 3. 1. 0. 195. 253. 255. 251. 255. 232. 43. 0. 0. 0. 1.
      255. 255. 255. 128. 0. 0. 0. 0. 0. 0. 0. 0. 0. 0. 0. 0. 0. 0. 0.
      0. 0. 0. 0. 0. 0. 0. 0. 0. 0. 0. 0. 0. 1. 0. 2. 0. 1. 0. 0. 0. 0.
      2. 0. 0. 2. 0. 0. 0. 0. 1. 1. 3. 0. 2. 4. 0. 0. 0. 1. 0. 3. 0. 0.
      2. 0. 0. 3. 0. 2. 0. 2. 3. 2. 0. 0. 2. 0. 0. 0. 1. 0. 1. 0. 0. 3.
      1. 0. 0. 1. 1. 3. 0. 0. 0. 2. 0. 0. 0. 0. 0. 3. 0. 0. 0. 0. 14. 1.
      13. 1. 0. 0. 0. 2. 0. 0. 0. 1. 14. 49. 33. 0. 8. 0. 50. 255. 255.
      251. 255. 255. 255. 149. 0. 0. 0. 1. 255. 254. 255. 254. 89. 0. 1.
      3. 0. 0. 0. 0. 0. 0. 0. 0. 0. 0. 0. 0. 0. 0. 0. 0. 0. 0. 0. 0. 0.
      0. 0. 0. 1. 0. 0. 1. 0. 0. 0. 3. 1. 2. 0. 0. 1. 0. 0. 1. 0. 0. 2.
      0. 0. 0. 0. 3. 1. 0. 0. 1. 0. 1. 1. 0. 1. 0. 0. 0. 1. 1. 0. 0. 0.
      2. 2. 0. 0. 4. 0. 0. 1. 3. 0. 3. 0. 0. 2. 0. 0. 0. 1. 0. 43. 2.
      19. 1. 114. 11. 0. 0. 0. 0. 0. 1. 63. 214. 180. 197. 157. 89. 0.
      2. 0. 2. 2. 0. 65. 215. 224. 255. 190. 168. 1. 69. 244. 252. 255.
      253. 253. 255. 167. 1. 2. 1. 0. 255. 255. 254. 255. 221. 39. 0. 0.
      0. 0. 0. 0. 0. 0. 0. 0. 0. 0. 0. 0. 0. 0. 0. 0. 0. 0. 0. 0. 0. 0.
      0. 0. 0. 3. 3. 0. 0. 1. 0. 0. 0. 0. 1. 0. 0. 2. 0. 0. 1. 1. 0. 0.
      1. 2. 1. 0. 0. 1. 1. 0. 37. 1. 0. 0. 2. 0. 0. 3. 3. 0. 59. 81. 67.
      0. 0. 0. 3. 0. 1. 0. 6. 156. 146. 143. 95. 68. 1. 0. 2. 1. 0. 113.
      255. 202. 205. 200. 254. 150. 0. 5. 1. 0. 0. 115. 255. 255. 253.
      254. 255. 230. 49. 0. 2. 0. 0. 114. 255. 255. 255. 255. 255. 255.
      124. 86. 255. 254. 255. 254. 255. 255. 144. 0. 0. 0. 3. 229. 135.
      254. 254. 255. 183. 1. 1. 0. 0. 0. 0. 0. 0. 0. 0. 0. 0. 0. 0. 0.
      0. 0. 0. 0. 0. 0. 0. 0. 0. 0. 0. 1. 0. 0. 1. 10. 3. 0. 1. 1. 1. 0.
      0. 0. 81. 8. 43. 24. 1. 10. 2. 1. 0. 0. 2. 1. 100. 97. 144. 230.
      46. 35. 1. 0. 3. 1. 61. 209. 164. 248. 247. 255. 130. 63. 14. 0.
      0. 0. 48. 210. 253. 253. 252. 255. 207. 93. 88. 0. 3. 0. 159. 255.
      254. 255. 253. 255. 253. 155. 159. 0. 1. 79. 253. 255. 254. 255.
      252. 255. 255. 181. 1. 33. 2. 27. 233. 252. 254. 255. 253. 254.
      255. 255. 233. 255. 252. 254. 255. 255. 249. 69. 2. 2. 0. 1. 233.
      154. 255. 255. 254. 255. 142. 0. 0. 0. 0. 0. 0. 0. 0. 0. 0. 0. 0.
      0. 0. 0. 0. 0. 0. 0. 0. 0. 0. 0. 0. 0. 0. 49. 196. 185. 202. 28.
      14. 0. 0. 0. 1. 8. 150. 255. 232. 234. 242. 188. 183. 2. 0. 0. 4.
      0. 149. 255. 246. 255. 255. 222. 255. 71. 0. 1. 0. 151. 255. 255.
      253. 255. 255. 252. 255. 160. 0. 1. 2. 71. 254. 255. 255. 255.
      253. 255. 255. 240. 50. 0. 28. 248. 253. 255. 255. 255. 255. 255.
      255. 254. 136. 2. 0. 169. 255. 253. 255. 255. 253. 255. 255. 215.
      217. 30. 0. 88. 255. 255. 253. 255. 255. 252. 255. 255. 251. 255.
      255. 254. 255. 255. 207. 17. 0. 0. 2. 254. 255. 252. 255. 254.
      252. 255. 96. 2. 0. 0. 0. 0. 0. 0. 1. 0. 0. 0. 0. 0. 0. 0. 0. 1.
      0. 0. 0. 0. 0. 0. 0. 97. 247. 255. 252. 255. 193. 207. 55. 0. 1.
      0. 140. 254. 254. 255. 255. 251. 255. 255. 134. 0. 0. 0. 68. 255.
      255. 254. 255. 253. 255. 255. 214. 30. 1. 18. 198. 255. 255. 255.
      255. 255. 255. 255. 254. 113. 0. 0. 144. 255. 254. 254. 255. 255.
      254. 253. 255. 192. 6. 0. 105. 255. 255. 255. 254. 252. 255. 254.
      255. 253. 88. 0. 25. 207. 255. 255. 254. 254. 255. 255. 254. 255.
      165. 0. 1. 127. 255. 254. 255. 255. 254. 255. 255. 252. 255. 255.
      253. 255. 255. 170. 0. 0. 0. 0. 255. 255. 255. 252. 255. 255. 254.
      237. 54. 0. 3. 0. 3. 0. 1. 0. 0. 0. 0. 0. 0. 0. 0. 0. 0. 1. 1. 0.
      4. 0. 2. 63. 252. 255. 255. 254. 254. 255. 253. 202. 19. 0. 0. 28.
      214. 255. 255. 255. 255. 251. 253. 255. 95. 68. 0. 119. 255. 255.
      255. 255. 255. 251. 255. 254. 178. 0. 1. 128. 254. 255. 252. 255.
      255. 253. 254. 255. 254. 72. 4. 45. 227. 255. 255. 254. 254. 255.
      254. 255. 254. 156. 0. 0. 152. 251. 255. 255. 255. 252. 254. 255.
      255. 232. 50. 0. 72. 255. 253. 255. 255. 254. 255. 255. 253. 255.
      128. 0. 0. 175. 255. 255. 255. 254. 255. 252. 254. 255. 254. 255.
      255. 250. 170. 6. 1. 2. 0. 254. 255. 253. 255. 255. 255. 251. 255.
      193. 9. 1. 0. 0. 3. 0. 2. 0. 0. 0. 0. 0. 0. 0. 0. 0. 0. 3. 0. 0.
      2. 0. 0. 152. 252. 251. 255. 254. 255. 255. 252. 149. 42. 32. 4.
      72. 254. 255. 250. 252. 255. 253. 255. 242. 255. 121. 61. 246.
      255. 254. 254. 255. 255. 252. 255. 252. 153. 148. 7. 167. 255.
      255. 255. 255. 255. 253. 255. 255. 204. 21. 2. 90. 255. 250. 255.
      255. 252. 255. 253. 255. 251. 105. 0. 4. 194. 255. 254. 255. 255.
      255. 255. 255. 252. 191. 0. 0. 114. 255. 253. 254. 255. 254. 254.
      255. 242. 77. 0. 5. 31. 217. 255. 255. 255. 254. 255. 253. 255.
      255. 255. 253. 255. 116. 0. 0. 0. 0. 254. 255. 255. 255. 254. 251.
      255. 254. 254. 102. 1. 0. 0. 2. 0. 0. 0. 0. 0. 0. 0. 0. 0. 0. 3.
      0. 0. 4. 0. 0. 3. 0. 15. 200. 255. 254. 255. 255. 255. 254. 255.
      252. 185. 0. 2. 117. 254. 255. 255. 255. 255. 255. 255. 255. 250.
      73. 104. 255. 253. 255. 255. 254. 254. 254. 255. 255. 166. 2. 23.
      206. 255. 254. 252. 254. 255. 252. 254. 255. 169. 0. 0. 161. 255.
      254. 255. 255. 254. 255. 255. 255. 244. 58. 5. 104. 250. 253. 253.
      255. 252. 255. 255. 255. 120. 1. 1. 71. 237. 255. 255. 255. 255.
      255. 255. 255. 71. 0. 0. 73. 226. 253. 253. 255. 254. 254. 255.
      255. 254. 254. 255. 254. 254. 46. 0. 0. 3. 255. 254. 253. 253.
      255. 255. 253. 255. 241. 38. 0. 4. 1. 0. 1. 1. 0. 0. 0. 0. 0. 0.
      0. 0. 0. 0. 2. 0. 0. 5. 0. 0. 0. 58. 234. 255. 254. 254. 255. 255.
      254. 254. 198. 12. 1. 15. 224. 255. 255. 253. 255. 253. 254. 255.
      224. 20. 1. 156. 255. 255. 253. 255. 255. 255. 255. 252. 233. 50.
      0. 87. 254. 255. 254. 255. 255. 254. 255. 253. 190. 17. 33. 249.
      254. 254. 255. 254. 255. 255. 255. 253. 177. 22. 111. 255. 254.
      255. 255. 254. 255. 253. 255. 173. 0. 0. 118. 255. 255. 255. 255.
      255. 254. 254. 220. 73. 0. 1. 121. 253. 255. 255. 255. 255. 250.
      255. 254. 252. 255. 255. 254. 254. 187. 2. 1. 1. 0. 255. 254. 255.
      255. 254. 175. 229. 80. 104. 25. 1. 0. 0. 0. 0. 0. 0. 0. 0. 0. 0.
      0. 0. 0. 0. 0. 1. 2. 0. 0. 0. 3. 1. 0. 168. 254. 255. 254. 254.
      255. 255. 255. 188. 8. 1. 74. 254. 255. 254. 255. 255. 255. 255.
      253. 233. 37. 65. 216. 255. 255. 255. 255. 253. 254. 253. 255.
      227. 67. 64. 210. 255. 255. 255. 255. 253. 255. 255. 255. 184. 1.
      64. 229. 255. 255. 250. 255. 255. 252. 255. 128. 1. 0. 134. 255.
      251. 255. 255. 255. 251. 254. 255. 128. 12. 165. 255. 253. 253.
      255. 252. 255. 255. 176. 27. 0. 5. 167. 255. 255. 253. 253. 255.
      254. 255. 252. 255. 255. 255. 252. 255. 255. 168. 3. 0. 2. 1. 255.
