<?xml version="1.0"?>
<opencv_storage>
<opencv_ml_svm>
  <format>3</format>
  <svmType>C_SVC</svmType>
  <kernel>
    <type>LINEAR</type></kernel>
  <C>1.</C>
  <term_criteria><epsilon>1.1920928955078125e-07</epsilon>
    <iterations>1000</iterations></term_criteria>
  <var_count>4725</var_count>
  <class_count>2</class_count>
  <class_labels type_id="opencv-matrix">
    <rows>2</rows>
    <cols>1</cols>
    <dt>i</dt>
    <data>
      0 1</data></class_labels>
  <sv_total>1</sv_total>
  <support_vectors>
    <_>
      -7.79380457e-07 -1.72338434e-06 5.30272871e-07 4.36974960e-06
      1.83859283e-05 2.35991138e-05 2.99215844e-05 3.89842244e-05
      3.03262768e-05 3.32567688e-05 3.80988713e-05 3.69950976e-05
      3.70310190e-05 3.70146809e-05 3.69436639e-05 3.52604402e-05
      3.53615578e-05 1.97713653e-05 -1.21602179e-05 -1.28776555e-05
      -9.86737541e-06 -1.27294993e-06 1.83182266e-07 -5.53000277e-08
      -1.45088243e-05 -4.01933939e-05 -1.72654672e-05 1.21256526e-05
      1.19146216e-05 5.23484186e-06 2.73362218e-07 8.97587142e-06
      1.41196915e-05 1.18293228e-05 1.73089611e-05 1.51775785e-05
      9.76779302e-06 1.43699808e-05 1.89991461e-05 2.59235694e-05
      3.14413301e-05 5.19222849e-05 9.38361336e-05 1.09917179e-04
      1.04585983e-04 1.00328209e-04 7.67757883e-05 5.33052880e-05
      3.49825459e-05 3.43716965e-05 3.16561964e-05 2.43683062e-05
      9.30905389e-06 -5.49347033e-06 -1.02748299e-05 -5.92968627e-06
      -6.67599295e-07 2.43995009e-06 2.19514891e-06 6.83618873e-06
      5.20798631e-06 2.16430044e-06 6.54112546e-06 7.16573686e-06
      -1.09223592e-07 2.75519324e-06 5.22047367e-06 6.82738846e-06
      1.18079708e-06 7.00652052e-08 1.12339910e-06 -1.12572607e-07 0.
      1.12456867e-07 -5.49746879e-08 7.25413329e-08 -9.26727068e-08
      -8.99337422e-08 2.41804443e-08 0. 5.62284335e-08 0. 1.12456867e-07
      0. 0. 0. 0. 0. 3.27010863e-09 0. 8.59929344e-07 2.77959231e-07
      8.33877721e-07 8.40861389e-07 3.66252181e-07 7.98244628e-07 0. 0.
      9.31158439e-09 0. 0. 0. 0. 2.32789610e-09 2.28133814e-07
      2.88769648e-08 2.32789610e-09 0. 4.65579220e-09 3.59711940e-08
      3.65479679e-07 0. 3.52174254e-07 1.42749116e-06 7.68205695e-08 0.
      7.75403919e-08 5.59800473e-09 0. 2.32789610e-09 1.81984240e-06
      6.49709727e-06 -1.47279634e-05 -1.01104561e-04 -7.63588905e-05
      -6.59834695e-05 -7.43982673e-06 1.71819011e-05 4.31798180e-05
      -5.73047373e-06 -5.27501106e-05 -2.56024359e-05 -1.80263451e-05
      -1.62787674e-05 -1.65640249e-05 -5.27374414e-06 2.84881207e-06
      -1.26098109e-06 2.63442644e-06 3.59263981e-06 4.94959068e-06
      1.72567215e-05 3.11229742e-05 1.47517840e-05 3.04122786e-05
      3.71012065e-05 3.65963788e-05 3.67999710e-05 3.68527690e-05
      3.62195169e-05 3.67567736e-05 3.69257141e-05 1.82996064e-05
      -1.22133679e-05 8.01953206e-08 -1.80266738e-07 -2.44944147e-07
      1.66390663e-07 -9.12450651e-06 -1.98591206e-05 -2.12234681e-05
      7.92548326e-06 1.41202763e-05 1.09719240e-05 1.09570394e-07
      -3.84793566e-08 3.39321787e-06 6.29809801e-06 4.39881978e-06
      1.32508285e-05 1.85621375e-05 1.93208161e-05 2.26826269e-05
      2.97044426e-05 4.38697025e-05 7.61540796e-05 1.06167012e-04
      1.26428698e-04 1.09185508e-04 6.49439244e-05 6.26782567e-05
      5.06114884e-05 3.78240620e-05 3.41716877e-05 3.34988435e-05
      2.85995829e-05 1.42774988e-05 -1.99410147e-06 -7.34102241e-06
      -8.60205091e-06 -3.84860505e-06 3.49349875e-06 2.65401127e-06
      3.50650726e-06 5.14834483e-06 6.10211919e-06 7.11153825e-06
      8.76036120e-06 1.15672829e-05 8.60295040e-06 9.64670653e-06
      1.25948809e-05 1.43624311e-05 7.12178098e-06 6.28543648e-06
      8.32180831e-06 2.44535204e-06 -1.70815940e-06 -3.22275764e-06
      1.33941853e-06 3.12586553e-06 -1.07786091e-08 1.68685304e-07
      2.94544009e-07 -1.12572607e-07 0. 2.81142178e-07 0. 5.62284335e-08
      1.12456867e-07 0. 1.68685304e-07 0. 6.98368785e-09 1.96206518e-08
      1.11316990e-06 4.15303788e-07 8.24067399e-07 8.30607576e-07
      8.14257078e-07 5.96883581e-07 4.65579220e-09 0. 0. 0.
      2.32789610e-09 2.32789610e-09 2.32789610e-09 0. 2.90987003e-07
      2.61055977e-08 0. 2.32789610e-09 1.54083306e-08 0. 1.15951330e-07
      0. 2.15827171e-07 1.42422107e-06 1.53641139e-07 6.54021726e-09
      1.46657456e-07 0. 5.59800473e-09 9.81032588e-09 7.38550989e-06
      1.55290218e-05 -3.81146720e-06 -4.91566097e-05 -2.36996821e-05
      -5.17584995e-05 9.24297638e-07 2.58332220e-05 3.36202465e-05
      1.01833311e-05 -3.83476181e-05 -2.57024603e-05 -1.68347906e-05
      -1.65908095e-05 -1.67085072e-05 1.96628043e-05 1.39692302e-05
      1.78405458e-06 -3.19612491e-06 -8.92331536e-06 -1.93932442e-06
      1.71062638e-05 2.39297096e-05 1.31856696e-05 7.82707139e-06
      1.77583570e-05 2.18929235e-05 3.46256420e-05 3.64496627e-05
      3.66751156e-05 3.71439637e-05 3.65941887e-05 2.01795665e-05
      -8.16160480e-07 -3.65349649e-07 -6.14085423e-08 -3.98451725e-08
      -1.59228384e-05 -3.52995085e-05 -1.80394927e-05 -4.21333289e-06
      8.70328950e-06 1.18234675e-05 7.93033814e-06 1.26619250e-06
      -5.25086818e-08 -3.54765675e-08 1.11260715e-06 1.45385559e-06
      1.03387110e-05 2.07382982e-05 2.45978590e-05 3.03176403e-05
      4.15023351e-05 6.91678506e-05 1.26765139e-04 1.21631791e-04
      8.71426164e-05 6.06461617e-05 4.35880611e-05 4.03936792e-05
      3.47617679e-05 3.46705128e-05 3.10900614e-05 2.53399976e-05
      9.19414742e-06 -3.94219387e-06 -4.21944924e-06 -6.19542698e-06
      -8.29092096e-06 -6.49384447e-06 2.46846685e-06 2.53514304e-06
      3.13987471e-06 4.32523802e-06 6.81741267e-06 7.34819332e-06
      8.48695527e-06 1.25866554e-05 1.40066368e-05 1.43797606e-05
      1.43659245e-05 1.42975478e-05 1.27638541e-05 1.38321948e-05
      1.40785814e-05 9.06481000e-06 2.80448194e-06 -3.80790880e-06
      2.39457177e-06 8.17728505e-06 3.55579323e-06 6.02544787e-06
      4.28676276e-06 5.62284335e-08 5.62284335e-08 2.47405114e-06
      3.26124905e-06 0. 5.62284335e-08 0. 0. 5.62284335e-08 0.
      2.32789610e-09 8.67192000e-07 4.77435890e-07 8.36205629e-07
      5.90005243e-07 3.10660312e-07 5.91285584e-07 0. 9.31158439e-09 0.
      0. 0. 2.32789610e-09 4.65579220e-08 2.88659095e-07 3.44085151e-07
      1.32690076e-07 4.65579220e-09 1.02537969e-08 0. 1.14897276e-07
      4.65579220e-08 6.54021726e-09 8.40806109e-08 1.42189322e-06
      2.69259544e-07 6.54021726e-09 2.84003306e-07 5.59800473e-09 0. 0.
      8.47962565e-06 2.05979486e-05 5.37081814e-06 -7.36986403e-05
      -3.29534232e-05 -3.16146215e-05 -5.40743713e-06 1.40239690e-05
      -2.79684245e-05 -4.47858656e-05 -4.27871237e-05 -2.34656145e-05
      -1.69908453e-05 -1.42195740e-05 -1.74399811e-05 2.38045559e-05
      1.83550492e-05 8.79343133e-06 2.46439026e-06 8.55483449e-07
      8.10101483e-06 2.48689630e-05 3.07933769e-05 2.65450399e-05
      2.08105193e-05 2.55836439e-05 2.39488745e-05 2.34586114e-05
      2.89759464e-05 3.66749955e-05 3.64548541e-05 3.67565954e-05
      1.84583096e-05 1.71145118e-07 -3.32763989e-07 -2.30690134e-07
      -8.26075450e-07 -9.58191140e-06 -7.01353611e-06 -6.30083207e-07
      -6.86679087e-08 2.90736079e-06 4.27546911e-06 1.59489343e-06
      2.69717390e-07 1.56105443e-07 1.51909276e-07 1.48149832e-06
      3.67746793e-06 1.16458514e-05 3.01591535e-05 2.76570372e-05
      3.36721714e-05 5.84801346e-05 9.10528906e-05 9.73113638e-05
      7.80128175e-05 4.60071751e-05 3.59179612e-05 3.56409073e-05
      3.43822321e-05 3.38048085e-05 3.04786845e-05 1.90563260e-05
      2.36739174e-06 -3.04477976e-06 -7.97769826e-06 -8.14996019e-06
      -1.04490382e-05 -1.09136299e-05 -9.99786607e-06 -9.92894343e-07
      2.47589901e-06 3.13294254e-06 4.47335378e-06 5.95133088e-06
      5.88915054e-06 8.46066450e-06 1.29306973e-05 1.43736297e-05
      1.39457243e-05 1.42815898e-05 1.43378184e-05 1.43179468e-05
      1.42940544e-05 1.35435730e-05 8.82092445e-06 3.50242408e-06
      -1.63767561e-06 3.05749359e-06 1.14358927e-05 1.13581436e-05
      1.40449602e-05 1.05025692e-05 4.80330937e-06 7.47838158e-06
      1.03460316e-05 1.10207729e-05 3.48616300e-06 1.68685301e-06
      5.62284335e-08 5.62284335e-08 5.62284335e-08 8.86811335e-09 0.
      5.14465000e-07 5.03596709e-07 3.40091304e-07 6.86722785e-08
      6.98368785e-09 6.00153726e-07 0. 0. 0. 0. 1.37345864e-07
      2.95642792e-07 2.81675426e-07 5.70334521e-07 3.21249644e-07
      9.63859463e-08 3.27010863e-09 0. 0. 8.17527166e-08 1.31304390e-07
      4.65579220e-09 2.32789610e-09 1.42749116e-06 4.98334259e-07 0.
      8.94022634e-08 6.54021726e-09 0. 1.11960095e-08 1.14883960e-06
      1.13184169e-05 -2.59927288e-06 -1.05627107e-04 -8.31027573e-05
      -4.24322388e-05 -3.29558247e-06 2.13939402e-05 -3.05754770e-06
      -1.51350459e-05 -3.11646145e-05 -1.41805231e-05 -1.48174986e-05
      -1.20662799e-05 -1.38810010e-05 -4.31545999e-07 4.89812146e-06
      8.19766774e-06 2.52765381e-06 2.02562978e-06 1.19134202e-05
      3.58612087e-05 4.80678791e-05 4.17233387e-05 4.30910914e-05
      4.10472639e-05 3.48865869e-05 3.45115332e-05 3.61188213e-05
      3.63936851e-05 3.69918707e-05 3.71052301e-05 1.40168795e-05
      -5.75340323e-07 -1.33916942e-07 8.84359110e-08 7.51287601e-08
      -1.47129958e-06 1.77206569e-08 6.83504098e-08 -4.12618633e-08
      5.29390665e-09 -2.54693788e-07 3.02851458e-06 7.52196456e-06
      3.75260043e-07 1.81619419e-06 4.02035721e-06 8.10792881e-06
      3.17640843e-05 4.71827734e-05 3.99633755e-05 3.50086229e-05
      5.91591524e-05 6.89449080e-05 6.48119385e-05 5.50059740e-05
      3.77083197e-05 3.49128022e-05 3.46031084e-05 3.45572444e-05
      2.84825383e-05 9.47215267e-06 1.05638556e-07 -2.56437431e-08
      -3.53133623e-06 -8.84577639e-06 -1.10672991e-05 -1.43219067e-05
      -1.21833500e-05 -1.06469843e-05 -4.35294942e-06 2.61086461e-06
      2.71152180e-06 3.88795570e-06 5.21159654e-06 6.43957947e-06
      9.76123101e-06 1.32260020e-05 1.41813389e-05 1.43294337e-05
      1.43372254e-05 1.40466491e-05 1.42837107e-05 1.42394865e-05
      1.23674799e-05 2.48895230e-06 -3.09776306e-06 -3.01181990e-06
      2.37509789e-06 1.16031897e-05 1.43545640e-05 1.43784564e-05
      1.36860326e-05 1.30812095e-05 1.43382504e-05 1.43382504e-05
      1.42257941e-05 1.05709460e-05 7.42215343e-06 0. 0. 0.
      2.32789610e-09 3.27010863e-09 5.93613493e-07 1.04643476e-07 0.
      6.54021726e-09 1.02537969e-08 3.88758622e-07 0. 0. 1.53641139e-07
      3.02626489e-07 4.60923417e-07 5.56367127e-07 3.23577552e-07
      2.44429089e-07 6.75089851e-08 6.54021726e-09 0. 4.65579220e-09
      1.11960095e-08 2.79347514e-08 1.09411111e-07 0. 3.27010863e-09
      1.42283545e-06 8.18585136e-07 2.32789610e-09 9.81032588e-09
      4.65579220e-09 1.35239056e-08 0. 1.72825537e-06 7.51970310e-06
      -2.66846132e-06 -1.00438905e-04 -1.29584005e-04 -8.94960904e-05
      -1.32118485e-05 -2.12635859e-05 -4.84758457e-05 -2.73279620e-05
      -3.44968576e-05 -1.48380714e-05 -1.43253219e-05 -1.32445293e-05
      -1.54935769e-05 -5.72267390e-06 -3.26184681e-06 1.45772829e-05
      3.58236184e-06 2.45566707e-06 9.77400123e-06 3.16458427e-05
      4.33635360e-05 5.08003104e-05 4.71967032e-05 4.07046791e-05
      4.14096430e-05 4.01472207e-05 3.61735001e-05 3.69716872e-05
      2.92991717e-05 1.60490745e-05 3.90221931e-06 1.79117137e-07
      2.72475773e-07 -1.86019989e-07 -2.22464720e-07 9.01369674e-07
      2.61414198e-06 7.91377715e-06 1.47385765e-06 1.47579398e-08
      5.04020318e-06 7.40050564e-06 2.66718234e-06 5.16330465e-06
      1.08819695e-05 9.87367184e-06 1.47693481e-05 3.40361621e-05
      5.06618890e-05 4.02445730e-05 2.84955549e-05 3.45775261e-05
      4.19717326e-05 3.93635819e-05 3.76452517e-05 3.49644506e-05
      3.47648238e-05 3.26230002e-05 2.41822709e-05 8.78697756e-06
      1.30047101e-06 5.87490234e-08 3.06218226e-07 -2.49965683e-06
      -7.17292551e-06 -1.02623480e-05 -1.24800454e-05 -1.15016173e-05
      -1.13468413e-05 -6.70782129e-06 2.66767302e-06 2.63147058e-06
      3.43144416e-06 5.26167105e-06 7.18771889e-06 1.05891913e-05
      1.39684844e-05 1.45932927e-05 1.42728650e-05 1.42012095e-05
      1.43622874e-05 1.42256495e-05 1.40097727e-05 1.27248877e-05
      3.46212460e-06 -2.88048545e-06 -3.10854170e-06 1.23413838e-06
      1.10829815e-05 1.43274719e-05 1.40647444e-05 1.42712433e-05
      1.42150147e-05 1.43382504e-05 1.42820218e-05 1.42820218e-05
      1.43382504e-05 1.25951692e-05 2.30536580e-06 2.81142178e-07 0. 0.
      1.96206518e-08 5.93613493e-07 0. 1.63505440e-08 4.65579220e-09 0.
      9.12866867e-08 0. 3.16593855e-07 4.72562903e-07 5.56367127e-07
      3.91086530e-07 2.18822223e-07 6.75089851e-08 0. 5.59800473e-09 0.
      0. 0. 0. 6.29084624e-08 0. 6.54021726e-09 4.65579220e-09
      1.42749116e-06 1.03042237e-06 9.81032588e-09 4.65579220e-09
      1.92936412e-07 0. 8.86811335e-09 -5.92177685e-07 4.25770259e-06
      -1.09684870e-05 -9.20748716e-05 -7.39123861e-05 -8.61885273e-05
      -3.53095675e-05 -2.25187196e-05 -4.66090387e-05 -4.06274630e-05
      -3.21429543e-05 -1.08145005e-05 -1.39813465e-05 -1.27203757e-05
      -1.84083256e-05 -1.09093808e-05 -1.09462208e-05 -2.20068358e-07
      -1.56075680e-06 1.91433128e-06 3.00043685e-05 5.27177617e-05
      4.42821474e-05 3.90932328e-05 3.77564684e-05 3.77425094e-05
      3.69988265e-05 3.99103556e-05 3.72153700e-05 3.60126760e-05
      1.61284388e-05 1.84325955e-07 1.20136193e-07 -6.88138243e-07
      -8.66009842e-08 1.95707514e-07 1.27611554e-06 6.22577227e-06
      1.11762492e-05 5.97502685e-06 2.62665822e-07 -2.20288001e-08
      2.71239514e-06 3.16303499e-07 4.77325329e-06 1.15163184e-05
      1.16644760e-05 1.30105082e-05 1.47677401e-05 2.24107171e-05
      2.85767874e-05 2.05444867e-05 2.74240283e-05 3.89923698e-05
      3.65927044e-05 3.52117422e-05 3.45665285e-05 3.54423282e-05
      3.06021648e-05 1.62191700e-05 4.30801811e-06 1.48019728e-06
      1.50402172e-06 6.09282012e-08 1.74177146e-07 -6.15043348e-07
      -4.76399282e-06 -9.89967793e-06 -1.44641372e-05 -1.52442226e-05
      -1.37025709e-05 -9.26148823e-06 -2.07771222e-06 2.22266453e-06
      3.30515923e-06 4.76303876e-06 8.61233366e-06 1.17758500e-05
      1.52110269e-05 1.55802936e-05 1.40554257e-05 1.43382504e-05
      1.44142850e-05 1.40604861e-05 1.43624311e-05 1.36706540e-05
      5.65399978e-06 1.33500222e-07 -1.17107231e-06 5.04635523e-07
      9.94059610e-06 1.40868233e-05 1.43274719e-05 1.43866118e-05
      1.42712433e-05 1.43382504e-05 1.42820218e-05 1.43382504e-05
      1.43382504e-05 1.41695655e-05 5.28547298e-06 0. 1.12456867e-07
      7.92590082e-09 2.32789610e-09 5.79646098e-07 0. 2.32789610e-09 0.
      3.27010863e-09 0. 2.32789610e-09 4.49283931e-07 3.74791256e-07
      2.18822223e-07 6.05252950e-08 0. 4.65579220e-09 4.65579220e-09 0.
      9.81032588e-09 1.11960095e-08 2.32789610e-09 2.32789610e-09 0.
      1.16394805e-08 0. 6.54021726e-09 1.42422107e-06 1.16915260e-06
      4.65579220e-09 0. 4.28384226e-07 6.98368785e-09 0. 7.25771031e-07
      2.02076922e-06 -1.33610693e-05 -7.98029141e-05 -5.01758477e-05
      -5.11134604e-05 -2.49056575e-05 -7.83834912e-06 3.05341860e-06
      -4.23772690e-06 -4.86004101e-05 -1.16261999e-05 -1.27187623e-05
      -1.48190220e-05 -1.35746041e-05 -4.26980623e-05 -1.17118852e-05
      -2.11251199e-06 2.12231698e-05 2.90376083e-05 8.32865335e-05
      1.31393768e-04 9.45540960e-05 3.80051933e-05 3.84524828e-05
      3.80804413e-05 3.64952939e-05 3.69816262e-05 3.64399421e-05
      3.43095344e-05 1.52233179e-05 -1.15206873e-07 -7.51914797e-08
      1.20136193e-07 7.91013690e-07 2.33633818e-06 6.73209934e-06
      9.10749532e-06 3.55975612e-06 -7.59752012e-08 -6.99312039e-08
      -1.97519327e-07 -6.72756144e-08 8.29755038e-07 6.71134103e-06
      1.17680338e-05 1.16628562e-05 1.21181429e-05 1.42786639e-05
      1.38069263e-05 1.49047555e-05 3.21539555e-05 4.84221600e-05
      4.93475345e-05 4.44891484e-05 3.92374750e-05 3.81099853e-05
      3.07164482e-05 1.40108796e-05 3.50441610e-06 5.30592069e-06
      7.07879326e-06 6.66195001e-06 6.09595327e-06 5.91687967e-06
      4.28453541e-06 -1.26866871e-06 -8.61597073e-06 -1.76638332e-05
      -1.90628616e-05 -1.80597799e-05 -1.57507584e-05 -8.41000747e-06
      8.59417867e-07 2.97007614e-06 9.23712014e-06 1.46216535e-05
      1.50081332e-05 1.69458344e-05 1.76427748e-05 1.60828313e-05
      1.54002919e-05 1.48944009e-05 1.43898160e-05 1.42014978e-05
      1.44105034e-05 1.19589095e-05 1.01794303e-05 1.99178908e-06
      -1.75314267e-06 8.29115834e-06 1.53296496e-05 1.47362061e-05
      1.43062025e-05 1.41907194e-05 1.43382504e-05 1.41695655e-05
      1.43382504e-05 1.42820218e-05 1.43382504e-05 8.54672180e-06 0. 0.
      6.54021726e-09 2.32789610e-09 4.66521414e-07 2.32789610e-09
      1.02537969e-08 3.27010863e-09 0. 2.32789610e-09 1.58296928e-07
      1.39673759e-07 3.95742319e-08 0. 2.32789610e-09 0. 2.32789610e-09
      0. 2.32789610e-09 0. 4.65579220e-09 0. 8.86811335e-09
      3.27010863e-09 0. 5.59800473e-09 6.98368785e-09 1.42516330e-06
      1.29014666e-06 3.27010863e-09 4.65579220e-09 2.06848512e-07 0.
      4.65579220e-09 -1.83583744e-08 2.48584001e-06 -3.92435913e-06
      -3.19619248e-05 -3.07818882e-05 -4.90365092e-05 -1.59075498e-05
      -7.67477013e-06 1.63505101e-05 2.01555904e-05 -2.80376025e-05
      -1.40987049e-05 -1.31858042e-05 -1.46289458e-05 -1.71164738e-05
      -3.46979105e-05 -2.12471550e-05 -4.37495191e-06 5.37103006e-06
      2.36664418e-05 5.20386966e-05 1.03217251e-04 1.07337815e-04
      6.21589425e-05 3.93198316e-05 3.87256659e-05 3.81520840e-05
      3.70178495e-05 3.64484767e-05 3.76735188e-05 1.37972711e-05
      5.72385147e-07 5.82683754e-07 3.64035913e-07 2.22593030e-06
      4.01518082e-06 7.02490524e-06 6.27690383e-07 6.07600441e-07
      5.54772477e-08 -9.80550325e-08 1.68458371e-07 1.15634703e-06
      7.16726208e-06 1.19266169e-05 8.31341913e-06 2.76271999e-06
      5.32139711e-06 -1.16608852e-07 7.32150875e-06 2.92235109e-05
      4.58257018e-05 4.93015650e-05 4.88706428e-05 4.26653241e-05
      3.78100121e-05 2.09455138e-05 4.16575131e-06 2.02470801e-06
      3.02050876e-06 5.61506613e-06 5.56933355e-06 5.63883168e-06
      6.50733955e-06 5.16109549e-06 5.56689474e-06 -5.70463044e-07
      -1.00018515e-05 -1.98200414e-05 -2.62363974e-05 -2.20059901e-05
      -1.46124548e-05 -9.32180853e-07 6.60527803e-06 8.58136991e-06
      1.27023104e-05 2.04168209e-05 1.97131521e-05 1.89281582e-05
      2.00410268e-05 1.99907845e-05 1.99189017e-05 1.95033772e-05
      2.06075820e-05 1.89801449e-05 1.83446482e-05 1.85835743e-05
      1.77111688e-05 1.01604564e-05 6.29193482e-06 1.24677317e-05
      1.87897658e-05 1.95153752e-05 1.93169653e-05 1.99015285e-05
      1.93504729e-05 1.76352951e-05 1.75631449e-05 1.67931430e-05
      1.56954866e-05 1.22138936e-05 1.69315945e-06 1.18448199e-07
      -2.29822419e-07 -1.51380527e-06 -1.11060686e-07 3.35237110e-06
      3.81327322e-06 2.25912777e-06 1.72785349e-06 1.56673934e-06
      2.33639344e-06 -2.35811854e-07 -2.08583320e-08 -1.09163034e-08
      -6.32261163e-07 -5.68695157e-07 -2.08253041e-07 -6.60238072e-07
      6.55341736e-08 -1.31137290e-06 -8.24860251e-07 -1.09762119e-08
      -1.15999342e-06 -7.71580346e-08 -7.65975017e-07 -3.96723038e-07
      -1.58235778e-07 4.93515699e-07 4.94233120e-07 -8.84482745e-07
      -9.17013836e-07 6.96431783e-08 -5.79375751e-07 2.09190105e-07
      6.53257848e-06 1.69560517e-05 1.80792915e-06 -4.46395643e-05
      -2.22458912e-05 -3.36744415e-05 -1.23563423e-05 -2.06585100e-05
      -3.44369437e-05 -2.44303301e-05 -3.92258371e-05 -1.38199921e-05
      -1.41002793e-05 -1.59055598e-05 -1.46518660e-05 -4.10793946e-05
      -6.00383792e-05 -3.69571462e-05 -9.37040022e-06 -7.64168988e-07
      3.80760612e-05 2.33241917e-05 4.47490711e-05 5.53703503e-05
      3.77167271e-05 5.40561487e-05 3.93687042e-05 3.66799031e-05
      3.80834281e-05 3.01098862e-05 1.20718432e-05 3.52152867e-08
      4.09009410e-10 6.89147669e-07 1.79088181e-06 1.14436125e-06
      5.66305616e-08 4.59229241e-08 1.72663601e-06 7.81356960e-07
      -8.93085925e-08 -2.80531850e-07 1.68966324e-06 8.13837414e-06
      5.60531225e-06 -1.30265391e-06 -1.50740175e-06 -2.84565704e-06
      -1.17152995e-05 1.83531993e-05 5.18735360e-05 5.60367298e-05
      4.67463324e-05 4.45623336e-05 3.89292945e-05 8.52839730e-06
      1.80852453e-06 -3.90408013e-06 -1.71655620e-06 -3.92361790e-06
      1.36718586e-06 6.45157797e-06 1.88309025e-06 5.26484473e-06
      3.34103402e-06 5.03037063e-06 4.80920107e-06 -6.93794937e-06
      -1.44646719e-05 -2.70026612e-05 -2.18927889e-05 -1.41522405e-05
      7.90368358e-06 1.52126713e-05 1.22412293e-05 2.07363028e-05
      1.59082629e-05 1.54282698e-05 2.32023031e-05 2.02122628e-05
      2.02893261e-05 2.16209737e-05 1.97536410e-05 1.72521086e-05
      1.73175267e-05 2.29791840e-05 1.63792356e-05 1.37041316e-05
      1.64451649e-05 1.87472742e-05 2.00139129e-05 1.92424413e-05
      2.07588346e-05 1.64387020e-05 1.86517082e-05 2.15701984e-05
      1.71780375e-05 1.99601709e-05 1.74093129e-05 1.80581010e-05
      1.14058394e-05 7.42516340e-06 6.79825234e-06 6.06137655e-06
      5.62570312e-06 5.08680114e-06 6.65337802e-06 5.36641892e-06
      3.54241934e-06 4.84217890e-06 5.88950388e-06 6.18079548e-06
      6.13819566e-06 6.77588969e-06 5.21828042e-06 4.08258802e-06
      5.46801357e-06 2.31673130e-06 1.98042812e-06 3.47951868e-07
      -4.13391831e-07 1.57912677e-06 2.44843613e-06 5.01338445e-06
      3.82202552e-06 3.39157714e-06 4.82960468e-06 3.38572909e-06
      3.12239308e-06 3.71104488e-06 2.45051592e-06 8.16087947e-07
      -6.13274324e-06 -1.30550361e-05 -4.67717382e-06 8.77134335e-06
      1.73679582e-05 9.51922812e-06 -8.72370656e-05 -6.44407264e-05
      -4.56704183e-05 7.07546633e-06 7.67666097e-06 -3.25883702e-05
      -7.62204509e-05 -6.60898950e-05 -1.85831286e-05 -1.25271245e-05
      -1.36853696e-05 -1.88330923e-05 -5.52886559e-05 -6.35805191e-05
      -3.16728729e-05 3.66490190e-06 3.60340455e-05 5.08222111e-05
      4.29054817e-05 4.03386912e-05 8.26259129e-05 9.36726210e-05
      1.26155719e-04 8.77819039e-05 4.04452185e-05 3.56123419e-05
      3.15421239e-05 1.06584930e-05 2.30931983e-06 5.71976102e-07 0. 0.
      2.22332943e-08 6.07191396e-07 1.14517923e-06 6.73381990e-08
      3.74128092e-07 -6.99860436e-08 3.76711540e-07 1.83925658e-06
      1.05285244e-05 5.62324158e-06 5.56116959e-07 -4.03609874e-06
      -1.77763977e-05 -1.80420811e-05 -7.85497832e-06 3.35796140e-05
      3.80849451e-05 2.57281681e-05 7.20529488e-06 6.52278413e-06
      -3.57242311e-06 -7.41295389e-06 -6.08101629e-07 -2.00006730e-06
      -1.12734633e-05 -1.30028156e-05 -1.16489846e-05 -1.76984686e-05
      -1.13797323e-05 -8.49227945e-06 -9.01121530e-06 -2.36997221e-05
      -1.38317801e-05 -1.65590336e-05 -7.24723168e-06 -1.34990196e-05
      -4.41538214e-06 -7.25206382e-06 -1.32024616e-06 5.92534025e-06
      2.49940649e-06 -5.16077262e-06 -5.80248161e-06 4.55741520e-06
      2.85900278e-05 1.01507103e-05 1.68359584e-05 1.06773823e-05
      2.13751573e-05 1.60638629e-05 1.01413034e-05 1.08717795e-05
      7.37562050e-06 1.67075068e-05 3.23174281e-05 1.71351639e-05
      7.40402811e-06 1.30707285e-05 1.54424743e-05 1.11189784e-05
      1.58277417e-05 1.12097850e-05 1.55239450e-05 1.87774276e-05
      1.99070164e-05 2.43560098e-05 2.17060770e-05 2.78864059e-06
      7.92699575e-06 1.75278474e-05 2.72509678e-05 1.01656715e-05
      5.09721394e-06 8.49485514e-06 4.82848782e-06 8.88172417e-06
      6.11848100e-06 1.17781201e-05 6.05258083e-06 9.81808716e-06
      1.97780701e-05 2.35146545e-05 1.15050343e-05 1.54321988e-05
      1.39454987e-05 2.40725276e-05 1.84706041e-05 1.87256646e-05
      1.62437336e-05 2.00549403e-05 2.55343075e-05 2.14677566e-05
      1.15741432e-05 1.75716159e-05 5.90839636e-06 2.75202547e-05
      2.75348011e-05 1.65188030e-05 2.16889157e-06 8.51689219e-06
      1.13410015e-05 2.74472586e-05 7.14700309e-06 -6.24450768e-05
      -8.20703790e-05 -1.01779719e-04 -6.90710885e-06 -1.06831058e-05
      -5.48440876e-05 -8.46376279e-05 -6.96117640e-05 -2.08455858e-05
      -1.38530586e-05 -1.05164117e-05 -1.68086899e-05 -8.48032068e-05
      -5.39221437e-05 -2.97616971e-05 -1.46686762e-05 8.38464257e-06
      2.40623340e-05 6.42843661e-05 7.66942176e-05 7.93114668e-05
      8.98569051e-05 1.43017460e-04 1.49438085e-04 7.81351628e-05
      3.74876072e-05 3.10282303e-05 8.90099636e-06 3.52152867e-08
      1.27470145e-07 2.14152767e-08 1.38177782e-07 4.09009410e-10 0.
      1.80777420e-06 0. -1.77290318e-07 2.16429015e-07 5.43770057e-07
      1.50378821e-06 9.67439064e-06 -2.56324847e-06 -1.31524039e-05
      -1.82069998e-05 -2.89531545e-05 -2.25910790e-05 7.71737348e-07
      5.00809110e-05 4.36638620e-05 1.35739692e-05 -1.68554998e-05
      -1.65737547e-05 -1.00067891e-05 9.00715168e-06 -6.03234957e-06
      -1.33177846e-05 -2.66553507e-05 -1.78926839e-05 -9.92907007e-06
      -1.07473306e-05 -6.85705390e-06 -2.14122556e-05 -2.65826257e-05
      -3.07218288e-05 -2.74463655e-05 -1.12802300e-05 2.97287488e-06
      -3.84175746e-06 -1.00458892e-05 1.55835824e-06 2.63329707e-06
      -6.59421403e-06 -8.85303234e-06 -1.33911690e-05 3.86958482e-06
      2.64374339e-05 1.39759031e-05 1.16633246e-05 3.02934386e-05
      1.48247882e-05 5.69642543e-06 7.35119056e-06 8.07838660e-06
      4.15487602e-06 -7.13527561e-06 1.04992431e-07 1.21464345e-05
      3.33331172e-06 -3.18235516e-06 9.85295173e-06 1.39450026e-06
      -1.49347693e-06 -3.95856796e-06 -8.91934997e-06 2.00904287e-06
      7.73420197e-06 1.12375410e-05 1.49328143e-05 6.83079679e-06
      -1.27369931e-05 -2.70264900e-06 -9.20372622e-06 -1.95121061e-06
      -2.36879396e-06 2.52978225e-05 3.01425080e-05 1.12023972e-05
      6.34694106e-06 3.79768471e-06 7.94136304e-06 -1.11449172e-05
      -1.50489686e-05 -2.39682413e-06 -4.21016284e-06 -4.12030658e-06
      2.29948782e-05 2.13947751e-05 4.78468937e-05 1.26892792e-05
      6.78422839e-06 1.36253202e-05 2.79077867e-05 4.41006887e-05
      1.23060645e-05 9.29318412e-06 1.57564755e-05 7.69021699e-06
      3.03880861e-05 2.99197090e-05 2.59334192e-05 1.47837557e-06
      1.47518558e-05 1.33942349e-05 8.24018480e-06 -1.90937117e-05
      -3.79131816e-05 -5.81702116e-05 -1.14236842e-04 -2.73965088e-05
      -2.94323054e-05 -9.35995122e-05 -9.51672846e-05 -7.51524422e-05
      -3.05812464e-05 -1.25451788e-05 -1.11672243e-05 -1.87865462e-05
      -1.04813611e-04 -7.26625512e-05 -6.84278930e-05 -5.13344312e-05
      -2.44200169e-06 -1.27049736e-06 3.18359434e-06 2.07372977e-05
      6.26377077e-05 2.59399221e-05 6.61044251e-05 1.53321074e-04
      1.29381791e-04 5.19654604e-05 1.93464712e-05 3.66329937e-06
      1.15465991e-06 1.14395220e-06 7.04305734e-08 6.42406690e-07
      6.08009429e-07 4.09009410e-10 1.07076383e-08 1.71633735e-06
      3.00194358e-07 1.34551485e-07 4.66571350e-07 9.43705288e-07
      7.90771446e-06 2.14808369e-06 -1.50482610e-05 -2.08390429e-05
      -1.80811167e-05 -4.86459021e-06 4.15365867e-05 8.21140493e-05
      4.01894104e-05 8.41483416e-06 5.14670865e-06 1.72646942e-05
      2.43125614e-05 2.13526564e-05 1.88640461e-05 1.52488356e-05
      2.77377762e-06 -7.06640412e-06 3.06846632e-05 1.03141092e-05
      3.15908596e-06 -2.71033855e-06 -2.95646601e-06 2.14417996e-05
      3.09276879e-06 6.70491045e-06 3.33115022e-05 2.82380788e-05
      8.41437668e-06 1.33690719e-05 1.60775944e-05 3.23891436e-05
      1.98292091e-05 6.23834330e-06 4.27242521e-05 4.18180607e-05
      2.21179835e-05 2.53354046e-05 3.30652620e-05 2.61409277e-05
      -1.00010293e-05 -6.20675792e-06 2.39352466e-05 1.97125046e-05
      -7.99162262e-06 -7.11813391e-06 2.11423758e-05 2.58120399e-05
      1.23683058e-05 2.64841965e-05 1.35540813e-05 -4.05581841e-06
      -8.65617858e-06 -2.57879287e-06 2.62778722e-05 1.25597453e-05
      1.42189556e-05 1.98463495e-05 2.55521936e-05 1.28285246e-05
      1.01666164e-05 -1.79882261e-06 1.01393625e-05 1.92948519e-05
      1.15264720e-05 5.25306541e-06 -6.84533461e-06 -2.17800007e-05
      -1.52234306e-05 1.07337437e-05 3.24366010e-06 -1.71994463e-06
      -1.06796442e-05 -1.15588955e-05 4.74683134e-07 1.36868812e-05
      1.33643971e-05 4.47444872e-05 2.16570661e-05 -7.46902060e-06
      -9.76715546e-06 1.69342238e-05 2.85925289e-05 1.45054355e-05
      2.87844414e-05 1.16327310e-05 -1.29132222e-05 9.99677013e-06
      1.79071376e-05 3.48074400e-06 1.74362976e-05 3.40345796e-05
      -3.95714128e-09 -3.07006690e-06 -1.68776587e-05 -3.69274967e-05
      -2.81254852e-05 -5.34518731e-05 -3.95870702e-05 -2.98740433e-05
      -6.12829317e-05 -9.33174306e-05 -9.34676646e-05 -2.88780611e-05
      -1.45490076e-05 -1.02440817e-05 -1.84263990e-05 -1.19326025e-04
      -8.61403387e-05 -7.42032862e-05 -4.91038882e-05 -1.39911863e-05
      -3.44065738e-05 -3.21690932e-05 6.83735789e-06 6.34883982e-05
      3.03366469e-05 1.19934039e-05 6.23726228e-05 1.17678246e-04
      5.31938967e-05 1.29783132e-06 4.77394224e-07 2.14152767e-08
      2.47734022e-07 1.07076383e-08 4.36485692e-08 0. 6.07191396e-07
      1.35707037e-08 1.05645860e-07 1.38048975e-07 -8.54117417e-08
      -1.14375077e-07 1.42989950e-06 7.07515846e-06 7.19500758e-06
      2.46435548e-06 -5.57200428e-06 1.12270609e-05 1.14672030e-05
      5.91736425e-05 1.23981270e-04 7.17568473e-05 2.41128710e-05
      2.27270102e-05 2.78368680e-05 4.80341150e-05 4.37765702e-05
      3.20384934e-05 2.27772580e-05 -1.17959671e-05 -1.79482358e-05
      4.58765817e-06 1.06914194e-05 1.87969690e-05 1.85291028e-05
      1.95704506e-05 3.63609615e-05 2.59919161e-05 3.53544274e-05
      3.05986250e-05 2.32159018e-05 1.61962307e-05 2.25563654e-05
      1.39186604e-05 3.22922242e-05 3.48365065e-05 4.24792825e-06
      7.52040523e-06 1.91149024e-06 2.13749008e-05 5.28650598e-05
      6.09629797e-06 -1.49000425e-05 -2.63457132e-05 -1.17513819e-05
      1.21233861e-05 3.35422410e-05 -1.29364953e-05 -2.92583900e-05
      -9.66272728e-06 -6.51183655e-06 9.17626858e-06 3.51534036e-05
      -5.67671395e-06 -2.71053595e-05 1.65940139e-06 1.11025456e-05
      -2.27877791e-07 -1.51166375e-06 1.61498847e-05 1.65368856e-05
      3.41503437e-05 2.61302357e-05 4.04375569e-05 2.46769632e-05
      3.42601379e-05 2.94383517e-05 -2.90912726e-06 -1.11874688e-05
      -2.11813258e-05 2.03919217e-06 7.04377726e-06 2.67550549e-05
      3.86851825e-05 3.01214004e-06 -7.86436158e-06 -7.32387718e-07
      2.02519750e-05 1.83498250e-05 2.04511198e-05 2.15964756e-05
      1.19405186e-05 -4.43299768e-06 1.84710743e-07 3.11152908e-05
      2.73811147e-05 3.89189790e-06 2.27616347e-05 1.99287842e-05
      1.83934771e-05 5.43445003e-06 8.13132738e-06 1.08418644e-05
      1.78140708e-05 1.64370376e-05 -1.41915916e-05 1.75455734e-05
      4.33502973e-05 2.78217303e-05 -2.18684454e-05 -4.23003330e-05
      -2.72120542e-05 -2.34980962e-05 -2.14497450e-05 -4.60576739e-05
      -3.98726734e-05 -5.00252145e-06 -1.51488548e-05 -1.39808026e-05
      -1.86176367e-05 -1.71457592e-04 -1.28782907e-04 -9.55563883e-05
      -5.97535254e-05 -6.88139116e-05 -8.79748113e-05 -5.24882707e-05
      1.62290621e-06 5.76570201e-05 3.17983140e-05 7.86456712e-06
      -1.76474305e-06 2.54606275e-05 1.31904071e-05 4.23549636e-06
      1.86482594e-05 1.32271089e-05 0. 2.14152767e-08 1.24959809e-06
      1.05007544e-07 1.18678281e-06 6.07191396e-07 6.04099057e-07
      1.78609323e-08 2.62810261e-07 9.02197872e-09 1.58003286e-06
      7.95523647e-06 9.49455807e-06 -4.55280724e-06 5.38609356e-06
      6.21951040e-06 -6.36000004e-06 3.70688795e-05 9.70431720e-05
      6.76285927e-05 2.81907596e-05 2.86605100e-05 4.19445278e-05
      7.46934820e-05 7.10329186e-05 5.94457124e-05 3.78040495e-05
      3.98150078e-05 3.29940667e-05 2.14894571e-05 1.25431052e-05
      3.87900363e-05 5.93881996e-05 6.00327294e-05 7.39860043e-05
      5.83530418e-05 6.97103460e-05 5.23755189e-05 3.26202135e-05
      4.50581501e-05 2.91694432e-05 2.22790004e-06 2.09192112e-05
      6.34400567e-05 3.78410041e-05 4.34187241e-05 3.54521217e-05
      1.41390583e-05 3.67154062e-05 2.75625498e-05 -1.02980557e-05
      8.97695543e-07 1.91856234e-05 1.94010026e-05 2.18185251e-05
      1.20189015e-05 -2.78272410e-06 -6.59707712e-06 1.10290512e-05
      -4.48857236e-06 3.62479477e-05 2.97913557e-05 2.06235472e-05
      2.01407438e-05 2.94661768e-05 1.33982712e-05 6.76191712e-06
      1.44308087e-05 3.88700173e-05 2.98813429e-05 1.98656289e-05
      2.57326810e-05 2.36632532e-05 1.34138636e-05 2.20812253e-05
      9.01083877e-06 7.62693480e-06 1.04611145e-05 -1.18418993e-05
      -7.01553745e-06 2.14480824e-05 3.23860331e-05 2.98001760e-06
      3.92618313e-06 4.79986829e-06 3.07839036e-05 2.00096874e-05
      -4.68087319e-06 -1.70247262e-07 4.13169664e-06 6.61393233e-06
      1.92157268e-06 1.45971771e-05 6.04863135e-06 -1.59766223e-05
      2.25556232e-06 2.44143448e-05 2.35922907e-05 3.55515681e-06
      1.57937284e-05 1.16898436e-05 5.68962776e-07 -1.15849807e-05
      -1.11079535e-05 9.26286884e-06 -2.42570741e-06 -1.36633821e-06
      -2.03481777e-05 -2.78120388e-05 -1.50038641e-05 -1.29193822e-05
      -4.27750529e-05 -7.43151904e-05 -4.88584046e-05 -6.60107708e-06
      -1.12314701e-05 -1.21701723e-05 -2.12551895e-05 -2.39723304e-04
      -1.89727871e-04 -1.68689978e-04 -1.14265720e-04 -9.06213318e-05
      -1.01681173e-04 -4.60167794e-05 -1.60314939e-05 -3.32388254e-06
      2.85430433e-05 7.11704797e-06 -2.44228413e-05 -1.66209975e-05
      4.49428489e-06 3.22533524e-05 8.25066018e-05 6.80651574e-05
      2.01217172e-05 3.52152867e-08 5.93391405e-07 0. 6.42406690e-07
      3.52152867e-08 8.18018819e-10 -1.14704124e-09 -5.49714372e-08
      1.91202344e-06 3.58796501e-06 1.12055341e-05 1.49760979e-06
      -2.17964989e-05 1.04705850e-05 4.63704491e-05 3.38723112e-05
      6.97869909e-05 1.23342630e-04 8.75551195e-05 6.24929744e-05
      9.41170947e-05 9.00172818e-05 9.54916541e-05 9.55492069e-05
      7.50442196e-05 4.86254976e-05 5.09293750e-05 6.04713423e-05
      6.39818172e-05 3.68561668e-05 5.00428978e-05 6.77795251e-05
      6.30639261e-05 5.54872968e-05 5.14581334e-05 6.25176181e-05
      4.73658001e-05 4.73984765e-05 6.96446150e-05 5.24137395e-05
      2.00769136e-05 4.82556025e-05 4.65206649e-05 4.46033300e-05
      3.42751737e-05 3.70534108e-05 -4.48133960e-06 2.06916557e-05
      3.16846817e-05 1.74859979e-05 6.01169540e-06 7.19243417e-06
      2.20100519e-05 1.36689196e-05 3.03922025e-05 1.88287268e-05
      8.12007602e-06 1.29710725e-05 8.10481561e-06 5.34586070e-06
      -9.17499051e-07 1.01881424e-05 -2.07818152e-06 -2.11234556e-06
      1.20323102e-05 -1.42176632e-05 -1.50153473e-05 -2.86351178e-06
      5.97353392e-06 1.38558880e-05 -7.57603331e-08 1.09993034e-05
      1.89601014e-05 1.74064862e-05 -3.25771471e-05 -2.18311852e-05
      -1.90471892e-05 -2.19524427e-05 -3.46197630e-05 -3.33257458e-06
      1.04453848e-05 2.99909175e-06 -2.18321966e-05 -1.01262003e-05
      2.02429837e-05 3.44975774e-06 -1.96859255e-05 -2.74138347e-05
      -2.49871355e-05 -1.94392560e-05 -1.87467285e-05 -7.47996273e-06
      -3.93688606e-06 -3.07342063e-08 -6.70290319e-07 -1.94778659e-05
      1.91325707e-05 1.69660439e-06 6.24756649e-06 -6.28259613e-06
      -5.14287365e-07 7.30206148e-06 -8.07942706e-06 4.60162164e-06
      5.12662564e-06 -1.14819022e-05 -3.36956218e-05 5.47668492e-07
      -7.96101240e-10 6.55876011e-06 -5.15862193e-05 -1.29365377e-04
      -8.51954610e-05 -1.31093839e-05 -1.39473577e-05 -1.39740241e-05
      -1.96664641e-05 -2.30436897e-04 -2.08378449e-04 -2.20693735e-04
      -2.01060262e-04 -1.13483082e-04 -9.15500714e-05 -5.38744571e-05
      -3.22211818e-05 -1.99510578e-05 3.69969930e-05 1.18712351e-05
      -6.82020482e-06 -2.97688366e-05 -5.64824541e-06 1.74223751e-05
      8.88033246e-05 1.46949256e-04 6.74141120e-05 1.30480407e-06
      1.92565764e-07 1.18255934e-06 1.88721310e-06 3.95753113e-06
      7.88933630e-06 1.20255127e-05 1.68107490e-05 1.96092060e-05
      1.55806210e-05 1.89457005e-05 1.01821706e-05 -5.01008208e-06
      3.65690794e-05 8.48989657e-05 9.62662234e-05 1.13220187e-04
      1.38243966e-04 6.97165524e-05 1.98486778e-05 6.00775929e-05
      4.72205575e-05 2.92060886e-05 4.88695441e-05 5.91902353e-05
      3.10959658e-05 4.57045644e-05 5.69878866e-05 6.92603790e-05
      4.36477239e-05 4.72479114e-05 6.53097013e-05 8.41437213e-05
      6.37511621e-05 6.99898228e-05 5.62726673e-05 5.96392274e-05
      5.25233772e-05 4.94669112e-05 5.09398305e-05 3.98343436e-05
      2.68988188e-05 4.24283917e-06 2.44415660e-05 2.79086034e-05
      2.80049117e-05 -5.87748127e-06 6.18856393e-06 2.80802965e-06
      -7.83848918e-06 1.40174679e-05 1.89662733e-05 2.15880536e-05
      9.71856366e-07 -8.72519922e-06 3.81864584e-06 -1.56950398e-06
      9.29577072e-06 -7.29477415e-06 -1.06640682e-05 -3.23394088e-05
      -3.24927023e-05 -1.13840761e-05 -1.25431397e-05 -1.82863405e-05
      -9.60465877e-06 -6.69582960e-06 -1.18368871e-05 -1.04890123e-05
      1.31121988e-06 1.08822142e-05 -1.27284084e-05 -1.17713389e-05
      -9.88355714e-06 -3.19737046e-05 -4.60309166e-05 -2.93517805e-05
      -2.96693470e-05 -3.60490849e-05 -1.81537926e-05 6.18302602e-06
      1.91054969e-05 -7.95112373e-06 -1.70014100e-05 -6.36412551e-06
      -1.05091713e-05 -2.78591015e-05 -1.71289357e-05 -2.22279996e-05
      -9.91410161e-06 -2.72505531e-05 -3.66582244e-05 -1.03820375e-05
      -9.76408228e-06 1.81307114e-05 -8.96140227e-06 1.04141027e-05
      1.77488091e-05 -1.18968528e-05 -1.80174338e-05 -1.06042507e-05
      -9.04203625e-06 -1.95202319e-05 -5.09088431e-06 1.46248294e-05
      2.90820572e-06 -3.64481202e-05 -7.08705375e-06 -1.07193837e-05
      -5.56961386e-05 -6.45897671e-05 -9.07956346e-05 -9.29110829e-05
      -3.41859086e-05 -1.36375666e-05 -1.55349553e-05 -1.74946945e-05
      -2.27445984e-04 -1.95101631e-04 -1.91856481e-04 -1.77056034e-04
      -1.06779313e-04 -7.33488705e-05 -4.18509881e-05 -1.79010767e-05
      1.02452977e-05 3.17050617e-05 3.95673960e-05 3.24646790e-05
      -6.90772686e-06 -8.04510364e-06 2.34463823e-05 5.87053182e-05
      1.22542609e-04 1.23908016e-04 5.10201571e-05 9.44537624e-06
      1.47059709e-05 1.75891546e-05 2.32066031e-05 2.72401903e-05
      3.26712179e-05 3.27916132e-05 3.14632016e-05 2.87461244e-05
      3.40461884e-05 1.89115763e-05 7.76205252e-06 1.61578610e-05
      4.37685885e-05 7.35036374e-05 9.47903827e-05 1.01733975e-04
      5.75015001e-05 2.55695850e-05 4.61381460e-05 6.44298343e-05
      5.30460093e-05 5.68754149e-05 5.34014871e-05 5.35126819e-05
      4.93648186e-05 4.53923567e-05 7.08412917e-05 5.17622429e-05
      4.59504445e-05 5.98350089e-05 6.59882935e-05 7.10585955e-05
      7.25232167e-05 4.84955090e-05 3.56294659e-05 3.67781176e-05
      3.90876230e-05 3.85579297e-05 5.08804624e-05 1.87663427e-05
      6.04112174e-08 1.68321531e-05 1.93221385e-05 6.99224620e-06
      -6.16168109e-06 5.32294962e-06 1.65927247e-06 -9.88747797e-06
      4.31551825e-06 1.23385362e-05 2.35682637e-05 -9.32470539e-06
      -9.26470148e-06 -1.02208851e-05 -1.97112549e-05 -5.40595738e-06
      -1.89620441e-05 -2.90431672e-05 -2.77698382e-05 -4.11245710e-05
      -2.39888232e-05 -1.76147514e-05 -2.02950669e-05 -9.58083911e-06
      -1.87906403e-06 -4.97686187e-06 -1.65177262e-05 -5.11444387e-06
      -5.50232835e-06 -3.09608477e-05 -3.79644007e-05 -2.67177929e-05
      -2.78863845e-05 -3.40562474e-05 -2.24483738e-05 -1.97432601e-05
      -2.15623240e-05 -1.77124275e-05 5.14739668e-06 2.11527931e-05
      -5.93047253e-06 -1.42984591e-05 -3.76056269e-05 -3.68230212e-05
      -1.37522502e-05 -8.05782747e-06 -2.09967347e-05 -1.56636652e-05
      -1.65475649e-05 -3.02397366e-05 -2.71811368e-05 -5.69394524e-06
      -5.78649951e-06 2.56066158e-07 6.11931500e-06 -5.80442020e-06
      8.16219563e-06 -2.94571987e-06 -2.18766418e-05 -2.93053672e-05
      -1.20752784e-05 1.55340458e-05 8.92202570e-06 2.49356508e-05
      1.60855852e-05 5.72239878e-06 -5.88888861e-06 -4.45620026e-05
      -9.42045008e-05 -1.10924739e-04 -7.04272534e-05 -2.25866443e-05
      -1.15611829e-05 -1.65423644e-05 -2.06594032e-05 -1.54158100e-04
      -1.81170617e-04 -1.63314151e-04 -1.44922858e-04 -5.97995640e-05
      -6.85480918e-05 -2.91176420e-05 -1.01469823e-05 1.44188061e-05
      5.74674086e-05 5.03009614e-05 2.92994755e-05 -3.12611360e-06
      -1.17496575e-05 2.40225363e-05 3.33229036e-05 7.44958816e-05
      1.09699416e-04 7.34242203e-05 3.55738557e-05 3.31985902e-05
      3.32557211e-05 3.17601807e-05 3.19290339e-05 3.12431184e-05
      3.32958844e-05 3.19676219e-05 3.53153264e-05 4.35070033e-05
      3.95779280e-05 3.94282542e-05 2.79044780e-05 3.69338559e-05
      4.08877822e-05 3.07838964e-05 5.90480631e-05 6.45555119e-05
      5.13855230e-05 4.97216461e-05 7.51291882e-05 5.86829337e-05
      5.42841190e-05 5.34234969e-05 5.06011274e-05 5.73309444e-05
      5.34285355e-05 7.35670037e-05 6.08111986e-05 4.83830481e-05
      3.24297871e-05 2.77952640e-05 4.24823193e-05 3.35948862e-05
      2.55963350e-05 2.67045361e-05 1.91229701e-05 5.88418807e-05
      3.14809258e-05 3.26997870e-05 2.45829597e-05 8.56552106e-07
      7.79940547e-06 4.73680757e-06 -3.23966719e-06 -1.46107277e-05
      1.02083059e-05 1.59210958e-05 1.37777561e-05 -5.00314081e-06
      -1.10705105e-06 2.82733640e-06 -1.43451780e-06 -2.03089003e-05
      -2.36341475e-05 -2.19408284e-05 -2.84379457e-05 -2.93157973e-05
      -2.47985499e-05 -4.91163655e-06 -3.37001657e-05 -2.39142992e-05
      9.52347909e-06 -9.89328896e-07 -1.00280586e-05 -1.55099497e-05
      2.62153162e-06 -9.49145306e-06 -3.44221771e-05 -1.98694579e-05
      -3.32766504e-05 -2.02768733e-05 -3.38520222e-05 -1.99301630e-05
      -1.00130292e-05 4.92160007e-06 -1.97280388e-05 -1.63587883e-05
      -1.93021151e-05 2.09284508e-06 1.49849448e-05 7.43298233e-06
      -4.05815535e-06 -3.21449515e-05 -3.22059022e-05 -1.93196884e-05
      2.08991173e-06 -2.55927043e-05 -2.30597725e-05 -2.24200376e-05
      -1.64727462e-05 -1.05202780e-05 -2.34787831e-06 -5.46181582e-06
      2.63168317e-06 -8.71743123e-06 -1.20138648e-05 1.32529194e-05
      -1.85742338e-05 -2.43387367e-05 -3.69445916e-05 -9.07623689e-06
      2.03520412e-05 1.35660130e-05 1.44198802e-05 1.32250070e-05
      -3.67405534e-07 -1.92597122e-06 1.87064943e-05 -6.76469790e-05
      -1.35857757e-04 -9.22551262e-05 -2.31284048e-05 -1.27752928e-05
      -1.52835582e-05 -1.98087037e-05 -5.62912137e-05 -1.09920009e-04
      -1.24219761e-04 -1.37438852e-04 -8.32747464e-05 -3.50320624e-05
      -1.50699398e-05 4.35101674e-06 1.08246750e-05 4.82746473e-05
      2.80145487e-05 -1.13434280e-05 -1.53654582e-05 -1.66904101e-05
      1.29212503e-05 3.14612626e-05 3.83460283e-05 5.13609812e-05
      3.54441436e-05 4.03447048e-05 5.81257664e-05 5.12589286e-05
      3.19964238e-05 3.30358744e-05 3.47918904e-05 3.20827676e-05
      3.27296148e-05 3.34576143e-05 4.00728277e-05 4.72129032e-05
      4.15085960e-05 1.54391473e-05 1.44631604e-05 8.72852434e-06
      1.53048404e-05 7.37968949e-05 6.97597134e-05 3.88937406e-05
      4.11538131e-05 7.79982438e-05 7.24730417e-05 4.32384659e-05
      4.39724317e-05 6.36821933e-05 5.24355055e-05 5.19090136e-05
      6.84581682e-05 8.86516864e-05 6.15466270e-05 2.42501374e-05
      2.19743142e-05 3.66823442e-05 3.76295502e-05 2.28220051e-05
      3.21991683e-05 5.00771093e-05 6.12477306e-05 2.66356237e-05
      3.42729982e-05 3.76876633e-05 1.46876728e-05 1.76699068e-05
      1.09738903e-05 2.01162293e-05 4.64230834e-06 -4.15832301e-06
      2.16114549e-05 1.92084462e-05 1.30008611e-05 -1.56396345e-05
      -8.13212955e-06 1.68544339e-05 -1.47774222e-06 -2.71293320e-05
      -1.79857198e-05 -1.91435138e-05 -9.02290958e-06 -2.73415253e-06
      -5.41742929e-06 -2.30661662e-05 -2.78852203e-05 1.87206956e-06
      -1.66780865e-06 -4.44444731e-06 -5.73288025e-06 1.70424992e-05
      6.01404327e-06 -2.26564134e-05 -2.13796047e-05 -1.93567507e-06
      -4.46778294e-08 -1.20563136e-05 -2.32892380e-05 7.02582724e-07
      -2.26391819e-07 -1.61994030e-05 -1.42786757e-05 4.54748943e-06
      2.47323760e-06 7.22048799e-06 3.49336005e-06 2.07173002e-06
      -7.17766170e-06 -2.16132066e-05 -4.60641013e-06 -1.93071228e-05
      -1.94803197e-05 -1.61407715e-05 -1.04711307e-05 -9.30132683e-06
      -2.21592472e-05 1.28250838e-06 -1.35018570e-06 -3.01483633e-05
      -2.11538536e-05 2.14270258e-05 4.04698676e-06 -2.05562919e-05
      -9.42007773e-06 -5.04007903e-06 9.86040322e-06 1.70835210e-05
      3.63793697e-05 2.45427600e-05 -2.51620077e-05 -3.90848982e-05
      -9.70087876e-06 -1.48116942e-06 -3.95441966e-05 -8.59827633e-05
      -6.83228718e-05 -3.51993876e-05 -1.51700879e-05 -1.74228862e-05
      -1.91336549e-05 -5.97463550e-05 -7.04313788e-05 -8.99125735e-05
      -9.49208770e-05 -6.00577332e-05 2.49795426e-06 5.41029294e-05
      4.03580416e-05 4.44102334e-05 3.41278792e-05 1.07003925e-05
      -9.61341811e-06 -1.59591855e-05 -2.24699525e-05 -9.06145374e-07
      2.69954126e-05 3.75072959e-05 3.78406257e-05 3.50172486e-05
      5.75647427e-05 1.04961662e-04 1.24129845e-04 7.48332823e-05
      3.20014988e-05 3.19591200e-05 3.18574021e-05 3.31102710e-05
      3.30643306e-05 4.09489512e-05 4.83695258e-05 4.38751231e-05
      2.96926351e-06 -1.39115173e-05 -1.01510759e-05 2.97622555e-05
      6.93616676e-05 5.24857351e-05 4.24834725e-05 6.73947725e-05
      9.28952722e-05 7.90774066e-05 5.53881473e-05 5.21894835e-05
      7.03651895e-05 4.83692893e-05 4.06696381e-05 8.26590040e-05
      6.86472122e-05 6.14106903e-05 4.88521655e-05 4.39928772e-05
      4.99590315e-05 5.52240999e-05 3.18299317e-05 6.01955326e-05
      6.67343411e-05 7.02002508e-05 5.69375516e-05 7.34096757e-05
      8.09167250e-05 3.33194657e-05 3.29452632e-05 1.87706828e-05
      2.81870125e-05 1.50996702e-05 1.69140312e-05 1.07704882e-05
      2.94565575e-06 -5.61978277e-06 -2.54661359e-06 1.41972232e-05
      2.42933256e-05 1.78823611e-05 -6.48901732e-06 -2.10698145e-05
      -1.22268020e-05 1.03966204e-06 -3.41616442e-07 -9.59576391e-06
      -2.57301235e-05 -4.15802533e-05 -2.42990300e-05 -3.17139393e-06
      1.23518055e-06 9.15339388e-06 -1.75961804e-06 -1.10992232e-05
      -1.61781845e-05 2.17385059e-06 1.84839439e-06 6.83075086e-06
      -4.80220660e-06 4.46460308e-06 -1.84900182e-05 -1.11228856e-05
      -1.41183127e-05 -1.60843520e-05 1.21420871e-05 1.23281980e-05
      1.27527073e-05 1.04976189e-05 -9.73956048e-07 -1.29334717e-06
      2.08173951e-05 7.45637180e-06 -7.45783950e-07 1.46679122e-05
      4.02618343e-06 1.01903743e-06 -8.06981825e-06 -1.06229245e-05
      -7.18671345e-10 7.83673750e-06 -3.87522459e-06 1.44510004e-05
      1.86839879e-05 -4.75657953e-06 6.18889317e-07 8.62163870e-06
      2.96106609e-05 2.69217217e-05 2.94660149e-05 3.34876386e-05
      4.73511172e-05 2.83815370e-05 -2.81317680e-05 -2.94149249e-05
      -4.32633060e-05 -6.95196650e-05 -8.38816050e-05 -8.45449686e-05
      -3.93357477e-05 -1.40717812e-05 -1.79833150e-05 -2.05832039e-05
      -9.25572385e-05 -1.09049055e-04 -7.43545825e-05 -3.34074721e-05
      3.11628537e-05 3.06375987e-05 4.38813913e-05 3.43212523e-05
      2.37677414e-05 2.20388210e-05 8.65495713e-06 -8.54435348e-06
      -1.57909944e-05 -2.30367332e-05 -9.94421134e-06 1.62915021e-05
      3.72390641e-05 3.84682098e-05 4.02193000e-05 3.72068898e-05
      8.04940646e-05 1.23525359e-04 8.57051564e-05 4.21465265e-05
      3.24563334e-05 3.28104543e-05 3.26834597e-05 3.54378790e-05
      4.34454123e-05 4.39990581e-05 3.29468749e-05 4.40153002e-07
      -2.85686037e-05 -2.24202158e-05 1.39607509e-05 4.12678892e-05
      2.83002428e-05 3.99113742e-05 9.64107167e-05 8.07053366e-05
      6.16662510e-05 4.33374626e-05 3.84213527e-05 2.88370593e-05
      5.87177310e-05 7.14098933e-05 5.47711097e-05 4.27883424e-05
      2.96897979e-05 4.43003046e-05 4.63028700e-05 3.56015516e-05
      5.47455529e-05 6.00515814e-05 5.85589660e-05 5.57085186e-05
      4.04492384e-05 4.26554252e-05 4.41334487e-05 3.96691939e-05
      2.09310456e-05 2.52371938e-05 5.97676944e-06 1.44114456e-05
      1.27580979e-05 2.13529293e-05 2.29474463e-05 -1.98358612e-06
      6.63793708e-06 2.54621336e-05 1.64066405e-05 2.54559836e-05
      1.67469479e-05 4.75395927e-06 5.10347718e-07 -7.71023406e-06
      -3.93099572e-06 8.02784507e-06 7.29706289e-06 3.88946046e-06
      -1.40784505e-05 1.38944279e-05 5.51031735e-06 1.63373224e-05
      2.11281131e-05 -5.36983805e-07 -2.28121535e-05 2.67876567e-06
      2.23487641e-05 6.51209302e-06 1.36721583e-05 3.38060490e-05
      1.81476189e-05 -3.44987001e-07 4.27053146e-06 -1.13050246e-05
      -1.31112756e-05 -8.87852730e-06 3.18106613e-05 1.66402478e-05
      2.15646342e-05 -6.11526957e-06 2.34959934e-05 2.62100857e-05
      7.57385237e-07 3.23126951e-05 2.21464397e-05 -2.51831329e-06
      4.64006149e-07 4.91886385e-06 2.14267002e-05 1.37349107e-05
      3.22138112e-05 1.56326969e-05 1.23156224e-05 9.65038180e-06
      1.09073808e-05 3.55694065e-05 2.05850010e-05 2.43144186e-05
      3.03183042e-05 4.64736404e-05 1.17731261e-05 -6.96633924e-06
      -9.38349240e-06 -2.99888434e-05 -4.54682886e-05 -2.53391700e-05
      -7.65980803e-05 -6.66483902e-05 -5.44276991e-05 -3.51127019e-05
      -1.47476012e-05 -1.79647795e-05 -2.12006416e-05 -3.95119350e-05
      -8.38635606e-05 -6.86463609e-05 -2.40829086e-05 2.80277400e-05
      1.26742871e-05 2.63349034e-06 -2.68104804e-06 1.24310500e-05
      2.47464031e-05 1.23252821e-05 -1.05362187e-05 -2.34023191e-05
      -2.17782872e-05 -1.44445648e-05 5.82022676e-06 3.78308068e-05
      4.31133340e-05 4.69488768e-05 4.10356879e-05 3.72663962e-05
      4.83367658e-05 4.62883945e-05 3.20247964e-05 5.14186904e-05
      4.80261333e-05 3.43580286e-05 3.44062137e-05 4.24756836e-05
      2.87819512e-05 3.22012675e-05 2.34320105e-05 -1.81732066e-05
      -7.78871799e-06 2.38188586e-05 3.96981668e-05 4.20236211e-05
      5.01142713e-05 6.50680813e-05 5.40424808e-05 5.25242176e-05
      5.31488076e-05 3.03912057e-05 3.51752824e-05 6.95317285e-05
      5.73061006e-05 3.14498284e-05 1.89211059e-05 4.65105004e-05
      5.10886348e-05 4.59467665e-05 2.81485864e-05 5.27309894e-05
      5.92395481e-05 7.27709412e-05 5.19224195e-05 4.36139635e-05
      6.10751376e-05 4.23253987e-05 2.82664041e-05 3.00821830e-05
      1.72751497e-05 1.78716455e-05 2.92844761e-05 7.00859391e-06
      3.50149603e-05 2.45747906e-05 5.11327562e-06 9.02454121e-06
      6.28203361e-06 1.75344830e-05 3.70844464e-05 4.56658381e-06
      1.38071355e-05 2.08207462e-06 -1.62201613e-05 -1.16767778e-05
      3.28739884e-06 3.00389524e-06 1.10268156e-05 1.72901364e-05
      2.42518017e-05 2.60018660e-05 2.48449146e-06 -1.83410102e-05
      -2.15149103e-05 -9.89406362e-06 -4.86643194e-06 7.43763667e-06
      8.47506089e-06 4.41049851e-05 5.05318203e-05 3.47041751e-05
      -1.85478029e-06 -2.26858447e-06 -2.07703943e-05 -1.43960642e-05
      5.55085580e-06 1.29263535e-05 -5.74956312e-06 4.12853433e-06
      -1.68835104e-05 1.66245773e-05 1.76051672e-05 1.10377714e-05
      1.28430138e-05 5.89841420e-06 -2.52800637e-05 -2.12900813e-05
      -1.42797853e-05 1.37613060e-05 4.75983097e-06 2.11934235e-07
      -8.88647719e-06 -4.60544652e-06 1.48824947e-05 -2.22464905e-06
      1.15723078e-05 -5.81607628e-06 -5.57039530e-05 -2.30629212e-05
      -1.07833630e-05 -2.04914104e-05 -8.16010142e-05 -8.81802116e-05
      -9.54571515e-05 -7.83891737e-05 -6.96377756e-05 -9.48553061e-05
      -6.96492352e-05 -4.72580541e-05 -2.83276586e-05 -1.67804119e-05
      -1.88187278e-05 -2.00182767e-05 -4.81887628e-06 -2.12219529e-05
      -5.51901212e-05 -3.24651410e-05 1.75629884e-05 3.46560191e-05
      2.10173312e-05 2.33412156e-05 2.65553335e-05 3.38226164e-05
      3.20751060e-05 5.99139048e-06 -8.31059333e-06 -1.88496542e-05
      -4.27936948e-06 2.30717142e-05 3.92285147e-05 4.27838095e-05
      4.70772247e-05 4.25588878e-05 3.17521262e-05 3.20964355e-05
      3.20500876e-05 4.78621623e-05 9.49774403e-05 1.17137199e-04
      7.50784893e-05 3.44375476e-05 4.49978725e-05 4.33070491e-05
      2.90061653e-05 6.11609312e-06 -6.77616708e-06 7.92139508e-06
      1.64743869e-05 1.57196173e-05 3.30891853e-05 3.40077313e-05
      6.69577057e-05 4.24719728e-05 4.03437152e-05 4.29120337e-05
      5.70530246e-05 6.48246860e-05 7.17677613e-05 4.30414657e-05
      3.06671063e-05 3.17179874e-05 4.91952633e-05 3.77209763e-05
      3.28008100e-05 4.17229530e-05 5.56191765e-07 3.30346447e-05
      6.35527613e-05 1.12731050e-05 1.38149708e-05 4.26655461e-05
      2.28131212e-05 5.93614732e-06 2.25617405e-05 1.26640552e-05
      7.91175080e-06 2.70633263e-05 4.81147799e-05 3.16329133e-05
      1.23205264e-05 -2.70924556e-05 -2.43434006e-05 -2.11230290e-05
      -6.42696932e-06 8.35164246e-06 -1.38650621e-05 -1.38746855e-05
      -1.20443674e-05 -1.55997395e-06 1.74764466e-06 -1.85225963e-06
      -2.32336624e-05 -8.26458745e-06 -2.88733486e-06 9.22942581e-06
      1.77108777e-05 1.58670082e-05 1.16205701e-05 -1.46638570e-06
      -6.42686382e-06 -3.34727010e-05 -2.10786693e-05 -3.90545074e-06
      -4.38733696e-06 1.36597173e-05 8.81464803e-06 -7.11313714e-06
      -1.98574144e-05 -2.76309438e-05 -2.55109499e-05 -6.89302487e-06
      -2.89497052e-06 3.09535125e-07 -3.11514015e-07 -6.73962995e-06
      -7.51002153e-06 -2.07167250e-05 -1.67573307e-05 -2.97956103e-05
      -3.15629404e-05 -1.81118503e-05 -2.08571491e-05 -1.11206673e-05
      2.35834632e-05 4.13996495e-05 1.78727305e-06 -1.93028336e-05
      -5.99221767e-06 -2.40379213e-05 -2.66837815e-05 -2.50446701e-05
      -1.35521495e-05 -4.64716941e-05 -3.28989845e-05 1.91134186e-05
      -1.89352231e-05 -7.44629579e-05 -6.08008631e-05 -8.57526466e-05
      -4.05884166e-05 -6.05124587e-05 -1.45777769e-04 -1.20766570e-04
      -6.77737044e-05 -2.08907732e-05 -1.39611357e-05 -1.93158012e-05
      -2.01550702e-05 1.50416581e-05 2.00616232e-05 1.23159625e-05
      5.91545631e-06 4.95845088e-05 4.05402825e-05 3.60443519e-05
      2.70860692e-05 2.83025238e-05 4.30482069e-05 4.55850059e-05
      1.49256648e-05 1.09595958e-05 7.08395055e-06 2.67056676e-05
      3.19180108e-05 3.40385195e-05 4.49462350e-05 4.54990113e-05
      4.04846214e-05 3.29265167e-05 3.18825005e-05 3.18793282e-05
      3.19330284e-05 8.11112477e-05 1.32141358e-04 9.93646099e-05
      4.44006837e-05 3.95789575e-05 4.49808686e-05 3.91930625e-05
      9.85777297e-06 6.37661060e-06 1.62970355e-05 2.66922907e-05
      2.57209322e-05 8.69911673e-06 2.03819327e-05 3.67264402e-05
      1.98963789e-05 1.09044122e-05 3.24220491e-05 4.06478975e-05
      4.66195816e-05 3.95071838e-05 3.46962115e-05 3.59238038e-05
      2.39859564e-05 1.44571386e-05 1.21607491e-05 2.47204407e-05
      4.58640025e-05 6.32667206e-06 3.47645687e-06 -1.63676157e-06
      -2.51464389e-05 -2.54452061e-05 -1.06680582e-05 -1.91585004e-05
      -3.35609111e-05 -2.91373763e-05 -6.62065713e-06 -4.57574697e-06
      1.56804854e-05 2.02901938e-05 1.44265132e-05 1.11663655e-06
      -1.91332583e-05 -2.43816594e-05 -2.41424023e-05 -2.46724048e-05
      -1.93334599e-05 -1.54343197e-05 -3.36305566e-05 -2.35219486e-05
      -9.61148544e-06 7.64206050e-07 6.70274403e-06 9.97734787e-06
      -4.55186137e-06 -8.12578674e-06 -2.26319753e-05 -2.92802706e-05
      7.16212571e-06 1.34304028e-05 -1.09557106e-06 -1.56158494e-05
      -9.45054035e-06 -9.74118279e-07 -4.87504030e-06 2.48000475e-07
      1.89288608e-06 -1.50231472e-06 -1.12817042e-05 -1.68322422e-05
      -1.97811514e-05 -1.24295466e-05 -1.98351918e-05 -8.83879056e-06
      7.59914064e-06 2.21841347e-07 4.89512877e-06 7.76843899e-06
      -1.27207122e-05 -5.99483838e-06 -1.13801789e-05 2.17594652e-06
      -9.94117636e-06 -5.86712395e-06 -9.80069126e-06 1.67214068e-06
      -6.92633330e-06 -1.22619813e-05 -1.51700742e-05 -1.95017928e-05
      -1.74810921e-05 -1.02577014e-05 -6.41580209e-06 -6.93628135e-06
      -1.00412262e-05 -1.93020423e-06 1.62563938e-05 -1.54451354e-05
      -8.68116695e-05 -7.20751777e-05 -4.91481078e-05 -6.96924417e-06
      2.22675317e-06 -7.71839696e-05 -1.01814418e-04 -7.38563249e-05
      -3.34673896e-05 -1.68029019e-05 -1.78380596e-05 -1.96260335e-05
      5.47481868e-05 9.95706432e-05 8.44741371e-05 6.10186944e-05
      4.55026020e-05 3.71672577e-05 3.47818059e-05 2.25624772e-05
      4.72417960e-05 6.07736074e-05 3.94173985e-05 2.96077233e-05
      2.00691502e-05 2.36175856e-05 3.17298072e-05 3.19670253e-05
      3.46226479e-05 3.71913375e-05 3.37425772e-05 3.57992394e-05
      3.23518216e-05 3.19682440e-05 3.19644350e-05 3.18708044e-05
      3.60397244e-05 5.59990040e-05 5.48230491e-05 3.88088265e-05
      4.11979818e-05 4.34681533e-05 3.65350024e-05 2.75064576e-05
      1.75919413e-05 1.72536984e-05 3.44409491e-05 3.30631337e-05
      2.78380980e-06 1.09818006e-06 3.26222221e-06 -2.00770501e-06
      1.00091193e-05 9.97751158e-06 -3.38057077e-07 -1.06620753e-07
      1.42847439e-05 1.46083348e-05 -3.44012415e-06 -1.06896632e-05
      -1.96536530e-06 1.90567721e-06 1.93107790e-05 1.67140115e-05
      -1.22947076e-05 -1.69290579e-05 4.10218291e-07 1.14783033e-05
      -4.14384067e-06 1.41025657e-05 1.18064654e-05 -1.02325694e-05
      -1.90542214e-05 -6.37079495e-07 1.19669926e-06 1.30362596e-05
      4.91339142e-06 7.97901612e-06 7.47249032e-06 1.56826245e-05
      1.05353784e-05 5.36243033e-06 4.72800275e-06 -9.16588033e-06
      3.95250299e-06 -1.40214488e-05 -8.31054422e-06 2.38874395e-06
      5.15748241e-07 2.72385569e-06 1.72387481e-05 2.15270866e-05
      1.58596304e-05 9.02910051e-06 -1.23422233e-05 -6.69245901e-06
      -4.93928064e-06 -1.86155194e-06 1.04179080e-05 1.10027702e-06
      6.35865854e-06 3.70984549e-06 5.79519747e-06 3.74692331e-06
      1.76485969e-06 -5.22970595e-07 -1.53177552e-06 2.41210955e-06
      -3.48860863e-06 -2.71475665e-06 -3.12780503e-06 -1.26095176e-06
      -6.37951689e-06 -3.56673127e-06 -2.25535587e-06 -3.53959331e-06
      -1.21842993e-06 -6.55835493e-07 3.10682765e-07 -1.63100572e-06
      -1.49397363e-06 -9.50890296e-07 2.37649672e-07 -1.23680002e-06
      -1.22577973e-07 -1.06014829e-06 1.79853157e-06 8.90513206e-07
      4.23077864e-07 3.74822321e-07 -1.04114145e-06 -1.69108105e-07
      4.21880600e-07 9.46900036e-06 -1.46662460e-05 -8.99761289e-05
      -7.70259139e-05 -5.08353769e-05 1.01909063e-05 3.34558936e-05
      1.20954828e-05 -3.39913531e-05 -6.49868307e-05 -2.21934861e-05
      -1.75749374e-05 -1.93335763e-05 -1.57438280e-05 1.72095606e-04
      1.79377341e-04 1.74796791e-04 1.00945021e-04 3.28879469e-05
      2.64202736e-05 2.82403016e-05 3.86911415e-05 5.37961168e-05
      4.39816067e-05 3.38604405e-05 3.13071905e-05 3.06759830e-05
      3.15162033e-05 3.18912571e-05 3.21050793e-05 3.19232277e-05
      3.05155536e-05 3.41371269e-05 3.40372644e-05 3.16596015e-05
      3.17341000e-05 3.20905601e-05 3.18094026e-05 3.18053571e-05
      2.87515923e-05 2.81789398e-05 2.35665557e-05 2.59549633e-05
      2.58189466e-05 2.02488918e-05 1.58636612e-05 1.68551651e-05
      1.97750633e-05 3.12518532e-05 4.63123688e-05 1.42365288e-05
      9.52488153e-06 1.78249284e-05 2.35463958e-05 1.32677897e-05
      -2.45310980e-06 -3.85277372e-06 3.63033837e-06 2.37463046e-05
      2.02400952e-05 1.74208617e-05 2.62516878e-05 4.19118405e-05
      4.48979335e-05 3.16890000e-05 -1.03525390e-05 -2.51151796e-05
      -2.86849740e-06 1.50854539e-05 1.21901367e-05 5.12618317e-06
      1.08448958e-05 2.42293718e-05 2.23161187e-05 2.11813913e-05
      1.47953215e-05 1.81254945e-05 1.38733631e-05 1.15863950e-05
      -5.89515821e-07 5.89812680e-06 7.01904901e-06 1.14435661e-05
      9.18611204e-06 1.10740566e-05 4.63022525e-06 7.12838573e-06
      -7.71636394e-07 6.83909411e-06 3.85744488e-06 -1.58986029e-06
      1.18438459e-06 5.87460605e-08 -2.30427440e-06 -3.09815647e-07
      -4.55285601e-07 6.28297016e-07 -3.87625505e-07 1.45819740e-07
      2.39043089e-07 -1.84392857e-08 -4.69715729e-07 3.21242055e-07
      -1.03666741e-06 -5.67231723e-07 -7.41535700e-07 3.30799708e-08
      -3.47501640e-07 -3.71780118e-07 -6.17119611e-07 -6.18745517e-08
      -4.09892237e-07 -8.64357332e-07 -8.51543973e-08 -7.52079188e-07
      -2.54207944e-08 4.07395333e-07 -4.46482488e-07 -6.08370158e-07
      3.01679307e-07 3.01099533e-07 -6.00948397e-07 -7.63188154e-07
      -1.12603864e-08 -3.98259203e-07 -2.96764540e-07 3.30363321e-07
      2.67754796e-09 1.46978130e-06 1.02621061e-06 1.03306832e-07
      1.14598954e-07 1.32236728e-08 -2.81652689e-07 -7.40964623e-08
      6.95766175e-06 -7.20229309e-06 -7.58338865e-05 -9.24541673e-05
      -8.58198400e-05 -1.77601705e-05 -1.78859977e-06 -3.23523454e-05
      -2.37359800e-05 -3.70557282e-05 -1.79248200e-05 -1.68915412e-05
      -1.82913882e-05 -1.62367814e-05 2.36375534e-04 2.25755473e-04
      1.76627625e-04 9.97976531e-05 3.03107463e-05 1.47214396e-05
      5.27924567e-05 6.81902675e-05 4.74567714e-05 3.62779101e-05
      3.38743375e-05 3.19704304e-05 2.98143113e-05 2.61757086e-05
      2.17590587e-05 1.81799351e-05 1.56266578e-05 1.94909353e-05
      2.53587423e-05 3.16840560e-05 3.13756755e-05 2.68644781e-05
      2.32711482e-05 1.88076847e-05 1.51905824e-05 1.21683261e-05
      7.12883821e-06 3.71831948e-06 1.04394067e-05 1.23589252e-05
      1.19207625e-05 1.17539821e-05 9.94274433e-06 1.07065198e-05
      2.58632335e-05 4.61140480e-05 3.84405685e-05 2.61948644e-05
      4.81012139e-05 5.04262680e-05 1.77726488e-05 9.90306216e-06
      9.31616523e-06 3.01380351e-06 1.37347379e-05 1.25345196e-05
      2.51879774e-05 3.71140814e-05 4.60929914e-05 5.08025951e-05
      3.51233612e-05 -1.34672800e-05 -2.90383323e-05 -1.45105223e-05
      2.67706969e-06 -6.15340196e-06 -1.24222051e-05 -8.42224381e-06
      -8.23269329e-06 -3.43147440e-06 1.64027813e-06 -5.56737689e-07
      -2.82334895e-06 -3.59951582e-06 -1.10076201e-06 8.26795531e-06
      7.39496500e-06 6.31106786e-06 4.33204434e-07 9.72242560e-07
      1.48317440e-07 -1.47796527e-07 -7.68536097e-08 1.99683782e-07
      5.18584955e-07 -1.81946390e-07 4.66412018e-07 -2.88087385e-08
      -4.34918803e-07 1.17006770e-07 9.84283801e-08 1.84338731e-07
      1.70342744e-07 -1.68788091e-07 4.64123531e-07 -9.65429194e-07
      -3.23981794e-07 3.19306736e-07 -8.27895065e-07 -7.42104930e-07
      -1.85139626e-07 -3.46299828e-07 5.30635077e-07 -7.06479057e-07
      -3.57713247e-07 -7.26008125e-08 -4.51853168e-07 4.17917647e-07
      -3.75497251e-07 3.77987362e-07 -3.12224593e-08 -2.10678920e-07
      3.95207458e-08 -2.80569594e-07 -8.39863290e-08 -2.14051411e-07
      -3.41364597e-07 -3.56779964e-07 -4.33547882e-08 -4.80436654e-07
      9.70189475e-08 -4.43189180e-07 1.78605973e-07 -2.08163414e-07
      1.65060578e-06 1.30630440e-06 -2.98251734e-09 -7.25931613e-07
      -4.65369112e-08 1.48829622e-06 5.91143180e-06 1.34668862e-05
      6.69695737e-07 -7.21463002e-05 -6.79009318e-05 -9.51250258e-05
      -3.11492586e-05 -1.74671677e-05 -7.89271144e-05 -4.55225709e-05
      -2.43601626e-05 -1.50805690e-05 -1.90680548e-05 -1.73300723e-05
      -1.65715028e-05 2.18690664e-04 1.95268818e-04 1.24166167e-04
      4.59167713e-05 1.41693945e-05 2.85661172e-05 3.98996890e-05
      3.91395042e-05 3.14948993e-05 2.52602276e-05 2.07773192e-05
      1.58861458e-05 1.18452026e-05 7.99049212e-06 4.01187299e-06
      2.37870935e-07 -6.51920971e-08 6.80127278e-06 1.29567052e-05
      1.59440078e-05 1.34515003e-05 8.28643442e-06 4.78704760e-06
      1.02333661e-06 6.26383780e-07 2.32115576e-06 6.24579002e-08
      3.99172859e-06 1.31566203e-05 1.17978161e-05 1.19272590e-05
      1.13068418e-05 1.18319522e-05 1.56280130e-05 2.52219943e-05
      3.26196132e-05 4.64816221e-05 5.59643122e-05 4.44183970e-05
      2.50110170e-05 2.16382250e-05 1.93198412e-05 1.38428295e-05
      9.55176347e-06 2.95306654e-06 1.16486081e-05 3.25210531e-05
      3.65615633e-05 3.82698818e-05 4.65298654e-05 2.82465062e-05
      -1.11759955e-05 -1.40132197e-05 -2.92949153e-06 -2.91193805e-06
      -1.85248737e-05 -2.30304540e-05 -2.25005660e-05 -2.09832906e-05
      -1.13410797e-05 -4.67229165e-06 -8.19889738e-06 -1.51169679e-05
      -1.09872035e-05 -3.36770472e-06 1.29599971e-06 6.65085417e-06
      1.23084565e-05 2.35135349e-06 4.53463656e-07 5.94078472e-07
      2.04406589e-07 4.63100974e-07 -7.07626327e-07 4.60942459e-07
      7.82717905e-07 -6.06853092e-08 3.52157116e-07 -2.66789044e-07
      3.20338600e-08 5.61450292e-07 2.33035422e-07 4.41997372e-07
      3.07117091e-07 -5.40343194e-07 -3.94904504e-07 -2.37648322e-07
      -4.34935600e-07 1.53722411e-07 1.45027258e-07 -4.27718390e-07
      1.50245469e-07 -6.23285018e-07 -2.45250703e-07 -2.17558693e-07
      -1.10771659e-07 -4.50270790e-07 9.64990008e-08 -8.66807852e-08
      -4.02884012e-07 -1.05861045e-06 -3.40214399e-07 -2.91672677e-07
      3.65540359e-07 -1.54170522e-07 -4.54540526e-07 -3.85552966e-07
      -4.10675341e-07 9.07477187e-08 -7.24446636e-07 5.75465208e-07
      -1.15638215e-07 1.08427720e-07 -3.90157368e-07 1.54406609e-06
      1.63572986e-06 5.46790488e-07 -1.57555107e-07 5.59305192e-07
      4.49393065e-06 1.49007583e-05 2.76402898e-05 1.09636203e-05
      -9.17249854e-05 -5.60589615e-05 -7.60830153e-05 -3.11140939e-05
      -2.16934518e-06 -3.93303926e-05 -3.15359466e-05 -1.15013536e-05
      -7.90677313e-06 -1.97704576e-05 -1.72423515e-05 -1.70762160e-05
      1.84789824e-04 1.57748553e-04 1.35608832e-04 5.93446457e-05
      1.81583182e-05 3.24263747e-05 1.86341840e-05 1.23114924e-05
      1.05850640e-05 7.15130636e-06 3.72296290e-06 1.62474450e-07
      1.94911550e-07 1.68518795e-07 2.27624966e-07 -2.39202365e-07
      -2.96282039e-08 8.93023525e-07 5.22325479e-07 5.24140376e-08
      1.22109142e-07 6.49775814e-07 3.40392376e-07 2.22031360e-07
      8.52534612e-08 3.75557256e-08 1.03776109e-07 1.59427464e-06
      6.85324267e-06 1.17404361e-05 1.17612281e-05 1.32659588e-05
      1.28393558e-05 1.73673579e-05 3.35196492e-05 4.85647433e-05
      5.98569386e-05 5.78085965e-05 2.65226463e-05 1.43717843e-05
      1.51470131e-05 1.43622328e-05 1.58893799e-05 9.61093338e-06
      1.25773158e-05 2.67486339e-05 3.49478760e-05 3.59733422e-05
      3.77457582e-05 3.70427515e-05 7.51064681e-06 -2.23358129e-05
      -1.51838913e-05 -1.83055874e-06 -4.53926577e-06 -2.08314777e-05
      -2.74504764e-05 -3.16483056e-05 -2.21266819e-05 -8.22668244e-06
      -5.94579933e-06 -9.80067034e-06 -1.79573744e-05 -1.33327185e-05
      -2.86658360e-06 -5.00408760e-07 3.32683840e-06 1.39435742e-05
      5.29940417e-06 9.52355037e-07 -2.68507534e-07 -8.77435724e-08
      -3.62889836e-07 9.03216403e-07 -2.70264394e-07 -2.61224272e-07
      6.07123752e-07 -2.18241709e-07 2.30645384e-07 -6.13160438e-08
      3.00496254e-07 1.07270819e-06 4.53468374e-08 -4.08712197e-07
      2.03851499e-07 -5.03974320e-07 -4.41844996e-08 4.42579392e-07
      -8.33160925e-07 -9.03013245e-07 -4.23900630e-08 5.64615767e-08
      -8.35095818e-07 -5.62461864e-08 -4.59374803e-07 -5.21889376e-07
      -6.66775463e-07 -6.89310355e-07 3.20723046e-07 2.14232770e-07
      -1.54268818e-07 3.75667923e-07 -8.58475744e-07 -4.32965891e-07
      -2.14378460e-07 6.56671205e-07 -1.86197198e-07 -2.55352177e-07
      -2.45798361e-07 -3.03659391e-08 -2.76984110e-07 1.51346413e-07
      -6.09684889e-08 4.19513526e-07 1.14520799e-06 1.17211641e-06
      -5.45505863e-08 -1.78854705e-07 -3.37537273e-07 3.73246712e-06
      1.44492587e-05 2.33699666e-05 1.39217527e-05 -5.17005137e-05
      -3.79859121e-05 -8.75239057e-05 -3.95942698e-05 -1.29137816e-05
      1.96924157e-05 1.71211250e-05 -1.16433239e-05 -1.58701732e-06
      -1.90835581e-05 -1.86120651e-05 -1.75601017e-05 1.55959904e-04
      1.57393442e-04 1.56494905e-04 1.05600717e-04 4.52361892e-05
      1.85499230e-05 5.58045122e-06 6.70125701e-07 1.28633746e-06
      1.23255336e-06 1.80265022e-06 -3.65620139e-08 -1.93046219e-07
      2.89254789e-08 -9.24506693e-09 -1.02897083e-07 2.15153278e-07
      1.08471731e-07 -5.49271499e-06 -7.71392752e-06 1.35935196e-07
      1.46018337e-07 1.40816624e-07 7.86393561e-10 2.69729071e-07
      1.38280200e-06 1.20222103e-06 7.97964674e-07 9.58212149e-06
      1.34209340e-05 1.18725757e-05 1.22786978e-05 9.68535005e-06
      1.99337719e-05 4.22085432e-05 6.31770017e-05 6.05330133e-05
      3.26395675e-05 1.80189818e-05 1.57740324e-05 1.60288746e-05
      1.49181778e-05 1.47376422e-05 2.50291396e-05 4.02135702e-05
      4.52900204e-05 4.03283739e-05 3.71212627e-05 3.61735365e-05
      2.34688723e-05 -1.00443995e-05 -2.83522731e-05 -1.78026239e-05
      -4.54887777e-06 1.94413860e-06 -4.77954927e-06 -1.53180408e-05
      -3.05705107e-05 -2.44640760e-05 -1.16135316e-05 -8.23104256e-06
      -1.49363796e-05 -1.91166509e-05 -1.02524518e-05 -1.62568472e-06
      2.06214153e-07 5.58055376e-07 7.30942520e-06 8.28393240e-06
      8.05873242e-06 2.07549647e-06 7.42890620e-07 6.46851333e-07
      2.23774080e-07 -2.06218616e-07 3.43835808e-07 8.16774985e-08
      -8.16578805e-09 2.09401620e-07 5.10629661e-07 6.18226352e-07
      8.11592784e-08 5.72660383e-07 8.86865735e-07 -5.78893946e-07
      -3.97382593e-07 -2.47520006e-07 -7.32302397e-08 9.04806598e-07
      -3.44815305e-07 -4.99300313e-07 -4.52867823e-07 -3.99298528e-07
      2.09166817e-08 3.36741266e-08 -5.64775235e-07 2.74956818e-07
      -4.01564421e-07 -1.33830781e-07 -4.49590971e-07 3.06769152e-07
      -9.73176384e-08 -8.22278992e-07 4.10945830e-07 2.70997987e-07
      -7.48914374e-07 -3.51033947e-07 -1.08118563e-07 9.83069057e-08
      3.27259038e-08 4.46992459e-07 -1.18979926e-06 -4.45932528e-07
      -1.56853535e-08 1.26876273e-06 1.04974390e-06 -1.42211277e-07
      -4.43425314e-08 -5.44599288e-07 5.60561034e-07 8.69414725e-06
      1.97596546e-05 4.63786000e-06 -4.18085656e-05 -1.62004180e-05
      -5.98406696e-05 -3.64694206e-05 -2.29238904e-05 -1.28079346e-05
      1.82849381e-05 -5.15460988e-06 -3.87814225e-06 -1.95464490e-05
      -1.69878749e-05 -1.58295443e-05 1.55809626e-04 1.53866349e-04
      1.52269000e-04 1.44792139e-04 7.89076876e-05 6.30998102e-07
      1.15030628e-06 2.92647314e-06 1.54068027e-06 2.07718858e-06
      1.34440495e-06 6.42981917e-08 2.65979061e-08 -2.28744454e-07
      4.26135728e-07 -2.22318857e-08 6.89737689e-08 -2.41145358e-06
      -1.31702063e-05 -5.47260697e-06 8.26646342e-08 1.73808729e-07
      1.79541871e-07 6.15918196e-08 2.26295043e-07 5.24788781e-08
      2.83763029e-07 1.65962444e-06 8.71731390e-06 1.21097219e-05
      1.35529463e-05 1.09604034e-05 1.37484521e-05 3.25046858e-05
      5.87643081e-05 7.35863796e-05 5.13447958e-05 3.43339198e-05
      3.29938375e-05 2.71624594e-05 1.45862350e-05 1.36275012e-05
      1.49564376e-05 3.25023939e-05 5.24167735e-05 5.23531744e-05
      4.71926651e-05 4.12372428e-05 3.79684097e-05 1.53250767e-05
      -1.74341476e-05 -2.68936674e-05 -2.02275351e-05 -1.14931845e-05
      -1.06922528e-06 7.43734427e-06 -3.74890556e-06 -2.09350383e-05
      -1.82244457e-05 -1.67820253e-05 -1.13113292e-05 -8.03355942e-06
      -8.30097997e-06 -3.82019152e-06 -3.94972403e-07 7.58587760e-07
      6.27433394e-07 2.48026709e-06 3.84632676e-06 1.14855038e-05
      4.85148348e-06 2.06636798e-07 1.11083125e-07 4.17566639e-07
      -9.97574716e-08 2.32363575e-07 1.59166078e-07 5.13325972e-07
      1.49060853e-07 4.13123757e-07 2.60833588e-07 2.59144116e-07
      4.60200226e-07 1.15204353e-10 1.00005551e-07 3.32254871e-07
      -4.58857585e-07 1.61768568e-07 -4.89419676e-07 -3.43108098e-07
      -1.16936299e-07 -1.24067540e-07 4.97180281e-07 -1.82237429e-07
      -5.23972631e-07 -3.26099894e-07 -1.31572307e-07 -4.51497527e-07
      6.51971959e-07 -3.62126343e-07 -4.71183142e-07 1.94542721e-07
      1.73372765e-08 -1.17972256e-07 -2.78281192e-07 5.96203407e-08
      2.86964390e-08 -7.15569740e-07 -1.81141147e-07 -4.51703158e-07
      8.28408986e-07 -8.58429487e-08 2.33023840e-07 -2.61823828e-07
      9.50852325e-07 1.74996387e-06 2.55857145e-07 3.01836849e-08
      2.17483091e-07 -5.71135708e-08 4.54053679e-06 1.54870067e-05
      -1.73519732e-06 -8.72889505e-05 -5.15787760e-05 -6.41060542e-05
      -3.77398392e-05 -6.23769483e-06 -1.48888739e-05 -1.18874586e-05
      -7.59644263e-06 -3.13318765e-06 -1.76222075e-05 -1.84266974e-05
      -1.75211826e-05 1.48835330e-04 1.46211692e-04 1.47211991e-04
      1.46172271e-04 1.18650059e-04 4.72957108e-05 1.17831951e-06
      5.80288351e-08 -6.80498715e-07 1.02329216e-06 1.14667148e-06
      1.10047388e-07 2.93241715e-08 1.45576053e-07 1.35160619e-07
      2.00530351e-07 -1.43365597e-07 -2.01007765e-07 -5.05032176e-06
      -1.24112166e-05 -2.76874175e-06 -2.43476649e-07 -2.04102591e-07
      -1.15372238e-07 1.41423570e-07 0. 2.93625732e-07 8.08436653e-07
      9.58909732e-06 1.25446131e-05 1.27162784e-05 1.33295507e-05
      2.17600846e-05 5.13901323e-05 7.04450431e-05 6.50529691e-05
      5.04504460e-05 5.11190374e-05 5.12972292e-05 3.46038578e-05
      2.09776299e-05 1.81572086e-05 1.39372551e-05 3.35122932e-05
      5.25432406e-05 5.18011184e-05 5.15874272e-05 4.86761965e-05
      3.90015521e-05 6.51195251e-06 -2.19778140e-05 -2.24769428e-05
      -1.97427780e-05 -2.07828525e-05 -1.45058939e-05 3.39996109e-06
      1.67124176e-06 -7.54976509e-06 -4.95879840e-06 -1.54177505e-05
      -1.42852687e-05 -1.55388273e-06 2.14057150e-06 -3.92930616e-07
      6.80969561e-06 9.10532071e-06 5.64533912e-06 6.07507559e-07
      5.51279129e-07 4.26235556e-06 2.32744833e-06 5.51279129e-07
      5.51279129e-07 6.03183764e-07 5.51279129e-07 5.51279129e-07
      7.15640624e-07 5.49117203e-07 6.07507559e-07 5.49117203e-07
      5.51279129e-07 5.51279129e-07 5.29660326e-07 3.71843157e-07
      6.05326065e-08 0. 2.16187890e-09 0. 0. 0. 0. 0. 0. 0. 0. 0. 0. 0.
      0. 0. 0. 0. 0. 0. 0. 3.27010863e-09 2.32789610e-09 0. 0.
      5.59800473e-09 4.36314025e-07 0. 0. 3.27010863e-09 1.35484754e-06
      1.42516330e-06 0. 1.32211241e-07 0. 3.46631509e-07 2.17735248e-07
      1.16893516e-05 -1.65595566e-06 -8.69591386e-05 -1.04768660e-04
      -9.95597147e-05 -5.18034358e-05 -5.21384100e-05 -5.12681581e-05
      -1.11444651e-05 -1.51934973e-05 -2.62816275e-06 -1.52966331e-05
      -1.83070260e-05 -1.70235253e-05 1.47432176e-04 1.47279075e-04
      1.45854283e-04 1.46990293e-04 1.35689799e-04 8.03152725e-05
      1.94169434e-06 -1.39685280e-05 -3.19461901e-06 1.22018616e-06
      1.27511521e-06 1.16859038e-08 1.96598378e-07 1.30818123e-07
      1.06163128e-07 2.67337352e-08 -4.34584884e-08 -2.03414643e-07
      -1.56251690e-06 -1.06486204e-05 -2.79115397e-06 -1.74913112e-07
      -2.87032520e-07 -1.00401031e-07 2.70345112e-07 1.47672154e-07
      6.05521890e-08 3.13925602e-06 1.20849081e-05 1.23655127e-05
      1.22847841e-05 1.58905950e-05 3.83683728e-05 6.36945115e-05
      5.56415143e-05 5.16712207e-05 6.07800757e-05 7.15113638e-05
      6.53288225e-05 4.36570481e-05 3.79426383e-05 2.70355104e-05
      1.54309982e-05 2.56285512e-05 3.30973235e-05 4.21578370e-05
      5.27919474e-05 5.27968914e-05 3.85629173e-05 9.17720513e-07
      -2.62770154e-05 -2.81479442e-05 -2.11347160e-05 -2.05299111e-05
      -1.49879888e-05 2.08265783e-06 3.96502674e-06 3.59466389e-06
      -5.73564193e-06 -1.76276171e-05 -1.75643872e-05 -1.49565267e-06
      1.55208490e-05 2.22852977e-05 2.77681138e-05 2.63126676e-05
      1.03589937e-05 7.03460955e-06 3.17108129e-06 6.07507559e-07
      6.07507559e-07 5.51279129e-07 5.49117203e-07 5.51279129e-07
      6.07507559e-07 7.76192849e-07 5.46955334e-07 5.51279129e-07
      5.51279129e-07 6.03222929e-07 3.89138194e-07 3.71843157e-07
      3.06986806e-07 3.19958076e-07 1.29712729e-08 0. 0. 2.16187890e-09
      0. 0. 0. 0. 0. 0. 0. 0. 0. 0. 0. 0. 0. 0. 0. 0. 0. 2.32789610e-09
      0. 0. 4.65579220e-09 0. 3.22023453e-07 1.67940133e-08
      3.27010863e-09 0. 1.25380586e-06 1.42749116e-06 3.27010863e-09
      1.31767777e-07 0. 3.86857465e-07 8.62444949e-07 6.57487180e-06
      -6.66261803e-06 -5.35903055e-05 -6.29627975e-05 -8.63294335e-05
      -4.20531251e-05 -5.60304070e-05 -8.21898429e-05 -3.39855324e-05
      -1.61056469e-05 -4.78969014e-06 -1.69096566e-05 -1.75871046e-05
      -1.53826586e-05 1.46070452e-04 1.38462652e-04 1.30364424e-04
      1.23807782e-04 1.20504417e-04 1.21815865e-04 5.18491543e-05
      -5.68785845e-06 1.55960527e-06 1.54327461e-06 1.62320771e-06
      9.04352575e-08 1.89175093e-08 5.90250551e-08 -2.15112024e-07 0.
      -1.67302019e-07 -2.78540710e-07 -8.68693860e-06 -2.53945400e-05
      -1.61399621e-05 -6.96748248e-06 -4.54655719e-06 -1.43921568e-07 0.
      3.14599703e-07 2.18242846e-08 5.70761301e-07 6.84594124e-06
      1.26110544e-05 1.29669170e-05 2.13104686e-05 5.04336895e-05
      6.25178000e-05 5.19545065e-05 5.07447912e-05 5.11587205e-05
      6.43625754e-05 7.32994522e-05 5.20011126e-05 3.88906556e-05
      3.96093492e-05 4.65113189e-05 3.11867443e-05 2.60965880e-05
      4.82659161e-05 5.34636420e-05 5.11201215e-05 3.38833634e-05
      -2.42662759e-06 -2.93673838e-05 -3.70121852e-05 -3.38611862e-05
      -2.60915331e-05 -1.00212728e-05 -4.23862093e-06 3.77311130e-06
      1.05692725e-05 7.41955682e-06 -3.54157919e-06 -4.69502947e-06
      9.14506018e-06 3.01913278e-05 3.70217786e-05 3.77213728e-05
      3.25710862e-05 2.67493015e-05 2.03453401e-05 4.91761602e-06
      9.87912813e-07 7.19964419e-07 6.96823690e-07 1.84453313e-06
      5.78052322e-06 2.12351347e-06 5.51279129e-07 6.42117186e-07
      5.62108085e-07 4.92927938e-07 1.62140907e-07 8.86370302e-08
      7.99895190e-08 3.89138179e-08 3.89138179e-08 8.64751559e-09
      2.16187890e-09 0. 0. 0. 0. 0. 0. 0. 0. 0. 0. 0. 0. 0. 0. 0. 0. 0.
      0. 3.27010863e-09 0. 0. 1.02537969e-08 0. 0. 2.77959231e-07 0. 0.
      4.65579220e-09 1.18025537e-06 1.42749116e-06 0. 0. 5.59800473e-09
      5.03238141e-07 4.15826207e-06 1.07850246e-05 -4.33758260e-06
      -9.10546078e-05 -6.11210271e-05 -6.05382666e-05 -4.99759262e-05
      -2.12578561e-05 -2.35608368e-05 -3.10809119e-05 -2.88825031e-05
      -1.44019541e-05 -1.85325553e-05 -1.84035998e-05 -1.66841692e-05</_></support_vectors>
  <uncompressed_sv_total>137</uncompressed_sv_total>
  <uncompressed_support_vectors>
    <_>
      0. 0. 0. 0. 0. 0. 0. 0. 0. 0. 0. 0. 0. 0. 0. 0. 0. 0. 0. 0. 0. 0.
      0. 0. 0. 0. 0. 0. 0. 0. 0. 0. 0. 0. 0. 0. 0. 0. 0. 0. 0. 0. 0. 0.
      0. 0. 0. 0. 0. 0. 0. 0. 0. 0. 0. 0. 0. 0. 0. 0. 0. 0. 0. 0. 0. 0.
      0. 0. 0. 0. 0. 0. 0. 0. 0. 0. 0. 0. 0. 0. 0. 0. 0. 0. 0. 0. 0. 0.
      0. 0. 0. 0. 0. 0. 0. 0. 0. 0. 0. 0. 0. 0. 0. 0. 0. 0. 0. 0. 0. 0.
      0. 0. 0. 0. 0. 0. 0. 0. 0. 0. 1. 0. 0. 0. 0. 1. 119. 255. 255.
      250. 111. 0. 2. 0. 0. 0. 0. 0. 0. 0. 0. 0. 0. 0. 0. 0. 0. 0. 0. 0.
      0. 0. 0. 0. 0. 0. 0. 0. 0. 0. 0. 0. 0. 0. 0. 0. 0. 0. 0. 0. 0. 0.
      0. 0. 0. 0. 0. 0. 0. 0. 0. 0. 0. 0. 0. 0. 0. 0. 0. 0. 0. 0. 0. 0.
      0. 0. 0. 0. 0. 0. 0. 0. 0. 0. 0. 0. 0. 0. 0. 0. 0. 0. 0. 0. 0. 0.
      0. 0. 0. 0. 0. 0. 0. 0. 0. 0. 0. 0. 0. 0. 0. 0. 0. 0. 0. 0. 0. 0.
      0. 0. 0. 0. 0. 0. 0. 0. 0. 0. 0. 0. 0. 0. 0. 0. 0. 0. 0. 2. 0. 3.
      0. 85. 224. 255. 249. 133. 14. 0. 1. 3. 0. 0. 0. 0. 0. 0. 0. 0. 0.
      0. 0. 0. 0. 0. 0. 0. 0. 0. 0. 0. 0. 0. 0. 0. 0. 0. 0. 0. 0. 0. 0.
      0. 0. 0. 0. 0. 0. 0. 0. 0. 0. 0. 0. 0. 0. 0. 0. 0. 0. 0. 0. 0. 0.
      0. 0. 0. 0. 0. 0. 0. 0. 0. 0. 0. 0. 0. 0. 0. 0. 0. 0. 0. 0. 0. 0.
      0. 0. 0. 0. 0. 0. 0. 0. 0. 0. 0. 0. 0. 0. 0. 0. 0. 0. 0. 0. 0. 0.
      0. 0. 0. 0. 0. 0. 0. 0. 0. 0. 0. 0. 0. 0. 0. 0. 0. 0. 0. 0. 0. 0.
      0. 1. 0. 0. 0. 0. 12. 92. 212. 227. 145. 55. 7. 1. 0. 1. 0. 0. 0.
      0. 0. 0. 0. 0. 0. 0. 0. 0. 0. 0. 0. 0. 0. 0. 0. 0. 0. 0. 0. 0. 0.
      0. 0. 0. 0. 0. 0. 0. 0. 0. 0. 0. 0. 0. 0. 0. 0. 0. 0. 0. 0. 0. 0.
      0. 0. 0. 0. 0. 0. 0. 0. 0. 0. 0. 0. 0. 0. 0. 0. 0. 0. 0. 0. 0. 0.
      0. 0. 0. 0. 0. 0. 0. 0. 0. 0. 0. 0. 0. 0. 0. 0. 0. 0. 0. 0. 0. 0.
      0. 0. 0. 0. 0. 0. 0. 0. 0. 0. 0. 0. 0. 0. 0. 0. 0. 0. 0. 0. 0. 0.
      0. 0. 0. 0. 0. 0. 0. 0. 2. 0. 0. 7. 92. 203. 248. 224. 87. 0. 0.
      1. 0. 0. 0. 0. 0. 0. 0. 0. 0. 0. 0. 0. 0. 0. 0. 0. 0. 0. 0. 0. 0.
      0. 0. 0. 0. 0. 0. 0. 0. 0. 0. 0. 0. 0. 0. 0. 0. 0. 0. 0. 0. 0. 0.
      0. 0. 0. 0. 0. 0. 0. 0. 0. 0. 0. 0. 0. 0. 0. 0. 0. 0. 0. 0. 0. 0.
      0. 0. 0. 0. 0. 0. 0. 0. 0. 0. 0. 0. 0. 0. 0. 0. 0. 0. 0. 0. 0. 0.
      0. 0. 0. 0. 0. 0. 0. 0. 0. 0. 0. 0. 0. 0. 0. 0. 0. 0. 0. 0. 0. 0.
      0. 0. 0. 0. 0. 0. 0. 0. 0. 0. 0. 0. 0. 0. 2. 0. 0. 0. 114. 248.
      253. 252. 121. 3. 0. 2. 0. 0. 0. 0. 0. 0. 0. 0. 0. 0. 0. 0. 0. 0.
      0. 0. 0. 0. 0. 0. 0. 0. 0. 0. 0. 0. 0. 0. 0. 0. 0. 0. 0. 0. 0. 0.
      0. 0. 0. 0. 0. 0. 0. 0. 0. 0. 0. 0. 0. 0. 0. 0. 0. 0. 0. 0. 0. 0.
      0. 0. 0. 0. 0. 0. 0. 0. 0. 0. 0. 0. 0. 0. 0. 0. 0. 0. 0. 0. 0. 0.
      0. 0. 0. 0. 0. 0. 0. 0. 0. 0. 0. 0. 0. 0. 0. 0. 0. 0. 0. 0. 0. 0.
      0. 0. 0. 0. 0. 0. 0. 0. 0. 0. 0. 0. 0. 0. 0. 0. 0. 0. 0. 0. 0. 0.
      0. 3. 0. 79. 217. 255. 255. 149. 14. 0. 1. 0. 0. 0. 0. 0. 0. 0. 0.
      0. 0. 0. 0. 0. 0. 0. 0. 0. 0. 0. 0. 0. 0. 0. 0. 0. 0. 0. 0. 0. 0.
      0. 0. 0. 0. 0. 0. 0. 0. 0. 0. 0. 0. 0. 0. 0. 0. 0. 0. 0. 0. 0. 0.
      0. 0. 0. 0. 0. 0. 0. 0. 0. 0. 0. 0. 0. 0. 0. 0. 0. 0. 0. 0. 0. 0.
      0. 0. 0. 0. 0. 0. 0. 0. 0. 0. 0. 0. 0. 0. 0. 0. 0. 0. 0. 0. 0. 0.
      0. 0. 0. 0. 0. 0. 0. 0. 0. 0. 0. 0. 0. 0. 0. 0. 0. 0. 0. 0. 0. 0.
      0. 0. 0. 0. 1. 0. 1. 1. 0. 49. 181. 255. 252. 184. 50. 1. 0. 0. 2.
      0. 0. 0. 0. 0. 0. 0. 0. 0. 0. 0. 0. 0. 0. 0. 0. 0. 0. 0. 0. 0. 0.
      0. 0. 0. 0. 0. 0. 0. 0. 0. 0. 0. 0. 0. 0. 0. 0. 0. 0. 0. 0. 0. 0.
      0. 0. 0. 0. 0. 0. 0. 0. 0. 0. 0. 0. 0. 0. 0. 0. 0. 0. 0. 0. 0. 0.
      0. 0. 0. 0. 0. 0. 0. 0. 0. 0. 0. 0. 0. 0. 0. 0. 0. 0. 0. 0. 0. 0.
      0. 0. 0. 0. 0. 0. 0. 0. 0. 0. 0. 0. 0. 0. 0. 0. 0. 0. 0. 0. 0. 0.
      0. 0. 0. 0. 0. 0. 0. 0. 0. 0. 0. 2. 0. 2. 0. 16. 151. 255. 255.
      217. 78. 0. 1. 0. 0. 0. 1. 0. 0. 0. 2. 0. 2. 1. 0. 0. 0. 0. 0. 0.
      0. 0. 0. 0. 0. 0. 0. 0. 0. 0. 0. 0. 0. 0. 0. 0. 0. 1. 0. 2. 0. 0.
      2. 0. 2. 0. 0. 0. 4. 0. 0. 2. 0. 0. 4. 0. 0. 2. 0. 0. 1. 0. 0. 0.
      1. 0. 0. 0. 0. 0. 2. 1. 0. 0. 3. 0. 0. 1. 0. 1. 0. 1. 2. 0. 0. 0.
      1. 0. 0. 3. 0. 3. 0. 0. 2. 0. 0. 4. 0. 0. 2. 0. 2. 0. 1. 1. 3. 0.
      0. 0. 0. 1. 0. 0. 1. 1. 0. 0. 1. 0. 1. 0. 0. 1. 0. 0. 1. 0. 2. 1.
      0. 120. 246. 254. 250. 113. 0. 1. 1. 0. 0. 0. 0. 1. 1. 0. 3. 0. 0.
      0. 1. 2. 2. 0. 0. 0. 0. 0. 0. 0. 0. 0. 0. 0. 0. 0. 0. 0. 0. 0. 0.
      0. 0. 2. 1. 0. 0. 2. 0. 1. 1. 1. 0. 0. 0. 4. 0. 0. 4. 0. 0. 0. 0.
      0. 0. 0. 1. 0. 0. 0. 3. 2. 0. 1. 3. 0. 0. 0. 4. 0. 0. 2. 0. 0. 0.
      2. 2. 0. 0. 1. 0. 1. 3. 0. 0. 1. 1. 0. 0. 0. 0. 0. 0. 3. 0. 0. 0.
      0. 0. 2. 0. 0. 0. 3. 0. 3. 0. 0. 1. 1. 0. 0. 0. 0. 0. 0. 0. 1. 0.
      2. 1. 0. 3. 0. 0. 0. 87. 217. 254. 254. 143. 20. 0. 0. 1. 4. 0. 1.
      0. 0. 3. 17. 1. 1. 0. 2. 0. 0. 1. 2. 0. 0. 0. 0. 0. 0. 0. 0. 0. 0.
      0. 0. 0. 0. 0. 0. 0. 4. 0. 0. 2. 0. 0. 2. 0. 0. 1. 2. 1. 0. 0. 0.
      2. 0. 0. 3. 0. 0. 2. 0. 0. 0. 1. 2. 0. 0. 0. 0. 0. 0. 1. 3. 4. 0.
      0. 3. 0. 1. 3. 0. 0. 1. 0. 0. 2. 2. 1. 0. 1. 0. 3. 0. 0. 4. 0. 1.
      1. 0. 0. 3. 0. 2. 0. 1. 0. 1. 3. 2. 0. 0. 0. 0. 5. 0. 0. 1. 1. 3.
      0. 2. 1. 0. 2. 1. 0. 0. 0. 3. 0. 1. 0. 55. 182. 247. 204. 110. 27.
      0. 0. 1. 0. 19. 55. 87. 122. 149. 113. 20. 0. 0. 1. 1. 2. 0. 0. 1.
      0. 0. 0. 0. 0. 0. 0. 0. 0. 0. 0. 0. 0. 0. 0. 0. 0. 1. 2. 0. 1. 0.
      0. 2. 1. 0. 0. 2. 0. 1. 0. 1. 4. 1. 0. 1. 2. 0. 0. 1. 0. 0. 0. 2.
      0. 1. 4. 0. 1. 0. 0. 0. 0. 0. 1. 0. 0. 0. 0. 0. 3. 1. 0. 0. 0. 1.
      0. 0. 0. 1. 2. 2. 0. 1. 0. 0. 2. 0. 1. 0. 0. 0. 0. 0. 1. 0. 0. 4.
      1. 0. 1. 0. 0. 3. 0. 0. 0. 0. 2. 0. 0. 1. 1. 1. 1. 1. 0. 0. 3. 47.
      134. 214. 232. 114. 9. 0. 0. 2. 0. 18. 115. 207. 238. 254. 254.
      195. 56. 1. 3. 0. 0. 0. 1. 2. 0. 0. 0. 0. 0. 0. 0. 0. 0. 0. 0. 0.
      0. 0. 0. 0. 0. 4. 0. 1. 0. 5. 0. 0. 0. 1. 0. 2. 0. 2. 10. 2. 0. 0.
      0. 0. 1. 0. 0. 2. 1. 2. 3. 0. 0. 0. 0. 2. 0. 1. 0. 2. 0. 3. 10. 8.
      3. 3. 0. 0. 0. 0. 4. 39. 42. 8. 0. 0. 2. 4. 0. 0. 0. 1. 1. 0. 3.
      0. 3. 0. 1. 0. 2. 1. 0. 0. 2. 23. 56. 50. 0. 2. 2. 0. 0. 2. 8. 60.
      95. 42. 1. 2. 0. 0. 1. 0. 0. 2. 2. 0. 106. 248. 255. 255. 120. 0.
      1. 2. 2. 0. 41. 169. 255. 254. 255. 254. 223. 85. 22. 18. 0. 2. 0.
      0. 1. 0. 0. 0. 0. 0. 0. 0. 0. 0. 0. 0. 0. 0. 0. 0. 0. 0. 0. 0. 2.
      0. 0. 0. 1. 0. 0. 23. 73. 113. 146. 86. 0. 0. 0. 1. 1. 0. 1. 3. 0.
      0. 5. 41. 48. 19. 0. 0. 0. 1. 0. 0. 31. 99. 127. 148. 83. 0. 0. 0.
      0. 3. 0. 34. 141. 162. 46. 15. 9. 2. 0. 0. 4. 0. 0. 10. 59. 84.
      111. 59. 2. 0. 0. 2. 0. 0. 29. 109. 178. 206. 154. 56. 28. 7. 0.
      1. 0. 0. 122. 244. 138. 60. 43. 0. 1. 1. 0. 0. 0. 0. 4. 79. 213.
      253. 254. 150. 25. 3. 0. 0. 0. 192. 232. 254. 254. 255. 253. 255.
      200. 173. 91. 0. 0. 4. 0. 0. 2. 0. 0. 0. 0. 0. 0. 0. 0. 0. 0. 0.
      0. 0. 0. 0. 0. 0. 3. 0. 11. 11. 0. 2. 0. 0. 55. 188. 255. 250.
      188. 122. 72. 4. 2. 0. 2. 2. 34. 98. 129. 161. 192. 182. 80. 2. 0.
      0. 3. 0. 0. 71. 217. 255. 255. 144. 9. 2. 2. 0. 1. 0. 26. 162.
      230. 174. 147. 57. 1. 6. 2. 0. 2. 0. 68. 186. 230. 255. 154. 73.
      53. 2. 0. 0. 1. 32. 166. 255. 254. 229. 192. 145. 47. 1. 1. 0. 4.
      98. 232. 225. 224. 136. 33. 29. 0. 0. 0. 4. 0. 0. 46. 187. 255.
      254. 183. 56. 0. 1. 4. 1. 255. 255. 255. 255. 253. 254. 255. 254.
      254. 144. 9. 0. 0. 1. 0. 0. 0. 0. 0. 0. 0. 0. 0. 0. 0. 0. 0. 0. 0.
      0. 0. 0. 2. 0. 66. 153. 84. 0. 1. 0. 0. 41. 173. 255. 255. 244.
      247. 183. 93. 59. 13. 1. 0. 95. 238. 242. 254. 255. 239. 110. 1.
      0. 0. 0. 1. 0. 57. 188. 255. 255. 175. 53. 29. 7. 0. 0. 1. 0. 129.
      255. 255. 246. 163. 118. 64. 0. 0. 1. 0. 62. 199. 255. 254. 231.
      227. 159. 25. 0. 1. 1. 0. 135. 254. 255. 255. 254. 221. 93. 0. 0.
      4. 0. 57. 154. 197. 238. 216. 192. 127. 20. 8. 3. 0. 0. 5. 15.
      150. 255. 255. 213. 89. 0. 0. 0. 0. 255. 252. 255. 255. 254. 254.
      255. 255. 255. 175. 38. 0. 3. 0. 0. 0. 0. 0. 0. 0. 0. 0. 0. 0. 0.
      0. 0. 0. 0. 0. 0. 0. 0. 1. 97. 230. 184. 123. 80. 0. 1. 8. 135.
      212. 225. 253. 255. 239. 222. 189. 64. 0. 0. 46. 93. 152. 229.
      255. 255. 159. 76. 54. 0. 1. 0. 0. 27. 159. 254. 254. 231. 186.
      143. 56. 1. 0. 0. 1. 95. 230. 255. 252. 255. 255. 128. 0. 0. 0. 2.
      31. 168. 234. 238. 255. 254. 192. 57. 0. 1. 0. 1. 69. 130. 174.
      249. 255. 255. 123. 47. 36. 0. 0. 11. 32. 66. 182. 255. 254. 212.
      163. 116. 31. 1. 1. 0. 4. 117. 246. 255. 246. 121. 0. 1. 0. 0.
      252. 255. 255. 253. 255. 255. 252. 255. 253. 209. 73. 1. 0. 0. 2.
      0. 0. 0. 0. 0. 0. 0. 0. 0. 0. 0. 0. 0. 0. 0. 0. 0. 2. 0. 63. 201.
      247. 253. 171. 31. 2. 0. 38. 54. 137. 255. 255. 254. 255. 230. 95.
      4. 0. 1. 1. 54. 191. 255. 253. 239. 229. 157. 25. 0. 0. 1. 0. 128.
      254. 255. 255. 253. 224. 97. 0. 0. 0. 1. 64. 201. 254. 255. 255.
      255. 158. 25. 0. 0. 0. 1. 58. 91. 162. 253. 255. 228. 132. 85. 41.
      1. 0. 8. 7. 107. 225. 252. 255. 222. 203. 132. 6. 2. 0. 2. 14.
      153. 254. 255. 255. 232. 154. 43. 0. 1. 0. 0. 82. 217. 254. 255.
      149. 15. 3. 0. 0. 240. 251. 254. 255. 254. 253. 255. 255. 255.
      238. 105. 0. 0. 0. 0. 0. 0. 0. 0. 0. 0. 0. 0. 0. 0. 0. 0. 0. 0. 0.
      0. 0. 0. 23. 86. 202. 255. 255. 197. 63. 0. 1. 3. 1. 95. 225. 254.
      255. 253. 255. 123. 0. 1. 0. 4. 23. 160. 253. 255. 255. 251. 194.
      63. 0. 3. 0. 0. 96. 231. 253. 255. 255. 255. 128. 0. 0. 2. 0. 29.
      168. 255. 255. 254. 255. 194. 52. 1. 1. 1. 1. 14. 64. 168. 251.
      255. 253. 238. 243. 98. 0. 4. 13. 103. 203. 248. 254. 255. 236.
      184. 92. 16. 0. 1. 1. 20. 150. 251. 255. 249. 160. 39. 2. 0. 0. 2.
      0. 48. 181. 255. 255. 169. 39. 0. 1. 0. 123. 212. 253. 254. 255.
      255. 255. 253. 255. 254. 136. 3. 0. 2. 2. 3. 0. 0. 0. 0. 0. 0. 0.
      0. 0. 0. 0. 0. 0. 0. 0. 0. 1. 94. 218. 251. 254. 255. 230. 96. 0.
      0. 0. 0. 82. 203. 253. 253. 255. 254. 162. 24. 2. 0. 0. 1. 126.
      255. 255. 254. 251. 188. 72. 2. 0. 0. 4. 62. 202. 254. 255. 255.
      255. 156. 26. 2. 0. 15. 68. 179. 255. 253. 255. 252. 222. 80. 0.
      1. 0. 3. 51. 170. 253. 255. 233. 180. 135. 101. 39. 0. 0. 28. 165.
      255. 254. 253. 254. 225. 88. 1. 2. 0. 0. 41. 142. 223. 254. 246.
      216. 106. 7. 0. 0. 0. 0. 2. 56. 181. 240. 164. 73. 19. 0. 2. 1.
      87. 201. 255. 255. 254. 253. 254. 255. 255. 255. 166. 29. 1. 1. 0.
      0. 0. 0. 0. 0. 0. 0. 0. 0. 0. 0. 0. 0. 0. 0. 0. 0. 0. 95. 221.
      253. 254. 255. 255. 122. 0. 1. 3. 82. 180. 232. 254. 255. 251.
      202. 113. 24. 1. 2. 1. 6. 118. 237. 253. 255. 179. 59. 17. 0. 1.
      7. 54. 142. 224. 254. 255. 252. 232. 149. 36. 2. 0. 65. 185. 251.
      254. 255. 255. 195. 105. 31. 0. 2. 5. 27. 108. 206. 253. 252. 211.
      75. 0. 2. 3. 3. 53. 145. 222. 254. 251. 218. 184. 146. 57. 0. 0.
      2. 4. 71. 202. 255. 253. 215. 110. 21. 1. 1. 0. 0. 3. 73. 175.
      240. 255. 119. 3. 2. 0. 0. 0. 215. 251. 255. 255. 253. 255. 255.
      251. 254. 255. 190. 53. 0. 2. 0. 0. 0. 0. 0. 0. 0. 0. 0. 0. 0. 0.
      0. 0. 0. 0. 0. 0. 3. 61. 194. 246. 198. 151. 128. 59. 6. 0. 0.
      137. 244. 255. 255. 255. 240. 123. 2. 0. 1. 0. 28. 106. 199. 248.
      254. 235. 134. 22. 3. 0. 0. 1. 117. 255. 255. 252. 193. 115. 78.
      44. 4. 0. 2. 53. 195. 252. 255. 254. 254. 163. 24. 1. 3. 0. 0.
      100. 232. 247. 215. 184. 139. 43. 1. 0. 0. 0. 65. 190. 255. 252.
      201. 93. 28. 0. 1. 0. 0. 0. 78. 182. 239. 251. 232. 174. 55. 3. 1.
      0. 0. 0. 0. 77. 209. 255. 255. 150. 21. 0. 0. 0. 0. 237. 255. 251.
      255. 255. 247. 216. 185. 153. 121. 77. 21. 0. 0. 0. 4. 0. 0. 0. 0.
      0. 0. 0. 0. 0. 0. 0. 0. 0. 0. 0. 0. 0. 34. 158. 226. 108. 6. 0. 1.
      0. 35. 120. 210. 252. 255. 228. 199. 170. 73. 1. 0. 0. 2. 23. 153.
      255. 254. 227. 135. 38. 2. 0. 0. 3. 0. 89. 223. 252. 254. 138. 5.
      1. 0. 0. 0. 0. 25. 153. 227. 193. 160. 126. 77. 15. 2. 0. 3. 2.
      58. 116. 97. 64. 33. 8. 0. 0. 1. 2. 0. 36. 157. 255. 234. 155. 48.
      2. 4. 0. 3. 0. 0. 78. 162. 141. 112. 82. 48. 7. 0. 0. 0. 0. 2. 3.
      49. 176. 254. 252. 186. 57. 0. 1. 2. 0. 254. 255. 254. 225. 146.
      96. 64. 31. 1. 0. 1. 1. 0. 2. 1. 0. 0. 0. 0. 0. 0. 0. 0. 0. 0. 0.
      0. 0. 0. 0. 0. 0. 0. 1. 105. 170. 62. 2. 0. 0. 1. 37. 144. 173.
      142. 110. 90. 55. 25. 0. 2. 0. 0. 0. 0. 120. 254. 248. 203. 80. 0.
      1. 0. 0. 0. 4. 47. 143. 162. 128. 66. 11. 1. 0. 2. 0. 0. 1. 52.
      71. 37. 9. 1. 0. 1. 0. 2. 0. 0. 4. 0. 0. 0. 0. 0. 1. 0. 0. 0. 0.
      0. 74. 111. 80. 42. 11. 0. 0. 1. 0. 2. 0. 14. 18. 2. 0. 0. 0. 1.
      1. 0. 0. 0. 0. 0. 17. 139. 255. 255. 212. 89. 0. 0. 0. 0. 255.
      254. 255. 208. 65. 2. 0. 0. 0. 0. 0. 0. 0. 0. 0. 0. 0. 0. 0. 0. 0.
      0. 0. 0. 0. 0. 0. 0. 0. 0. 0. 0. 0. 3. 19. 22. 2. 0. 3. 0. 0. 5.
      29. 29. 5. 0. 1. 0. 2. 0. 2. 0. 1. 0. 4. 53. 112. 103. 71. 25. 0.
      0. 3. 0. 3. 0. 10. 20. 10. 1. 1. 0. 0. 0. 0. 0. 0. 0. 0. 0. 0. 0.
      0. 0. 0. 0. 0. 0. 0. 0. 0. 0. 0. 0. 0. 0. 0. 0. 0. 0. 0. 0. 0. 0.
      0. 0. 0. 0. 0. 0. 0. 0. 0. 0. 0. 0. 0. 0. 0. 0. 1. 0. 2. 0. 1. 0.
      114. 245. 255. 255. 119. 1. 2. 0. 0. 209. 172. 141. 105. 30. 0. 0.
      0. 0. 0. 0. 0. 0. 0. 0. 0. 0. 0. 0. 0. 0. 0. 0. 0. 0. 0. 0. 0. 0.
      0. 0. 0. 0. 0. 1. 2. 0. 0. 1. 0. 2. 0. 3. 3. 0. 1. 0. 0. 0. 0. 4.
      0. 0. 1. 0. 5. 1. 1. 0. 0. 0. 0. 0. 1. 1. 0. 1. 5. 0. 0. 0. 0. 0.
      0. 0. 0. 0. 0. 0. 0. 0. 0. 0. 0. 0. 0. 0. 0. 0. 0. 0. 0. 0. 0. 0.
      0. 0. 0. 0. 0. 0. 0. 0. 0. 0. 0. 0. 0. 0. 0. 0. 0. 0. 0. 0. 0. 0.
      0. 0. 0. 0. 2. 0. 0. 3. 0. 79. 219. 253. 255. 154. 15. 0. 4. 0.
      55. 23. 2. 0. 1. 0. 1. 0. 0. 0. 0. 0. 0. 0. 0. 0. 0. 0. 0. 0. 0.
      0. 0. 0. 0. 0. 0. 0. 0. 0. 0. 0. 0. 1. 0. 0. 1. 1. 0. 1. 0. 0. 0.
      0. 0. 0. 0. 4. 1. 1. 0. 0. 0. 0. 3. 0. 0. 0. 0. 2. 2. 1. 0. 0. 0.
      0. 0. 0. 0. 0. 2. 0. 0. 0. 0. 0. 0. 0. 0. 0. 0. 0. 0. 0. 0. 0. 0.
      0. 0. 0. 0. 0. 0. 0. 0. 0. 0. 0. 0. 0. 0. 0. 0. 0. 0. 0. 0. 0. 0.
      0. 0. 0. 0. 0. 0. 0. 0. 0. 0. 0. 1. 1. 2. 2. 0. 1. 49. 180. 255.
      253. 183. 45. 0. 0. 0. 0. 1. 1. 0. 1. 0. 0. 1. 0. 0. 0. 0. 0. 0.
      0. 0. 0. 0. 0. 0. 0. 0. 0. 0. 0. 0. 0. 0. 0. 0. 0. 0. 0. 2. 2. 0.
      2. 0. 0. 1. 0. 1. 0. 0. 3. 1. 0. 0. 0. 0. 0. 3. 0. 0. 2. 1. 0. 1.
      0. 0. 0. 0. 1. 0. 0. 0. 0. 0. 1. 2. 0. 0. 0. 0. 0. 0. 0. 0. 0. 0.
      0. 0. 0. 0. 0. 0. 0. 0. 0. 0. 0. 0. 0. 0. 0. 0. 0. 0. 0. 0. 0. 0.
      0. 0. 0. 0. 0. 0. 0. 0. 0. 0. 0. 0. 0. 0. 0. 0. 0. 0. 1. 0. 0. 1.
      1. 0. 19. 150. 252. 220. 138. 46. 3. 0. 4. 0. 2. 0. 0. 2. 4. 1. 0.
      0. 0. 0. 0. 0. 0. 0. 0. 0. 0. 0. 0. 0. 0. 0. 0. 0. 0. 0. 0. 0. 0.
      0. 0. 0. 0. 0. 0. 0. 0. 1. 0. 1. 0. 0. 0. 0. 1. 1. 0. 0. 0. 0. 0.
      1. 0. 0. 0. 0. 0. 0. 2. 2. 0. 0. 1. 0. 1. 0. 0. 0. 0. 0. 0. 0. 0.
      0. 0. 0. 0. 0. 0. 0. 0. 0. 0. 0. 0. 0. 0. 0. 0. 0. 0. 0. 0. 0. 0.
      0. 0. 0. 0. 0. 0. 0. 0. 0. 0. 0. 0. 0. 0. 0. 0. 0. 0. 0. 0. 0. 0.
      0. 0. 0. 0. 0. 0. 3. 37. 102. 196. 255. 149. 17. 0. 0. 0. 2. 0. 1.
      0. 2. 0. 0. 0. 0. 0. 0. 0. 0. 0. 0. 0. 0. 0. 0. 0. 0. 0. 0. 0. 0.
      0. 0. 0. 0. 0. 0. 0. 0. 2. 0. 0. 1. 0. 1. 2. 0. 0. 0. 1. 2. 0. 0.
      3. 1. 1. 1. 0. 0. 1. 2. 0. 4. 2. 0. 0. 0. 0. 0. 0. 1. 0. 1. 0. 0.
      1. 0. 0. 2. 0. 0. 0. 0. 0. 0. 0. 0. 0. 0. 0. 0. 0. 0. 0. 0. 0. 0.
      0. 0. 0. 0. 0. 0. 0. 0. 0. 0. 0. 0. 0. 0. 0. 0. 0. 0. 0. 0. 0. 0.
      0. 0. 0. 0. 0. 0. 0. 0. 0. 2. 3. 0. 0. 73. 206. 255. 254. 161. 25.
      0. 0. 2. 0. 2. 0. 0. 0. 1. 1. 0. 1. 0. 0. 0. 0. 0. 0. 0. 0. 0. 0.
      0. 0. 0. 0. 0. 0. 0. 0. 0. 0. 0. 0. 0. 0. 0. 0. 1. 1. 0. 0. 0. 0.
      1. 0. 0. 0. 1. 0. 1. 0. 0. 0. 0. 1. 1. 0. 0. 0. 0. 1. 2. 0. 0. 2.
      2. 0. 0. 0. 0. 0. 0. 0. 0. 0. 0. 0. 0. 0. 0. 0. 0. 0. 0. 0. 0. 0.
      0. 0. 0. 0. 0. 0. 0. 0. 0. 0. 0. 0. 0. 0. 0. 0. 0. 0. 0. 0. 0. 0.
      0. 0. 0. 0. 0. 0. 0. 0. 0. 0. 0. 0. 0. 0. 0. 2. 0. 0. 0. 39. 177.
      254. 254. 189. 55. 0. 0. 1. 0. 0. 0. 0. 0. 1. 0. 0. 1. 0. 0. 0. 0.
      0. 0. 0. 0. 0. 0. 0. 0. 0. 0. 0. 0. 0. 0. 0. 0. 0. 0. 0. 0. 0. 1.
      0. 0. 1. 1. 0. 2. 0. 2. 0. 0. 1. 0. 0. 1. 1. 0. 0. 0. 0. 1. 3. 0.
      0. 0. 0. 0. 0. 0. 0. 0. 1. 0. 1. 0. 0. 1. 2. 0. 0. 0. 0. 0. 0. 0.
      0. 0. 0. 0. 0. 0. 0. 0. 0. 0. 0. 0. 0. 0. 0. 0. 0. 0. 0. 0. 0. 0.
      0. 0. 0. 0. 0. 0. 0. 0. 0. 0. 0. 0. 0. 0. 0. 0. 0. 0. 0. 0. 3. 0.
      2. 2. 0. 11. 142. 255. 255. 220. 89. 1. 0. 0. 3. 0. 0. 0. 0. 0. 0.
      0. 0. 0. 0. 0. 0. 0. 0. 0. 0. 0. 0. 0. 0. 0. 0. 0. 0. 0. 0. 0. 0.
      0. 0. 0. 0. 0. 0. 0. 0. 0. 0. 0. 0. 0. 0. 0. 0. 0. 0. 0. 0. 0. 0.
      0. 0. 0. 0. 0. 0. 0. 0. 0. 0. 0. 0. 0. 0. 0. 0. 0. 0. 0. 0. 0. 0.
      0. 0. 0. 0. 0. 0. 0. 0. 0. 0. 0. 0. 0. 0. 0. 0. 0. 0. 0. 0. 0. 0.
      0. 0. 0. 0. 0. 0. 0. 0. 0. 0. 0. 0. 0. 0. 0. 0. 0. 0. 0. 0. 0. 0.
      0. 0. 0. 0. 0. 0. 1. 0. 0. 2. 111. 248. 255. 253. 122. 0. 0. 1. 0.
      0. 0. 0. 0. 0. 0. 0. 0. 0. 0. 0. 0. 0. 0. 0. 0. 0. 0. 0. 0. 0. 0.
      0. 0. 0. 0. 0. 0. 0. 0. 0. 0. 0. 0. 0. 0. 0. 0. 0. 0. 0. 0. 0. 0.
      0. 0. 0. 0. 0. 0. 0. 0. 0. 0. 0. 0. 0. 0. 0. 0. 0. 0. 0. 0. 0. 0.
      0. 0. 0. 0. 0. 0. 0. 0. 0. 0. 0. 0. 0. 0. 0. 0. 0. 0. 0. 0. 0. 0.
      0. 0. 0. 0. 0. 0. 0. 0. 0. 0. 0. 0. 0. 0. 0. 0. 0. 0. 0. 0. 0. 0.
      0. 0. 0. 0. 0. 0. 0. 0. 0. 0. 1. 0. 0. 0. 0. 0. 78. 213. 255. 255.
      148. 20. 0. 0. 2. 0. 0. 0. 0. 0. 0. 0. 0. 0. 0. 0. 0. 0. 0. 0. 0.
      0. 0. 0. 0. 0. 0. 0. 0. 0. 0. 0. 0. 0. 0. 0. 0. 0. 0. 0. 0. 0. 0.
      0. 0. 0. 0. 0. 0. 0. 0. 0. 0. 0. 0. 0. 0. 0. 0. 0. 0. 0. 0. 0. 0.
      0. 0. 0. 0. 0. 0. 0. 0. 0. 0. 0. 0. 0. 0. 0. 0. 0. 0. 0. 0. 0. 0.
      0. 0. 0. 0. 0. 0. 0. 0. 0. 0. 0. 0. 0. 0. 0. 0. 0. 0. 0. 0. 0. 0.
      0. 0. 0. 0. 0. 0. 0. 0. 0. 0. 0. 0. 0. 0. 0. 0. 0. 0. 0. 0. 0. 0.
      51. 189. 244. 197. 102. 17. 4. 1. 0.</_>
    <_>
      0. 0. 0. 0. 0. 0. 0. 0. 0. 0. 0. 0. 0. 0. 0. 0. 0. 0. 0. 0. 0. 0.
      0. 0. 0. 0. 0. 0. 0. 0. 0. 0. 0. 0. 0. 0. 0. 0. 0. 0. 0. 0. 0. 0.
      0. 0. 0. 0. 0. 0. 0. 0. 0. 0. 0. 0. 0. 0. 0. 0. 0. 0. 0. 0. 0. 0.
      0. 0. 0. 0. 0. 0. 0. 0. 0. 0. 0. 0. 0. 0. 0. 0. 0. 0. 0. 0. 0. 0.
      0. 0. 0. 0. 0. 0. 0. 0. 0. 0. 0. 0. 0. 0. 0. 0. 0. 0. 0. 0. 0. 0.
      0. 0. 0. 0. 0. 0. 0. 0. 0. 0. 0. 2. 14. 86. 195. 253. 255. 210.
      65. 1. 0. 0. 2. 0. 0. 0. 0. 0. 0. 0. 0. 0. 0. 0. 0. 0. 0. 0. 0. 0.
      0. 0. 0. 0. 0. 0. 0. 0. 0. 0. 0. 0. 0. 0. 0. 0. 0. 0. 0. 0. 0. 0.
      0. 0. 0. 0. 0. 0. 0. 0. 0. 0. 0. 0. 0. 0. 0. 0. 0. 0. 0. 0. 0. 0.
      0. 0. 0. 0. 0. 0. 0. 0. 0. 0. 0. 0. 0. 0. 0. 0. 0. 0. 0. 0. 0. 0.
      0. 0. 0. 0. 0. 0. 0. 0. 0. 0. 0. 0. 0. 0. 0. 0. 0. 0. 0. 0. 0. 0.
      0. 0. 0. 0. 0. 0. 0. 0. 0. 0. 0. 0. 0. 0. 0. 0. 0. 2. 0. 3. 31.
      176. 255. 252. 182. 37. 4. 0. 0. 0. 0. 0. 0. 0. 0. 0. 0. 0. 0. 0.
      0. 0. 0. 0. 0. 0. 0. 0. 0. 0. 0. 0. 0. 0. 0. 0. 0. 0. 0. 0. 0. 0.
      0. 0. 0. 0. 0. 0. 0. 0. 0. 0. 0. 0. 0. 0. 0. 0. 0. 0. 0. 0. 0. 0.
      0. 0. 0. 0. 0. 0. 0. 0. 0. 0. 0. 0. 0. 0. 0. 0. 0. 0. 0. 0. 0. 0.
      0. 0. 0. 0. 0. 0. 0. 0. 0. 0. 0. 0. 0. 0. 0. 0. 0. 0. 0. 0. 0. 0.
      0. 0. 0. 0. 0. 0. 0. 0. 0. 0. 0. 0. 0. 0. 0. 0. 0. 0. 0. 0. 0. 0.
      0. 0. 1. 0. 0. 81. 213. 255. 255. 133. 5. 0. 0. 3. 0. 1. 2. 0. 0.
      0. 0. 0. 0. 0. 0. 0. 0. 0. 0. 0. 0. 0. 0. 0. 0. 0. 0. 0. 0. 0. 0.
      0. 0. 0. 0. 0. 0. 0. 0. 0. 0. 0. 0. 0. 0. 0. 0. 0. 0. 0. 0. 0. 0.
      0. 0. 0. 0. 0. 0. 0. 0. 0. 0. 0. 0. 0. 0. 0. 0. 0. 0. 0. 0. 0. 0.
      0. 0. 0. 0. 0. 0. 0. 0. 0. 0. 0. 0. 0. 0. 0. 0. 0. 0. 0. 0. 0. 0.
      0. 0. 0. 0. 0. 0. 0. 0. 0. 0. 0. 0. 0. 0. 0. 0. 0. 0. 0. 0. 0. 0.
      0. 0. 0. 0. 0. 0. 0. 0. 0. 1. 1. 95. 238. 255. 230. 89. 0. 0. 1.
      1. 0. 0. 1. 0. 0. 0. 0. 0. 0. 0. 0. 0. 0. 0. 0. 0. 0. 0. 0. 0. 0.
      0. 0. 0. 0. 0. 0. 0. 0. 0. 0. 0. 0. 0. 0. 0. 0. 0. 0. 0. 0. 0. 0.
      0. 0. 0. 0. 0. 0. 0. 0. 0. 0. 0. 0. 0. 0. 0. 0. 0. 0. 0. 0. 0. 0.
      0. 0. 0. 0. 0. 0. 0. 0. 0. 0. 0. 0. 0. 0. 0. 0. 0. 0. 0. 0. 0. 0.
      0. 0. 0. 0. 0. 0. 0. 0. 0. 0. 0. 0. 0. 0. 0. 0. 0. 0. 0. 0. 0. 0.
      0. 0. 0. 0. 0. 0. 0. 0. 0. 0. 0. 0. 0. 0. 4. 0. 3. 37. 138. 227.
      200. 62. 3. 1. 3. 0. 1. 2. 0. 0. 0. 0. 0. 0. 0. 0. 0. 0. 0. 0. 0.
      0. 0. 0. 0. 0. 0. 0. 0. 0. 0. 0. 0. 0. 0. 0. 0. 0. 0. 0. 0. 0. 0.
      0. 0. 0. 0. 0. 0. 0. 0. 0. 0. 0. 0. 0. 0. 0. 0. 0. 0. 0. 0. 0. 0.
      0. 0. 0. 0. 0. 0. 0. 0. 0. 0. 0. 0. 0. 0. 0. 0. 0. 0. 0. 0. 0. 0.
      0. 0. 0. 0. 0. 0. 0. 0. 0. 0. 0. 0. 0. 0. 0. 0. 0. 0. 0. 0. 0. 0.
      0. 0. 0. 0. 0. 0. 0. 0. 0. 0. 0. 0. 0. 0. 0. 0. 0. 0. 0. 0. 0. 5.
      0. 0. 95. 235. 227. 151. 46. 0. 0. 1. 1. 1. 0. 0. 0. 0. 0. 0. 0.
      0. 0. 0. 0. 0. 0. 0. 0. 0. 0. 0. 0. 0. 0. 0. 0. 0. 0. 0. 0. 0. 0.
      0. 0. 0. 0. 0. 0. 0. 0. 0. 0. 0. 0. 0. 0. 0. 0. 0. 0. 0. 0. 0. 0.
      0. 0. 0. 0. 0. 0. 0. 0. 0. 0. 0. 0. 0. 0. 0. 0. 0. 0. 0. 0. 0. 0.
      0. 0. 0. 0. 0. 0. 0. 0. 0. 0. 0. 0. 0. 0. 0. 0. 0. 0. 0. 0. 0. 0.
      0. 0. 0. 0. 0. 0. 0. 0. 0. 0. 0. 0. 0. 0. 0. 0. 0. 0. 0. 0. 0. 0.
      0. 0. 0. 0. 1. 0. 0. 8. 144. 255. 254. 208. 69. 5. 0. 2. 0. 0. 4.
      0. 0. 0. 0. 0. 0. 0. 0. 0. 0. 0. 0. 0. 0. 0. 0. 0. 0. 0. 0. 0. 0.
      0. 0. 0. 0. 0. 0. 0. 0. 0. 0. 0. 0. 0. 0. 0. 0. 0. 0. 0. 0. 0. 0.
      0. 0. 0. 0. 0. 0. 0. 0. 0. 0. 0. 0. 0. 0. 0. 0. 0. 0. 0. 0. 0. 0.
      0. 0. 0. 0. 0. 0. 0. 0. 0. 0. 0. 0. 0. 0. 0. 0. 0. 0. 0. 0. 0. 0.
      0. 0. 0. 0. 0. 0. 0. 0. 0. 0. 0. 0. 0. 0. 0. 0. 0. 0. 0. 0. 0. 0.
      0. 0. 0. 0. 0. 0. 0. 0. 0. 0. 1. 0. 0. 50. 180. 255. 255. 166. 23.
      0. 0. 0. 3. 0. 0. 3. 0. 0. 0. 0. 1. 0. 0. 0. 0. 0. 0. 0. 0. 0. 0.
      0. 0. 0. 0. 0. 0. 0. 0. 0. 0. 0. 0. 0. 0. 0. 0. 0. 0. 0. 0. 0. 0.
      0. 0. 0. 1. 0. 2. 1. 0. 0. 2. 0. 1. 0. 0. 0. 0. 0. 1. 0. 0. 1. 0.
      1. 0. 1. 3. 1. 0. 0. 0. 0. 1. 0. 2. 0. 0. 0. 1. 0. 0. 2. 0. 0. 1.
      0. 0. 0. 1. 0. 1. 1. 0. 5. 0. 0. 0. 2. 0. 1. 0. 0. 0. 1. 0. 0. 2.
      0. 1. 1. 0. 1. 0. 1. 0. 2. 0. 0. 0. 3. 0. 0. 1. 1. 0. 3. 95. 230.
      255. 254. 122. 3. 0. 1. 0. 0. 0. 0. 0. 1. 1. 0. 6. 0. 0. 2. 0. 0.
      0. 0. 0. 0. 0. 0. 0. 0. 0. 0. 0. 0. 0. 0. 0. 0. 0. 0. 0. 0. 0. 0.
      0. 0. 0. 0. 0. 0. 0. 0. 0. 0. 3. 0. 0. 0. 3. 0. 3. 0. 0. 0. 0. 0.
      4. 0. 0. 3. 0. 0. 1. 1. 0. 0. 0. 2. 1. 1. 0. 1. 0. 0. 2. 0. 3. 1.
      0. 1. 0. 0. 0. 2. 0. 2. 1. 0. 0. 0. 0. 0. 0. 2. 3. 0. 0. 0. 0. 1.
      2. 0. 1. 1. 0. 0. 3. 0. 0. 4. 0. 0. 1. 0. 0. 1. 1. 1. 0. 0. 0. 0.
      0. 0. 0. 76. 201. 249. 213. 72. 0. 1. 0. 1. 0. 3. 0. 0. 3. 0. 0.
      0. 5. 0. 0. 0. 0. 0. 0. 0. 0. 0. 0. 0. 0. 0. 0. 0. 0. 0. 0. 0. 0.
      0. 0. 0. 0. 0. 0. 0. 0. 0. 0. 0. 0. 0. 0. 4. 0. 0. 0. 3. 1. 0. 3.
      0. 0. 0. 0. 0. 0. 2. 0. 0. 0. 3. 0. 0. 0. 5. 0. 2. 0. 0. 0. 4. 0.
      4. 1. 0. 2. 0. 0. 0. 1. 0. 0. 0. 0. 0. 0. 0. 1. 4. 0. 0. 0. 0. 0.
      0. 0. 1. 1. 2. 0. 0. 0. 0. 0. 4. 0. 0. 2. 1. 1. 0. 2. 0. 0. 0. 0.
